svm_type c_svc
kernel_type rbf
gamma 0.05
nr_class 2
total_sv 195
rho 0.25
label 1 -1
nr_sv 90 105
SV
1.0 3:1562.9844626151526 4:1919.5519630783594 5:2011.2580685110765 6:1863.9009874209726 7:2150.1216940842296 8:2646.954743999734 9:2624.916747622918 10:2973.7014372196822 11:3257.4453832652125 12:3387.102339348594 13:3963.635924039492 14:4414.8650466379 15:4859.696921504462 16:5111.513143738921 17:5892.367578282737 18:6432.463755954461 19:7343.59968738927 20:8279.648711274336 
1.0 3:1704.2508963326657 4:1782.4717584484108 5:1442.1010649841908 6:2023.9310203926173 7:1929.4177894717254 8:2272.639121621071 9:2660.4386924976798 10:2684.1877685282393 11:2894.7243536581987 12:3375.3317247488735 13:3787.341883348273 14:4307.359293526336 15:4433.445350713096 16:5235.968922653636 17:5580.487654069955 18:6248.782857046191 19:7080.900198524911 20:7811.930398227156 
1.0 3:6837.624864656439 4:6598.447715350897 5:6939.799615736579 6:6782.165581150582 7:7062.576576078248 8:7278.332270135484 9:7343.103131085219 10:7471.516089215702 11:7564.656821174823 12:8167.965176022488 13:8294.35693006971 14:8437.43320947451 15:8934.51979588919 16:9360.497258499017 17:9930.303613993785 18:10511.121197026336 19:11273.383325646862 20:12169.046998645048 
1.0 3:6566.24237183055 4:6326.137087164811 5:6409.678981447884 6:6966.109260988866 7:6512.8231225637255 8:7208.035332047038 9:6856.9033403627045 10:7275.798186121376 11:7462.7818047948585 12:7727.625034612548 13:7809.716539142987 14:8324.148829503863 15:8564.280531162658 16:9018.657389966316 17:9502.960499428307 18:10022.679098133689 19:10829.855939731791 20:11554.089730726495 
1.0 3:7788.354852065898 4:7553.799537170452 5:8337.91713292018 6:7754.109951644076 7:7694.820245406286 8:7842.309894698271 9:8134.335207701891 10:8506.562928029107 11:8534.868015829952 12:8779.993648185515 13:9099.68326733455 14:9289.30195451082 15:9615.457652379699 16:10122.227591919898 17:10737.78454897976 18:11370.919010778662 19:12044.058173153506 20:12793.228236335433 
1.0 3:7826.419970461934 4:7988.815239829337 5:7399.191062013707 6:7889.633704437717 7:8316.651343618587 8:8200.77481629437 9:8312.731704242735 10:8759.652615006267 11:8772.519130977287 12:8824.030846879887 13:9416.045711965313 14:9873.766484865224 15:9834.623649143596 16:10340.86890475054 17:10839.629603975029 18:11485.491415807415 19:12259.121006993179 20:12920.723226569078 
1.0 3:3912.0546731610766 4:4246.622913400897 5:4832.601610813537 6:4449.212923402531 7:4615.703962601633 8:4495.932925632223 9:4998.734184821678 10:4840.851185526004 11:5444.413748332908 12:5596.463571692887 13:5897.7380287245305 14:6116.857426029876 15:6640.387406283332 16:7123.445337353204 17:7563.506066341258 18:7932.9815921322715 19:8763.728395849357 20:9554.631978332194 
1.0 3:3079.172174364595 4:3412.041919146825 5:3261.624155118786 6:3706.570912819506 7:3502.9839143966524 8:3689.4872741263443 9:4216.06560442103 10:4192.048438650845 11:4204.224770540679 12:4684.206133002478 13:4806.960688034765 14:5120.69262955518 15:5481.010682041918 16:5933.218294951365 17:6462.509329890534 18:7029.066704929697 19:7778.419378958304 20:8539.716776048333 
1.0 3:1389.7388701375446 4:912.382117668158 5:1577.1667406555464 6:1234.9989407017733 7:1640.6161557625076 8:1603.3521041357567 9:2013.7927287165157 10:2349.159826395944 11:2448.6528561109385 12:2792.1870770370933 13:3235.4919310644864 14:3756.9417291217633 15:4245.0941503709955 16:4819.571831327237 17:5326.61848464925 18:5870.131868151968 19:6709.649966323409 20:7611.595986251604 
1.0 3:5851.725175789464 4:6109.988478409597 5:5894.969229481304 6:5860.86495804012 7:6622.012503914268 8:6138.778383898012 9:6387.224443390605 10:6769.509118902009 11:6796.90058416878 12:7051.503043322095 13:7359.480126495641 14:7557.100764032552 15:8152.62568718605 16:8438.05833605489 17:8813.950932543055 18:9395.534562915342 19:10001.894648920916 20:10816.184794727033 
1.0 3:7213.088443084298 4:7070.727196502676 5:6910.592275482138 6:7435.475338957829 7:7625.788050116955 8:7774.64012625554 9:8150.952179322211 10:8098.354154079981 11:8263.794335848406 12:8413.836618519865 13:8662.530796799572 14:9122.675173762322 15:9639.475147087682 16:10087.665122658418 17:10546.581178038046 18:11100.172139808703 19:11859.77873230858 20:12531.17808795763 
1.0 3:6413.073646888571 4:6104.434883287802 5:6603.766212200462 6:6833.811681672514 7:6202.470165200048 8:6363.346463903608 9:6794.641679513532 10:6932.306420332398 11:6989.150281414841 12:7529.486711575457 13:7678.240587818917 14:8093.447578674665 15:8400.171916340734 16:8612.442199889249 17:9021.991384606907 18:9720.960980221205 19:10134.124956551857 20:11065.279343442831 
1.0 3:5479.3389628997265 4:6609.656147234907 5:6415.71816859149 6:6642.06710390514 7:6746.355887346468 8:6703.600165378645 9:6531.2196779758415 10:6872.785809152746 11:6876.408222962259 12:7140.559580678054 13:7486.126192877163 14:7762.143669710134 15:8236.326803202985 16:8577.417261841878 17:8991.333291332783 18:9484.73257715387 19:10350.935394285367 20:11027.732492258088 
1.0 3:2136.5695142715554 4:2512.007070645133 5:2407.7763625682223 6:2790.677173713222 7:3203.395909038861 8:2887.2924549189793 9:3121.1657905029533 10:3185.295281185659 11:3283.713058396805 12:3530.469624230654 13:3945.7926289655506 14:4328.588309513015 15:4542.726994772121 16:5028.128907080189 17:5499.527414720479 18:6025.352454705711 19:6839.485693849657 20:7598.424487634393 
1.0 3:1073.516489878998 4:321.0298679903828 5:1905.9381029253939 6:1191.4596503304467 7:1431.3806144351913 8:2170.910227451597 9:2121.469425204949 10:2263.783506084047 11:2722.7017565126057 12:3102.023945607731 13:3474.2589806407514 14:3555.971778597994 15:4321.2208553705805 16:4585.2934797366925 17:5188.608870628276 18:5743.545930452943 19:6740.72111663163 20:7453.604582285996 
1.0 3:3517.00012930884 4:2852.4229801978836 5:3209.818147814656 6:3483.1230025188497 7:3552.7561392915372 8:3742.2069600119517 9:4087.4498961277613 10:3906.51463795843 11:4293.328263817731 12:4285.206237883327 13:4736.92197516615 14:5005.575240360689 15:5438.031560318749 16:5700.6346426502905 17:6487.618544781264 18:7051.338664839979 19:7631.070033199275 20:8510.562882851387 
1.0 3:2334.828898392723 4:2580.156903174886 5:2394.139803707408 6:2553.392282930312 7:2874.994418744299 8:2934.3132330040007 9:3280.529427922921 10:3161.8745780936188 11:3218.9721771558497 12:3957.406535527657 13:4051.0678706995513 14:4332.3058704953455 15:4662.697067848474 16:5153.555120355606 17:5652.167167896117 18:6081.038010761681 19:6825.50826155853 20:7644.1727062163845 
1.0 3:5926.723191154452 4:6084.724385438937 5:6211.286203211814 6:6263.205289013105 7:6459.900749528455 8:6441.04369378839 9:7005.10616128395 10:7063.193717404424 11:7052.067818235422 12:6991.973082594429 13:7596.732719899769 14:7895.053204627428 15:8246.981262210706 16:8651.196902995503 17:9113.092339645003 18:9680.628508047732 19:10310.82248999452 20:11044.223145443919 
1.0 3:5795.060641189696 4:6391.635220425137 5:6606.486044235145 6:6257.9193298985165 7:6546.919815287908 8:6619.504941339245 9:6781.213886984372 10:6950.094121045122 11:7282.705097262286 12:7242.022066364268 13:7272.298738180541 14:7848.886624168802 15:8096.977589391398 16:8661.383390618425 17:8968.956142947183 18:9452.993372127834 19:10103.887299699285 20:10941.331434392643 
1.0 3:7031.123050874018 4:6260.255444770904 5:7626.159604055846 6:7514.910436656827 7:7459.8345378795375 8:7497.453214301937 9:7871.746442047474 10:7543.306438112204 11:7909.397433411388 12:8197.3159379985 13:8649.09759943203 14:8933.38531776192 15:9203.945151516049 16:9710.504544477719 17:10075.02630274966 18:10664.628047147535 19:11379.872700243128 20:11978.335402525083 
1.0 3:6748.150985346368 4:7176.594854857117 5:7436.004210597859 6:7555.9469465471775 7:7537.205000413213 8:7407.840505248056 9:7521.213269426097 10:7715.633302782219 11:8085.334113535515 12:8389.477415121773 13:8626.19241979022 14:8714.532265603475 15:8932.370099742731 16:9414.175451853167 17:9957.640380084998 18:10330.039841835089 19:11090.602454729074 20:11720.134956211574 
1.0 3:2578.7324584922717 4:2364.2279121353686 5:3525.5898528732237 6:2684.8023454202316 7:2624.8005627428224 8:3049.661316542738 9:3186.4724935638983 10:3368.9786142774997 11:3500.399061974485 12:3765.253601028054 13:4093.99397901352 14:4644.609911695614 15:4756.313965025403 16:5425.0898319033295 17:5889.138607925689 18:6401.354004382131 19:7271.723476694308 20:8046.172665878952 
1.0 3:2674.215544591532 4:2604.6472909957474 5:3697.270974782974 6:3306.5651770097907 7:2646.8241939881505 8:3221.659808382412 9:3724.306077771222 10:3777.962148546816 11:3924.605458170721 12:3832.1799176731997 13:4496.437411191425 14:4535.75925978868 15:4976.491995724765 16:5574.238662917874 17:5868.494445716629 18:6399.880634609272 19:7096.905902202729 20:7959.962118681759 
1.0 3:4974.93845839005 4:4557.298051947089 5:5511.595475685221 6:4854.338447199851 7:5551.629041602754 8:5606.621046200452 9:5324.819445897989 10:5485.761260925401 11:6030.642960786118 12:6295.420714307188 13:6414.134827661735 14:6984.11864331414 15:7278.392944820194 16:7441.24828729785 17:7904.884689032705 18:8622.832501800398 19:9324.891719248095 20:10109.542604346652 
1.0 3:7037.5130604717015 4:7271.653174197193 5:7292.175059368019 6:7334.332913169371 7:7309.041146430541 8:7468.689198274241 9:7586.765937902979 10:7927.015154456009 11:8033.657109553772 12:8355.611403151146 13:8565.721281592541 14:8887.383087899781 15:9265.522888701034 16:9596.634509504906 17:10197.992662456387 18:10588.9267151382 19:11376.322926175508 20:11992.64113132162 
1.0 3:8054.582649603784 4:8043.8563664349385 5:8529.789738305912 6:8228.534370936546 7:8272.821789965628 8:8618.263470848311 9:8702.943200893353 10:8857.423125865093 11:8578.531100559061 12:8954.333502819298 13:9463.141367017904 14:9788.967866173698 15:10301.558938449489 16:10638.209538845995 17:11043.2819279247 18:11612.76784838431 19:12347.547547867505 20:13144.061759935055 
1.0 3:4800.900454565762 4:3293.5346410693396 5:4328.245366631774 6:3798.318327171287 7:4460.298975567439 8:4204.776356034483 9:4808.331072867697 10:4884.992170509793 11:5230.586934048226 12:5159.551870047621 13:5326.894200922755 14:5725.067149866694 15:6002.547824511835 16:6423.0909106321205 17:7036.016671502772 18:7425.027911714401 19:8072.196071586494 20:8832.865103129889 
1.0 3:4171.572544801555 4:4494.13662569543 5:4560.949596380055 6:4137.333581490432 7:4230.932965297361 8:4356.066052337177 9:4890.157809702977 10:4870.274698091691 11:5039.863987858184 12:5209.146576453501 13:5457.081919331806 14:5878.707654434787 15:6140.614288913232 16:6488.900112548751 17:7029.928426151034 18:7755.297204078398 19:8401.624390193518 20:9193.586983012523 
1.0 3:3107.8245817485176 4:3020.1850396632303 5:3906.783023780795 6:3106.0469503319437 7:3403.864520155925 8:3419.8288244552778 9:3496.558930625764 10:3333.4020115009507 11:3877.768226872035 12:4028.748450341846 13:4594.404999337085 14:4613.365150995244 15:5079.464085696794 16:5495.777933614973 17:6045.614213443623 18:6503.2654807034205 19:7086.562567495678 20:7936.99783954888 
1.0 3:3606.492075021546 4:4222.384770889036 5:2820.9823693038306 6:2760.3986035226144 7:3594.55613192021 8:3635.58870996433 9:3623.488116372255 10:4288.371204409393 11:4417.512798498564 12:4345.623940839711 13:4626.2700958554615 14:5225.556598370677 15:5622.562325147127 16:5893.754527855111 17:6438.331330741658 18:7068.59841453256 19:7813.445260081906 20:8506.153588076528 
0.25 3:5520.397925820431 4:6289.1741973548005 5:5635.84925438905 6:5927.162107690924 7:6344.2650110299355 8:6258.012020339578 9:6735.710405633495 10:6797.650637380248 11:7171.465270794708 12:7203.602213193176 13:7525.944450534447 14:7867.723929740435 15:8134.188688885528 16:8496.791427326778 17:8979.17348530533 18:9456.777143673828 19:10085.21069545427 20:11035.087779072555 
0.25 3:6851.89438235304 4:6874.999349359168 5:6742.383959057171 6:6931.839223008166 7:7130.263610953743 8:7331.697484121584 9:7216.081882563928 10:7254.563150608311 11:7939.299902797462 12:7922.705551807637 13:8138.881847077153 14:8455.709604641663 15:8763.977926415118 16:9272.863396869983 17:9623.37320041958 18:10193.736963010808 19:10790.396465765622 20:11679.824999504714 
0.25 3:3008.9466975545497 4:3069.650140302879 5:3254.0259152987824 6:3317.6073869036 7:2975.3131739390615 8:3532.8350378841715 9:3616.2785171449623 10:3610.477701132218 11:4028.769932127039 12:3971.3016598191325 13:4509.949747028015 14:4812.145408130221 15:5101.559696323236 16:5738.192636552299 17:5981.799574398764 18:6733.086150408879 19:7297.427765040125 20:8058.783969765768 
0.25 3:1077.7918649483647 4:850.9620373901782 5:2306.937811893076 6:1586.3893516850308 7:1824.026477629383 8:1841.345645821634 9:2164.629513166213 10:2529.8461774356783 11:2904.3613353908377 12:3049.4542391081136 13:3333.91306989955 14:3526.539313483519 15:3791.8932769940575 16:4360.134112579696 17:4951.937283316375 18:5461.000031692479 19:6229.968848557651 20:6788.90626469818 
0.25 3:3072.0438572027 4:2391.3807630869683 5:3750.7483352888457 6:3131.860969288573 7:3259.5208526960014 8:3687.070256952905 9:3392.605786674825 10:3820.1974253192197 11:3729.55408520834 12:4004.645124248148 13:4489.0300670864535 14:4995.230021157545 15:5185.986368374643 16:5567.796819051398 17:6074.053430030147 18:6577.095743325165 19:7338.277843779087 20:8042.346528482485 
0.25 3:6198.26751642099 4:6824.09035230711 5:6885.5923173652345 6:7005.535382198181 7:6744.21740536863 8:7122.204250958023 9:7000.637053339587 10:7648.606369140388 11:7711.777702632122 12:7887.825678743207 13:7963.763501419176 14:8298.374914068498 15:8689.506447405298 16:9040.171659036316 17:9501.613629088264 18:9893.707893923594 19:10551.863305389203 20:11340.85108924633 
0.25 3:7821.445923386514 4:8346.573758367966 5:7549.232284346543 6:7849.749346844834 7:8116.480742687346 8:8367.893026044645 9:8793.641413604613 10:8997.236551096796 11:8873.797439128093 12:9124.182363133876 13:9468.664004698987 14:9835.925590709425 15:10060.585508783286 16:10343.114053688296 17:10979.372094809283 18:11601.19192996442 19:12198.078137186747 20:13075.273074699175 
0.25 3:3934.4889633167218 4:4254.895103111008 5:4847.515747232259 6:4295.700581312708 7:4534.80622834739 8:4415.565657749421 9:4712.418697975212 10:4895.763345682088 11:5006.854013613252 12:5206.174090270271 13:5420.510094746954 14:5678.263013450274 15:6145.029809576203 16:6504.687336615025 17:7012.271892629519 18:7509.722356770452 19:8050.764631517056 20:8847.419762185373 
0.25 3:1232.2253351421423 4:358.25766899261873 5:1614.5250532308983 6:898.9305362185538 7:1611.5540111623131 8:1537.4836157633413 9:1936.6217905032604 10:1879.2972953476722 11:2246.7410358520533 12:2799.4632598002313 13:3262.598311158191 14:3418.6517830470966 15:4001.5011068522226 16:4462.013422912837 17:4993.062773069879 18:5482.574337317716 19:6198.745284084269 20:6906.5296889495585 
0.25 3:3972.835307766084 4:4206.707956629611 5:4356.631198929946 6:4554.4386604235315 7:4515.621513393944 8:4727.059373261951 9:4894.815970118324 10:4841.5489362484 11:4994.57152912325 12:5218.261079208777 13:5796.402141124804 14:6065.313449379204 15:6338.120203881519 16:6662.715093930618 17:6986.950559807917 18:7626.814513069758 19:8187.714688717231 20:8848.225589867758 
0.25 3:6212.475675604002 4:7089.007636819697 5:7007.198064507012 6:7689.85307241556 7:7801.416085851647 8:7861.517619973502 9:8149.662031882534 10:8208.300645064965 11:8349.26666014765 12:8470.645524714078 13:8697.544810876687 14:8924.014399251795 15:9198.687065776301 16:9728.400822917982 17:9978.369646030395 18:10467.444537056403 19:11230.093037385937 20:11968.947664494626 
0.25 3:7297.242854783628 4:6981.641244621427 5:7679.316570211932 6:6853.471489112317 7:7260.638335442035 8:7014.75333260484 9:7471.243805789323 10:7707.5109030493295 11:7921.698229628671 12:8120.654071418905 13:8248.778892970355 14:8700.51954366676 15:8930.280526161247 16:9316.577482721039 17:9817.448709698876 18:10307.380883522696 19:10916.330855342316 20:11668.753732327075 
0.25 3:2364.0335019118834 4:2733.8482741585435 5:2376.5743491029007 6:3275.250352022649 7:2958.689718705247 8:2996.07051158595 9:3328.026058544491 10:3286.067835168845 11:3427.713734493753 12:3731.9883818218127 13:4059.1853686086597 14:4465.5659920938215 15:4638.601316009122 16:5228.1946537340455 17:5688.1008106118725 18:6343.568020741477 19:6870.280455468219 20:7640.838083742818 
0.25 3:3820.097448152248 4:4123.382674829941 5:4745.079148244026 6:4224.800671024536 7:4137.009443558066 8:4310.225676793065 9:4454.467655113425 10:4590.001191366973 11:4963.173669559805 12:5085.566063708562 13:5318.378560816609 14:5473.050637020721 15:6063.857231817335 16:6238.7529232469215 17:6661.080170866188 18:7052.825594832383 19:7926.077012351135 20:8498.782138481605 
0.25 3:7323.516890110229 4:7828.401918001352 5:7699.897749773772 6:7216.429238548821 7:7748.168212661975 8:7888.078314620546 9:7980.727324761737 10:7865.70332332115 11:8187.325863556298 12:8778.58676604786 13:8696.675597939282 14:9086.987289658498 15:9310.601683857147 16:9794.14442137751 17:10338.365018534922 18:10807.916524598113 19:11562.169582647457 20:12168.770617480433 
1.0 3:5520.397925820431 4:6289.1741973548005 5:5635.84925438905 6:5927.162107690924 7:6344.2650110299355 8:6258.012020339578 9:6735.710405633495 10:6797.650637380248 11:7171.465270794708 12:7203.602213193176 13:7525.944450534447 14:7867.723929740435 15:8134.188688885528 16:8496.791427326778 17:8979.17348530533 18:9456.777143673828 19:10085.21069545427 20:11035.087779072555 
1.0 3:6851.89438235304 4:6874.999349359168 5:6742.383959057171 6:6931.839223008166 7:7130.263610953743 8:7331.697484121584 9:7216.081882563928 10:7254.563150608311 11:7939.299902797462 12:7922.705551807637 13:8138.881847077153 14:8455.709604641663 15:8763.977926415118 16:9272.863396869983 17:9623.37320041958 18:10193.736963010808 19:10790.396465765622 20:11679.824999504714 
1.0 3:3008.9466975545497 4:3069.650140302879 5:3254.0259152987824 6:3317.6073869036 7:2975.3131739390615 8:3532.8350378841715 9:3616.2785171449623 10:3610.477701132218 11:4028.769932127039 12:3971.3016598191325 13:4509.949747028015 14:4812.145408130221 15:5101.559696323236 16:5738.192636552299 17:5981.799574398764 18:6733.086150408879 19:7297.427765040125 20:8058.783969765768 
1.0 3:1077.7918649483647 4:850.9620373901782 5:2306.937811893076 6:1586.3893516850308 7:1824.026477629383 8:1841.345645821634 9:2164.629513166213 10:2529.8461774356783 11:2904.3613353908377 12:3049.4542391081136 13:3333.91306989955 14:3526.539313483519 15:3791.8932769940575 16:4360.134112579696 17:4951.937283316375 18:5461.000031692479 19:6229.968848557651 20:6788.90626469818 
1.0 3:3072.0438572027 4:2391.3807630869683 5:3750.7483352888457 6:3131.860969288573 7:3259.5208526960014 8:3687.070256952905 9:3392.605786674825 10:3820.1974253192197 11:3729.55408520834 12:4004.645124248148 13:4489.0300670864535 14:4995.230021157545 15:5185.986368374643 16:5567.796819051398 17:6074.053430030147 18:6577.095743325165 19:7338.277843779087 20:8042.346528482485 
1.0 3:6198.26751642099 4:6824.09035230711 5:6885.5923173652345 6:7005.535382198181 7:6744.21740536863 8:7122.204250958023 9:7000.637053339587 10:7648.606369140388 11:7711.777702632122 12:7887.825678743207 13:7963.763501419176 14:8298.374914068498 15:8689.506447405298 16:9040.171659036316 17:9501.613629088264 18:9893.707893923594 19:10551.863305389203 20:11340.85108924633 
1.0 3:7821.445923386514 4:8346.573758367966 5:7549.232284346543 6:7849.749346844834 7:8116.480742687346 8:8367.893026044645 9:8793.641413604613 10:8997.236551096796 11:8873.797439128093 12:9124.182363133876 13:9468.664004698987 14:9835.925590709425 15:10060.585508783286 16:10343.114053688296 17:10979.372094809283 18:11601.19192996442 19:12198.078137186747 20:13075.273074699175 
1.0 3:3934.4889633167218 4:4254.895103111008 5:4847.515747232259 6:4295.700581312708 7:4534.80622834739 8:4415.565657749421 9:4712.418697975212 10:4895.763345682088 11:5006.854013613252 12:5206.174090270271 13:5420.510094746954 14:5678.263013450274 15:6145.029809576203 16:6504.687336615025 17:7012.271892629519 18:7509.722356770452 19:8050.764631517056 20:8847.419762185373 
1.0 3:1232.2253351421423 4:358.25766899261873 5:1614.5250532308983 6:898.9305362185538 7:1611.5540111623131 8:1537.4836157633413 9:1936.6217905032604 10:1879.2972953476722 11:2246.7410358520533 12:2799.4632598002313 13:3262.598311158191 14:3418.6517830470966 15:4001.5011068522226 16:4462.013422912837 17:4993.062773069879 18:5482.574337317716 19:6198.745284084269 20:6906.5296889495585 
1.0 3:3972.835307766084 4:4206.707956629611 5:4356.631198929946 6:4554.4386604235315 7:4515.621513393944 8:4727.059373261951 9:4894.815970118324 10:4841.5489362484 11:4994.57152912325 12:5218.261079208777 13:5796.402141124804 14:6065.313449379204 15:6338.120203881519 16:6662.715093930618 17:6986.950559807917 18:7626.814513069758 19:8187.714688717231 20:8848.225589867758 
1.0 3:6212.475675604002 4:7089.007636819697 5:7007.198064507012 6:7689.85307241556 7:7801.416085851647 8:7861.517619973502 9:8149.662031882534 10:8208.300645064965 11:8349.26666014765 12:8470.645524714078 13:8697.544810876687 14:8924.014399251795 15:9198.687065776301 16:9728.400822917982 17:9978.369646030395 18:10467.444537056403 19:11230.093037385937 20:11968.947664494626 
1.0 3:7297.242854783628 4:6981.641244621427 5:7679.316570211932 6:6853.471489112317 7:7260.638335442035 8:7014.75333260484 9:7471.243805789323 10:7707.5109030493295 11:7921.698229628671 12:8120.654071418905 13:8248.778892970355 14:8700.51954366676 15:8930.280526161247 16:9316.577482721039 17:9817.448709698876 18:10307.380883522696 19:10916.330855342316 20:11668.753732327075 
1.0 3:2364.0335019118834 4:2733.8482741585435 5:2376.5743491029007 6:3275.250352022649 7:2958.689718705247 8:2996.07051158595 9:3328.026058544491 10:3286.067835168845 11:3427.713734493753 12:3731.9883818218127 13:4059.1853686086597 14:4465.5659920938215 15:4638.601316009122 16:5228.1946537340455 17:5688.1008106118725 18:6343.568020741477 19:6870.280455468219 20:7640.838083742818 
1.0 3:3820.097448152248 4:4123.382674829941 5:4745.079148244026 6:4224.800671024536 7:4137.009443558066 8:4310.225676793065 9:4454.467655113425 10:4590.001191366973 11:4963.173669559805 12:5085.566063708562 13:5318.378560816609 14:5473.050637020721 15:6063.857231817335 16:6238.7529232469215 17:6661.080170866188 18:7052.825594832383 19:7926.077012351135 20:8498.782138481605 
1.0 3:7323.516890110229 4:7828.401918001352 5:7699.897749773772 6:7216.429238548821 7:7748.168212661975 8:7888.078314620546 9:7980.727324761737 10:7865.70332332115 11:8187.325863556298 12:8778.58676604786 13:8696.675597939282 14:9086.987289658498 15:9310.601683857147 16:9794.14442137751 17:10338.365018534922 18:10807.916524598113 19:11562.169582647457 20:12168.770617480433 
1.0 3:3153.8293122024374 4:3158.4603782755453 5:4312.444431355041 6:2686.0364342845905 7:3070.733966374727 8:3061.764609137158 9:3096.511465015796 10:2887.844375892769 11:2967.132563090213 12:3367.4805373787613 13:3376.0728671808156 14:3572.1874768745542 15:3731.009676339266 16:3998.9998674116223 17:4073.199687375584 18:4161.945826037455 19:4949.237345779324 20:5188.783931196197 
1.0 3:2894.9080007071266 4:3218.441859787191 5:2823.628515374833 6:3130.6538045181533 7:2877.8128141465468 8:3384.002786584298 9:3472.1783284675644 10:3179.99085400185 11:3209.3115565517846 12:3314.0665501229146 13:3639.1532588595896 14:3630.7286311070943 15:3748.177375705211 16:4289.60418181533 17:4211.731881965653 18:4487.314485154235 19:4953.712954967519 20:5303.920634264127 
1.0 3:3459.9207758736675 4:3783.432689192452 5:4322.941709060775 6:3483.000661106099 7:3964.532265502215 8:3827.0312810075206 9:3774.666086961274 10:3964.70709630181 11:4083.160243917687 12:3882.6134442421608 13:4046.4287699813895 14:4410.026987299932 15:4434.607865960574 16:4817.0045269203365 17:5058.596332632312 18:5290.22036234686 19:5471.83458214776 20:5857.982130834108 
1.0 3:3475.405190636865 4:3509.6290974616954 5:3391.9747500340704 6:2995.6960361608053 7:3300.100362660232 8:3449.464728780116 9:3258.5602865483866 10:3636.307243337679 11:3397.221526520954 12:3671.446719408689 13:3641.3320324869815 14:3975.6938843941457 15:4039.4223426685226 16:4208.547888327699 17:4521.196685349076 18:4760.655177613661 19:4943.107861549684 20:5368.192230575497 
1.0 3:1210.9863379652577 4:1866.3267342389195 5:2113.613314001378 6:1205.7653327243775 7:1072.0307482055596 8:1185.5301846014675 9:991.7868517982464 10:1719.2739066529016 11:1580.6445281105644 12:1890.0512776628486 13:1829.8436434884366 14:2005.618054074267 15:2095.109039120561 16:2571.117174921862 17:2849.2463695534643 18:2967.337835985771 19:3394.9522328507283 20:3674.194658794658 
1.0 3:1559.1508527006947 4:2081.883285614849 5:1799.1083084596937 6:1984.2835143423915 7:1879.3817055127668 8:1891.67555860653 9:1386.38388629785 10:2223.755210162894 11:1923.3333053469937 12:2106.2758073264245 13:2212.669383174917 14:2366.9395584321173 15:2359.682391148619 16:2795.7901720650475 17:2902.2248987643425 18:3116.968171730867 19:3469.6835186432413 20:3760.1847917540995 
1.0 3:2683.4435508457677 4:3335.082271653796 5:2708.644521814108 6:3179.0838285032123 7:2989.8686884745275 8:3330.2919213189944 9:3461.406936847514 10:2835.7029000851994 11:3101.289669577425 12:3295.970234308216 13:3354.2786217388316 14:3668.3272138929947 15:3532.8739730043126 16:3725.795754419726 17:4174.660361640628 18:4537.481387029202 19:4665.343683351391 20:5045.344998852716 
1.0 3:3714.5672100159486 4:4096.840655233612 5:2497.3463046945367 6:3170.0577172312865 7:3567.083129580652 8:3614.2169914447536 9:3612.3645160247966 10:3864.6655494976326 11:3853.1254509461924 12:3393.3647848391083 13:3779.4497471775785 14:3721.583077434721 15:4169.301080680978 16:4183.533973340453 17:4615.5604983375815 18:4694.411229406358 19:5122.419559421693 20:5517.464392776321 
1.0 3:3823.1158068696495 4:4065.104053926656 5:3348.045371602891 6:3917.9506085274115 7:3823.2440888043666 8:3679.866711927203 9:3826.111872245042 10:3816.506047810457 11:3781.512898800528 12:4488.1762417464015 13:4437.475518986476 14:4484.143971547861 15:4779.365768128034 16:4715.023101043297 17:4951.126657392354 18:5249.724749829291 19:5674.419790378186 20:5993.284873882681 
1.0 3:1871.2378234979356 4:2263.06056633047 5:2759.7606288040365 6:1335.6523643534179 7:2210.5321210341885 8:1664.0983320524153 9:2028.1747352213479 10:2090.529197500218 11:2250.134753210476 12:2329.7994649024786 13:2660.189993818987 14:2652.7185057790684 15:2747.072962478116 16:2867.7140404548454 17:3201.214527832797 18:3354.3860817216805 19:3609.6229047539587 20:3979.0639024993043 
1.0 3:1793.5867753683372 4:2025.1408739931142 5:2372.434189096083 6:1942.6457606938868 7:2027.016978545479 8:2120.828628470666 9:1995.143655108777 10:2437.3613958060723 11:2212.0894084334473 12:2515.7657821259704 13:2763.587727558111 14:2614.8842779197626 15:2723.5579267378794 16:2904.7562988118702 17:3365.8922693721274 18:3607.4586904380935 19:3925.502895610255 20:4230.465000606084 
1.0 3:646.1869775143122 4:552.2279650203238 5:633.1370190610146 6:647.0712777828586 7:762.8645811138816 8:831.4588570192972 9:846.4373944158996 10:789.7992357950254 11:1267.9388870452988 12:1357.0839010408358 13:1456.199370838952 14:1463.419955061185 15:1787.972947613382 16:1939.083470144941 17:2068.1748983267403 18:2489.740585002374 19:2653.236267002154 20:3151.6311356451088 
1.0 3:2090.302979950282 4:2034.0722255978674 5:1401.1378459155985 6:1661.3768206374034 7:1592.698755598124 8:1668.183712430565 9:2185.0268442028246 10:2165.8247450677227 11:1629.4668461086444 12:1918.5389347500259 13:2362.379712814729 14:2333.83433701157 15:2536.1814624977965 16:2478.1364706149693 17:3046.5698002515205 18:3200.941467034207 19:3535.105736987892 20:4023.214683194017 
1.0 3:1654.4255261033331 4:1979.5080677748563 5:1662.6915440864868 6:1644.61586767256 7:1525.636747436246 8:1575.7961217078926 9:1593.927730562412 10:1916.6659578985432 11:2036.425895725654 12:1841.5670741885353 13:2469.5538697984543 14:2411.640192086394 15:2762.0819250852533 16:2906.1205179003487 17:2808.835945233614 18:3377.9711501184515 19:3381.585824653989 20:3853.3222456108197 
1.0 3:3438.79875386833 4:3483.909036065353 5:3591.834945676583 6:3928.6011206427784 7:3397.9513631281848 8:3550.570459479164 9:3863.6389743305376 10:3737.7841092611857 11:4075.4498909039853 12:4119.640975288542 13:4147.711498311037 14:4335.2871510424675 15:4301.2617286797295 16:4543.797573653554 17:4976.303886574868 18:5000.440855503439 19:5159.638631386263 20:5481.999036707821 
1.0 3:687.5847833968917 4:1250.8435193196285 5:1313.2333797462588 6:1375.8443961998596 7:1553.2733753689693 8:1502.9649533195586 9:1095.8320967588943 10:1891.8770325185883 11:1449.0790533712534 12:1847.4387785518338 13:1957.5666539402976 14:2087.2792844729943 15:2274.731354386735 16:2493.6843396069617 17:2980.242878474627 18:3103.583193234857 19:3584.8268242353615 20:4151.750886614241 
1.0 3:1007.7742137612398 4:715.8505681688316 5:648.9081966704152 6:1183.323123668418 7:650.2737369594962 8:1008.6956085782471 9:999.4065132822482 10:1231.7659073811806 11:1216.7916048092736 12:1608.1561258051172 13:1859.2894727418868 14:1934.478736771332 15:2019.702757522319 16:2391.134207968723 17:2540.8155622537065 18:2955.1684266623224 19:3062.962363060828 20:3865.9156564948453 
1.0 3:2648.5533466936527 4:2383.3834893458584 5:1820.5758417181312 6:2421.683476984213 7:2216.8359067825077 8:2108.9074292314904 9:2410.6331698536096 10:2641.1280571061984 11:2721.1100140622957 12:2517.013895896881 13:2702.520103897174 14:2932.620870904866 15:2924.846290869924 16:3124.215488577734 17:3386.944854044907 18:3551.321990123276 19:3959.171079860888 20:4405.69415323237 
1.0 3:2271.10455918396 4:1786.8977303087256 5:1435.3571679969596 6:2488.102792604085 7:2217.3386391662575 8:2180.628610806017 9:2452.693249913894 10:2223.83431236235 11:2651.6010118872064 12:2393.002589343724 13:2487.149903740567 14:2866.4129525613494 15:2834.506142772587 16:3043.680405150204 17:3337.5656900668864 18:3617.198878420751 19:3811.424837417112 20:4185.13335364759 
1.0 3:3942.9024027815203 4:4089.8260927027018 5:3986.2070566566535 6:3911.292666418604 7:3132.9741128231462 8:3943.4488059604078 9:3827.2280022367518 10:3878.4294413434372 11:4522.303440588375 12:3996.1944762154053 13:4564.276806519624 14:4480.94133443637 15:4693.503563084704 16:5022.7461372086 17:4993.634560045346 18:5403.8137154004535 19:5658.146897638479 20:6126.904924880671 
1.0 3:3649.7061480644625 4:3557.2076569141054 5:3505.289166066804 6:3700.6438073369127 7:3306.516288553546 8:3723.3788301177965 9:3482.881321803681 10:3649.3290632628523 11:3838.848010708011 12:4008.5385333212166 13:4056.460425947447 14:4129.76495906176 15:4317.835697097642 16:4524.973518700329 17:4877.412341239323 18:4982.623923840184 19:5346.400531321355 20:5567.12848038719 
1.0 3:2547.70247115216 4:3207.5639870018695 5:2371.369180024316 6:3052.092509491394 7:2734.9680385681495 8:2998.9827043860373 9:2803.8470522189687 10:3203.488117991727 11:3127.771896271118 12:3272.3486599748467 13:3412.776233495106 14:3360.0025227294122 15:3707.033318410813 16:4076.0699827701683 17:4147.028925827496 18:4471.609812731438 19:4778.993151951462 20:5054.001480596048 
1.0 3:2201.666717827336 4:1978.8871789953928 5:1720.5944739760407 6:1891.8861823784628 7:2386.4507480384373 8:2269.0050796270802 9:2253.5707241103955 10:2299.9824609937264 11:2263.9111561814684 12:2379.1408094686144 13:2423.27675859366 14:2847.6467985334057 15:2766.2550834245353 16:3077.425235609457 17:3282.0181440320375 18:3563.7708373445926 19:3809.5252421111873 20:3932.1813810033236 
1.0 3:881.7035488112257 4:265.7625957234667 5:402.94169601919765 6:745.5942155352575 7:1136.5145271292229 8:1428.7219578429485 9:972.0143165247271 10:1306.0934061656387 11:1272.6350246414138 12:1403.3469760215585 13:1691.2921260082765 14:1654.0983028061403 15:2078.514916458035 16:2513.6846897415994 17:2406.9665163303794 18:2778.3941904010853 19:3028.3702530764836 20:3559.332448807267 
1.0 3:2758.6008219786977 4:2753.1249501759594 5:2778.804216512148 6:2317.036845875971 7:2537.773253364529 8:2979.1379389090275 9:2707.0783397344426 10:3040.0282773501885 11:2983.4485062157623 12:3194.2543196010993 13:3266.3745969129536 14:3313.5527761415597 15:3485.5024197756816 16:3700.535379012391 17:3797.163126495829 18:4233.022377230199 19:4433.403402788169 20:4710.038206011639 
1.0 3:3028.891909825628 4:3233.6755099367756 5:2677.682690791776 6:3054.9878304915205 7:3031.381422014126 8:3593.801168247327 9:3493.6817552252696 10:3223.5407823552882 11:3542.228312918182 12:3539.811933522255 13:3853.380757941359 14:3897.102418929387 15:3939.712779195509 16:4080.020314065122 17:4347.377996046341 18:4717.804489488146 19:4995.244991332631 20:5467.502982160676 
1.0 3:3131.3601073346717 4:3024.688845552101 5:2856.2233800076174 6:3392.268603228866 7:3453.745713595635 8:3610.3193646763125 9:3370.895145599582 10:3405.9291927843483 11:3506.499321018006 12:3750.062784048662 13:3632.723894788315 14:3726.197835825172 15:4149.260524900261 16:4154.842744674041 17:4466.395064515923 18:4832.6659633524405 19:5078.780052706684 20:5273.744303156348 
1.0 3:3385.280647730958 4:3968.20007389676 5:3959.733955007895 6:3182.0984416066894 7:3539.493374994566 8:3758.181806206324 9:3592.3252055456337 10:4176.717280980586 11:3860.9785958408042 12:4084.2373325029403 13:4419.222751783014 14:4149.199894344109 15:4433.502807601188 16:4792.121260995933 17:4998.775579863728 18:5263.322801854143 19:5551.022017747929 20:5773.25035689417 
1.0 3:2029.3762090652128 4:2393.658829425423 5:2639.656813102102 6:2274.4690118363837 7:2435.3656402766633 8:2737.184509162848 9:2228.016160866473 10:2433.5958752799393 11:2458.1033316816465 12:2690.737975568907 13:2739.1622869489634 14:2992.042165576528 15:3119.9133418556107 16:3371.8499936727853 17:3292.848785671139 18:3498.72503008777 19:3888.5186211293662 20:4313.060647704356 
1.0 3:3554.7810188138783 4:4363.952728954268 5:4979.748162508929 6:3844.6754567622265 7:3439.671381223645 8:3350.269497843797 9:3739.2332255510396 10:3683.9254067192815 11:3898.693118376814 12:4179.238123002971 13:4183.025475218178 14:4394.981142860146 15:4368.609437408518 16:4607.6555149659425 17:5030.550942008728 18:5133.524012099811 19:5392.665071333716 20:5895.242734345945 
-0.75 3:429.00141625074724 4:955.3818843989899 5:688.8556057216692 6:954.0148608781308 7:1049.985678392868 8:1367.9210529651593 9:1537.4366289749523 10:1843.720469689367 11:1962.3515859742606 12:2448.825833924135 13:2730.5980424504733 14:3026.972978693374 15:3108.5318367173363 16:3609.9254352042917 17:3984.9300324571946 18:4586.014533404488 19:5090.311097645163 20:5800.801089841055 
-0.75 3:2227.125804435686 4:2130.8173484067574 5:2949.2802829584834 6:2555.0877887503966 7:2628.4348157924733 8:2884.9021056628535 9:3025.1983622854295 10:3031.563058573596 11:3445.419775618779 12:3921.149939290075 13:3669.7386668995955 14:3950.938253052623 15:4538.209677992092 16:4643.808142104633 17:4784.600085643372 18:5651.340051357774 19:6301.674641378475 20:6520.183809854959 
-0.75 3:4957.85986558814 4:5430.879005536863 5:5791.325806644423 6:5163.111028156772 7:5299.345579302815 8:5807.656643291456 9:5700.354819004479 10:5767.487266695723 11:6100.340669299772 12:6179.06902279904 13:6332.924317498272 14:6549.246941807409 15:6983.190185083364 16:7407.041818600713 17:7722.26936009842 18:8151.4311772240335 19:8579.027779931088 20:9285.18025668673 
-0.75 3:4174.508460188447 4:4339.017939500208 5:5044.627509289399 6:5141.245810252187 7:4587.440774040922 8:4854.570976240449 9:5135.793095503927 10:4774.6435061510865 11:5527.882416851338 12:5750.763540107263 13:5909.274849031567 14:6121.77040254133 15:6360.207528321263 16:6541.481462214742 17:6961.636175521572 18:7458.733763325747 19:7966.64433230791 20:8421.236286723082 
-0.75 3:7569.474592776237 4:6656.452838237713 5:7050.871847247787 6:5711.195698247753 7:6409.936261978189 8:6435.473222792061 9:6780.975302288403 10:7100.40858416759 11:6809.773997524964 12:7181.137596242967 13:7573.720994027565 14:7907.798291375032 15:7992.011423506142 16:8334.333166286227 17:8731.65241871944 18:9219.329722735138 19:9800.52801129119 20:10381.02355607671 
-0.75 3:4926.911847198768 4:4728.966723031213 5:3925.188720616876 6:5591.129555307419 7:5399.899131973967 8:5455.39919589299 9:5739.815633883682 10:6005.591703699956 11:5439.498032246629 12:6011.675886741178 13:6072.654300087304 14:6305.12168319589 15:6718.640598793122 16:7123.0344604042475 17:7285.402068242629 18:7731.744201932637 19:8239.686527330035 20:8988.68748830132 
-0.75 3:6552.29829694449 4:6528.5681569538965 5:6356.109058739049 6:6625.868559877193 7:6543.415181479411 8:6789.067142771079 9:6855.364846887198 10:6832.448363854788 11:7949.026812550088 12:7354.395461062215 13:7833.26850160879 14:7783.461395527526 15:8229.538967514243 16:7283.561625407786 17:8818.603274234 18:9856.931714233368 19:8770.546482893145 20:10456.464071887212 
-0.75 3:5050.417905146726 4:4872.2858263528815 5:6378.227206263159 6:5012.121250529268 7:5148.937610715903 8:5652.992189092687 9:5230.87233489971 10:5498.758005288997 11:5926.111431018059 12:5936.25223192728 13:6255.40729688661 14:6426.531211521493 15:6814.224904429121 16:7055.457680242479 17:7455.06669034677 18:7921.788415463673 19:8339.719405908172 20:8931.058375963854 
-0.75 3:6196.604705851177 4:6558.703748287533 5:6246.970329208483 6:7084.1143467311385 7:6734.274315031066 8:6525.696778132586 9:6646.369058848793 10:6980.044716620895 11:7144.436892356763 12:7518.380304432511 13:7548.594397348503 14:7705.0836125347705 15:8067.392469789954 16:8487.66494393785 17:8847.679888453202 18:9186.102061764075 19:9847.357910400451 20:10425.077092887776 
-0.75 3:4784.8967075164455 4:4671.383020676931 5:5080.013580084041 6:5288.091924313714 7:5773.861187189902 8:5545.934381495141 9:5943.55004423085 10:6158.676610806781 11:5974.264436344018 12:6226.382898036839 13:6110.264756927908 14:6518.947443370716 15:6652.874692112049 16:7013.004911878151 17:7363.789887389627 18:8049.612399957428 19:8425.271938381673 20:9338.772018224263 
-0.75 3:5997.353786066997 4:5484.386565146749 5:6513.920735607806 6:6863.609199406747 7:6633.438544088209 8:7003.66220106363 9:7186.427042398128 10:6971.569930693706 11:7229.627466992571 12:7769.433980911092 13:7603.79237952446 14:7979.843042862195 15:8358.586010495384 16:8534.346665531706 17:9005.936559115471 18:9312.560896239816 19:10018.625922992835 20:10574.516934415577 
-0.75 3:5737.458849733421 4:6136.936218994352 5:5903.761735099071 6:5397.404848341797 7:5616.976578333459 8:5668.237594598306 9:5880.912013983919 10:6004.276650690623 11:6405.005297394533 12:6295.780375191162 13:6458.490939390843 14:6723.640112422365 15:7107.940671012029 16:7508.706154358891 17:7837.556353013315 18:8275.660082935556 19:8793.615740307816 20:9411.697274590048 
-0.75 3:6799.507444862001 4:6768.87932812595 5:6116.361256697915 6:6747.465658481816 7:6768.11879856525 8:6495.627184588954 9:6861.938535907971 10:6959.530062859949 11:7237.753405255323 12:7392.991899554014 13:7781.866230087197 14:7969.237325241289 15:8214.710288882074 16:8544.838643538673 17:8876.76029331247 18:9494.372665675572 19:9842.128485893989 20:10641.966850299154 
-0.75 3:4888.658913658942 4:4905.681241870848 5:4463.4866140033555 6:4787.928533371653 7:4528.295006999921 8:4698.07394135022 9:5108.157734585802 10:5210.23993369439 11:5188.220231246939 12:5492.680929879288 13:5559.438955676028 14:5865.907136012042 15:5902.637155973385 16:6303.929565760042 17:6904.03667567912 18:7324.590333857252 19:7814.543886705447 20:8437.856128743013 
-0.75 3:5174.292043192425 4:5549.307539010262 5:5640.32760236038 6:5125.075865392023 7:5136.356385729725 8:5482.792893288006 9:5662.551710645763 10:5646.813194843217 11:5720.255047802561 12:5897.483729159441 13:6075.281386354373 14:6321.5558751648 15:6609.278337663235 16:7032.532039028408 17:7371.054064794405 18:7825.99858231337 19:8277.379450133552 20:8909.275883882128 
-0.75 3:996.7597472608824 4:71.64721808666393 5:738.761418219634 6:308.34062021605246 7:618.7349419725768 8:300.13723660409187 9:595.169140203218 10:392.37959386386643 11:452.7170487509172 12:472.5649180621744 13:487.96272270388374 14:313.8702101579563 15:279.4556567250419 16:440.7828787769257 17:533.2750560460078 18:437.5061153321707 19:520.5465091374577 20:528.5232929685767 
-0.75 3:1067.3720166533058 4:689.1580276118215 5:543.4761337092459 6:515.960542686314 7:1017.9579188889685 8:700.2286613245651 9:505.4780218124834 10:151.40449333272025 11:387.8501775104561 12:407.1084562393621 13:546.6708976656959 14:519.1847171397549 15:266.15767056687133 16:277.4493876900784 17:428.7428942548981 18:439.3846774525567 19:458.4684361287514 20:514.9524695495047 
-0.75 3:560.2282745122491 4:502.58085284981956 5:145.92660617025373 6:401.58320805717483 7:534.9579409015479 8:125.7558699724856 9:696.5223212376268 10:193.8066697763444 11:400.49454177799197 12:260.10879997969005 13:143.8270649419799 14:413.2232655467708 15:399.9743787098327 16:484.48580641880824 17:396.65342391714915 18:340.6122598078813 19:524.4894774247183 20:581.8443370165928 
-0.75 3:214.44653548942952 4:468.18092907666124 5:246.24511640445618 6:313.9759859035664 7:167.3336795214747 8:168.54379544669635 9:176.5053456043462 10:262.65258391435725 11:175.2652652069572 12:101.33058877927576 13:111.48367869692825 14:190.20188875855703 15:246.8825206941666 16:187.11059524097882 17:190.36494756994023 18:259.80511428729966 19:327.2369470375753 20:288.77081147541 
-0.75 3:605.6721485723417 4:216.3143072828132 5:910.5460861696241 6:85.37865453340903 7:202.28928921792445 8:330.5961392215931 9:454.21855488648777 10:203.48096543744072 11:594.7564259920099 12:397.08332018779987 13:225.95080329370623 14:379.1666852320134 15:415.3304050516772 16:381.50548459933117 17:536.6645639081013 18:449.79423536144026 19:411.49906185243265 20:597.1478467070792 
-0.75 3:1013.2237680203743 4:869.2292748446957 5:626.9382422141247 6:702.4423433022539 7:530.6536309753741 8:714.1944889815604 9:324.4354459451313 10:519.8384886822612 11:196.86766799765078 12:326.3882617592706 13:616.7365336490029 14:627.4991116479408 15:452.65484594370713 16:591.4236957390552 17:551.3387923487604 18:588.5876804159041 19:676.5097912015749 20:559.2671492691946 
-0.75 3:141.2435360585877 4:592.1377552286062 5:238.89747683149469 6:162.2281560806427 7:262.28118088752035 8:266.52079224706836 9:246.1833234359458 10:141.27783441194782 11:259.67960070892565 12:193.63658220699173 13:157.40593817181357 14:295.5290274541182 15:288.0030251494811 16:304.4171296894378 17:260.4124288585596 18:254.63530078654773 19:253.6570722622174 20:507.75115055324153 
-0.75 3:336.60510019675365 4:621.3261959012639 5:207.03178576440246 6:247.3407907909192 7:87.2096763523887 8:174.86391414123074 9:308.55708090959865 10:186.66992200025885 11:217.39885481097684 12:226.2219039887842 13:335.6619238088236 14:207.76042408714565 15:134.15058332505865 16:245.02205509200218 17:321.4717826461847 18:198.3424657714444 19:429.5512807217992 20:403.2693422729215 
-0.75 3:367.5768500193523 4:275.37927531175467 5:604.8316536240123 6:520.2948573101162 7:34.555307429908474 8:498.82041265532763 9:376.80518504130816 10:223.76784193956163 11:301.66122409478106 12:482.40933304320487 13:474.12572166284866 14:379.8190466597693 15:301.45719536187664 16:349.998801511076 17:317.658206554597 18:469.94653668541815 19:476.2353700868729 20:658.2010356083006 
-0.75 3:569.3332564589065 4:562.7703606694041 5:427.3735837478986 6:224.96551110925313 7:482.46362011840245 8:473.1138575423452 9:406.9571147081261 10:515.8680482074253 11:337.0301190725081 12:549.6162814178886 13:332.6133853939066 14:322.10657782160837 15:439.6078093240929 16:366.0374971938963 17:488.0500645946379 18:460.643359710135 19:383.472592341784 20:529.3792333496116 
-0.75 3:483.68671332756327 4:510.4879957464966 5:272.5398272461906 6:361.59822979534727 7:635.2044810504441 8:615.071485317031 9:461.08322112043237 10:510.61407584177124 11:172.90962500524003 12:435.46297700552554 13:504.6194607736079 14:526.1103297164091 15:469.28965510507624 16:387.72135360168915 17:454.78089055697774 18:544.8220668841213 19:494.4514570020869 20:549.8809073800945 
-0.75 3:1870.7565276839282 4:873.4491695040533 5:878.2780287615216 6:801.8630717926266 7:559.3108431677111 8:504.3599841769313 9:133.36811385698323 10:422.6661909670328 11:196.1572294814407 12:262.9276985828782 13:148.60392438406703 14:149.37571536871502 15:427.92684340507907 16:224.94832027013504 17:257.21601393651883 18:345.02013647517236 19:292.8422725932526 20:522.7976190176316 
-0.75 3:805.4601454110242 4:267.4630652650508 5:1183.7917124216872 6:815.5627240741863 7:683.9029471538669 8:106.97300863752025 9:523.0623539317867 10:349.8998051014021 11:98.04591081745497 12:461.41120836807187 13:166.87618824296558 14:151.26569594435622 15:241.65401586549018 16:157.12833362064177 17:234.64217176140883 18:134.79219177746697 19:112.77577425494597 20:271.9192601845069 
-0.75 3:290.7811362014599 4:662.2915349703201 5:404.18413000233716 6:514.9218154544491 7:524.9725459209212 8:127.22287789876665 9:460.43533123008416 10:264.9696933453396 11:372.60089188416606 12:174.2948336759111 13:284.418307725212 14:473.88347902932634 15:423.6668993041213 16:354.23718200380904 17:420.5857679005792 18:476.61827134698893 19:419.2242446414525 20:479.0751472528442 
-0.75 3:486.71184614421975 4:1042.983583474694 5:436.3848551290182 6:223.18602947772814 7:308.76235318228066 8:355.1075084620871 9:424.08976828046815 10:488.606449048191 11:238.18500304234692 12:309.2742544045055 13:517.3997219232326 14:293.6994458929137 15:470.53947025493846 16:437.8202494656445 17:331.29697268601575 18:342.8516455903593 19:435.5336025785434 20:543.9631357119143 
-0.75 3:3695.7520354445082 4:3999.7027744879124 5:3030.113388146588 6:3490.4919015676683 7:3535.9667465440994 8:3436.907700272575 9:3610.2498430053342 10:3794.4198154217406 11:4097.093888262409 12:4450.718816666778 13:4128.797633620177 14:4294.683125866242 15:4693.588785676177 16:4851.967475746448 17:5206.43473923452 18:5365.206221700609 19:5931.690426627216 20:6317.630674358292 
-0.75 3:1814.5668688816877 4:1528.7651357330296 5:1730.9008506415446 6:2102.7479262802776 7:1649.4857521104138 8:1902.223517145189 9:2288.6078675077656 10:2087.2208701840777 11:1944.2052360865944 12:2567.8567101261706 13:2564.327495742485 14:2891.700511136689 15:2892.0727298258894 16:3071.7579411042475 17:3471.5305504756484 18:3863.9912938398193 19:4354.882351553626 20:4825.065339809763 
-0.75 3:1536.9556420176393 4:2460.014501362418 5:2458.4169375966812 6:1538.1185521478405 7:1748.5263841476306 8:1614.7224649514753 9:1895.0135398121213 10:2056.4523212544514 11:2049.3390390237887 12:2213.0688066765874 13:2634.124015217592 14:2709.4431821565263 15:3090.8795150664682 16:3079.4458278863517 17:3572.317887015933 18:4003.983962539918 19:4370.312570122684 20:4792.745821798487 
-0.75 3:1157.9952140952064 4:1225.3260999935335 5:1107.4383043102755 6:1738.5062570022237 7:1256.753866947602 8:1471.1830181985551 9:1438.5934675669043 10:1927.644528975276 11:1776.0419869173447 12:1976.073819629868 13:2189.5875805621977 14:2328.06404503041 15:2560.7429224096163 16:2967.1334341189304 17:3183.026007953197 18:3618.798815743951 19:3828.9124151607016 20:4377.37838383822 
-0.75 3:1078.3742744642648 4:1054.9262346031385 5:2075.1782917437554 6:1053.0445308081416 7:1140.5489429367933 8:1156.4484688131004 9:1427.5463197775996 10:1973.7444188413306 11:1584.1900742490893 12:1629.941591785799 13:2053.0043727369293 14:2616.0553932671587 15:2404.6829254320132 16:2416.437781792416 17:3105.8036725239276 18:3571.2187511776856 19:3731.0883036795767 20:4166.537724783565 
-0.75 3:480.72741301340955 4:714.2062223215787 5:946.9897487302363 6:1136.8661837899017 7:1213.2261478845385 8:1041.8361668889675 9:1071.341805935661 10:1077.5500027228904 11:1805.5751075227977 12:1615.2285361870272 13:1914.9595016888327 14:2120.9361981915895 15:2326.850918524995 16:2776.331589927663 17:2861.1338547890123 18:3426.3454388164664 19:3842.3952830227677 20:4225.391727930195 
-0.75 3:758.1216744107712 4:1020.6691539552896 5:986.2484112108301 6:401.13504618362055 7:614.5787313327602 8:758.7016044966889 9:1021.8841908424031 10:877.0690342514313 11:814.3966672195281 12:1369.6541426966364 13:1471.8740586104057 14:1472.370540284417 15:1508.095105484938 16:1576.2345761521465 17:1439.2459512490964 18:1756.3427484834433 19:2062.8712560048357 20:2344.9008031750095 
-0.75 3:306.6705963232729 4:669.5206350519841 5:551.7326664412943 6:856.2101529889493 7:354.8747376287969 8:883.7543802353965 9:626.7751098477229 10:1012.9860254838775 11:1115.8951488926398 12:1433.014608514811 13:1458.5499001903072 14:1737.533621310839 15:1571.0998344810914 16:2158.583535400773 17:1894.8858689077845 18:2588.7043546241707 19:2726.969486581247 20:3239.6144465251145 
-0.75 3:494.58583772612747 4:311.7325629496919 5:452.0018193362285 6:1441.85904682253 7:704.5446014237542 8:1127.4481009840142 9:1023.2377873736856 10:1111.6325721222213 11:1405.501913447308 12:1285.096853417777 13:1387.725914204024 14:1710.6681025189544 15:1709.2490988796228 16:1819.5495462614706 17:2345.387866766309 18:2524.4643808927226 19:3042.2166683154237 20:3167.58202292765 
-0.75 3:786.2324723844639 4:483.76442953736563 5:1260.9034203814238 6:1608.7148584246995 7:1051.568994024432 8:1335.3259078870524 9:790.3445198764578 10:1005.0398106985311 11:900.3005629146369 12:578.1990656216874 13:2008.1414852546197 14:1384.5558080612752 15:938.0067496142319 16:2847.607078066252 17:1602.7291617884387 18:1569.2227019307581 19:3323.1869116913554 20:1168.2478200319304 
-0.75 3:1343.9330823471964 4:759.7068524484337 5:590.1022856166703 6:654.7739402521067 7:371.1083421303819 8:128.60389717629263 9:183.53048136227582 10:190.24819583020604 11:530.3085726647989 12:379.0405814320792 13:289.98697857721913 14:220.42933691940894 15:310.6324345464955 16:340.06142273135157 17:132.42754003985246 18:256.5960523561371 19:415.40608915523495 20:310.17728835488833 
-0.75 3:539.6702372871979 4:577.0260418488987 5:149.2933049780014 6:402.72738753546594 7:197.6234899565519 8:76.83465154328097 9:591.7635257072361 10:294.34636889032845 11:141.44190575219892 12:228.17785184570346 13:83.42071514217425 14:336.49027982700505 15:141.3022491681259 16:138.81000603688383 17:272.2601014919802 18:392.6051137391542 19:214.84612858302478 20:232.00629135668655 
-0.75 3:310.12975570890814 4:345.0466685364997 5:260.12032791227307 6:351.8848690863472 7:513.1715161226846 8:644.8511653916452 9:214.67496626445498 10:208.67305254869538 11:308.7553862723517 12:167.92737261975427 13:49.393060061609496 14:175.5247752349185 15:218.2596958964925 16:177.44720506994256 17:145.400675776583 18:348.5176710337116 19:232.45842995094384 20:179.2660641026961 
-0.75 3:1605.0376574987501 4:225.45897507139233 5:319.6027131567119 6:772.6507104375239 7:762.224399109884 8:269.73377239591093 9:892.6560380949716 10:345.544247938705 11:343.61403316735453 12:308.1799905039153 13:108.97378371822825 14:163.35359552832992 15:353.9825018155003 16:82.18752400497256 17:36.71654860973324 18:221.93641643688804 19:84.44105391161055 20:202.9082147583184 
-0.75 3:592.6112896920497 4:812.8414457395113 5:337.42578395127873 6:316.812587190015 7:294.85067479456114 8:52.09153611666615 9:244.26030542010022 10:483.04465151573703 11:147.0539362770299 12:93.00266733436308 13:84.19045991639729 14:317.42041548134074 15:268.74577665522094 16:338.02696457798527 17:280.38843806168916 18:225.90117719561067 19:315.75693312504086 20:326.77665773664586 
-0.75 3:554.6676199549859 4:977.9692190756009 5:793.7487784586073 6:491.7652311077419 7:622.3294174449264 8:840.0031399587485 9:779.6556184031056 10:526.4713875066224 11:577.1892444928984 12:1118.2550170800437 13:1104.182707901933 14:743.5876496892067 15:1469.102205130241 16:1184.95676278939 17:1272.0522439005729 18:1391.125182792195 19:1881.1740794639368 20:1203.6945054665841 
-0.75 3:817.1436503757536 4:554.5290879011579 5:183.9528759847964 6:136.19384842998704 7:125.34366268147473 8:132.24704422274175 9:346.9787217629639 10:497.4668519578677 11:158.15044585012117 12:298.1650440271127 13:66.0952563609491 14:325.2368963133982 15:164.78828773081463 16:178.26143293476878 17:204.86935590201324 18:97.93033683516994 19:61.80246696795636 20:172.8352937305602 
-0.75 3:235.6547624848731 4:230.21961900784123 5:446.05793111010996 6:406.55723505283794 7:140.32337909642013 8:377.53987928230197 9:263.2800412498852 10:155.52556212953232 11:106.09242136827551 12:181.91244538644128 13:205.33560058642394 14:185.3983218391164 15:120.39792517584848 16:92.09470983852222 17:229.29131319144403 18:207.50922759877355 19:171.26112792725803 20:229.07919004816483 
-0.75 3:262.13319911593203 4:343.93121945130054 5:122.66228282053176 6:423.13752387310075 7:599.9935105949369 8:346.98988363319404 9:376.52314165016037 10:335.7488575110671 11:181.9109145720465 12:577.8105206960153 13:55.30881405049692 14:292.0214536130345 15:55.92788676027679 16:85.23317570821501 17:294.7856410592149 18:402.1189322878997 19:295.4175148910471 20:357.2870829194654 
-0.75 3:788.6129301119128 4:389.76223510605206 5:1246.5363864373328 6:57.399584202507164 7:234.47880548046092 8:121.1872754523252 9:195.4528327680518 10:82.98168051453689 11:188.00162234286688 12:297.7943179392319 13:434.20340845289866 14:254.9294297977755 15:382.1713539759071 16:153.6162815929424 17:49.26755625974454 18:281.8817096620017 19:231.1785399860589 20:375.68882743621475 
-0.75 3:522.3564320376873 4:191.92787737903768 5:822.5942910670826 6:372.8068790947279 7:273.30802303930767 8:73.69459188874517 9:411.52875605690406 10:212.91413921200046 11:264.5761662511783 12:293.88118643099705 13:274.1098652158561 14:239.53048127004158 15:95.92290872594796 16:309.4997735355434 17:192.54450161945897 18:247.45700974395356 19:232.2575518121768 20:547.963421382775 
-0.75 3:535.4569360924753 4:933.4930702510852 5:349.81613464552174 6:719.6721073228422 7:362.2508976585886 8:369.2556268471238 9:832.2514643413165 10:449.92699003847287 11:328.45732801298954 12:411.53029951132186 13:473.63906341547545 14:304.37924799438156 15:317.3043851499485 16:251.0935500765346 17:341.35851887554696 18:279.2363138299572 19:383.9095352146134 20:270.36302680429804 
-0.75 3:271.9515489907341 4:1121.5909533651543 5:1091.9118719232342 6:486.06222721762305 7:278.9109067922501 8:226.0040144094477 9:535.4366682798428 10:196.8142159851416 11:136.61047060029722 12:352.58967410072876 13:312.59112446892897 14:248.211547141813 15:403.2763866625663 16:256.3727972320354 17:313.98253812381097 18:295.4192725044079 19:330.14067842295873 20:338.3577118676992 
-0.75 3:312.2632928667286 4:206.47203911619232 5:438.7529916380615 6:327.3810468755416 7:612.8428811415083 8:205.5907427968926 9:410.89121060906984 10:247.3201891139897 11:296.3136454318907 12:223.8290068377738 13:459.1235069445185 14:339.1520058174349 15:379.4346972038187 16:102.50476214423605 17:228.4441651486708 18:315.30082400423794 19:450.34828868918066 20:383.6183828920629 
-0.75 3:514.9174587682774 4:76.44227446364118 5:103.4524741996258 6:527.1810797303652 7:297.0264033897074 8:418.3047514856939 9:630.8294756009768 10:474.67120490680344 11:392.4527605270623 12:334.08338634626676 13:291.5682802371778 14:415.36093210344904 15:492.252432475048 16:542.9454579878706 17:507.7154473175977 18:366.70547009044685 19:495.59900563475344 20:491.1456581326916 
-0.75 3:360.07057601668464 4:28.200237473815573 5:551.2143754501675 6:158.22212081267563 7:435.41479868342714 8:495.5194155150453 9:198.33986140184192 10:160.21064378821112 11:308.2432336002124 12:133.72710547586107 13:357.22801771736533 14:225.87359594741278 15:397.6804568794488 16:310.76936959297535 17:224.96992324509148 18:420.0856773270665 19:392.31821468584013 20:308.94374554662653 
-0.75 3:531.4179178665311 4:794.3495309589478 5:653.3532818898535 6:689.1492273821157 7:296.72924548020137 8:411.38649794459934 9:294.9008397628108 10:362.6633495795781 11:234.02483871425318 12:203.3845807222523 13:274.848306265436 14:164.75181846452392 15:149.05513449391034 16:293.8819757611569 17:144.83331837824042 18:203.81771684943055 19:306.394394160774 20:166.96002141387837 
-0.75 3:347.44478914774066 4:156.61135161451912 5:717.5851358910472 6:110.1042291310653 7:837.5731745785419 8:197.74374563865697 9:477.1885815498014 10:288.6683609259636 11:199.65627859762958 12:194.83135532034746 13:289.4222269161849 14:86.2521808827923 15:212.15523457255495 16:168.26116149009664 17:318.41666434661687 18:195.07855544660833 19:427.8774784773415 20:424.4343763244725 
-0.75 3:275.3914938096941 4:904.0003942274773 5:1188.3587158623604 6:377.9287197805895 7:214.38054249063285 8:655.9839407471749 9:269.3269702312818 10:693.6314403166568 11:342.5226923482531 12:451.10472984162425 13:197.9093538837806 14:220.85058041744892 15:465.02910429993483 16:176.67627024026234 17:326.30938093068926 18:209.17135780769908 19:264.46922704415795 20:518.5570389929355 
-0.75 3:353.7866588477599 4:422.2615873201418 5:830.9277237163371 6:68.42321113586341 7:398.6026970678917 8:291.8887584819402 9:570.8419172043905 10:72.39129486993548 11:150.56647708198858 12:310.5975975502937 13:362.4075187433342 14:493.50870307677167 15:153.26334886513288 16:516.8788958535674 17:298.3524567415692 18:279.6779493869002 19:356.6700820196134 20:272.9556333626326 
-0.75 3:2469.782113443826 4:2512.592195937937 5:2521.051422939474 6:2211.716263523931 7:2673.2937656722092 8:3093.538377419253 9:3067.538844733142 10:3055.996577949264 11:2914.835500428799 12:3050.108728534331 13:2942.8690534524035 14:3256.6283718231352 15:3420.3398076940753 16:3360.638552333689 17:3899.1104461034515 18:4044.0178550778965 19:4547.529954499389 20:4884.94164925128 
-0.75 3:338.04185489205224 4:1101.947881031379 5:1312.2175903606355 6:866.7038396092033 7:528.9214808194805 8:768.3643803075754 9:1050.870439570764 10:1299.2149718520393 11:1509.866532652582 12:1687.1290434415941 13:1915.0551240832635 14:2140.917680601068 15:2420.88966835552 16:2701.5505778711354 17:2831.5364440869603 18:3447.608965208395 19:3628.200555889215 20:4314.749663374925 
-0.75 3:2875.4280747175058 4:2674.0268548618014 5:3130.9191614471156 6:2556.5257545330387 7:3040.9636971319287 8:2747.2679732284814 9:3232.1596540367273 10:3331.7916470282803 11:3023.2147143052816 12:3271.850131055059 13:3618.2017705963067 14:3765.229858840665 15:3928.298421914215 16:4127.423149815066 17:4421.612807141599 18:4844.613834492089 19:5122.458688895339 20:5725.728053712417 
-0.75 3:4386.7595384065025 4:4178.139815325646 5:3555.26573034657 6:3934.476071690306 7:3752.685218938942 8:3499.494376978624 9:3681.995813525394 10:3840.0817016828014 11:4030.7314547545834 12:4214.418856753355 13:4363.4372254626 14:4342.4597083921035 15:4758.349342226678 16:4792.560707972292 17:5161.461268709388 18:5618.088391193399 19:5812.216406359846 20:6275.550738914829 
-0.75 3:4856.789402389811 4:4052.843391053441 5:4474.8771970398975 6:4423.680928236477 7:4521.4051453315105 8:4589.934494085902 9:4758.800575338889 10:4849.980319694591 11:5196.665609309211 12:4937.348737082108 13:5396.886642341412 14:5628.683033731623 15:5550.214779469086 16:5938.224067653601 17:6048.08566196198 18:6373.005243774375 19:6829.621827884289 20:7332.629928762031 
-0.75 3:4631.128757414249 4:4428.6839685605555 5:4443.13653912504 6:4154.77009759735 7:4326.60314645949 8:4776.562498774874 9:4733.812767130259 10:5009.900175380349 11:4927.235836115095 12:4999.5489014869145 13:5081.982363742003 14:5538.7900925676895 15:5563.084489446051 16:5804.960604200671 17:6255.073893473207 18:6530.203128969671 19:6962.1340631863095 20:7425.676139674294 
-0.75 3:1986.7506248968255 4:2039.9476489059243 5:2220.732918651364 6:2032.3934580331722 7:2366.7848477268217 8:2443.231517221505 9:2391.2556099865415 10:2536.516885414445 11:2312.9126697644288 12:2680.471734221914 13:3010.882434268033 14:3240.718914358482 15:3235.9805783105044 16:3709.667626741285 17:3738.5868207229382 18:4114.149950451439 19:4325.558337241609 20:5022.703252844286 
-0.75 3:1544.2511571284322 4:434.2797963455298 5:1700.1443806951706 6:950.6414699766925 7:1130.3381964510581 8:1263.6360626210706 9:1234.573649431656 10:1655.5086980911806 11:1674.841229400262 12:1906.6324474937787 13:1847.4447179195702 14:2214.303963479228 15:2367.9619988439786 16:2755.040135357255 17:3056.229999382848 18:3416.6354126637393 19:3862.977459031175 20:4274.71724744493 
-0.75 3:1687.7747758746818 4:1706.6962866368547 5:1829.818520398847 6:1872.255444000296 7:1455.1540333823448 8:1831.9445277258549 9:2143.0575725612966 10:2105.1491341179835 11:2155.3187861299757 12:2424.8527464661715 13:2648.681779393139 14:2552.949490065109 15:2860.6389091943615 16:3101.381420306786 17:3528.789549029631 18:3695.821864751246 19:4208.260599693226 20:4658.898159119012 
-0.75 3:3781.7092758074045 4:4202.913484872256 5:3717.608333721914 6:4172.268691041575 7:4614.960962779811 8:4373.691529352439 9:4717.653852039957 10:4641.299942595132 11:4518.886276248502 12:4938.702901476494 13:5016.959744106505 14:5289.281181587114 15:5287.513587199748 16:5695.88192479669 17:5760.108803694279 18:6360.238516939221 19:6842.0199742876985 20:7056.609891296298 
-0.75 3:4085.4752511227116 4:4351.344235605351 5:3114.856454264661 6:3980.4207705650456 7:3783.6610160467117 8:4167.661893770327 9:4475.275445344947 10:4118.06055308878 11:4297.761155298319 12:4590.088247103952 13:4730.915194514639 14:4866.835461672096 15:5017.028669988047 16:5207.97470516912 17:5527.763223960058 18:5924.589017642236 19:6194.353580283363 20:6581.484392366529 
-0.75 3:4947.18495463303 4:4611.56043115392 5:5509.166695162666 6:4608.944941226595 7:4754.75472797736 8:5062.6311259289805 9:4678.848422733585 10:4942.310515461177 11:5049.549797881022 12:5232.395585421159 13:5426.441101892918 14:5598.350061653012 15:5817.555620040558 16:5885.477676726256 17:6165.387440557673 18:6581.445063123892 19:6925.226475604383 20:7504.80011888705 
-0.75 3:4125.342818274031 4:4193.521127270235 5:4357.307812957508 6:4109.3590491837995 7:3943.462745352462 8:4751.524715207252 9:4603.7680474031085 10:4849.059295402578 11:4850.214806929397 12:4842.608367769946 13:4945.090868990587 14:5027.631275053132 15:5448.847793832824 16:5734.897516313182 17:5865.991234655466 18:6074.879170889606 19:6677.4510268096865 20:7024.733565348749 
-0.75 3:4863.691513620103 4:4672.032362285603 5:4276.122489742116 6:4889.519697991261 7:5041.659249070631 8:4736.467198930982 9:4845.475268566179 10:4853.742058341015 11:5005.171451071657 12:5034.523598507178 13:5137.7539776559815 14:5302.8130003772085 15:5394.315951757813 16:5914.341265143706 17:6223.086369349419 18:6422.963500982428 19:6932.064845585392 20:7282.275234796917 
-0.75 3:3666.7700046440477 4:4173.260444346974 5:3344.8100609435255 6:3453.5861364064835 7:4025.928434180861 8:3257.831333231568 9:4155.241727395695 10:3863.0335369403165 11:4068.1950662670224 12:4086.407485055419 13:4330.610152337653 14:4510.890091749683 15:4921.744557897443 16:4909.467159245999 17:4997.041438097251 18:5327.439807217128 19:5935.425520273734 20:6292.810561079702 
-0.75 3:3302.651528638001 4:3400.4307533104534 5:3699.146064443277 6:3235.8555916860173 7:3234.0654393509617 8:3499.7143684703246 9:3418.692441572355 10:3591.631259356721 11:3684.380979939531 12:4092.583303061862 13:4023.8485110597153 14:4457.491400276696 15:4533.355313459105 16:4798.683834523434 17:5124.211607641955 18:5085.257214820871 19:5338.231473001329 20:6016.506985382569 
-0.75 3:2736.2041362585906 4:2489.5092399664286 5:3369.3890938834925 6:2929.574090648559 7:3035.116929654065 8:3051.513299294306 9:3145.2035964510633 10:3093.2928941665336 11:3413.707498482188 12:3445.6148742373775 13:3417.1233033452445 14:3686.2900645448794 15:3834.0483226125775 16:4018.2766663265656 17:4241.838441554429 18:4399.9445690230405 19:4627.055004394565 20:5174.276913041304 
-0.75 3:3782.2227513908238 4:3364.0816113561364 5:3738.37554538927 6:3669.262841804038 7:4164.770268929421 8:3984.3559614551186 9:4145.079953857501 10:3958.614525573622 11:4034.66468033214 12:4511.965720452038 13:4322.1413179540505 14:4569.339024521141 15:4635.1982502172195 16:4984.56600117924 17:5307.119967470906 18:5395.80443296216 19:5737.833134302485 20:6240.783962903004 
-0.75 3:3569.298205805216 4:3073.719219566279 5:3493.468014043832 6:2985.358609339923 7:3260.345082327565 8:3339.6660455001984 9:3367.1711905360617 10:3641.862517968711 11:3952.455552287468 12:3663.1374129917544 13:4018.3884008355535 14:4230.133764870986 15:4137.222525131069 16:4426.841530591548 17:4563.226353441985 18:4656.179700113427 19:5153.715773700589 20:5696.741554074909 
-0.75 3:3930.2140367909533 4:4185.435525880017 5:3311.2737865868353 6:3449.648498666826 7:3694.1577269446852 8:3679.5122877498884 9:3620.0683304688946 10:4173.11520309853 11:3950.8939458358886 12:3977.9336277322664 13:4278.238762206085 14:4668.144081292275 15:4718.721250188455 16:4945.42680055529 17:5112.901704786554 18:5316.019574795328 19:5543.211008169744 20:5993.59697929999 
-0.75 3:4045.5832023273288 4:4210.592813103121 5:3357.641169337515 6:3427.4736622842406 7:4156.381418268463 8:3861.1103604912423 9:3976.5011060358956 10:4254.441198260561 11:4293.196740084995 12:4210.854314925611 13:4383.02508922765 14:4555.955055643882 15:4520.193054443591 16:4741.489305300079 17:5349.702885129761 18:5484.009467877684 19:5556.624487092227 20:6202.383787260294 
-0.75 3:2086.5963826452967 4:1087.5858351219845 5:1158.3881027140399 6:2453.329379914494 7:2335.001179672929 8:2620.414778389768 9:2365.0253903089583 10:2504.1940249145814 11:2243.884804763997 12:2286.2197421864603 13:2597.6656201283554 14:2414.4353350861625 15:2873.343496901099 16:3182.765403228529 17:3346.8621205804493 18:3552.288327802595 19:3836.974072979318 20:4223.79649926922 
-0.75 3:1419.6533968218116 4:1241.3277020580233 5:1501.163605896039 6:1722.3913927267859 7:1193.0367679136334 8:1736.0513018043573 9:1699.366380820556 10:1724.1890705472604 11:1889.4535432863559 12:2014.0474287134277 13:2022.838076770148 14:2316.4456467447117 15:2443.3787657867483 16:2537.1381720372615 17:2865.263603867917 18:3030.17603333575 19:3491.85073155702 20:3718.863633468824 
-0.75 3:743.1198599331368 4:1067.340963704749 5:1075.7570231538791 6:1205.7404037370343 7:1453.3821683748622 8:1402.063170315878 9:1530.6508704687674 10:1272.518148783276 11:1519.5578628286007 12:1608.5398175278347 13:1803.6997532254659 14:1883.0902827018156 15:2064.008070558027 16:2437.741340500604 17:2477.3802557538042 18:2829.3386289373952 19:3155.163377180574 20:3477.942802337891 
-0.75 3:3345.363493363414 4:3452.294418512268 5:3985.005183330651 6:3800.0448897338465 7:3490.6482181426973 8:4235.299039392643 9:3856.1798462633824 10:3795.7005071361864 11:4222.210295707931 12:4049.049969411955 13:4227.344168704267 14:4343.819875976294 15:4470.446737841129 16:4500.107928859578 17:5037.59070168174 18:5207.841986084486 19:5505.057191064808 20:5899.82741020633 
-0.75 3:4075.8789498731703 4:4394.057338779987 5:3690.230943364586 6:3217.888216834019 7:3704.4702011811396 8:3946.14432527046 9:4081.3534718380106 10:3931.820763974955 11:4175.142416703987 12:4175.834742892034 13:4059.532601249184 14:4380.60640394849 15:4544.845864261589 16:4818.149065577032 17:5038.929119090878 18:5419.222792391642 19:5607.519458372567 20:5823.188434341994 
-0.75 3:2033.2818868617055 4:1888.6722487402094 5:2246.170110046216 6:2244.0707225364995 7:1812.130902885723 8:2116.0123814881313 9:1971.700972562012 10:2003.3316377304589 11:1900.2003516163957 12:2557.26476501077 13:2440.7883811692136 14:2560.5162145762706 15:2691.4085482456553 16:2922.856124832564 17:3093.6883751697146 18:3379.146754738041 19:3844.227902993783 20:4069.208665859882 
-0.75 3:946.9981819257589 4:795.5935665913523 5:1273.5055514710361 6:603.622231708378 7:778.5835141877036 8:1289.203063007241 9:1367.6567898554106 10:1060.1935131446387 11:1191.1301415364717 12:1094.2706458371586 13:1175.0759384607202 14:1791.6624242963205 15:1907.453514073017 16:2142.536490544021 17:2308.6211741291563 18:2725.8388439040664 19:2938.2103359720827 20:3351.972878238814 
-0.75 3:1672.3632938051007 4:1940.775011766986 5:1669.799456353176 6:1469.970610243116 7:1221.2818968085767 8:1595.7746120300997 9:1536.7033558676778 10:1262.425196179404 11:1854.3959461617267 12:1768.9707497086526 13:2493.4759471139782 14:2226.300341703869 15:2384.275239748512 16:2547.212813980703 17:2688.314195081758 18:3156.0098361704227 19:3417.26472727798 20:3880.4196117813703 
-0.75 3:3351.986842223195 4:2797.476658179284 5:3484.56646552637 6:3672.1288730184237 7:3904.70516606113 8:3803.413857020398 9:3784.1923217153344 10:3647.0497855946983 11:4380.617327414779 12:4112.794727341744 13:4340.6785949453615 14:4445.6215822259655 15:4561.849348179972 16:4847.480485690292 17:5061.80475962234 18:5419.7275924841215 19:5564.437404389594 20:5857.009743253974 
-0.75 3:763.5128178869899 4:948.8665719390807 5:735.6833107436489 6:608.6413417172051 7:486.40290627418153 8:731.013583765211 9:429.19446708686013 10:511.1903376607397 11:736.6445215646528 12:499.00072084352024 13:566.4917913143988 14:660.6565776615055 15:592.565333178062 16:764.4118808116364 17:734.1478551187239 18:863.539015008381 19:950.6302382854132 20:977.1597346246309 
-0.75 3:227.5970499978769 4:529.2328373527516 5:739.0590602372412 6:777.7456539461565 7:448.1536508810922 8:414.20482119866637 9:314.9803802346755 10:517.6732499241141 11:738.4835263110778 12:796.9458496214914 13:583.0797198557375 14:615.3929941986096 15:581.8931345499085 16:599.4989780910344 17:701.5124525728687 18:671.9974016600219 19:749.987162746596 20:781.8313169595564 
-0.75 3:831.7412379626415 4:478.34120845143786 5:134.69763008817176 6:703.6806038483936 7:642.3344337624527 8:441.5098838981696 9:452.2998634548742 10:662.9493288066096 11:628.3065906873816 12:418.4674131220729 13:401.95503947267605 14:647.9690149714501 15:567.2464185364789 16:351.77408019097965 17:546.9837217948347 18:700.7908442787353 19:602.8046592513737 20:727.6224433824478 
-0.75 3:671.3555263500693 4:199.4630607893753 5:849.998304419222 6:703.6807965741586 7:615.4090488149747 8:745.7566762834085 9:455.543964250897 10:542.2510946415126 11:421.89454947333525 12:275.2241205243331 13:421.56715233178795 14:579.2301299410991 15:385.9442723386957 16:349.8088572774117 17:610.2346420278803 18:603.8269226309608 19:584.0103953028413 20:727.4794196976073 
-0.75 3:395.248162325981 4:511.12039450800006 5:572.0241797796546 6:502.46300796159125 7:321.33857461724506 8:186.14631215257444 9:635.8350082889311 10:666.986851240052 11:525.5486533874408 12:688.9317539212506 13:341.6739272401982 14:488.8748566257907 15:643.5887481260465 16:682.449003988651 17:649.1914320368165 18:676.5285082885596 19:818.3591974376224 20:779.8664971911567 
-0.75 3:655.4621627941505 4:337.853247178122 5:547.1252378588009 6:153.71103384406464 7:586.3155484996959 8:373.78430247684986 9:459.40244316654116 10:288.40479434840086 11:626.3444863483893 12:490.90356663205654 13:436.9231317165206 14:533.0026223131488 15:463.35948580664626 16:422.6415460410478 17:677.4122932604937 18:671.8026539812557 19:619.2909977656118 20:859.2213607190625 
-0.75 3:349.2468733610619 4:938.7266860514824 5:108.68326745046191 6:696.9529269144597 7:593.8307228851487 8:195.38397419552143 9:499.3877641176317 10:755.2114876870861 11:179.01306334914415 12:604.168390444481 13:463.5005303824201 14:621.6665556850666 15:444.38368168975313 16:755.7660599148516 17:713.8510402109506 18:697.5757454508407 19:744.3418995062799 20:793.8257708557508 
-0.75 3:602.0661312377862 4:413.6854832177549 5:107.55760300071826 6:754.0514409474101 7:695.0802650889455 8:716.3762264406769 9:319.1240160187456 10:669.2820959514089 11:562.3897916325033 12:448.10032510456887 13:578.775815604903 14:711.8637652143611 15:760.8158977672784 16:477.83310614417076 17:556.910904042732 18:753.9908003389935 19:604.3791997595815 20:911.8596214549273 
-0.75 3:337.47093748801564 4:761.6428307895235 5:425.99934253510867 6:347.73271416208155 7:358.84390190464677 8:296.39372784541536 9:230.5988708178399 10:754.0909516852 11:552.5064635517709 12:381.2194514641964 13:504.94661788446365 14:379.4926225437202 15:588.4408498077222 16:577.439884610335 17:550.4555376617562 18:600.2148806173103 19:725.1778234860642 20:788.2749953341497 
-0.75 3:1203.8876693997158 4:356.274753113797 5:1045.9079998057225 6:380.5001859067628 7:514.8726407187017 8:618.0347332696589 9:494.4429932876435 10:469.36356709999006 11:392.64199004947994 12:225.55894525454485 13:181.39157790341812 14:406.5951976490356 15:361.0243813518655 16:565.3088674611586 17:480.5393367226846 18:598.7148989472837 19:699.0913846209462 20:591.5368836136522 
-0.75 3:255.83318105764394 4:472.96116831229915 5:394.1869865744858 6:204.73965672418797 7:207.5925368104099 8:82.54085265837442 9:130.46222292478453 10:164.60930047523394 11:106.34109276516246 12:192.86689176978172 13:472.1363500964936 14:389.7665150997341 15:410.8196141896525 16:224.31167148870333 17:386.11728508906396 18:339.69116449787697 19:405.86582228612934 20:470.65229855922485 
-0.75 3:604.1392115185375 4:1007.2624758454056 5:190.83656453924638 6:375.9815768584626 7:257.4303332210541 8:266.9170097469126 9:283.88273435468994 10:305.29286303977045 11:165.77880115658107 12:314.11993476148047 13:301.9939900613753 14:394.5387326042653 15:409.96378318358495 16:439.75040295286993 17:348.3078029952061 18:360.72233300119234 19:419.6756484664817 20:647.0515868264807 
-0.75 3:633.7477179269493 4:596.7075519647899 5:663.3019639696942 6:413.70869109352526 7:513.328799566244 8:362.990632809944 9:665.8761931389406 10:497.3999649919964 11:583.9217978579798 12:531.7080268306794 13:231.63122623886866 14:320.5269934599673 15:431.7942042548209 16:509.01948363440187 17:439.89376348757787 18:425.1455034383569 19:495.9162256136006 20:559.1444810285226 
-0.75 3:728.8897661103887 4:498.3207639509316 5:187.0033037417759 6:538.0319120042421 7:709.889635237901 8:466.5051935837559 9:413.53118493214754 10:501.8834664749361 11:547.4904438954563 12:422.7680002248093 13:583.3722164183147 14:507.3213575462231 15:562.5765743905141 16:648.3556260212646 17:696.7682951278542 18:588.0675057231496 19:704.9094790340215 20:836.5506139789246 
-0.75 3:538.3329972952141 4:877.1329171884205 5:646.4620421384484 6:532.717685721861 7:624.2488373898636 8:463.5656017682159 9:341.10955858024516 10:722.1776393674995 11:558.5334039269084 12:405.71929879845305 13:685.3008032115051 14:466.7531399666217 15:545.6856920732719 16:518.1022431432585 17:586.5721578857158 18:751.9703005873886 19:794.7888198112582 20:813.1410630857591 
