svm_type c_svc
kernel_type rbf
gamma 0.007874015748031496
nr_class 2
total_sv 424
rho 0.6052631578947368
label 1 -1
nr_sv 120 304
SV
1.0 0:211268.2728205298 1:184384.11978752527 2:157297.20934513342 3:137936.5698041632 4:130354.57871207064 5:130814.20268654168 6:132014.4361006094 7:129530.98737861926 8:123486.61225836797 9:117047.96167960194 10:113529.24790181765 11:113503.5942115403 12:114610.9832198317 13:114150.73680241307 14:111305.35555307545 15:107435.67968472344 16:104768.486374058 17:104395.05053175148 18:105330.24306357322 19:105635.14848627342 20:104203.43720319108 21:101552.70261941834 22:99276.79574471069 23:98617.35555231692 24:99326.1817626074 25:99993.9387569224 26:99412.10361609719 27:97566.66607887765 28:95572.76572548947 29:94680.12676210402 30:95124.71610740123 31:95946.08308892896 32:95942.58539389672 33:94726.46000026727 34:93002.54065002079 35:91938.04034909459 36:92102.32230284615 37:92943.7584711663 38:93351.737757149 39:92672.36413929547 40:91240.418666286 41:90071.14299955328 42:89952.15421527573 43:90709.01015179903 44:91394.7294078794 45:91180.9968691974 46:90067.4396505719 47:88863.10219615989 48:88473.80612251088 49:89064.65625660682 50:89913.2628390288 51:90104.143367309 52:89340.98682808333 53:88186.61076002166 54:87573.21579248138 55:87953.9970328375 56:88874.17353691855 57:89413.37532111855 58:89024.07804022921 59:87996.11831897002 60:87206.89603340757 61:87339.51523978922 62:88237.66771407482 63:89058.40440814247 64:89056.15592411518 65:88231.7280654949 66:87331.67860546363 67:87198.50446560096 68:87987.05063964264 69:89013.21235816978 70:89399.97865773815 71:88858.83585604926 72:87938.37559336572 73:87558.76083326398 74:88173.25324184964 75:89326.95426969993 76:90086.84035642554 77:89890.12844421301 78:89033.55178123472 79:88433.41115420261 80:88813.62363515337 81:90010.98147607471 82:91120.82733140491 83:91333.63469931671 84:90647.51493760842 85:89887.74173660377 86:89999.78318719719 87:91160.06895858492 88:92585.43185848904 89:93264.09749170828 90:92860.97993275699 91:92025.35049169102 92:91861.28160781752 93:92916.88816372506 94:94625.39449900511 95:95825.6091110118 96:95817.04761628887 97:94987.45958426637 98:94535.08267407284 99:95417.34587576696 100:97399.04137290572 101:99234.17699452034 102:99810.26097404785 103:99139.74861636221 104:98425.87506041139 105:99073.54863314061 106:101332.59062025648 107:103968.24590871455 108:105392.28817031645 109:105085.891440328 110:104146.69709231271 111:104503.67970377894 112:107141.2272222382 113:110979.33392182988 114:113804.51954516876 115:114259.87464052351 116:113152.78854524423 117:113164.50037433163 118:116643.04965534994 119:123025.88812839042 120:129023.06291251078 121:131484.38495065752 122:130280.87408874481 123:129802.41528909774 124:137305.55152153355 125:156520.26714266418 126:183434.67460954274 127:210169.29903298133 
1.0 0:229893.17043536715 1:238881.6261003641 2:237049.1205768483 3:227732.4196281842 4:216541.91605582877 5:208899.96260978642 6:206991.15207507982 7:208798.05028869928 8:210506.9510115784 9:209637.0929989187 10:206338.99941459586 11:202688.65779330663 12:200819.01242577794 13:201208.67818604107 14:202513.4986721589 15:202939.87156116386 16:201723.58616890913 17:199560.81422048787 18:197878.77882452114 19:197594.99752266885 20:198393.04343276314 21:199121.34155594482 22:198843.8797122054 23:197573.12555355448 24:196163.97527727296 25:195537.0241128893 26:195892.90616804702 27:196597.5600944981 28:196794.90447598393 29:196140.80493651546 30:195043.07910508008 31:194267.23811110907 32:194264.1991180198 33:194802.44395140902 34:195216.05367445946 35:195003.6717562314 36:194236.429571133 37:193459.9372738252 38:193203.2379722899 39:193523.32917869167 40:193983.29533808632 41:194059.941310478 42:193594.1993388844 43:192903.63318982304 44:192487.2067733791 45:192586.65090360946 46:192989.11782204767 47:193236.4339026828 48:193032.58136790004 49:192486.73939149594 50:192000.0515051402 51:191907.4400468861 52:192189.46597385587 53:192506.05002450995 54:192507.34389445191 55:192134.7357049216 56:191657.59014177055 57:191427.90528965116 58:191571.2679262577 59:191886.20559854005 60:192033.7526483571 61:191836.23469999045 62:191422.51000323673 63:191104.79444140647 64:191101.39218410145 65:191349.90123629666 66:191573.25806662266 67:191529.795640075 68:191220.46166998835 69:190878.46303922296 70:190758.66652946296 71:190914.0005676078 72:191156.01847243967 73:191228.65370690313 74:191033.4326206453 75:190709.45365259456 76:190505.4797740829 77:190559.791241208 78:190782.29683228224 79:190940.6347992764 80:190867.0187853696 81:190600.94055547766 82:190348.0889128655 83:190296.47314920803 84:190452.70956560085 85:190642.26015004027 86:190668.30786593966 87:190483.8370056389 88:190227.72065166748 89:190098.41786752982 90:190178.63592198383 91:190366.012423286 92:190468.5143605443 93:190374.89238857967 94:190148.9277764477 95:189968.8182973373 96:189968.15523858627 97:190119.6391322574 98:190263.54684070856 99:190251.711782467 100:190076.80690778454 101:189875.2235529159 102:189804.3410282291 103:189903.60921118045 104:190062.3314622666 105:190120.41432157133 106:190009.55109958624 107:189810.6374685194 108:189680.03910478728 109:189711.34331500836 110:189854.89351999832 111:189965.08877300457 112:189930.33349384795 113:189769.42057294713 114:189611.79648698802 115:189581.58493422807 116:189688.50463008715 117:189821.8503661028 118:189850.5325985216 119:189738.21459038428 120:189572.80820163465 121:189486.88947733046 122:189540.4921008179 123:189670.04688270896 124:189747.33613565413 125:189693.58621581597 126:189547.18693469928 127:189427.30928492508 
1.0 0:189427.2750547043 1:189532.56146908982 2:189635.72620367183 3:189633.0623616464 4:189515.8422540284 5:189376.48339321147 6:189325.82609535486 7:189395.24079672823 8:189510.24408915307 9:189557.8864629985 10:189486.5120074603 11:189349.86051627924 12:189258.26179069007 13:189280.9587191846 14:189386.04401559712 15:189470.54243016365 16:189452.29478740387 17:189341.59718176984 18:189230.59931835448 19:189211.15891713975 20:189294.06502130014 21:189400.76932439333 22:189433.56308046784 23:189360.73860208248 24:189242.16690574365 25:189174.55988159712 26:189205.85267590333 27:189294.59612916404 28:189349.33569411488 29:189311.15982754942 30:189205.5207641134 31:189118.43752592718 32:189119.24813950396 33:189198.95527811733 34:189278.9191545133 35:189281.2463326817 36:189197.57735159344 37:189095.79113891898 38:189059.4939804172 39:189114.11616791371 40:189205.08994354508 41:189246.86639241886 42:189198.40262049675 43:189098.44715093318 44:189030.45758928475 45:189048.74192813842 46:189131.20295687026 47:189200.07029863205 48:189191.15727075096 49:189109.83309896573 50:189025.05968604187 51:189007.77162901635 52:189068.485220003 53:189149.2156850651 54:189175.8955517246 55:189123.7692185576 56:189038.01789180614 57:188992.36909307563 58:189023.080528883 59:189097.13714361563 60:189142.56020986324 61:189112.98202263168 62:189028.7808456442 63:188958.7674032186 64:188959.07074438286 65:189023.56489675556 66:189089.79215733832 67:189094.5972321113 68:189029.68938283366 69:188948.30873437683 70:188917.7080655422 71:188959.74127660415 72:189032.1889755966 73:189066.9344421843 74:189030.42816988166 75:188952.8364394436 76:188900.65819814694 77:188917.4382025753 78:188985.22912723324 79:189040.85294090962 80:189032.00397398876 81:188963.2031295393 82:188891.35102131744 83:188875.2393781927 84:188923.7768219351 85:188988.69703210844 86:189007.78374090395 87:188959.87072102932 88:188883.1911296557 89:188841.4348086533 90:188867.72430090053 91:188935.9515324518 92:188984.41140674177 93:188970.1334041761 94:188905.76468000768 95:188847.15794478857 96:188843.39375480203 97:188893.74469676355 98:188949.48861382605 99:188958.17098261276 100:188910.3430996675 101:188847.44281525255 102:188824.37056143352 103:188860.32780534867 104:188921.7237885742 105:188952.1341875975 106:188922.25965241942 107:188855.52924356353 108:188807.0560094996 109:188814.8616807274 110:188866.6694438844 111:188911.56551000843 112:188905.70093328287 113:188851.20358875534 114:188794.0784644075 115:188783.302467883 116:188827.46674985907 117:188887.34798526703 118:188910.64788555136 119:188877.722098599 120:188817.9823642239 121:188783.04384229096 122:188800.81325762454 123:188851.31994534496 124:188885.43667018498 125:188869.22638712992 126:188814.19942566776 127:188766.84723504505 
1.0 0:188767.069753983 1:188812.62728192515 2:188861.27553264916 3:188868.4362113716 4:188826.64217430179 5:188771.83367356219 6:188751.1756900299 7:188781.09328771188 8:188832.8644657586 9:188858.44821541323 10:188833.292096254 11:188778.04699106328 12:188740.11484820335 13:188751.50528747903 14:188800.45219936717 15:188841.99858516973 16:188837.96151946567 17:188790.69549428715 18:188740.89032572065 19:188731.49934946414 20:188769.75904792178 21:188820.94843301302 22:188839.25700685167 23:188808.1907809402 24:188754.84151325002 25:188725.6725798492 26:188745.36252246762 27:188795.13179651412 28:188829.5918005211 29:188816.87276158633 30:188766.4398694654 31:188720.32626564158 32:188715.87364260794 33:188753.07752841595 34:188795.34614834457 35:188802.56495644886 36:188766.74114508153 37:188718.6998980171 38:188700.2635099659 39:188726.89908773202 40:188774.15969503263 41:188799.83143601206 42:188781.71402562154 43:188737.25339007194 44:188707.66025018986 45:188720.7508620815 46:188765.72583582284 47:188802.5217321289 48:188797.43631404027 49:188753.307241883 50:188707.43931523565 51:188698.9733915964 52:188734.41437288243 53:188781.8217183013 54:188798.80078723293 55:188769.52133196447 56:188718.26472505342 57:188687.8464727485 58:188702.08088033932 59:188745.38610248407 60:188777.29771529726 61:188768.61339213062 62:188727.00465740723 63:188689.69663997486 64:188690.05610341372 65:188727.90756013035 66:188769.91469381796 67:188779.40265056744 68:188748.8219438706 69:188706.045184164 70:188689.12931060366 71:188712.16085827613 72:188752.71190972146 73:188772.07682293307 74:188750.1092482016 75:188703.5652371996 76:188671.61921981355 77:188681.31423701622 78:188723.57812098126 79:188761.1541242062 80:188761.3931763058 81:188724.84026642644 82:188684.4536205491 83:188676.2718412202 84:188707.51346027997 85:188750.35637614204 86:188766.78034354138 87:188742.2706476838 88:188698.55489096584 89:188674.26132759335 90:188690.70237568862 91:188733.10752359065 92:188763.86014492676 93:188755.79747259393 94:188716.00343254677 95:188679.2274503148 96:188676.97908397086 97:188709.78667769788 98:188747.1905840701 99:188755.2285051093 100:188726.7460000754 101:188687.63559403323 102:188673.63366566435 103:188698.39952374704 104:188741.31383967382 105:188765.7907243051 106:188751.64869927766 107:188712.7451303883 108:188684.37238407144 109:188691.75548271582 110:188727.73304229273 111:188759.46050697897 112:188757.970503647 113:188724.0882630689 114:188687.6512869237 115:188680.81289421432 116:188709.2832209499 117:188747.25026672476 118:188760.5259103571 119:188737.17404522732 120:188698.26127600897 121:188679.10369457415 122:188697.6352047061 123:188738.13477795763 124:188764.97519103627 125:188754.22423337903 126:188714.98776816856 127:188681.48328599246 
1.0 0:188682.73783122012 1:188716.74648298236 2:188752.16719246365 3:188756.17291983851 4:188723.77762709602 5:188682.62891093318 6:188668.88244028587 7:188695.30998845116 8:188739.8361034818 9:188764.72674302795 10:188749.50953767772 11:188708.6658868123 12:188678.6561637607 13:188685.79270776684 14:188723.3122253406 15:188757.8211360096 16:188759.17071603594 17:188727.1423303199 18:188691.40092441475 19:188684.9180466096 20:188714.51979983668 21:188754.75878679808 22:188770.50590765456 23:188748.0809263919 24:188707.30349931677 25:188683.87004704948 26:188697.72623404962 27:188735.5404010386 28:188762.84064301124 29:188754.8984045121 30:188718.81836757757 31:188687.22737828927 32:188689.15575140878 33:188723.98550156795 34:188761.73252352382 35:188769.49993103894 36:188740.63932273205 37:188700.8043586357 38:188685.50329087605 39:188708.90035454097 40:188751.42261139586 41:188777.0882641371 42:188765.10712998678 43:188727.83302822342 44:188699.4167938672 45:188705.40160667954 46:188740.2847812896 47:188772.88586383944 48:188774.4808430483 49:188744.4499280049 50:188710.63753435021 51:188704.22875225014 52:188731.64512708085 53:188768.66900498542 54:188782.10372956216 55:188759.57823235603 56:188720.84377664985 57:188700.3866165649 58:188716.69642140777 59:188755.57935781448 60:188782.55347682908 61:188773.41479274473 62:188735.8386544401 63:188702.80503341436 64:188703.5340862187 65:188737.61519507295 66:188775.35326814573 67:188784.08755105516 68:188757.13190619033 69:188719.70503269613 70:188706.57509027535 71:188731.15765671965 72:188773.49549390477 73:188797.84695599542 74:188784.2636911334 75:188746.17537798602 76:188718.4526638301 77:188726.50456749523 78:188763.79780213648 79:188797.7767649197 80:188798.8693700982 81:188766.75533807476 82:188730.61719368424 83:188723.17622494473 84:188751.56911499097 85:188791.02337400377 86:188806.9949167125 87:188786.01510036417 88:188747.77902946234 89:188727.67466953726 90:188745.17042846544 91:188786.1921996241 92:188815.33318742077 93:188807.16306223843 94:188768.88607141803 95:188734.24063186566 96:188733.8963740957 97:188768.4412698519 98:188807.91282640648 99:188818.29864075963 100:188791.50130585182 101:188752.3135861579 102:188736.3376058335 103:188758.45893630455 104:188799.89536143438 105:188825.3016428585 106:188814.5554663042 107:188780.81829299484 108:188758.73430450686 109:188773.16616697772 110:188816.3232225951 111:188853.89110026084 112:188854.96392883695 113:188819.33315278546 114:188777.96538107266 115:188766.09478916958 116:188792.54234030985 117:188832.35997682044 118:188849.2666396741 119:188827.89265533836 120:188787.27777584465 121:188763.76520905746 122:188778.51300789107 123:188818.54155963843 124:188848.2471082283 125:188841.11295599508 126:188803.3793272973 127:188768.64129094238 
1.0 0:188768.10881016531 1:188802.90607814287 2:188843.1105515398 3:188854.4118878562 4:188828.61684953253 5:188790.86259464585 6:188777.10282984964 7:188801.8519570855 8:188845.01380564307 9:188869.71261676858 10:188855.29747254672 11:188816.0865833265 12:188789.0120597877 13:188800.87094191337 14:188844.1946570947 15:188883.3892192733 16:188885.922654849 17:188851.0025100981 18:188810.357913153 19:188800.31765255198 20:188829.78504342042 21:188872.55250604032 22:188890.85696608952 23:188869.22743587583 24:188828.51764459728 25:188807.53752274954 26:188828.37537277918 27:188876.20199851776 28:188911.76192342292 29:188905.73155700378 30:188864.6573988436 31:188825.54822389781 32:188823.6935960492 33:188861.90242089305 34:188908.27384246732 35:188924.39930557949 36:188898.9828192726 37:188857.28687616478 38:188838.28399682144 39:188859.8840565645 40:188903.15779195714 41:188929.52942023732 42:188915.4433424483 43:188873.53772250534 44:188841.49676406223 45:188848.4805718646 46:188889.05429759744 47:188927.97794365726 48:188931.61003584226 49:188897.86288830044 50:188857.99460452262 51:188848.58806766142 52:188878.67716275968 53:188921.5443098383 54:188938.73209317145 55:188914.8420693044 56:188871.90645397652 57:188850.17428214903 58:188872.0526082854 59:188921.3536228773 60:188956.79915749154 61:188948.22893648793 62:188903.55247712508 63:188862.42056382203 64:188861.78032198225 65:188903.45075842112 66:188952.46271094886 67:188967.79555558207 68:188938.39345653867 69:188892.7031110966 70:188873.31676626496 71:188899.08125601476 72:188948.30556976213 73:188978.08984771388 74:188962.6011902216 75:188916.27571805357 76:188881.29325653898 77:188890.2423493038 78:188937.03775746026 79:188982.09711239082 80:188987.32145689294 81:188949.85081868406 82:188904.6630577707 83:188893.60113381376 84:188928.16522229934 85:188979.1950142194 86:189002.7574566404 87:188979.23643351404 88:188930.89156882235 89:188902.24034940123 90:188920.5250071646 91:188971.40700416674 92:189011.70250927337 93:189007.89242806757 94:188966.10088544336 95:188926.8108789528 96:188928.8126276124 97:188974.34402081172 98:189026.67593178427 99:189042.54946616036 100:189010.65454863486 101:188961.88400321244 102:188942.0421717979 103:188971.01608984414 104:189024.81614397693 105:189056.78598522162 106:189039.24258753247 107:188988.46712522086 108:188950.63719322372 109:188960.85954840612 110:189011.6557381653 111:189059.30031003832 112:189062.70131772547 113:189020.29501381464 114:188971.99291632726 115:188964.01296375727 116:189007.48998022973 117:189067.88623907455 118:189095.14804953113 119:189068.1343828747 120:189013.91718098862 121:188984.49284622632 122:189010.94641161102 123:189075.49275019063 124:189126.5043920094 125:189123.54136919696 126:189072.72305863808 127:189021.2678853075 
1.0 0:189015.87210523686 1:189061.58342988434 2:189117.7178851928 3:189134.49885183986 4:189097.74673958065 5:189041.84774745477 6:189019.33933651322 7:189053.94525452226 8:189119.02093836293 9:189161.02517462985 10:189147.2825138248 11:189095.44018491436 12:189058.1064896721 13:189075.79002641418 14:189139.83761321643 15:189198.88268329887 16:189203.70516793453 17:189150.98084117268 18:189087.11026870954 19:189068.24896873464 20:189111.36147979848 21:189179.6330664405 22:189215.3800414201 23:189191.2620562108 24:189134.36196411893 25:189101.73241865507 26:189128.9399412066 27:189197.51142262528 28:189250.8143792484 29:189244.561301963 30:189186.95212634825 31:189132.4203454189 32:189133.8232848693 33:189195.10166049254 34:189266.8899209675 35:189289.65991048727 36:189246.4363407872 37:189178.3747993425 38:189148.9876240302 39:189188.08313516775 40:189265.0892808152 41:189315.8890650761 42:189299.59027842878 43:189234.91929567198 44:189183.86376777742 45:189196.63552603844 46:189266.64492738567 47:189335.97484267104 48:189346.899040841 49:189293.67428450208 50:189228.41376804496 51:189215.24749675757 52:189272.92479910844 53:189357.16960709862 54:189399.2152595921 55:189366.6510135127 56:189292.62455209595 57:189247.15506251552 58:189275.28000709967 59:189356.76787952165 60:189423.75952101836 61:189421.0585483255 62:189355.5540189775 63:189290.7326005962 64:189290.53846243434 65:189362.0145791695 66:189448.22067069722 67:189478.42301740637 68:189431.1210151613 69:189353.80688234395 70:189321.34847034738 71:189369.20134508054 72:189460.98566372172 73:189520.18298266034 74:189498.27580617912 75:189418.77618249523 76:189357.56607643372 77:189375.95528732642 78:189465.4529032164 79:189554.129901589 80:189569.7970967846 81:189504.17961105963 82:189421.0449721194 83:189400.29578211223 84:189466.7885192288 85:189567.4712458286 86:189618.14298763312 87:189578.6662483001 88:189489.74561162904 89:189437.95392931983 90:189478.85486239436 91:189586.321421356 92:189674.27124429995 93:189672.48968750137 94:189589.51993725196 95:189506.5653392418 96:189506.57901242244 97:189600.3887498244 98:189715.97172926698 99:189761.42842328773 100:189706.1488140506 101:189608.30330968436 102:189563.7788623564 103:189620.84935557967 104:189736.51213899662 105:189814.44655726652 106:189791.2932306784 107:189694.37780374684 108:189618.95559041153 109:189643.8052573341 110:189759.70145543368 111:189875.79474531283 112:189899.61475717457 113:189819.87418688767 114:189718.14421015748 115:189697.5602099282 116:189790.38255475453 117:189927.29653171718 118:189997.65243109394 119:189947.9948888488 120:189831.3713199633 121:189762.52425466868 122:189816.54472059128 123:189960.46079977258 124:190080.41046644418 125:190081.82226435278 126:189974.12676711226 127:189864.48685811606 
1.0 0:189864.1262988032 1:189988.68386104115 2:190142.22804926286 3:190201.1432052978 4:190124.1294904801 5:189990.74089140072 6:189932.9103192949 7:190017.8266225932 8:190186.21654214986 9:190303.23786740476 10:190278.11366607252 11:190146.46463135103 12:190041.4305501422 13:190076.47265082173 14:190242.43826964142 15:190412.5328851228 16:190453.25296194808 17:190343.54165000687 18:190196.3226364888 19:190160.99783433756 20:190290.36682492823 21:190490.88718070998 22:190603.53077629762 23:190544.81209257402 24:190383.1318945633 25:190281.46394889383 26:190353.62179467842 27:190560.5589077949 28:190741.9691936606 29:190757.5547007766 30:190613.01414982954 31:190458.5138187733 32:190457.65810400943 33:190640.12290377746 34:190871.1602745367 35:190969.0508873049 36:190867.40200452387 37:190678.21046686283 38:190597.06230439793 39:190729.5031495738 40:190992.59520736046 41:191184.10327181156 42:191160.78307909778 43:190968.1863368614 44:190805.74274282358 45:190852.58663260765 46:191105.09503938383 47:191374.66462664973 48:191452.63558305535 49:191297.17892719447 50:191076.3380063771 51:191024.56671911996 52:191233.2826878038 53:191562.97853314143 54:191762.0467169068 55:191689.77815772148 56:191446.29977615373 57:191291.68335991577 58:191417.29633391235 59:191769.01126232315 60:192086.98556831037 61:192132.98574292913 62:191905.03266422942 63:191648.78808928467 64:191647.3572330691 65:191966.4833657536 66:192386.01892031284 67:192588.6927882644 68:192441.9325355979 69:192124.18012090036 70:191978.79939193613 71:192211.20273940483 72:192695.60752928143 73:193075.87290177107 74:193078.38157292843 75:192761.2778668824 76:192478.211613549 77:192573.86710164824 78:193068.64312921924 79:193623.72614182497 80:193832.58274224325 81:193584.02010974253 82:193177.51610018677 83:193077.53221032428 84:193500.57558919044 85:194202.50909416223 86:194677.89084642334 87:194604.28150407155 88:194141.81392803157 89:193820.00916798026 90:194081.93287852022 91:194870.83305266677 92:195651.3924237559 93:195870.42455278168 94:195454.22652836755 95:194908.73845460478 96:194907.80336022365 97:195687.2861516533 98:196793.2354640526 99:197452.87348182395 100:197253.93620862925 101:196543.4519575144 102:196185.71766782223 103:196820.86816174368 104:198245.76697469503 105:199530.1356487014 106:199810.5759213123 107:199075.1394254236 108:198270.21647658746 109:198559.78384105605 110:200263.36186038752 111:202453.18937379072 112:203686.68664395966 113:203260.08171127888 114:201944.90427615424 115:201552.98119892454 116:203442.87691127078 117:207132.2542452654 118:210468.00646176634 119:211354.2616698879 120:209637.80031378157 121:207820.64961842587 122:209751.64228980927 123:217468.78465532442 124:228771.16101023427 125:238194.0508606617 126:240085.17302883003 127:231082.6205330835 
1.0 0:242718.0941227074 1:211858.94543053518 2:180740.68176174734 3:158471.74705073528 4:149729.67105423563 5:150247.27447560887 6:151638.74385244172 7:148807.03023955575 8:141878.56791676462 9:134483.70329656632 10:130433.35427563601 11:130397.31308146614 12:131671.877653317 13:131152.5894074189 14:127893.72807789172 15:123453.56227416165 16:120390.3798322414 17:119962.67350920991 18:121042.78361373322 19:121402.29979663214 20:119765.69834425971 21:116723.52012779319 22:114106.65027795412 23:113345.93677425983 24:114161.41290093162 25:114935.0628908675 26:114275.1466295134 27:112161.09516796464 28:109871.85266445127 29:108844.95214023709 30:109355.58454459552 31:110302.6554613083 32:110304.1616692061 33:108910.97130005053 34:106930.03790304984 35:105702.64599793607 36:105886.26631876193 37:106850.53046059038 38:107320.06235269133 39:106541.68244863188 40:104897.81020522311 41:103554.26671558328 42:103417.30105906323 43:104288.23796010399 44:105079.38567747003 45:104837.92747736831 46:103562.2746586971 47:102182.0376158002 48:101739.20091321347 49:102424.47279489091 50:103407.22715279524 51:103633.49742873998 52:102760.71355926096 53:101434.92334116281 54:100728.70213039553 55:101165.39508959028 56:102224.05386925726 57:102846.49310648894 58:102401.5545950016 59:101220.67805573743 60:100312.17983412555 61:100462.82540075862 62:101494.9909746311 63:102440.48058551848 64:102441.28210118915 65:101496.46752905237 66:100462.64001490115 67:100307.8478743066 68:101211.02206299342 69:102387.30190250561 70:102829.82873531175 71:102207.8782642537 72:101152.74632889921 73:100722.20505337995 74:101436.16133889294 75:102769.84336030281 76:103649.30050519614 77:103427.3423503441 78:102445.73506331604 79:101758.4081482566 80:102197.16093173277 81:103573.19179340212 82:104845.83628484228 83:105085.4867286537 84:104292.86123925651 85:103420.02560011107 86:103554.75866371064 87:104896.3247058421 88:106538.2926498174 89:107313.09671364835 90:106835.68316500394 91:105857.72036476179 92:105656.53512737105 93:106867.9348111274 94:108839.59263667607 95:110231.3325724777 96:110233.33370228307 97:109290.5453125907 98:108782.61401555556 99:109811.95054371719 100:112106.75973713474 101:114230.95077967794 102:114902.6773906695 103:114136.19763516754 104:113317.44180012339 105:114064.70060307618 106:116665.96529236638 107:119699.46572460965 108:121336.48723420182 109:120980.23631971388 110:119895.91327607674 111:120305.99911433297 112:123343.93979643818 113:127764.36258516899 114:131016.64798409361 115:131538.08273837843 116:130260.17685151413 117:130273.46941664013 118:134283.52613218653 119:141640.83735959852 120:148553.90277100212 121:151394.31346679834 122:150015.70877987752 123:149476.80278474122 124:158133.89746105377 125:180275.49309508147 126:211275.21493998522 127:242058.1711858599 
1.0 0:264759.76544151024 1:275093.6952576554 2:272965.17586464836 3:262220.8821256205 4:249325.01620259116 5:240522.36776971733 6:238324.94740889463 7:240404.1366881859 8:242365.47469551803 9:241353.32570082712 10:237544.2648221384 11:233331.93528364867 12:231173.38301267344 13:231618.02758234987 14:233115.679938992 15:233600.47042587012 16:232194.3581811168 17:229701.96684496923 18:227768.3822346561 19:227448.75097638016 20:228375.0472028562 21:229217.95440621537 22:228898.76083938262 23:227433.2820196753 24:225808.37195147056 25:225085.93294880458 26:225497.37235404423 27:226311.82897178095 28:226542.57936738385 29:225792.61291772316 30:224530.7367884686 31:223637.37167623357 32:223630.88903293904 33:224244.9725098542 34:224714.64618823744 35:224465.28799493233 36:223580.88980862894 37:222689.8159621371 38:222399.0326466116 39:222770.8664677712 40:223299.86689541725 41:223383.41782182414 42:222840.03615684307 43:222037.64234926435 44:221552.43082432094 45:221663.3960243104 46:222125.5022879835 47:222411.2072189541 48:222179.7012922633 49:221556.2585053581 50:221001.51203426652 51:220899.51179403334 52:221227.09492842093 53:221593.4341646252 54:221597.3794899485 55:221172.42795775697 56:220627.69224164222 57:220365.63601994608 58:220528.23488567857 59:220883.43700036648 60:221044.09907358757 61:220810.29566996245 62:220333.59951249746 63:219973.0430243778 64:219976.01457924306 65:220265.79080227026 66:220520.7555042342 67:220463.68058453742 68:220099.15311504155 69:219699.1562837059 70:219558.61264785106 71:219737.74285029242 72:220018.06865795556 73:220103.99773582377 74:219882.389943029 75:219513.62854264697 76:219283.25893578317 77:219348.6013267101 78:219604.40368210705 79:219783.4458575936 80:219694.84397166327 81:219386.91856465105 82:219097.91255561577 83:219043.26895665977 84:219227.9598488789 85:219448.79659884304 86:219478.90529751754 87:219265.7024003246 88:218970.84515709203 89:218823.1315891085 90:218916.25413052354 91:219130.25151101325 92:219243.16910400655 93:219128.18995873097 94:218861.4386401449 95:218650.48237958894 96:218649.7746415513 97:218826.56904014834 98:218994.7658398411 99:218982.0620348546 100:218779.49709523816 101:218544.5824079919 102:218459.43516855716 103:218570.47727992208 104:218751.3156301741 105:218818.70250943015 106:218694.6780039757 107:218472.00179118622 108:218328.92528633642 109:218370.5992308914 110:218537.7999448816 111:218662.60895322004 112:218618.1274669604 113:218428.2901680577 114:218243.55282832086 115:218206.50322533838 116:218326.81587117008 117:218475.87147082924 118:218503.24596213165 119:218369.27447643472 120:218177.64383528728 121:218081.97049838424 122:218149.935197063 123:218305.17757208395 124:218397.0097699301 125:218333.49859953803 126:218159.97786739134 127:218016.3207636167 
1.0 0:218012.55399878274 1:218133.04886101565 2:218253.30603192528 3:218251.9481516894 4:218117.0423595228 5:217954.29793321952 6:217892.22002244875 7:217968.91424390223 8:218100.59134624177 9:218158.01855436037 10:218080.87117414534 11:217928.94296284494 12:217827.1326010486 13:217854.23472698397 14:217974.2604808394 15:218070.34935614638 16:218049.0870720491 17:217921.8319286247 18:217792.59756644338 19:217764.90966918287 20:217850.66714924833 21:217961.53155018017 22:217988.90313426475 23:217899.8896217546 24:217764.75615793685 25:217693.25734291776 26:217737.1551724724 27:217845.51796484206 28:217911.65602152815 29:217868.35513664843 30:217746.51263206988 31:217646.46925695718 32:217648.45668381735 33:217741.84390087472 34:217835.70884144702 35:217840.13540600188 36:217745.2165294063 37:217628.5483409461 38:217585.7793882789 39:217646.14886881952 40:217747.8022264168 41:217793.8893453942 42:217738.41412368242 43:217625.8300865769 44:217550.5322894202 45:217572.87566796748 46:217666.29059591622 47:217741.94737884554 48:217727.87972008743 49:217631.85000716452 50:217533.16832474535 51:217511.74895511442 52:217577.65574251342 53:217663.51351904724 54:217685.58687969946 55:217618.2648839269 56:217516.07843523647 57:217464.61556261542 58:217504.31008694504 59:217594.8463155544 60:217651.4369480964 61:217619.94169272683 62:217524.07520467413 63:217443.67401370715 64:217443.82539560582 65:217517.70900896078 66:217593.56725746236 67:217598.80455533226 68:217523.82481203153 69:217429.64280060475 70:217393.41709697834 71:217440.46978394056 72:217522.93710055304 73:217563.2822354566 74:217523.10800310707 75:217436.24006645312 76:217377.61608326755 77:217396.19884728413 78:217471.64704085735 79:217532.9945352172 80:217521.9957025342 81:217444.5131455399 82:217364.87390580587 83:217348.76102646347 84:217405.4274368649 85:217480.3674056314 86:217504.32199430448 87:217454.45387860588 88:217373.64436588058 89:217331.5533659234 90:217362.43572876859 91:217435.03815973978 92:217481.01369157038 93:217455.90662955132 94:217378.3176468527 95:217312.9571022896 96:217313.03086330128 97:217373.23975222075 98:217435.07536687457 99:217439.22120131634 100:217378.0992643199 101:217302.18025298775 102:217274.90294788874 103:217316.3684932676 104:217385.8302016728 105:217418.26526442508 106:217382.07428967027 107:217306.71547460754 108:217256.20218022392 109:217272.2029437178 110:217337.27918814315 111:217390.78599610654 112:217382.88636331863 113:217318.51832155365 114:217252.65139304652 115:217241.36717426957 116:217292.2329547945 117:217358.00674284837 118:217378.9802400639 119:217336.00054673819 120:217267.21492582353 121:217233.9570741174 122:217266.03326417287 123:217334.91692687714 124:217378.60179091885 125:217355.9333586019 126:217282.47188278477 127:217216.672890444 
1.0 0:217208.83255400168 1:217257.79412833098 2:217313.36715492173 3:217321.693708042 4:217272.96992816243 5:217209.58192738934 6:217188.014480212 7:217228.5158800806 8:217297.10312563833 9:217335.5398297662 10:217312.28774556206 11:217249.41958989052 12:217202.3077201199 13:217210.54905477163 14:217263.67666516965 15:217311.70552772115 16:217310.40137577048 17:217260.59661310812 18:217206.8929727278 19:217197.41643710883 20:217240.72233721308 21:217298.2740768259 22:217318.91182258012 23:217284.23270103635 24:217224.53038349678 25:217191.44633836404 26:217211.88715510126 27:217264.3390304305 28:217298.59241694066 29:217280.95596105081 30:217224.47488889028 31:217177.3180976608 32:217179.70985687865 33:217227.7963282602 34:217276.80451484848 35:217280.76783191963 36:217233.488938683 37:217174.42761276907 38:217154.1932418056 39:217189.946331244 40:217250.09856195762 41:217281.8408414363 42:217257.12678459508 43:217196.743168797 44:217151.6816525323 45:217158.47457807595 46:217207.85352317078 47:217254.07001952355 48:217255.99945636062 49:217213.2645475826 50:217165.65779482003 51:217156.89509695102 52:217195.2178340957 53:217245.97632961784 54:217262.60706752172 55:217228.14829467158 56:217170.36403584993 57:217137.1865255926 58:217154.3227762281 59:217202.68573047445 60:217235.6473506005 61:217220.58951404094 62:217167.81461761217 63:217121.3655308144 64:217120.0206981957 65:217163.04792073398 66:217211.0328928774 67:217220.82097476127 68:217183.40103904865 69:217131.34837315243 70:217109.6013168357 71:217135.70186202327 72:217184.81122467318 73:217212.54233518752 74:217194.83820084928 75:217149.21660761975 76:217118.6198177834 77:217132.448021609 78:217179.7221625598 79:217218.53700502164 80:217213.42803413945 81:217167.2972728748 82:217119.39522302616 83:217110.89632233867 84:217148.3832787441 85:217197.67750474095 86:217213.63991012747 87:217179.67094359305 88:217122.18462884854 89:217087.43889195757 90:217101.13996340366 91:217146.3827150797 92:217179.22644987731 93:217167.8170182157 94:217120.35736557364 95:217077.4428823692 96:217075.81155662905 97:217115.72769332232 98:217160.90318642205 99:217170.82717859774 100:217136.636309351 101:217088.81678095966 102:217070.10576437807 103:217097.66955408495 104:217148.06983430093 105:217178.19548724525 106:217163.33373042487 107:217118.59945119685 108:217084.98391969915 109:217092.62250656044 110:217133.9805516164 111:217170.73798616318 112:217168.0270038673 113:217125.42614240144 114:217077.27494413417 115:217062.18622959015 116:217088.91210039804 117:217128.93914777128 118:217142.29872269742 119:217113.4510451769 120:217065.31552973698 121:217039.04664852427 122:217057.50168587908 123:217104.84256956656 124:217140.38681555656 125:217134.31684090602 126:217093.58293555214 127:217055.27104521915 
1.0 0:217053.53817749216 1:217089.53128736286 2:217130.93220575392 3:217141.23080923012 4:217112.36384505493 5:217071.644438184 6:217056.96665137378 7:217082.51831152075 8:217125.73450236436 9:217147.23351730037 10:217125.9298153937 11:217078.02548477388 12:217042.97776340912 13:217048.83000091277 14:217087.66377547925 15:217122.97408321896 16:217122.26076638192 17:217085.71318496333 18:217045.54563622185 19:217036.73526670385 20:217065.40427071103 21:217103.27119569172 22:217113.23898736842 23:217083.18270873 24:217037.57896837534 25:217016.2672353366 26:217038.9138627786 27:217086.83001156588 28:217118.6995240747 29:217106.6329514179 30:217060.80051978095 31:217020.82995578187 32:217021.29444368047 33:217061.5088587279 34:217106.25113170117 35:217116.7418615646 36:217084.5147940657 37:217038.44574646436 38:217018.9397274719 39:217042.16657693143 40:217086.00703574187 41:217110.06773678295 42:217091.8224675762 43:217046.77104150743 44:217014.81564545285 45:217024.93381021914 46:217069.46452257494 47:217110.84015671487 48:217114.7145989891 49:217080.03980400958 50:217039.52423434015 51:217030.17355601524 52:217060.09213139585 53:217101.1037639888 54:217113.78503806988 55:217082.64259674805 56:217030.25014206368 57:216997.8330100164 58:217009.39925994893 59:217051.09877501254 60:217083.9975544766 61:217078.73046556802 62:217041.21640407105 63:217006.80976786927 64:217008.31586985322 65:217046.4678978319 66:217089.25051670166 67:217100.61548384198 68:217072.8427137869 69:217033.62657937262 70:217021.4693202974 71:217051.16041866379 72:217100.13161564796 73:217128.01299314742 74:217112.1078916045 75:217067.3559340076 76:217033.11414293683 77:217038.40429744546 78:217076.40087304416 79:217110.8159772134 80:217108.42261915223 81:217068.7177984218 82:217024.3893180717 83:217012.18395807385 84:217040.0799767265 85:217080.0970517352 86:217093.264156999 87:217064.52088288235 88:217016.47301741538 89:216989.66512824217 90:217006.71556232285 91:217052.17645275663 92:217086.1876052805 93:217079.88742424102 94:217041.1372932787 95:217007.6588671188 96:217013.45290085307 97:217058.13462497195 98:217106.51699528098 99:217119.04164705655 100:217086.28617359072 101:217037.1899600293 102:217013.75475695718 103:217034.42662878838 104:217078.39158444747 105:217104.5159290709 106:217087.94041386648 107:217041.90333380734 108:217005.69542395053 109:217009.64636259427 110:217048.34852018327 111:217085.9256717079 112:217088.44116141755 113:217054.32676813245 114:217015.6481429306 115:217009.08423091043 116:217042.5777879206 117:217087.69291960695 118:217104.79519860717 119:217078.67052839036 120:217032.705816506 121:217008.64490737833 122:217029.49028532545 123:217078.46433461632 124:217113.08840077542 125:217102.3024658881 126:217053.99905054658 127:217008.64091453835 
1.0 0:217004.31964483566 1:217043.7922315158 2:217092.49502570293 3:217109.21533180296 4:217082.26103547803 5:217039.31530495215 6:217022.48320974456 7:217050.70573948472 8:217102.89189814398 9:217136.6952199704 10:217126.09622191673 11:217084.35064651765 12:217051.99565273512 13:217060.57711312914 14:217104.36009488362 15:217145.300250488 16:217146.8935061742 17:217106.7762858872 18:217059.11340422108 19:217044.5648618303 20:217074.3668685327 21:217120.4599533688 22:217140.50097207807 23:217115.51286116097 24:217066.76652830988 25:217036.94965700828 26:217052.27592976572 27:217099.1803340676 28:217136.37235958502 29:217131.48564886203 30:217089.71228338208 31:217049.06479765064 32:217046.52803983464 33:217085.22849020347 34:217131.92518860477 35:217147.00147908065 36:217120.02005002147 37:217079.00753106643 38:217065.0974196757 39:217095.1226748175 40:217145.81224352168 41:217174.13549504822 42:217155.8783327578 43:217108.00890761544 44:217074.55346149407 45:217087.97760053386 46:217140.13069934043 47:217188.80961849357 48:217194.48166820765 49:217154.8439860118 50:217106.71792950848 51:217093.48753259072 52:217126.73162620727 53:217176.0812024497 54:217196.39008414058 55:217168.0900738141 56:217114.92226707167 57:217083.26705401525 58:217101.23835367797 59:217153.8140478767 60:217196.20642862644 61:217193.58617416336 62:217151.80173529772 63:217111.7983914879 64:217112.6361370578 65:217156.02639134982 66:217204.2579326276 67:217213.65726330836 68:217173.86248589316 69:217117.85267986826 70:217093.44751528712 71:217121.1741871764 72:217175.9251494454 73:217209.02919710372 74:217191.37866819694 75:217139.44060538325 76:217101.00335777598 77:217112.9779890979 78:217168.49688143216 79:217222.66590458443 80:217232.05069278547 81:217192.9575125842 82:217144.64092062067 83:217134.48846055704 84:217175.8607424017 85:217236.03783558897 86:217265.09197353694 87:217240.0361793345 88:217185.0870337476 89:217150.0922462904 90:217166.1982904953 91:217218.21359986853 92:217258.45003168355 93:217249.72263350923 94:217199.0704648648 95:217151.98471636258 96:217151.95830129503 97:217201.23182348776 98:217258.0553941202 99:217273.3881888888 100:217234.6077264677 101:217177.34611562913 102:217154.56940430982 103:217189.85152631585 104:217256.2649075632 105:217299.9323160418 106:217287.53005028825 107:217235.6838988781 108:217196.16809529057 109:217209.79583806475 110:217269.82058234478 111:217327.58607634658 112:217335.56578540697 113:217289.52357428914 114:217232.29387740657 115:217215.63131581643 116:217253.8825072888 117:217310.97284202455 118:217332.72104473852 119:217295.83927108545 120:217229.8600280686 121:217192.00248481904 122:217216.6549649629 123:217284.25273707323 124:217337.7608121817 125:217332.68509095022 126:217276.52342969546 127:217222.64720957694 
1.0 0:217223.53477906217 1:217284.31730215283 2:217357.8933033528 3:217386.2184941424 4:217351.31861060899 5:217290.98774867225 6:217265.23997709499 7:217302.97999359184 8:217376.1753830942 9:217424.6375575062 10:217409.38464802376 11:217347.17213635484 12:217295.57608301225 13:217301.7535170256 14:217360.431125086 15:217418.82192817467 16:217424.2145304686 17:217371.65619349343 18:217309.00913544805 19:217294.45981943674 20:217344.0450437519 21:217416.3751601062 22:217448.89870452636 23:217413.75698935025 24:217343.46760464643 25:217303.0945999969 26:217332.86045502458 27:217412.01460887108 28:217476.608737541 29:217475.83524157517 30:217417.03232819546 31:217359.32020446906 32:217361.05843265314 33:217427.4741400825 34:217505.39019485057 35:217530.23670399855 36:217483.64942551492 37:217410.34396069267 38:217378.8223027637 39:217420.2849177584 40:217500.25964797023 41:217548.92544020715 42:217523.550570105 43:217447.4871808158 44:217390.61130869307 45:217407.72058564494 46:217489.29200537526 47:217569.02482355307 48:217582.17818290828 49:217523.12000119424 50:217450.87915209396 51:217437.11753413465 52:217502.06068758256 53:217595.61944458197 54:217641.27457339468 55:217604.0955991018 56:217522.47924250102 57:217474.9492774532 58:217510.61262846313 59:217604.88432452237 60:217680.5899726158 61:217676.26223181628 62:217601.05288795504 63:217527.2540040503 64:217526.27361769497 65:217604.4386539889 66:217696.37128699283 67:217722.7764323853 68:217661.58711040538 69:217569.07611966674 70:217531.2957187627 71:217587.82703378572 72:217695.64923588026 73:217766.33254369433 74:217744.24739801424 75:217656.53747952046 76:217590.10428287557 77:217614.86128322556 78:217720.79898462995 79:217825.56434240518 80:217846.7293367199 81:217774.88230068336 82:217682.60793614917 83:217660.55293860947 84:217736.39738663935 85:217849.17696319512 86:217902.95907644037 87:217852.67362628234 88:217745.78363669926 89:217681.96560980435 90:217725.0875361091 91:217845.32531768043 92:217944.13632530917 93:217941.0376771436 94:217845.56097805584 95:217750.34183362394 96:217750.13419329518 97:217857.41432590797 98:217990.10100148775 99:218043.45205625246 100:217982.73498275655 101:217874.54808955567 102:217828.34541776613 103:217898.80176748394 104:218035.88075996627 105:218128.37339815294 106:218102.87398013214 107:217990.19914870829 108:217899.63919977346 109:217922.3240738033 110:218048.90655083573 111:218176.2513949173 112:218198.70547203708 113:218103.15265468616 114:217983.00090992608 115:217956.96685301483 116:218062.96683593062 117:218222.1008513483 118:218306.8473974507 119:218253.92881714983 120:218121.81529618864 121:218040.86655207476 122:218098.13305676513 123:218258.5605985083 124:218394.55849914343 125:218399.1340453761 126:218282.30051848275 127:218164.53633836695 
1.0 0:218170.83528626987 1:218317.6990459221 2:218495.11440287984 3:218562.18330494236 4:218472.5410134941 5:218318.2530261903 6:218251.3661355066 7:218349.55551636886 8:218544.90763345084 9:218681.77129648102 10:218654.0434570581 11:218500.60211876896 12:218373.64228493127 13:218405.07105227956 14:218587.72159868153 15:218779.04065570456 16:218826.4336901803 17:218703.6016384083 18:218536.76466520329 19:218495.17595838767 20:218639.96731298845 21:218866.59356982497 22:218995.48211501102 23:218931.74527083497 24:218752.20127173886 25:218640.82988197886 26:218725.87012560782 27:218962.16709604103 28:219167.22777438874 29:219182.02577914792 30:219014.37857450556 31:218836.88655557958 32:218837.0108447955 33:219048.4453114965 34:219316.13976544258 35:219430.80648881706 36:219315.18938432573 37:219097.0589799689 38:219001.23974500323 39:219150.51256470903 40:219451.6823641348 41:219673.4950391634 42:219650.48174103987 43:219432.62648520837 44:219247.03849575142 45:219299.53815044046 46:219588.13034028484 47:219898.73605147857 48:219992.49023194384 49:219819.61774349096 50:219570.0788907038 51:219511.07818224965 52:219748.0646111121 53:220123.3113033505 54:220350.297382354 55:220267.94875088625 56:219989.70854789822 57:219812.16230037072 58:219954.30119194713 59:220355.0735358783 60:220717.92528963543 61:220770.15280935622 62:220508.71522412376 63:220214.17720894582 64:220210.89806576335 65:220575.2407185197 66:221056.1413209248 67:221290.3068533047 68:221124.94349311764 69:220763.36496536815 70:220598.67910879603 71:220866.9678849813 72:221424.8812657592 73:221863.8823846691 74:221868.5209707812 75:221503.3012115849 76:221173.0283085159 77:221274.83396857604 78:221835.70619329214 79:222469.92309077998 80:222711.2936097379 81:222429.6678336879 82:221965.30963441412 83:221849.52232019632 84:222331.84661079236 85:223134.58862125862 86:223679.01534650472 87:223593.98461412088 88:223060.90329437118 89:222686.35195442894 90:222980.53815435 91:223881.83465466782 92:224778.14489802605 93:225033.5138378652 94:224559.7153725801 95:223934.2705788822 96:223930.83846469995 97:224823.99156681498 98:226096.88667112408 99:226863.17662519976 100:226645.80243162822 101:225837.438930019 102:225427.08098368123 103:226151.72790389697 104:227783.95020105195 105:229259.96226464992 106:229587.344480807 107:228746.6866174549 108:227819.1151743324 109:228141.1040028466 110:230086.12191460305 111:232596.74511269858 112:234018.71169209888 113:233538.33601809613 114:232032.217198028 115:231575.19474075417 116:233731.29974090628 117:237958.09550706777 118:241791.90567253358 119:242824.20880749388 120:240866.93476428668 121:238777.61426616003 122:240968.83127787695 123:249792.09756144873 124:262742.1795867678 125:273558.13937766734 126:275748.63880821463 127:265442.2181406052 
1.0 0:275837.57904693345 1:240784.42872846604 2:205428.2106757517 3:180114.87084185882 4:170163.71469004045 5:170737.0332032968 6:172311.08547593368 7:169091.3409126344 8:161217.04439548837 9:152811.29856724327 10:148206.26015639296 11:148166.42443825604 12:149620.06583379363 13:149036.2056647421 14:145335.41796371373 15:140285.1056170828 16:136793.37012630212 17:136296.0213256863 18:137517.4357898868 19:137926.5443424128 20:136070.8826249661 21:132617.2277861144 22:129643.3132430272 23:128775.42342248946 24:129697.98858392629 25:130574.32638348773 26:129822.8164628586 27:127418.83481056377 28:124815.05613305584 29:123645.91451228768 30:124225.68448332956 31:125303.5600736729 32:125307.92610951858 33:123726.78979492465 34:121476.54936149673 35:120082.53598640423 36:120293.7864783446 37:121394.54706441399 38:121933.85886732895 39:121052.99413573396 40:119184.33995717712 41:117652.73921140202 42:117490.44471140903 43:118474.37389486503 44:119368.9769597763 45:119089.70876631614 46:117632.84309985989 47:116055.06846509682 48:115543.60543622253 49:116318.71024038343 50:117437.05756610514 51:117698.06704693861 52:116708.51859240654 53:115200.5297364931 54:114394.53243604726 55:114889.28015472488 56:116095.5125160009 57:116809.59594756152 58:116310.18938831828 59:114969.75572113118 60:113932.90641280211 61:114096.70947004066 62:115264.20031590869 63:116337.80841594664 64:116341.36745896626 65:115270.53294240736 66:114096.15224821669 67:113918.49694344457 68:114943.3416117589 69:116280.52559646586 70:116784.70779651956 71:116076.536581753 72:114870.1718314268 73:114367.82083675967 74:115164.73809590598 75:116670.08700574329 76:117665.9080468989 77:117415.2432828235 78:116302.97577389279 79:115524.06065731718 80:116023.65915576644 81:117589.16972470097 82:119039.46612338876 83:119317.32021396238 84:118420.6325834074 85:117428.27582879868 86:117575.84699299253 87:119092.74681280283 88:120953.226380568 89:121833.16982258167 90:121295.07737662939 91:120191.35685498129 92:119971.27153166303 93:121355.71837929147 94:123602.70615290254 95:125188.71749952035 96:125192.06949288215 97:124116.28708643187 98:123528.23103117546 99:124682.98718328142 100:127276.59545287032 101:129681.19055831246 102:130441.1832903525 103:129571.19285462315 104:128643.420669297 105:129494.67350516234 106:132451.7534137135 107:135900.04296097506 108:137762.6894822235 109:137361.73510883126 110:136133.75705623731 111:136602.4531182393 112:140054.64746445479 113:145075.65400791093 114:148768.9013928122 115:149360.60360840263 116:147910.6545020464 117:147931.23273270353 118:152495.18486641857 119:160861.4512125736 120:168719.65705782347 121:171946.6829107885 122:170377.1316826776 123:169761.2181393945 124:179597.35959580744 125:204759.2269963891 126:239986.98189151744 127:274967.0393744875 
1.0 0:300762.96200909815 1:312504.62981548667 2:310084.3220392536 3:297872.6978112677 4:283215.0106383112 5:273208.03398720693 6:270707.3800895632 7:273067.62400963024 8:275295.33764409856 9:274145.7660984923 10:269819.90524590586 11:265037.8353831509 12:262590.932922554 13:263102.1214751988 14:264808.5489493296 15:265362.25085776486 16:263765.8250513691 17:260934.12825559315 18:258736.7841583462 19:258372.76826130046 20:259424.03014506545 21:260380.789353662 22:260018.50293869735 23:258356.01242120835 24:256514.19999933767 25:255697.52479523575 26:256166.1482638709 27:257088.21765885176 28:257343.78692874228 29:256485.0889866822 30:255048.32108124395 31:254035.21762417103 32:254032.73080258124 33:254733.92575552844 34:255265.81884538353 35:254974.56534305122 36:253957.829434635 37:252933.49087869973 38:252594.53705487415 39:253012.96593193672 40:253613.7332935885 41:253711.02770323516 42:253098.32031156484 43:252193.76429362645 44:251651.23867581948 45:251785.1880866875 46:252313.80202836584 47:252635.60212506342 48:252364.25699454377 49:251645.8039488856 50:251008.03617370536 51:250889.6350747711 52:251262.981394252 53:251680.2302337176 54:251682.28783220123 55:251193.25314300568 56:250567.26976209873 57:250265.78697127 58:250452.56340620623 59:250862.98809833577 60:251053.68662092192 61:250793.9313223012 62:250254.4611317561 63:249844.35351582835 64:249847.25091774252 65:250178.0311437515 66:250471.62384629593 67:250411.90351877175 68:250002.5138300013 69:249551.39539710022 70:249393.24944441373 71:249596.46503962082 72:249912.7722763932 73:250006.31327099138 74:249748.8890489567 75:249323.6273764608 76:249056.15025305204 77:249126.07797593818 78:249413.9714021415 79:249615.81505535185 80:249514.36591457916 81:249164.6049650723 82:248837.53278250698 83:248777.80527502528 84:248990.0231026012 85:249241.65428207009 86:249273.637474617 87:249026.33046276536 88:248685.1621805917 89:248512.7112432133 90:248617.47797009867 91:248863.49011989238 92:248997.08396246412 93:248871.8058509865 94:248572.11649317195 95:248332.9615904712 96:248330.18178703415 97:248527.71080852963 98:248715.43625842332 99:248698.7226666642 100:248468.15970269917 101:248202.9900780981 102:248109.75064948012 103:248240.09806319437 104:248448.9451393372 105:248526.8367240789 106:248384.77276089773 107:248128.759195477 108:247962.64241282886 109:248007.2218633383 110:248195.91649898788 111:248337.87004955192 112:248288.41034758455 113:248074.34742907493 114:247866.63782087434 115:247827.54319905388 116:247968.09179602205 117:248141.53388146934 118:248175.62295507637 119:248023.63317587978 120:247802.1399679233 121:247685.6582786322 122:247752.64481451156 123:247919.0840016585 124:248016.5884199311 125:247942.30319670457 126:247747.3091827539 127:247588.30108999237 
1.0 0:247587.565933676 1:247725.86229804702 2:247862.52576520803 3:247862.22429595012 4:247713.93940786787 5:247538.27585222476 6:247478.9196744359 7:247575.20302952887 8:247728.8002049476 9:247792.63790982505 10:247700.933172129 11:247525.44780085623 12:247410.33246597016 13:247444.27038561503 14:247583.2201634238 15:247691.44689494415 16:247662.38016196038 17:247511.447090987 18:247360.53720354123 19:247329.49368972768 20:247430.94151218727 21:247561.1600502837 22:247593.35888290175 23:247489.05988521592 24:247329.93075331772 25:247244.06904109582 26:247292.927866432 27:247418.94126393905 28:247499.00087670647 29:247454.16411611033 30:247317.8639261449 31:247203.95862812217 32:247204.50716727052 33:247308.47580781954 34:247413.21922833932 35:247416.94235427454 36:247308.7712103269 37:247177.25176910224 38:247131.01865933067 39:247202.46742261376 40:247319.93024084033 41:247372.2170759543 42:247306.93385906276 43:247175.54681142714 44:247086.60618144597 45:247109.33386349323 46:247213.1616302237 47:247296.37432524955 48:247277.10998918 49:247165.36628818 50:247053.13000276257 51:247032.35429328916 52:247113.74920161447 53:247218.2846841339 54:247248.04009682295 55:247172.58226840725 56:247054.75139461568 57:246994.12634623353 58:247038.6975653211 59:247143.00031730052 60:247209.2468760931 61:247173.88928913992 62:247062.78022930882 63:246967.21577389276 64:246962.9491390964 65:247044.06835493675 66:247129.9381573137 67:247137.84103002682 68:247055.96676977098 69:246952.59260038738 70:246914.41809315293 71:246969.33402979904 72:247062.31431662437 73:247105.2727898753 74:247055.61041805564 75:246953.6076373047 76:246886.16392480055 77:246909.44117781686 78:246999.1552766015 79:247072.48631581487 80:247061.49480537447 81:246972.6300038532 82:246880.2276210314 83:246860.36012632048 84:246923.76119180943 85:247007.16344320736 86:247030.12782116022 87:246966.3259099988 88:246866.39312504895 89:246812.84338377666 90:246847.23265545318 91:246934.01551785952 92:246992.6783309325 93:246968.8889632291 94:246881.55260514742 95:246804.9739678268 96:246802.65879963842 97:246871.5823301323 98:246946.03976546257 99:246956.77236861474 100:246892.20334600387 101:246807.81614242453 102:246776.139841949 103:246822.1468839527 104:246901.50935564114 105:246940.61594905186 106:246902.09068547032 107:246817.5592839353 108:246759.1218320112 109:246775.20697843083 110:246847.84954826738 111:246909.18094530166 112:246901.92876044806 113:246829.90672500635 114:246754.0975419896 115:246738.2589468795 116:246792.4480855639 117:246864.55152896798 118:246886.93544157583 119:246836.32283892605 120:246753.93579497354 121:246708.5688234935 122:246735.6001666374 123:246806.08849938886 124:246853.13877790442 125:246831.56972879797 126:246757.74881991575 127:246694.66583830115 
1.0 0:246695.83239757083 1:246757.88847166754 2:246823.93851405295 3:246834.26895836237 4:246779.09078583005 5:246706.75273145238 6:246680.53139503484 7:246722.43338196914 8:246793.8495581222 9:246829.97922444006 10:246797.0768867137 11:246721.82246385564 12:246667.2786640889 13:246677.04756649613 14:246737.1728638542 15:246789.369114028 16:246783.28616386026 17:246721.09452825386 18:246655.12304961594 19:246641.0561066554 20:246688.4237098452 21:246752.39540913468 22:246773.90419699994 23:246732.0861697726 24:246662.5409048367 25:246625.52994346828 26:246652.4757114992 27:246718.285367204 28:246763.94912150662 29:246748.98421266302 30:246687.05629628626 31:246633.46426558922 32:246635.82070444827 33:246691.7554491256 34:246751.17749689883 35:246760.83392248256 36:246711.3758877549 37:246645.34996853885 38:246619.30774634492 39:246653.71586105225 40:246715.11107870503 41:246746.1738439185 42:246716.7157481716 43:246650.34322533497 44:246603.43694592017 45:246615.2187802497 46:246673.1858144524 47:246724.48347216684 48:246722.82646479702 49:246669.19687670728 50:246610.51425557004 51:246597.7720675447 52:246640.8654590916 53:246700.16313129527 54:246722.0395161739 55:246686.4876019545 56:246624.60575653834 57:246590.73645120062 58:246614.12835971755 59:246673.07552359873 60:246714.41000358274 61:246700.7543239637 62:246643.49382941812 63:246592.4515710853 64:246591.61717792065 65:246640.2599476813 66:246693.91740516058 67:246704.13890904188 68:246661.45634663475 69:246603.55662610853 70:246581.6424224749 71:246614.93000686736 72:246673.71839204 73:246705.95116807014 74:246683.4071628984 75:246626.46327628157 76:246585.66054525616 77:246596.5790340319 78:246648.1824847997 79:246692.81293507878 80:246688.8160035145 81:246637.791565741 82:246583.4354593523 83:246572.9641621876 84:246615.21620932274 85:246672.59596433415 86:246694.01166188985 87:246659.61165142866 88:246597.93876522966 89:246560.63357075368 90:246577.13775278837 91:246629.37907307607 92:246668.580052028 93:246658.8665314833 94:246608.87458133764 95:246563.6353195256 96:246564.26614989125 97:246611.37740607414 98:246664.65028591393 99:246678.6758520104 100:246642.94229403732 101:246590.56611706948 102:246568.33370691296 103:246594.8982048699 104:246644.41587330852 105:246670.08046420902 106:246646.29654256775 107:246591.77752005417 108:246553.024950833 109:246562.87435208325 110:246611.04533414525 111:246653.0629393653 112:246649.67746085537 113:246601.76196325323 114:246549.77608946094 115:246538.22362794355 116:246576.4797952739 117:246630.6793716045 118:246653.79037765114 119:246627.10633043371 120:246576.49631120043 121:246549.23547347015 122:246572.0125559308 123:246627.31174909888 124:246668.99869260157 125:246663.04252283787 126:246617.19576077766 127:246573.57251912457 
1.0 0:246570.97850219958 1:246610.5515249894 2:246655.22267186263 3:246663.23991825408 4:246625.6699245243 5:246574.51477373816 6:246554.32190631528 7:246582.5594979707 8:246634.0494986349 9:246663.30352405307 10:246644.78326627158 11:246595.31387476623 12:246558.90960702137 13:246567.60075321383 14:246613.1288255633 15:246654.67477691523 16:246655.54996511032 17:246615.99675996052 18:246572.89891312967 19:246566.67867942844 20:246604.8603679701 21:246654.88327048905 22:246672.69777217778 23:246641.73731236983 24:246587.69483502742 25:246556.01766670245 26:246572.01078908236 27:246618.91087138632 28:246653.34466538028 29:246644.2387536646 30:246600.46761150158 31:246562.7115205383 32:246566.8066392159 33:246611.25976098442 34:246658.03368279888 35:246666.04924856135 36:246627.65011856254 37:246575.66614840922 38:246554.72280382618 39:246582.06859856058 40:246632.60812926493 41:246661.39217579548 42:246643.49773411488 43:246595.91950239684 44:246562.18606831718 45:246573.42209844908 46:246620.4918807173 47:246662.05633204986 48:246661.33059194506 49:246618.79231497904 50:246571.80703210205 51:246561.4880925409 52:246596.18373532893 53:246644.10781622067 54:246661.7099887115 55:246632.51356056175 56:246581.917373131 57:246554.8139467524 58:246575.8031738046 59:246627.3325679141 60:246665.2586580672 61:246657.98101809187 62:246614.38044756418 63:246575.82075611196 64:246579.29120856334 65:246624.38278409565 66:246673.5056268407 67:246685.16582833006 68:246650.6860795217 69:246601.80095325888 70:246582.40441020098 71:246609.4863787012 72:246658.01333505777 73:246683.27094192582 74:246660.78614523498 75:246608.36301539192 76:246570.67769450328 77:246579.9929158233 78:246627.77933842654 79:246672.4461541424 80:246676.23182848122 81:246638.42411857055 82:246595.52793778194 83:246588.38117955998 84:246625.5574996947 85:246675.75894863933 86:246695.98550548838 87:246670.21013428346 88:246623.9279384865 89:246601.43505410146 90:246625.89924585476 91:246677.91461457376 92:246712.0537524967 93:246697.03432472455 94:246643.9368914692 95:246597.30177149427 96:246596.57843728538 97:246641.7143690744 98:246693.3104985394 99:246707.2539712185 100:246673.23537515727 101:246623.28844354034 102:246603.03117616344 103:246631.1846376383 104:246683.3266058631 105:246714.2266897031 106:246698.63239767196 107:246654.01335443198 108:246624.92358291693 109:246642.78826444776 110:246696.9959222579 111:246743.38866873638 112:246742.91268273856 113:246696.2033783052 114:246643.36382992685 115:246628.86929609047 116:246662.45419335453 117:246710.70657588597 118:246726.97624386442 119:246693.1108309924 120:246636.0219220648 121:246604.28987658818 122:246625.2931774277 123:246680.79795446244 124:246722.81120305927 125:246715.76547943233 126:246667.7572698213 127:246623.2760028891 
1.0 0:246623.78577408913 1:246670.95078226333 2:246725.12407328116 3:246740.4511220112 4:246705.43240605248 5:246653.07698392522 6:246631.6949196482 7:246662.1271907231 8:246719.32684121458 9:246754.6436428455 10:246738.934075609 11:246688.23013472132 12:246649.29531397013 13:246657.89778735468 14:246706.8768288076 15:246752.4942079879 16:246753.42806360044 17:246707.68509051218 18:246654.6420324082 19:246640.3295372088 20:246676.68222954872 21:246731.03352995223 22:246755.28267961447 23:246728.76584955322 24:246676.72568769334 25:246647.94830826047 26:246671.30434233721 27:246729.81879713343 28:246775.47810040318 29:246771.66314037528 30:246725.50935678848 31:246681.49915188045 32:246681.90792553418 33:246729.16719245948 34:246783.67845460481 35:246799.03183810113 36:246763.19944932894 37:246709.06404692566 38:246684.94179971813 39:246711.33403790227 40:246762.60921897195 41:246790.1656875611 42:246766.4042930124 43:246710.12825704517 44:246670.43482499808 45:246683.06260604455 46:246738.02832197445 47:246787.81189206496 48:246789.25516692683 49:246742.0850592644 50:246689.717935306 51:246681.1887764437 52:246727.58974316154 53:246791.7748758505 54:246820.82507087485 55:246792.7016225485 56:246735.82203154505 57:246704.07783234966 58:246729.08410006433 59:246791.87308792138 60:246839.33823404813 61:246831.01374356283 62:246774.82876956245 63:246720.22913574218 64:246714.60686305806 65:246761.47408614942 66:246817.5415465534 67:246831.3539955011 68:246789.1424912206 69:246727.2365168376 70:246699.9963560424 71:246731.59575465816 72:246794.5472481456 73:246834.22175426644 74:246817.53347240807 75:246762.43643173858 76:246721.94926521296 77:246736.72879231023 78:246798.37406431974 79:246856.43997800874 80:246863.15404663963 81:246816.0513790681 82:246760.49324381744 83:246749.5009986271 84:246796.34000506613 85:246862.23930213647 86:246890.5997207286 87:246857.4684199512 88:246793.39737321917 89:246756.95303274214 90:246782.8786401031 91:246850.82211124906 92:246902.7887681345 93:246894.18828126826 94:246833.37704471132 95:246774.6578909404 96:246770.6292290696 97:246825.827497064 98:246892.87769817095 99:246914.70913695623 100:246875.33314893316 101:246814.10659100764 102:246790.7005057103 103:246831.6620415555 104:246906.1962205772 105:246953.0977643145 106:246935.07194431257 107:246872.17009328373 108:246824.457558413 109:246838.84984024483 110:246907.12180221273 111:246972.7087458091 112:246980.58531930853 113:246926.0499862927 114:246859.1498955575 115:246840.58380334804 116:246887.92256885118 117:246960.04247668292 118:246993.88341669235 119:246960.8685936321 120:246892.7522554895 121:246853.69589245008 122:246882.99901774558 123:246959.43606681557 124:247019.4504502678 125:247013.4076491364 126:246949.9845215803 127:246889.10375430906 
1.0 0:246889.16598785447 1:246955.06594376438 2:247033.45547661954 3:247059.88351929368 4:247016.05153742328 5:246946.29764193625 6:246918.34721847984 7:246962.73309175583 8:247044.84511985737 9:247095.0498539861 10:247070.46845324975 11:246993.60501335256 12:246933.29124866443 13:246944.21975333014 14:247018.40943489768 15:247092.07261615864 16:247102.17173259452 17:247042.5433506085 18:246969.7482780863 19:246953.09510896794 20:247012.8072753737 21:247101.51506370035 22:247146.0389908363 23:247112.4709003373 24:247036.64925192727 25:246992.6145235082 26:247026.4772848481 27:247114.46563202658 28:247183.15836879078 29:247174.45203227608 30:247097.6585406596 31:247022.2602502556 32:247017.03236895264 33:247089.03114569437 34:247176.98105884626 35:247205.49539699822 36:247152.13699348178 37:247067.759210912 38:247031.7003154871 39:247081.06438126555 40:247177.10720759913 41:247239.33522416418 42:247217.30814173102 43:247136.21423220297 44:247075.27288627537 45:247097.30423738674 46:247191.79581829862 47:247282.91803846013 48:247296.2301259307 49:247225.08964654725 50:247137.62309110136 51:247117.21797922542 52:247188.48353399904 53:247294.70611597935 54:247347.7083067446 55:247306.25059524257 56:247213.40102829356 57:247159.2049524547 58:247200.78681800253 59:247310.62318916272 60:247399.81988894136 61:247396.43670921697 62:247309.54033853378 63:247221.99514527735 64:247217.52754577072 65:247306.11436715964 66:247414.51045252822 67:247451.17152046433 68:247388.1162327895 69:247286.90285889804 70:247244.91711261065 71:247308.60295730337 72:247430.8439360418 73:247511.51315390505 74:247485.86835623055 75:247382.48028228935 76:247298.97104302785 77:247316.0114091828 78:247425.3913201633 79:247536.88785484087 80:247558.58962450892 81:247479.3145452541 82:247379.58823726058 83:247360.44410134104 84:247452.3874000832 85:247586.1969646493 86:247653.07289523192 87:247601.35377846903 88:247483.82971078157 89:247412.72253019828 90:247460.6512726669 91:247595.18231724645 92:247706.4826750372 93:247704.55607526423 94:247599.86936737553 95:247495.3543918866 96:247495.4226803506 97:247611.7879222491 98:247750.95299092625 99:247796.2321474683 100:247712.08968610514 101:247577.9889081027 102:247520.29607494833 103:247600.63095160216 104:247759.77810592976 105:247868.77820500347 106:247842.95456718694 107:247717.9101540946 108:247619.4746071034 109:247652.36305065456 110:247805.46728772676 111:247959.53185845594 112:247992.14731614655 113:247887.30154641677 114:247751.94281378624 115:247722.9912971042 116:247845.18799348915 117:248028.91812452013 118:248127.77114982568 119:248068.11407026963 120:247915.92838212423 121:247820.585047922 122:247882.8742733713 123:248063.6992286158 124:248216.7050969979 125:248217.62799811253 126:248075.964199272 127:247929.4456376494 
1.0 0:247923.79844644203 1:248082.3463188207 2:248282.69067773386 3:248363.74191900642 4:248268.97385067042 5:248098.8482766985 6:248024.26102540203 7:248134.77223586434 8:248356.34269302833 9:248514.59146772852 10:248489.0430931626 11:248321.6765781637 12:248182.60388028156 13:248220.14995689786 14:248426.67283960988 15:248642.04012281675 16:248694.60296541825 17:248555.09689592037 18:248366.43406267135 19:248319.9900658536 20:248484.5139339388 21:248740.88638997512 22:248884.9122995436 23:248808.72133542315 24:248599.95672376823 25:248468.80263225705 26:248562.69756969952 27:248831.6977466018 28:249068.31519748765 29:249089.88527065972 30:248902.39509644176 31:248699.8899177367 32:248695.58145061616 33:248930.28907331947 34:249231.12941747054 35:249362.2353973198 36:249235.22800805216 37:248992.63874986026 38:248886.95341112558 39:249056.1922369567 40:249395.1459088079 41:249643.1380014962 42:249614.15979100124 43:249365.8254928598 44:249155.6409593247 45:249216.12509840942 46:249543.65129516748 47:249894.12789276757 48:249995.99841035547 49:249793.28515157517 50:249503.09799013747 51:249430.70514094902 52:249697.23488259577 53:250123.57075235937 54:250382.7508017999 55:250289.57095339583 56:249971.4068994244 57:249765.63546384368 58:249923.40795417628 59:250378.1336277948 60:250794.04850019285 61:250859.89196121183 62:250569.03454540292 63:250237.442250899 64:250233.16188585135 65:250645.09120391024 66:251191.01548358824 67:251459.72465673435 68:251276.53930209455 69:250869.6335777678 70:250683.26610669188 71:250985.56212519435 72:251615.79704724473 73:252112.34408613775 74:252117.70692384173 75:251703.91964241845 76:251328.75471547374 77:251442.32468852 78:252076.23497985725 79:252794.31328319083 80:253068.1487857751 81:252749.13622869665 82:252221.7485988904 83:252088.0630694693 84:252632.27468861692 85:253541.641262963 86:254161.44873719505 87:254070.7247211872 88:253473.5580833107 89:253055.7411074092 90:253394.61373277364 91:254420.45443261313 92:255440.0846415458 93:255732.8557891334 94:255198.15787102078 95:254489.5262115607 96:254483.05456548752 97:255489.9572696126 98:256925.20269584202 99:257785.25812616572 100:257530.58446796454 101:256607.641674395 102:256138.82282170077 103:256960.19830172675 104:258813.24748171272 105:260490.08705413557 106:260863.49477837648 107:259910.42155860708 108:258857.30473816715 109:259221.4113654193 110:261428.06039773973 111:264278.62320515845 112:265895.9983559096 113:265355.8208043185 114:263651.51276769117 115:263136.6939110557 116:265586.1889728867 117:270385.01729510474 118:274737.62822798523 119:275910.4004500051 120:273689.90776124946 121:271320.5298820561 122:273812.81197602366 123:283837.8552876859 124:298551.8873829262 125:310844.61722108925 126:313341.95462272497 127:301643.97088424093 
1.0 0:226758.10994314955 1:197985.84410900195 2:168936.44085486987 3:148100.17887657127 4:139868.60888325854 5:140307.4235299165 6:141605.7405295986 7:138987.8983957918 8:132544.83172602576 9:125644.46235020307 10:121842.07392879212 11:121782.42080620963 12:122962.54881566686 13:122488.0098478508 14:119464.42714271252 15:115330.62800430479 16:112465.91619681164 17:112050.62690523827 18:113046.06517500078 19:113380.13152525632 20:111858.97825378762 21:109024.25462149028 22:106577.18205429331 23:105854.25921035964 24:106602.92223372174 25:107320.49659743835 26:106708.0913178638 27:104740.78905284825 28:102606.12780257211 29:101644.43896131325 30:102117.04569526186 31:103001.62136506292 32:103009.20199401381 33:101716.76191970924 34:99872.3781218207 35:98725.83649944872 36:98893.56329714754 37:99791.81436034455 38:100231.70823602228 39:99507.36367899996 40:97971.30685239329 41:96710.02087464734 42:96572.7983588236 43:97379.98928099472 44:98118.89585938318 45:97897.1766263676 46:96707.43350630446 47:95413.32971997617 48:94989.220380486 49:95619.90061128723 50:96535.93983728014 51:96753.63436941238 52:95947.90517545294 53:94715.04577384933 54:94052.9439971798 55:94453.03182513319 56:95435.56596247085 57:96017.17776510942 58:95607.94174680374 59:94512.49857785499 60:93666.88226415207 61:93803.76682954267 62:94760.33219074275 63:95637.67933054251 64:95638.0223243551 65:94760.71131462186 66:93803.46363595489 67:93667.3715636923 68:94517.58632297063 69:95620.64287402664 70:96036.18983380352 71:95454.73935491199 72:94464.87959138633 73:94054.37554827365 74:94710.40891063312 75:95945.35328275943 76:96757.87128717723 77:96543.99852541745 78:95623.1393971406 79:94980.41078055896 80:95393.65918827806 81:96686.38122471889 82:97884.79076573328 83:98118.00668997024 84:97384.44130578567 85:96572.4587334042 86:96699.1366840262 87:97952.96756843627 88:99489.27893653368 89:100217.99888101938 90:99778.76046647572 91:98872.53356453388 92:98691.38028526209 93:99828.41162653598 94:101673.73528835524 95:102974.96826736492 96:102975.1066742192 97:102089.5707482959 98:101607.80827753016 99:102561.25430782388 100:104697.59155065219 101:106675.86382304692 102:107298.60904877575 103:106579.63364080629 104:105814.93458714405 105:106517.19559672906 106:108954.34114567372 107:111795.57756121756 108:113330.91019550401 109:113003.69008685712 110:111998.72720868114 111:112394.48588903988 112:115248.15189903058 113:119391.18779855387 114:122436.6344035275 115:122924.5443648163 116:121729.65220127802 117:121746.11468114021 118:125505.06414397384 119:132395.20840153893 120:138865.99425145556 121:141522.77992513013 122:140231.73123051782 123:139731.07027545932 124:147842.78533049632 125:168574.14907839065 126:197587.4363853514 127:226388.8684998427 
1.0 0:247621.8034064854 1:257278.5168686741 2:255272.7204667407 3:245205.73302260163 4:233128.19972038973 5:224885.30329851393 6:222827.5800507937 7:224773.7574313267 8:226609.58001931148 9:225662.61933554226 10:222099.22998941838 11:218160.4564440322 12:216145.471425175 13:216566.77420465724 14:217971.66281158317 15:218425.84851925095 16:217107.75536433992 17:214770.88469498433 18:212955.085082233 19:212647.8928360334 20:213505.1876809047 21:214283.92806432195 22:213976.27542165274 23:212598.6875510602 24:211075.36362778684 25:210399.1236135894 26:210784.48401565698 27:211545.9401745179 28:211760.3635363936 29:211058.14196524917 30:209880.07022546316 31:209050.5278144644 32:209052.7278973131 33:209634.2846547567 34:210076.9625746404 35:209842.73126239085 36:209011.65267329838 37:208173.70394666906 38:207898.12969211547 39:208243.4679454108 40:208736.55452690067 41:208813.73485533998 42:208305.91056831653 43:207557.72057483558 44:207107.38036305967 45:207213.67989396182 46:207644.98552830878 47:207906.82244306675 48:207681.55457083494 49:207088.99666617217 50:206562.52014913168 51:206462.2605756697 52:206765.59547890569 53:207105.2876985033 54:207105.2643315394 55:206703.9397678267 56:206191.9322189741 57:205946.7843975808 58:206101.10713910934 59:206436.55868854874 60:206589.60873578006 61:206372.57421400733 62:205927.41202474252 63:205590.5533717769 64:205593.95344720737 65:205866.23139439276 66:206106.90500836563 67:206056.964167722 68:205720.58418851416 69:205351.21184035364 70:205222.99441380563 71:205390.62305297604 72:205649.2338358497 73:205723.3449562705 74:205508.98415807108 75:205157.65971819268 76:204936.73845504734 77:204992.61786649903 78:205226.1399428797 79:205387.71269385415 80:205300.22042196355 81:205010.2928505684 82:204740.91930607808 83:204692.0890330186 84:204866.23624043915 85:205072.0329098075 86:205097.83540405423 87:204896.2705972533 88:204620.04015310874 89:204483.0877898853 90:204571.56906304084 91:204771.8316151606 92:204876.3451156321 93:204768.26241629806 94:204520.8947874283 95:204328.9980367776 96:204335.34504450366 97:204506.3292625824 98:204665.74478792038 99:204652.6500904421 100:204460.9839475004 101:204240.69451021153 102:204163.0674760072 103:204270.11080354953 104:204440.94949576526 105:204502.2599584917 106:204381.22393061782 107:204166.51202092756 108:204027.18355952905 109:204062.90391436726 110:204218.09731959808 111:204334.70921133287 112:204293.3326072198 113:204116.4811176661 114:203945.53335658097 115:203914.24508933816 116:204031.24394916373 117:204175.11753162736 118:204203.97280531048 119:204079.9877331564 120:203900.06291884495 121:203808.25095466463 122:203868.38740439116 123:204009.5680810688 124:204091.32763222134 125:204028.1420370977 126:203862.87047523275 127:203726.79035746955 
1.0 0:203723.2679255928 1:203838.10851782895 2:203955.0644441902 3:203960.24937773397 4:203841.33865625333 5:203695.4219812524 6:203641.03650009926 7:203713.23333026914 8:203834.5374787516 9:203885.88685124912 10:203812.33232516662 11:203669.89227658222 12:203574.09298513047 13:203597.08337996 14:203704.8386614776 15:203789.45233291562 16:203765.8792691395 17:203646.37071897858 18:203527.96260818277 19:203505.58308369937 20:203588.32047956996 21:203692.97458203833 22:203719.23374136927 23:203638.26452010902 24:203516.61554509326 25:203455.72247650474 26:203501.3994299683 27:203603.80678261176 28:203662.81703637657 29:203617.12147766293 30:203497.7763425734 31:203399.89570641518 32:203398.3859666926 33:203482.54375432126 34:203567.1811074188 35:203569.17116636204 36:203480.62688583095 37:203374.59596366104 38:203339.36556817632 39:203400.034457076 40:203496.9150217769 41:203539.19258066078 42:203485.13653544715 43:203377.88324930248 44:203306.18776264926 45:203325.53243418277 46:203409.62379425907 47:203474.91369229186 48:203455.32771134 49:203360.45519771348 50:203266.40812443674 51:203248.19245640497 52:203313.65735267862 53:203397.40949415092 54:203419.32104166943 55:203355.02113645815 56:203256.4168545333 57:203205.12509676002 58:203240.4733907218 59:203325.73569445903 60:203381.81613903225 61:203357.36805056175 62:203272.98800087246 63:203201.3552833831 64:203201.89632441074 65:203268.3061857267 66:203335.30933318238 67:203337.6863254825 68:203268.30754103846 69:203183.91409296758 70:203154.18637763956 71:203199.6759511554 72:203273.87982036994 73:203305.05470484926 74:203259.97828766666 75:203173.06073007625 76:203115.52842500494 77:203132.27302656503 78:203202.41849867615 79:203258.4214390608 80:203246.17293593692 81:203172.54962845892 82:203098.78406506198 83:203085.9988625114 84:203141.23449661265 85:203211.68440407264 86:203231.72885284913 87:203180.57103738034 88:203099.75330097452 89:203055.80858472793 90:203081.50893006608 91:203147.77060123126 92:203190.65522014713 93:203168.659811639 94:203099.17250084365 95:203042.26517780457 96:203046.7294884845 97:203106.52213427026 98:203166.32697048376 99:203170.87120126217 100:203113.81526360504 101:203043.05045716313 102:203018.06423483978 103:203057.2740624102 104:203122.04022706524 105:203151.27883461033 106:203115.542100571 107:203042.698747973 108:202992.9495556415 109:203005.56540457392 110:203064.54868673268 111:203113.43730754143 112:203105.58645459206 113:203045.10610876314 114:202982.60068149847 115:202969.9845776307 116:203014.62306965346 117:203073.42543603317 118:203091.68904426356 119:203051.70386951065 120:202988.05543413214 121:202956.47028056617 122:202984.08896481304 123:203045.3934604603 124:203085.02090174457 125:203066.8082930849 126:203005.45110309502 127:202953.06125837876 
1.0 0:202952.84074163117 1:203001.04857292766 2:203050.93402476967 3:203054.74638174853 4:203006.1785827201 5:202945.73409623874 6:202924.5763562478 7:202959.08190161886 8:203016.490051214 9:203044.21344870096 10:203016.43315524573 11:202956.61515815958 12:202916.28827823952 13:202929.11680665752 14:202981.1239796029 15:203023.47848180312 16:203016.19105476784 17:202963.71281091234 18:202910.97068374843 19:202903.4705407204 20:202946.86163019593 21:203001.88023711494 22:203019.06266628744 23:202982.2812937294 24:202922.66345157384 25:202890.8283037248 26:202912.09944475247 27:202964.36972597972 28:202998.1250546544 29:202980.58333818096 30:202924.74350962436 31:202877.8207852148 32:202879.42429854508 33:202926.51499092692 34:202976.17663926058 35:202983.5766687394 36:202941.37122391482 37:202885.89183555945 38:202864.8933727388 39:202895.41801055084 40:202948.9859847614 41:202977.00136996666 42:202953.59024982192 43:202898.03610535618 44:202857.3650753283 45:202864.7473638415 46:202910.56467704911 47:202951.59410870608 48:202949.7706422276 49:202905.95547237995 50:202859.01509030152 51:202851.31141610836 52:202891.24386605006 53:202945.93499095034 54:202970.2154831599 55:202945.90057875594 56:202896.73446224525 57:202866.33061418554 58:202879.1413223403 59:202919.28461457192 60:202945.83291218098 61:202930.40602948403 62:202883.18130021018 63:202844.091398655 64:202847.07991435466 65:202889.35159896058 66:202933.23894593003 67:202939.19502587485 68:202900.6712417745 69:202850.04943880302 70:202830.36385578327 71:202857.66593416236 72:202907.18656499716 73:202935.36630276736 74:202918.0625656914 75:202871.25255230907 76:202836.34271934422 77:202843.40939247923 78:202884.9973002858 79:202923.49248915497 80:202925.0377200134 81:202889.51436607048 82:202850.0474442894 83:202842.77524950876 84:202874.05012195616 85:202914.5022780484 86:202925.31336066863 87:202893.20650988823 88:202842.96031855547 89:202816.21298308056 90:202835.12975078737 91:202883.00851256828 92:202918.9668889202 93:202913.6270199531 94:202874.30837355158 95:202837.79173150047 96:202837.3637170611 97:202873.4263995217 98:202913.6230504797 99:202922.0287241297 100:202891.17571352315 101:202848.50735324068 102:202831.7445049378 103:202855.2004938415 104:202897.0683018229 105:202918.92392039511 106:202899.91409247354 107:202855.19907547848 108:202822.4023125646 109:202828.20163960228 110:202864.79056137995 111:202897.11108570793 112:202894.24512059774 113:202856.90590183288 114:202816.66261818836 115:202807.70765131034 116:202836.33900637273 117:202875.3736538704 118:202888.4281011618 119:202862.35091394105 120:202818.98371517545 121:202795.88307471335 122:202813.13555855016 123:202855.737150599 124:202887.11482887075 125:202881.55101240918 126:202846.5787397911 127:202815.58756040857 
1.0 0:202817.44693911294 1:202850.41383955922 2:202883.7554082168 3:202885.6088065203 4:202852.02932437227 5:202811.11953958176 6:202798.32268830013 7:202824.72263457582 8:202866.71009066977 9:202886.510633806 10:202865.5258490836 11:202820.96978806006 12:202790.98310693982 13:202801.19755159164 14:202842.24222419094 15:202878.14211824487 16:202878.14735807775 17:202843.7762168524 18:202807.19407876965 19:202802.39494529538 20:202834.72437075296 21:202875.8718771488 22:202888.86680342074 23:202860.92296262804 24:202815.05704868157 25:202790.15236598125 26:202806.93963857356 27:202849.88993744124 28:202881.00988637775 29:202873.259594762 30:202834.07496369252 31:202798.41294446023 32:202797.64447780012 33:202831.88250758903 34:202870.2210119188 35:202878.45979045486 36:202849.49090155252 37:202809.39631300129 38:202793.99543457106 39:202816.80683835907 40:202857.05114949882 41:202878.42268294984 42:202861.80375137864 43:202822.66926753646 44:202797.5570434138 45:202811.44091689575 46:202854.98210099485 47:202892.0946146641 48:202891.34303139604 49:202853.48804661684 50:202810.87750923217 51:202799.14333790186 52:202826.08228754933 53:202865.2000018993 54:202879.58084311936 55:202854.8581001816 56:202812.11799281245 57:202789.36382298748 58:202807.8831454958 59:202853.25012163437 60:202887.7873110972 61:202883.40976729718 62:202845.85044928052 63:202809.0858179103 64:202805.10197350383 65:202835.8382244067 66:202872.11703696416 67:202880.24976490342 68:202852.38925106885 69:202813.58281053646 70:202799.31492718688 71:202823.57788371417 72:202866.0341875956 73:202889.8589406095 74:202874.42318881876 75:202833.75155215585 76:202804.3023719 77:202812.7522124658 78:202852.28613671946 79:202888.5081781498 80:202889.7851656625 81:202855.15207307306 82:202815.13617590896 83:202804.77466907064 84:202832.65635826765 85:202873.41826104594 86:202890.33181358874 87:202867.89237388872 88:202825.5814597749 89:202800.7094000606 90:202815.5278724673 91:202857.71156323366 92:202891.4355321954 93:202889.04585607268 94:202855.16548736606 95:202822.0324842959 96:202820.43830763368 97:202852.24512108066 98:202889.00218045263 99:202897.77009906547 100:202870.90630591757 101:202833.12549338708 102:202819.452340642 103:202843.6618509244 104:202885.48318551912 105:202908.231443629 106:202891.31787310113 107:202848.75845925504 108:202817.15277393098 109:202823.59040068812 110:202861.8482424121 111:202898.05778969804 112:202900.82904831585 113:202869.06892215618 114:202832.8400431562 115:202826.48937062247 116:202857.87901147708 117:202901.15277563693 118:202919.56527587143 119:202898.06892453515 120:202856.68680846362 121:202832.74608618306 122:202847.64948037732 123:202887.74831070058 124:202916.4937838646 125:202907.14435382554 126:202866.9286416843 127:202831.06974070662 
1.0 0:202831.69346556472 1:202869.02580425102 2:202910.5740895752 3:202919.29247671418 4:202886.00687100407 5:202837.58797916546 6:202813.65445904105 7:202832.21980861793 8:202874.5002396101 9:202902.16674761148 10:202891.54287582444 11:202854.3924043719 12:202827.02137303792 13:202837.50009875887 14:202880.23081244036 15:202920.6011976641 16:202925.60112121073 17:202893.12459463094 18:202853.90171056698 19:202844.26124809723 20:202873.80851407835 21:202916.7878307376 22:202934.9111348844 23:202911.40245374863 24:202866.07894929603 25:202838.08868909784 26:202851.48352114836 27:202894.07585414877 28:202928.3253304054 29:202924.51886170133 30:202886.80447165229 31:202849.1746882851 32:202845.1551843883 33:202878.2218669835 34:202919.26821662224 35:202933.17281561773 36:202910.4634444058 37:202875.67793257764 38:202864.95153668014 39:202892.9268963883 40:202938.84222872672 41:202964.58842237885 42:202948.74480133827 43:202906.12194499146 44:202875.09934947224 45:202883.66121031542 46:202924.28007073503 47:202960.30192148403 48:202958.46137491733 49:202918.72241927765 50:202874.84346088162 51:202864.8625659873 52:202897.44108504563 53:202944.0268670327 54:202964.02461092273 55:202940.7396086145 56:202896.23322267504 57:202871.837006486 58:202891.4426596665 59:202940.16023954964 60:202977.47346131556 61:202973.25070240503 62:202934.54490266615 63:202899.26700024883 64:202902.17173554678 65:202943.36501999223 66:202987.65671099495 67:202995.68056642235 68:202959.21982613608 69:202909.2299668624 70:202889.05100124332 71:202916.17437347485 72:202966.51337066886 73:202995.48446440801 74:202977.46177654798 75:202928.71795856717 76:202893.39340068362 77:202904.555147902 78:202954.64710109794 79:203001.7049658707 80:203006.08700176026 81:202965.3697150817 82:202916.64603464733 83:202904.08139046776 84:202940.18765738033 85:202995.02300275065 86:203022.85491835885 87:203002.5495443284 88:202955.93325790696 89:202928.0069425007 90:202946.6430785596 91:202997.68188515282 92:203037.7079853565 93:203033.04830929753 94:202990.0885289228 95:202949.7915507469 96:202951.13520105538 97:202996.02552190286 98:203047.2773538565 99:203061.7574215791 100:203029.14840440685 101:202981.59132379704 102:202965.20987049348 103:202998.51730818293 104:203054.95112597724 105:203085.7100331941 106:203063.03543151167 107:203005.5643371777 108:202962.9072530301 109:202972.46760941733 110:203026.4421438101 111:203078.5098953561 112:203084.6347680632 113:203042.00539952394 114:202991.64999567994 115:202982.14901792185 116:203026.28883281432 117:203089.20509321248 118:203118.87312984816 119:203092.0886172604 120:203035.24879776718 121:203001.37047843932 122:203023.30907889694 123:203084.4976430585 124:203133.38019723524 125:203128.91212706853 126:203076.87259692006 127:203024.87029477087 
1.0 0:203020.29735575934 1:203068.3315607213 2:203127.39354260112 3:203146.23407791715 4:203109.66182188428 5:203052.27017671728 6:203027.8387127583 7:203061.35375667905 8:203126.39693478635 9:203168.35141779887 10:203152.91188776784 11:203096.74828924076 12:203052.95339529554 13:203063.8864741821 14:203123.23822663756 15:203181.40530276796 16:203189.6591176788 17:203143.79726291724 18:203088.3130543209 19:203076.99859710375 20:203124.69283579788 21:203193.3640436125 22:203225.42583546822 23:203194.86935935728 24:203130.74173571638 25:203091.83957844874 26:203114.6400909606 27:203180.72178962018 28:203233.09070434276 29:203227.119562739 30:203170.6980281937 31:203117.63009290711 32:203119.6794163786 33:203179.77084563964 34:203248.6072907313 35:203268.40062804383 36:203224.94399314138 37:203161.37572755868 38:203140.58313105124 39:203188.86738433887 40:203271.1522253414 41:203320.76415562906 42:203298.0869948678 43:203226.25289246364 44:203171.79829892234 45:203186.43624201 46:203261.0297648202 47:203333.05698621072 48:203341.59818719327 49:203281.42377945082 50:203208.2942122887 51:203190.2402673547 52:203247.3300755217 53:203333.46407535658 54:203376.9051070416 55:203343.82563063165 56:203268.56834620135 57:203223.54473969917 58:203254.86113381 59:203340.73825268357 60:203410.30638556014 61:203406.50399165857 62:203337.22378781345 63:203269.04360516902 64:203268.37582214182 65:203341.82531592867 66:203429.3552159908 67:203457.1997790596 68:203403.82392916805 69:203320.2454388119 70:203285.93342069862 71:203338.39346198062 72:203438.9571093808 73:203506.0721508981 74:203487.16053883548 75:203405.4940608999 76:203340.2924160182 77:203356.80211942174 78:203447.91372375534 79:203539.79167412367 80:203557.1791691824 81:203490.52549659373 82:203405.25100024638 83:203384.24233594327 84:203453.87265319112 85:203559.69289130226 86:203614.38009130594 87:203575.65354891133 88:203484.80052673508 89:203430.94897939079 90:203471.7095721629 91:203580.62757133137 92:203669.39895703443 93:203666.02357141944 94:203579.57395068955 95:203493.58963070624 96:203492.63589482315 97:203586.3489164619 98:203699.38408245338 99:203737.64487091205 100:203672.50947061277 101:203568.09651803458 102:203526.12502977584 103:203595.56179561763 104:203727.2595253995 105:203815.48896069033 106:203790.72849516742 107:203681.93860697548 108:203592.81553822386 109:203611.43008068387 110:203732.23133333225 111:203860.3750450212 112:203895.4629072698 113:203820.5751423995 114:203717.6395104743 115:203694.69553587766 116:203788.56768296007 117:203930.19232209714 118:204005.10476953306 119:203955.87464162806 120:203835.22563503284 121:203761.5065213414 122:203813.967436803 123:203960.46941663188 124:204083.85285176552 125:204085.14980927773 126:203972.3965019797 127:203855.8038784205 
1.0 0:203851.56660164567 1:203977.98608592784 2:204137.3224008479 3:204201.50613842404 4:204126.22491133722 5:203992.0223031358 6:203934.54466460345 7:204023.56225861964 8:204198.46564079588 9:204320.1416405506 10:204294.5687171257 11:204158.42709859076 12:204049.63696520135 13:204086.0347678267 14:204258.42385152285 15:204435.3779798463 16:204478.18987835906 17:204364.69924544566 18:204211.8842076576 19:204174.71818964212 20:204307.98012016565 21:204514.66523781428 22:204630.12593121608 23:204568.63209700424 24:204402.3051903242 25:204300.70407613067 26:204380.77352703566 27:204599.4096231836 28:204787.78910146168 29:204799.94995945226 30:204644.38703773785 31:204481.12928861994 32:204482.8238856441 33:204679.42562335948 34:204926.8138670582 35:205031.67930817357 36:204923.48089610462 37:204721.1272652219 38:204632.39576059257 39:204769.74583052864 40:205045.66777876546 41:205245.76007365136 42:205217.89687000334 43:205010.45738381305 44:204835.80628538635 45:204885.3342535868 46:205156.0374654841 47:205446.9677725562 48:205534.10291789554 49:205370.1013653098 50:205132.14682216648 51:205070.93175111813 52:205287.38729835095 53:205636.56183421996 54:205851.21644655507 55:205778.50807013412 56:205520.55805872488 57:205351.91863308992 58:205478.2714869419 59:205846.8963877979 60:206185.10287224827 61:206239.03256438347 62:206002.35328984485 63:205731.72681856385 64:205726.89543015233 65:206060.6542037356 66:206503.35876051613 67:206719.85050594626 68:206567.57812279824 69:206232.74070715898 70:206078.34006831492 71:206324.06544311106 72:206839.4017468972 73:207247.3038297458 74:207254.68385180927 75:206918.76886158044 76:206612.40768468953 77:206703.50591469367 78:207219.21400311598 79:207804.5191108388 80:208027.93147868823 81:207767.11868569735 82:207335.1749657173 83:207224.0417236231 84:207667.2361743366 85:208410.7465078991 86:208919.77897861163 87:208848.63335429682 88:208361.52497217254 89:208017.35472415137 90:208288.86290708886 91:209122.12753644754 92:209953.7388537511 93:210195.79716883073 94:209764.7498962125 95:209192.23777675675 96:209192.36002074333 97:210019.15620817052 98:211195.32323808878 99:211901.26695477802 100:211695.69272963196 101:210942.91387365575 102:210560.52987878787 103:211233.3255689193 104:212751.61460653137 105:214128.140811387 106:214439.3936143462 107:213663.71400556434 108:212802.4018800139 109:213097.51012303057 110:214900.66205853265 111:217234.9198616605 112:218564.91592333265 113:218131.10521745463 114:216741.99350944092 115:216321.32536192212 116:218323.8151410603 117:222251.77408996294 118:225821.023150867 119:226792.76537947767 120:224987.39271980853 121:223055.92556045315 122:225099.29628157086 123:233310.11623955535 124:245367.95749557094 125:255450.5241176235 126:257508.66360503773 127:247924.64346100294 
1.0 0:239980.84913189348 1:209421.90231741927 2:178636.38474900674 3:156645.3210068965 4:148056.49853096847 5:148608.9798164041 6:149991.7750630588 7:147174.46266224617 8:140301.3660296878 9:132979.2616468684 10:128981.78869676888 11:128961.14149963982 12:130230.09982767995 13:129714.75311068632 14:126485.40870626068 15:122091.22673145405 16:119065.82871504188 17:118649.51336427323 18:119719.79926753267 19:120070.57409177636 20:118444.71299309147 21:115433.12574638828 22:112850.09414983913 23:112106.88961345376 24:112918.19244650888 25:113678.66858988434 26:113014.02902409894 27:110911.04037071839 28:108641.61671476188 29:107629.17491459181 30:108140.69991511213 31:109080.31583437877 32:109079.01605239853 33:107696.35384500548 34:105736.75831052203 35:104530.43601442446 36:104724.87741725417 37:105689.58798203942 38:106157.95668835784 39:105384.98619384816 40:103752.86357904675 41:102419.32128997387 42:102282.63381181342 43:103144.49946101248 44:103926.20257815301 45:103684.51013116521 46:102419.79254684385 47:101054.40653943723 48:100619.96181384631 49:101302.761770961 50:102277.46551824565 51:102499.48594042398 52:101630.74537142689 53:100312.94779341076 54:99609.63828523403 55:100039.26052967313 56:101085.46640243097 57:101700.52785310548 58:101260.6336775903 59:100095.28427929278 60:99202.81937431735 61:99359.99394570426 62:100387.74222678518 63:101325.84475102606 64:101325.87661933742 65:100389.66102549949 66:99367.75018255431 67:99218.90598636433 68:100118.03825518023 69:101285.01356175345 70:101721.23273960823 71:101099.4242901904 72:100046.13042778143 73:99610.67175221255 74:100309.41655306648 75:101623.33631567139 76:102488.93943676326 77:102265.32663151232 78:101291.14336813442 79:100610.29452892981 80:101046.37188631619 81:102411.88275093681 82:103675.8759223865 83:103917.82794844698 84:103138.50334697728 85:102280.14237850941 86:102418.72695149494 87:103750.59365390125 88:105378.4690445112 89:106147.84726619396 90:105679.33480927983 91:104718.03241742299 92:104527.55392640572 93:105734.62852318736 94:107690.64804872916 95:109067.52991087135 96:109063.6550022636 97:108120.35255889752 98:107605.0187870977 99:108611.43629415418 100:110872.902405913 101:112968.88016700273 102:113630.18407771604 103:112869.83700068881 104:112058.38206195903 105:112796.67960875547 106:115369.64717662196 107:118370.85831166778 108:119991.73750910492 109:119642.87520035729 110:118576.66189799504 111:118991.03627932823 112:122004.63906016675 113:126382.71442875991 114:129601.41520752362 115:130116.49181426258 116:128852.30402804658 117:128868.52026267786 118:132841.15749629622 119:140124.09078435905 120:146962.95485136507 121:149767.14966877658 122:148393.67919787223 123:147852.3254762185 124:156417.1824129879 125:178332.36466908242 126:209014.5346420544 127:239479.6273564211 
1.0 0:261944.32014062002 1:272167.5028712162 2:270056.07922599645 3:259417.41310524647 4:246649.50708759663 5:237933.64631273184 6:235756.66265643213 7:237813.80802052582 8:239755.558139353 9:238755.96342817578 10:234990.53825212855 11:230828.72644997473 12:228701.44949250645 13:229150.16620392256 14:230638.0606531408 15:231119.11779560408 16:229724.55731006153 17:227252.24858835957 18:225332.45352313938 19:225011.0629254536 20:225924.06742223146 21:226754.9044528638 22:226434.96737956867 23:224979.76041912762 24:223366.80706502247 25:222648.18217190742 26:223053.30748938123 27:223858.23583252254 28:224085.48721785538 29:223341.845013008 30:222091.89915978035 31:221207.91553085583 32:221203.12198171107 33:221812.9706176581 34:222278.89325945717 35:222031.40802117717 36:221154.2142015423 37:220270.73883532285 38:219983.00574795587 39:220352.75240907323 40:220878.66706925674 41:220963.35784023436 42:220427.38692368072 43:219636.10954997927 44:219160.7139951584 45:219276.45845174525 46:219738.0637018417 47:220020.46806325446 48:219785.52444736206 49:219159.56894652455 50:218602.95552198988 51:218499.4638397454 52:218826.33702082248 53:219193.1716050689 54:219198.18205200834 55:218773.08297290973 56:218225.5133164089 57:217958.64618043325 58:218117.60030004018 59:218473.7689904073 60:218640.84682541896 61:218415.90553875334 62:217945.3345494164 63:217584.45822292383 64:217581.4365148806 65:217864.60295939597 66:218118.25150705126 67:218067.91020897983 68:217716.1037344969 69:217329.56849053715 70:217198.36169627233 71:217381.07773762665 72:217661.01393412382 73:217745.5027148184 74:217522.97521434302 75:217153.2757491178 76:216920.52797570574 77:216981.54749326484 78:217232.20798905415 79:217407.20167529662 80:217316.8877476343 81:217009.40306794798 82:216721.81122924158 83:216668.38686707924 84:216853.55045465837 85:217074.01603154896 86:217102.8146924355 87:216887.24359716332 88:216589.3723758899 89:216439.4133865212 90:216533.01764128194 91:216751.38590215732 92:216871.79276655518 93:216764.8717070424 94:216503.94363918915 95:216295.3667745087 96:216294.67111563307 97:216471.3248618365 98:216640.52666017727 99:216629.20490982794 100:216426.35192285036 101:216188.24520892272 102:216098.14334840147 103:216205.46404974902 104:216386.28865317124 105:216457.08445765343 106:216336.73038390183 107:216114.2153859738 108:215966.3882188134 109:216000.6568069827 110:216162.1300795343 111:216286.05323433693 112:216245.27151751283 113:216060.56176601545 114:215879.10971772516 115:215842.8710322135 116:215963.90447531524 117:216116.6217276942 118:216151.1749417781 119:216024.86946528536 120:215836.6719802774 121:215737.45462101515 122:215796.70936190445 123:215943.74047471627 124:216033.74332816384 125:215976.9777958389 126:215815.86354585216 127:215684.20720796648 
1.0 0:215686.7121499232 1:215806.30404049138 2:215921.23931534638 3:215914.730237484 4:215778.1925701545 5:215617.75542665453 6:215559.87824020014 7:215640.0076687986 8:215772.82041024184 9:215829.19396929728 10:215749.86486929408 11:215595.58056070886 12:215491.49011386363 13:215516.04367882616 14:215632.83912502593 15:215725.0338312514 16:215699.85150260178 17:215569.74346289883 18:215439.82762585083 19:215414.1366487418 20:215503.95792639555 21:215619.18590251164 22:215648.990233339 23:215558.99241789995 24:215419.77551885674 25:215343.3375992994 26:215384.44136139686 27:215494.0306754458 28:215564.84577010214 29:215526.90026089895 30:215407.8419255311 31:215306.36032006075 32:215303.6337033137 33:215391.7887210897 34:215482.51831137695 35:215486.75378318765 36:215393.51676610552 37:215278.664022891 38:215236.95922360127 39:215298.1534301469 40:215401.4958377534 41:215450.4777173719 42:215398.00997381352 43:215286.6332437278 44:215209.42154809556 45:215227.05368647142 46:215314.76096634887 47:215385.76820848353 48:215369.15672687753 49:215272.38049253903 50:215173.75134762662 51:215152.45120411442 52:215218.46034222274 53:215304.5442598594 54:215326.66340708002 55:215258.33163055507 56:215153.29954069285 57:215097.3759107018 58:215132.4695070237 59:215220.18641861557 60:215276.76626981242 61:215247.37724444811 62:215153.71157512226 63:215073.62299025772 64:215071.6239842309 65:215142.09246365496 66:215215.37133198505 67:215220.46512026453 68:215147.9646544448 69:215057.7669442709 70:215025.47156495502 71:215075.28353614215 72:215158.98371649324 73:215199.18109852765 74:215157.7271619436 75:215068.68115907983 76:215007.37366382114 77:215023.45205281032 78:215097.36054343838 79:215158.58914396467 80:215148.70542698517 81:215072.81392054053 82:214994.30261116853 83:214978.12614323993 84:215033.1613521935 85:215104.82202482963 86:215124.06493601957 87:215068.74126380682 88:214983.01753057007 89:214938.11293357308 90:214969.2583863227 91:215044.71933492518 92:215094.13431625703 93:215070.58934389724 94:214991.4854684859 95:214922.69607620485 96:214920.4427348075 97:214982.2570700037 98:215050.07683217368 99:215061.98238530877 100:215006.27747481727 101:214930.57139291606 102:214898.7468016237 103:214934.4105218299 104:215000.92459729954 105:215035.09298881548 106:215003.6854716061 107:214932.42450945431 108:214882.28922734648 109:214894.74821942177 110:214954.8827180145 111:215005.13195129193 112:214996.90673397487 113:214933.7891120412 114:214868.1252679811 115:214854.3284406605 116:214900.4907846718 117:214961.36332207167 118:214978.7401224679 119:214933.07563312651 120:214860.67756835924 121:214821.59882819478 122:214846.79713435713 123:214911.33791191768 124:214957.0929783904 125:214944.23018368878 126:214885.66840244614 127:214834.44233057857 
