svm_type c_svc
kernel_type rbf
gamma 0.007874015748031496
nr_class 2
total_sv 424
rho 0.6052631578947368
label 1 -1
nr_sv 120 304
SV
1.0 0:136487.29352396776 1:119054.3158142398 2:101375.16125730716 3:88693.16086429992 4:83774.77934760542 5:84203.7045057282 6:85129.86419805497 7:83593.42077170804 8:79652.69206864237 9:75404.16484340151 10:73078.2583286262 11:73094.71323385913 12:73892.66338454842 13:73657.39707128037 14:71820.10114060003 15:69270.64533432313 16:67499.40409041238 17:67259.66837829535 18:67912.74954654902 19:68162.4454330889 20:67254.15619674887 21:65515.600368113715 22:64005.88092225559 23:63567.80900180304 24:64053.84340279393 25:64528.46131407281 26:64176.09531449244 27:62972.495380622386 28:61652.7853937084 29:61056.62549801496 30:61356.20433186529 31:61919.550603285956 32:61941.83099386782 33:61153.29739187093 34:60014.03667949009 35:59302.986000125726 36:59410.93754006878 37:59980.528245994086 38:60272.40169471704 39:59842.952222108615 40:58904.89021845103 41:58130.19902480034 42:58049.1878575245 43:58555.249558397714 44:59022.32995969834 45:58895.82898339495 46:58167.84456124865 47:57371.16725880147 48:57110.34401386363 49:57502.311249662605 50:58071.60676675032 51:58208.513452150124 52:57710.42172204718 53:56945.86771105344 54:56534.36262486853 55:56782.92818129922 56:57395.28388037279 57:57761.09245936083 58:57512.76462722953 59:56836.91001937425 60:56313.23251686187 61:56397.946894034845 62:56992.34623457527 63:57539.52922061567 64:57543.168180055334 65:56999.51415013824 66:56400.750831487574 67:56307.42301976718 68:56827.27874630973 69:57510.239405389155 70:57774.25965856666 71:57423.722366937516 72:56816.97571452397 73:56562.106489016725 74:56962.85516051067 75:57722.95521146781 76:58227.01662994351 77:58100.67589545793 78:57535.58049392919 79:57134.45951133613 80:57377.31830285651 81:58160.83441953013 82:58891.00907565367 83:59033.54697996544 84:58584.07483796101 85:58083.20414290162 86:58153.298848248145 87:58912.66809925934 88:59848.02410660025 89:60294.35273606352 90:60030.091728733554 91:59480.12047367577 92:59369.37309467805 93:60059.01098236027 94:61177.98733791673 95:61964.38904610017 96:61958.012146174915 97:61412.028653331385 98:61111.69397001171 99:61685.508994218326 100:62980.24958249142 101:64179.903224040514 102:64555.75610931474 103:64115.17064615328 104:63644.638454212414 105:64063.12943111072 106:65534.22390761132 107:67250.84058231385 108:68175.7984894456 109:67971.13256097499 110:67354.26718887466 111:67584.86406202085 112:69304.63741040794 113:71807.1357095208 114:73648.26624790391 115:73944.60419514115 116:73223.12461565189 117:73229.82942298781 118:75491.28601466437 119:79637.99560709721 120:83529.17997305999 121:85120.5883193416 122:84334.77418336763 123:84029.35009800791 124:88915.01504465798 125:101396.69491359443 126:118854.14441498173 127:136173.9461377937 
1.0 0:148933.79065939056 1:154728.97467551462 2:153513.72863488414 3:147457.8459326523 4:140199.35794448928 5:135247.3907277233 6:134008.73836255982 7:135171.00402117512 8:136265.79172354675 9:135692.55966808446 10:133553.76596836312 11:131193.77352945134 12:129988.6492564405 13:130242.42692893565 14:131083.31316170414 15:131353.44946130377 16:130562.50255124866 17:129162.69610024597 18:128075.552749119 19:127891.22365239428 20:128403.61541329394 21:128869.75467016542 22:128687.25500796418 23:127865.1578323655 24:126954.07454496615 25:126545.78290095051 26:126768.8280824197 27:127216.06197523356 28:127338.60641317876 29:126916.4186554604 30:126211.1198494284 31:125712.3664380601 32:125707.50936427449 33:126047.55899339917 34:126307.07677109411 35:126167.15287961955 36:125674.93457952404 37:125179.38891043373 38:125016.97306305547 39:125221.85955237548 40:125513.82018620128 41:125559.29923203292 42:125258.23411051229 43:124814.43565843484 44:124546.27246567539 45:124607.22202351228 46:124861.18161055254 47:125016.53286918443 48:124885.41990944119 49:124537.58252712923 50:124227.56887963308 51:124167.13417374618 52:124343.17492282229 53:124540.07834666401 54:124537.03016591376 55:124298.08220497165 56:123994.3310513031 57:123847.95798012547 58:123937.1604296768 59:124133.72328648838 60:124223.7179678178 61:124096.12435562655 62:123833.5066037183 63:123633.08088241787 64:123631.45458625919 65:123787.68897468431 66:123926.21816189763 67:123895.09948481576 68:123696.20310108608 69:123477.65810313166 70:123400.3793266376 71:123497.27022672846 72:123649.02760964468 73:123694.07117269012 74:123570.34093934558 75:123365.29589798681 76:123235.19817202303 77:123266.84929881348 78:123403.88743835776 79:123500.99898468453 80:123453.48575626078 81:123286.3161921696 82:123128.0263243361 83:123095.61413087689 84:123192.57575787276 85:123309.5922675561 86:123323.99777978376 87:123206.99551647542 88:123045.66722402028 89:122963.77417300151 90:123012.47843050153 91:123127.57759425245 92:123189.35572155655 93:123128.83466064907 94:122986.19623720756 95:122872.6684776164 96:122871.39416437036 97:122965.22773409204 98:123054.66108859624 99:123047.4313082817 100:122938.82186466038 101:122813.35561746033 102:122768.56729809719 103:122828.87444079215 104:122925.64582974363 105:122959.6073757165 106:122888.2801677856 107:122761.60848044127 108:122676.48481367053 109:122691.36578304414 110:122776.44607322007 111:122842.53045614458 112:122820.89208529855 113:122722.62612238972 114:122626.69068623388 115:122608.86658503849 116:122674.9670153239 117:122757.17947283 118:122775.27756230123 119:122706.98985185265 120:122605.91259426253 121:122552.77437574559 122:122583.91935157201 123:122660.38137737657 124:122704.10449142102 125:122667.6084229902 126:122575.08520975226 127:122499.81793508753 
1.0 0:122498.85155527564 1:122562.98751073967 2:122626.11931438993 3:122624.45000523186 4:122552.30333333081 5:122465.90303967946 6:122432.87369575836 7:122472.49882312336 8:122539.56206071202 9:122565.33065918818 10:122518.34396782341 11:122431.4129766205 12:122372.0711393631 13:122383.1587063888 14:122446.04557908056 15:122498.47417625647 16:122490.06017127853 17:122425.88414114414 18:122360.57930163019 19:122349.2005869483 20:122398.69276529895 21:122462.69570599364 22:122483.29084423176 23:122441.70255351781 24:122373.34961533714 25:122335.02104044953 26:122354.00157570462 27:122404.50671023512 28:122431.92654669679 29:122402.37311328668 30:122333.12416462912 31:122277.34892243073 32:122276.9898534604 33:122325.69006315152 34:122374.62777029317 35:122375.65568668651 36:122323.24649218854 37:122258.6390581176 38:122233.14889616903 39:122263.22708090227 40:122316.84794242312 41:122342.66434927253 42:122315.36229481766 43:122257.1395019055 44:122217.09600870097 45:122227.3724724866 46:122275.06320493777 47:122314.52675591083 48:122308.41796952373 49:122260.6028413221 50:122212.12272828403 51:122204.28784260042 52:122241.87710769741 53:122289.14065339896 54:122301.79736066758 55:122266.18658377006 56:122210.97259397554 57:122181.44214274795 58:122199.35268946803 59:122243.95354173628 60:122270.82126676558 61:122251.37413456172 62:122197.96143516658 63:122152.69031028834 64:122150.14871816819 65:122187.06891723601 66:122225.70604194699 67:122227.55969860859 68:122187.28464780824 69:122137.0230209123 70:122117.7019936704 71:122142.81319616892 72:122186.7185365443 73:122207.6042991369 74:122184.41393277403 75:122135.1517328107 76:122100.77293616775 77:122109.08159571448 78:122150.48826705411 79:122186.82577332712 80:122184.99100529637 81:122145.53291315449 82:122101.39245882594 83:122088.45610019634 84:122114.15730810325 85:122151.7604191521 86:122164.85297363669 87:122139.7761068473 88:122097.26164780161 89:122073.41639258557 90:122087.29992791187 91:122124.05168342766 92:122148.44864585409 93:122136.475541303 94:122096.6755919138 95:122062.47768039702 96:122062.44921637594 97:122094.91810046752 98:122129.49915273086 99:122134.02192136088 100:122102.85230910381 101:122061.68350238955 102:122044.77066258762 103:122064.78066591675 104:122101.87289456258 105:122121.4694276973 106:122104.70310022679 107:122064.64098724561 108:122034.2837117677 109:122037.21690444242 110:122066.96099380501 111:122093.19694735695 112:122089.030930409 113:122054.93697201513 114:122018.31706912212 115:122009.26671302604 116:122034.04722920524 117:122069.69978847404 118:122084.35570112312 119:122065.03767133347 120:122028.48308128316 121:122005.80592491399 122:122014.84751955917 123:122044.76177415317 124:122066.29344922987 125:122058.20835554409 126:122026.17482113629 127:121997.45402716745 
1.0 0:121996.32490753653 1:122022.23947768776 2:122050.23912455312 3:122053.21691815321 4:122026.14026749179 5:121990.75113689993 6:121976.58014641092 7:121994.9922556933 8:122029.17779057525 9:122048.87760985123 10:122036.71928058281 11:122002.99579782411 12:121976.14337488101 13:121977.55020730736 14:122003.001072172 15:122027.02878454055 16:122025.9832840761 17:121999.13573386786 18:121969.1918058416 19:121961.95104678746 20:121983.2700039628 21:122013.82735954627 22:122026.2684815967 23:122009.38028633717 24:121977.8764478451 25:121959.23548599349 26:121969.28085634563 27:121998.12711611154 28:122018.9064879397 29:122011.44491168215 30:121979.94455984283 31:121949.22679869861 32:121942.99724924247 33:121963.33098681433 34:121989.3789759044 35:121996.15183181639 36:121976.5183869646 37:121947.04165459545 38:121932.80483105914 39:121944.94520103371 40:121970.94793505406 41:121986.21620049882 42:121976.35104573518 43:121950.13780920052 44:121931.6699066296 45:121938.63291251741 46:121966.14270783047 47:121990.6724714146 48:121990.69068469638 49:121965.7436267074 50:121937.09530300119 51:121929.25186257197 52:121948.51400354081 53:121977.40698692056 54:121989.87479082892 55:121973.85687855656 56:121941.5523069305 57:121918.6139667238 58:121921.90149025913 59:121945.28680047588 60:121965.73056192105 61:121963.87617135688 62:121940.82626848908 63:121916.54846539207 64:121911.74395593275 65:121929.49929852545 66:121952.96819820204 67:121960.81783612189 68:121946.3333059006 69:121923.08997491766 70:121912.32309047609 71:121923.50166050598 72:121945.6550345336 73:121957.28041302819 74:121945.89223160889 75:121919.61756569956 76:121900.3478911149 77:121904.38181277041 78:121927.73447887463 79:121949.29470239981 80:121949.16942460003 81:121926.05930868359 82:121898.38065317627 83:121888.15122964527 84:121901.80728824656 85:121924.83579034399 86:121934.86511251377 87:121921.5260164053 88:121895.55178574465 89:121879.20997067205 90:121886.60499741415 91:121911.26805240594 92:121931.92270952238 93:121931.15625742436 94:121910.42597888406 95:121888.31490840593 96:121883.8490760636 97:121899.81285706142 98:121920.8213891449 99:121927.58780241542 100:121914.3665884863 101:121893.92718177281 102:121885.72938015047 103:121898.03526136311 104:121920.13704022764 105:121931.77896638395 106:121921.34589878377 107:121896.49937620839 108:121877.66902845376 109:121880.07533497088 110:121900.2601398658 111:121919.18884075516 112:121919.1973928539 113:121899.67961809698 114:121877.54343790501 115:121872.00508005072 116:121887.26334653687 117:121908.60517341066 118:121915.54926000771 119:121900.34964385985 120:121875.3041607395 121:121862.1596770668 122:121872.78742539391 123:121898.25720121407 124:121916.2242096469 125:121910.34616946722 126:121884.71963427178 127:121860.58211033687 
1.0 0:121857.98170994157 1:121878.33779447411 2:121903.18630785566 3:121910.25314985821 4:121892.80801539311 5:121865.46005374227 6:121851.43356183656 7:121862.46597533126 8:121888.84879735103 9:121908.1534328255 10:121904.75504085471 11:121883.00154519326 12:121862.75637302581 13:121861.6006742483 14:121879.56344938428 15:121899.75555729997 16:121903.96985666179 17:121889.05536955985 18:121869.46613494767 19:121863.90580381225 20:121878.20525635689 21:121899.89900526614 22:121909.39675412406 23:121897.68119291126 24:121874.61229411399 25:121860.3195176916 26:121867.26238863438 27:121888.97184337505 28:121905.63878726352 29:121901.67693803036 30:121879.66795000849 31:121858.26722841684 32:121855.81696071365 33:121874.1128848588 34:121896.75359347906 35:121903.60207118612 36:121888.5815522765 37:121865.09501166186 38:121854.28051537195 39:121866.42743894644 40:121891.9368026423 41:121909.76795738272 42:121905.8165126605 43:121884.98587781232 44:121866.44807291115 45:121866.48165544009 46:121884.20278144251 47:121902.81525735105 48:121905.04553303795 49:121888.76916252989 50:121868.81477059687 51:121863.39989634404 52:121877.46570400936 53:121898.03198878051 54:121905.89173378603 55:121893.16609145072 56:121870.84394215101 57:121859.27762140754 58:121869.85678472761 59:121894.23284580637 60:121911.03404452755 61:121904.47585444286 62:121878.53540418259 63:121854.04144507318 64:121850.91749159673 65:121870.95111008648 66:121896.23382140891 67:121904.73992209825 68:121889.43852557444 69:121864.25904770994 70:121851.75178289608 71:121863.28359921614 72:121889.15880918477 73:121907.2911022286 74:121902.65036830405 75:121880.30017962564 76:121860.64841611299 77:121861.24755380198 78:121881.31650091092 79:121902.68279675936 80:121906.16870863759 81:121888.71601093673 82:121866.01344424115 83:121858.34865686198 84:121872.34250541862 85:121894.94442578386 86:121905.12624752229 87:121892.83855986905 88:121868.2748886315 89:121853.0755095712 90:121861.13868594896 91:121886.07216035285 92:121906.57010660325 93:121905.06946828972 94:121883.1972770848 95:121860.3294746072 96:121856.46878111138 97:121874.54545599272 98:121897.86602588563 99:121905.01616189547 100:121888.98442575117 101:121863.53204944881 102:121851.11696984775 103:121863.00895663432 104:121889.26365252068 105:121907.55826155764 106:121903.09086332002 107:121881.86875341825 108:121865.52130957882 109:121872.06868831856 110:121899.59264169242 111:121927.37210989096 112:121933.64279794152 113:121914.41930264237 114:121886.88913651144 115:121874.42782736466 116:121886.39588765013 117:121910.47026151395 118:121924.13332893274 119:121914.92470982167 120:121891.40430058124 121:121875.16334410373 122:121881.09581147459 123:121903.65018543066 124:121921.51799928458 125:121916.70438565395 126:121890.98914667786 127:121864.99807171099 
1.0 0:121860.43023414585 1:121880.97946012177 2:121908.88416119412 3:121920.32364085029 4:121906.17917039934 5:121879.92763000146 6:121865.73265718264 7:121877.17263661373 8:121905.33280498323 9:121926.75082210578 10:121924.11244093339 11:121901.38117850626 12:121880.0871690271 13:121880.15141966536 14:121902.26495280172 15:121927.44422874275 16:121934.04664712123 17:121916.98815292235 18:121892.07179781338 19:121881.65197341036 20:121894.4777703907 21:121917.80890161419 22:121928.94416932917 23:121915.8582947424 24:121888.44000875337 25:121870.1406563987 26:121877.24806150807 27:121904.17090092643 28:121927.98902027165 29:121928.41476326296 30:121905.55472027429 31:121879.7640470358 32:121873.65999817602 33:121892.15657514033 34:121918.25241205619 35:121928.33543161205 36:121913.35791146362 37:121887.02349386249 38:121873.65072985325 39:121886.41389730416 40:121915.35555072928 41:121936.00583666314 42:121931.05606462869 43:121905.83799777138 44:121883.7784988406 45:121885.66245453114 46:121910.9760032493 47:121937.98115195845 48:121942.627154403 49:121919.66333901788 50:121887.35825385884 51:121871.64831554818 52:121883.64850451636 53:121910.38724410953 54:121926.90930542677 55:121918.83632826972 56:121895.21541288213 57:121880.1867683741 58:121890.85014406157 59:121921.14125431298 60:121946.38367721398 61:121944.76855279984 62:121916.83134876438 63:121885.61876975042 64:121877.13022173778 65:121898.01093427214 66:121930.07615667256 67:121946.45534018423 68:121935.03899228772 69:121908.6015166037 70:121892.86708982034 71:121903.2589388032 72:121931.07280567328 73:121951.38508253366 74:121945.52643952277 75:121917.97460706941 76:121892.58092694818 77:121891.4493526727 78:121915.2872913718 79:121942.84518157964 80:121949.97862220733 81:121931.25286143048 82:121904.75844913328 83:121895.78458943413 84:121913.8955022207 85:121944.03098400282 86:121959.79611710888 87:121947.12998686086 88:121917.14292691683 89:121896.48746072191 90:121903.63817770762 91:121932.25443436719 92:121956.7481595758 93:121955.30989426478 94:121929.84947953225 95:121904.85240137584 96:121905.77060799956 97:121935.93686316036 98:121972.7510000643 99:121986.95806163544 100:121968.19301595059 101:121934.21609697182 102:121915.48436497034 103:121928.43293197098 104:121961.07293068932 105:121983.82671741299 106:121976.06527166834 107:121944.77126108795 108:121918.65146549708 109:121922.68316746436 110:121955.58799487204 111:121990.46607733637 112:121998.31304384902 113:121973.67484908858 114:121939.6761052101 115:121927.75608883641 116:121949.81894001307 117:121987.5288290844 118:122008.47287845198 119:121994.97608529383 120:121960.03951179713 121:121936.17123401209 122:121946.74538269443 123:121985.16265262118 124:122020.44286565759 125:122024.41055532068 126:121996.39976001973 127:121963.62357114664 
1.0 0:121956.837449922 1:121982.84920036687 2:122018.45940075468 3:122031.37903612142 4:122009.46551184948 5:121972.12497813079 6:121953.49105769681 7:121972.05818755915 8:122013.83951530457 9:122044.398498749 10:122039.29768766563 11:122005.92734559636 12:121977.16838583385 13:121982.16982479188 14:122020.02950579743 15:122060.04425257049 16:122068.67083424184 17:122039.4085788973 18:121999.05613601 19:121984.4942416948 20:122010.20579897569 21:122055.3474661433 22:122082.10077166949 23:122069.13444164707 24:122030.5104858552 25:122003.18930017113 26:122013.99170316722 27:122055.33802437618 28:122091.65737140863 29:122091.02669180608 30:122053.94814824562 31:122013.57138588806 32:122006.77430597204 33:122041.43845886599 34:122089.13016914263 35:122110.02871961631 36:122088.11074996664 37:122045.40324042736 38:122022.53496589609 39:122042.57487168557 40:122090.30948863452 41:122125.7056396876 42:122119.70775215853 43:122080.43165219238 44:122046.23280582123 45:122051.39750969615 46:122094.83743472822 47:122140.14319661292 48:122147.56043028644 49:122109.72902483432 50:122059.36070548129 51:122041.47158157022 52:122074.06648834753 53:122132.00801390507 54:122168.7176246661 55:122156.72462416651 56:122111.35667953301 57:122076.74770096916 58:122086.44569514492 59:122133.55323517146 60:122177.18187661949 61:122179.49466838334 62:122140.11207255202 63:122096.98959417759 64:122092.59621160504 65:122135.32772817489 66:122191.05340971469 67:122213.03417935593 68:122183.80643186677 69:122131.59021595764 70:122106.03003536304 71:122134.07063376176 72:122195.18518158849 73:122238.7239777121 74:122228.54998800403 75:122175.50267968455 76:122128.66029603315 77:122132.41282788002 78:122186.94110443482 79:122247.56207539441 80:122264.05644241617 81:122225.24503606222 82:122169.25786302217 83:122149.98933179527 84:122188.96875553342 85:122255.59748334209 86:122293.98791209246 87:122272.82073428486 88:122213.85877672746 89:122173.39355974949 90:122192.31101601149 91:122258.94048078606 92:122318.48458231612 93:122321.35890251554 94:122267.71383365143 95:122208.46718989871 96:122201.12703125505 97:122258.80465477925 98:122337.94313471412 99:122376.33987858563 100:122347.94063784568 101:122285.8494303361 102:122252.90177665622 103:122285.3373517695 104:122359.76535563642 105:122413.68016377959 106:122401.66542839666 107:122337.10350071342 108:122281.74434188401 109:122291.30151466883 110:122364.93114517072 111:122444.49735258843 112:122465.43552937015 113:122414.38668729797 114:122342.2581218687 115:122320.11848507608 116:122375.85933063262 117:122468.1339649124 118:122521.9963850037 119:122495.27263692151 120:122416.87908197359 121:122362.56388766888 122:122388.20242028094 123:122479.31699903407 124:122562.745629088 125:122571.08320304066 126:122502.94182569982 127:122425.4339259976 
1.0 0:122415.5534481298 1:122491.32579896004 2:122594.51320412988 3:122641.54883220719 4:122597.86254676935 5:122509.59231308763 6:122463.79164029959 7:122510.97959883277 8:122618.83468145075 9:122699.81811247683 10:122689.09373947149 11:122603.50513985439 12:122528.61408564697 13:122543.48162180129 14:122648.92306304254 15:122764.49256461662 16:122798.70905426181 17:122730.68290297962 18:122630.562501989 19:122599.11994208173 20:122677.93167433192 21:122810.33046886983 22:122890.06280271527 23:122855.53532151139 24:122746.19619416018 25:122670.185507367 26:122709.36624935447 27:122844.94294159276 28:122971.81592502972 29:122990.77259778151 30:122897.12250035789 31:122787.04079954221 32:122773.92267127633 33:122886.63600066805 34:123041.30068340283 35:123114.36320989189 36:123052.88515694757 37:122924.17062485068 38:122859.17692532812 39:122936.53130917803 40:123109.73742905492 41:123245.53295435752 42:123241.31644416056 43:123117.72786313438 44:123003.67184809718 45:123023.61876474718 46:123184.63978184701 47:123366.28483084362 48:123425.80936129807 49:123326.1157413804 50:123172.83294260254 51:123124.77340559631 52:123252.44940179023 53:123470.97785872863 54:123611.87478529492 55:123572.13867351886 56:123408.74814774933 57:123293.3779450102 58:123361.78655220114 59:123588.87413057247 60:123805.42170905712 61:123846.07533732442 62:123698.14213753132 63:123519.20243028285 64:123502.74305813148 65:123704.32647424634 66:123985.38451005482 67:124131.63140928504 68:124043.24421922499 69:123828.97608272983 70:123717.89496531014 71:123857.6405102742 72:124176.0041699936 73:124437.45278847012 74:124449.77161366626 75:124238.63901956382 76:124035.15321704815 77:124077.77109299597 78:124395.03056276064 79:124769.03208276187 80:124922.59122946863 81:124766.42123407958 82:124488.98651725247 83:124402.82542210922 84:124667.17907973228 85:125132.75401447184 86:125462.14802750098 87:125425.98698443623 88:125114.80487724507 89:124878.16354745817 90:125025.19434586391 91:125537.74369607633 92:126067.06371949588 93:126233.54175318561 94:125966.99998513819 95:125591.05413888974 96:125561.15445587951 97:126056.02302251235 98:126790.32716796981 99:127246.03905304105 100:127127.19942851913 101:126643.37283128973 102:126368.30145610946 103:126750.56631226999 104:127682.67007943772 105:128552.93201233866 106:128766.17150592466 107:128281.30833295344 108:127709.83601504701 109:127842.20918976828 110:128931.3220531383 111:130389.20342418499 112:131247.58171513263 113:130996.11069671018 114:130102.27108561191 115:129761.07920473663 116:130919.1559374781 117:133319.6279962129 118:135559.5138841406 119:136212.57474741383 120:135097.13684314766 121:133796.36424574518 122:134858.34613146307 123:139730.41602187834 124:147079.78459260316 125:153356.8730104354 126:154821.7998365314 127:149205.30361835335 
1.0 0:133823.83118003374 1:116847.561056552 2:99864.01810669983 3:87783.24844609988 4:83026.17856867409 5:83214.8362623642 6:83843.78025670077 7:82209.45238217666 8:78415.5287473202 9:74424.85331716038 10:72253.73268773466 11:72215.41187830587 12:72844.73782221177 13:72495.83198703085 14:70691.88296770598 15:68288.92157981511 16:66651.111922667 17:66422.58499158522 18:66976.78007025237 19:67123.11841757402 20:66198.80734302117 21:64541.6890565374 22:63138.065671454235 23:62737.91717448964 24:63169.42066506671 25:63558.923462342165 26:63171.04381452363 27:62011.830958098755 28:60776.56299754814 29:60229.024320230434 30:60500.359997277825 31:60991.035936675566 32:60964.90081406928 33:60194.62776678408 34:59124.26221497034 35:58471.778426733326 36:58576.20728628236 37:59086.947896490085 38:59319.19783978501 39:58879.20537569634 40:57985.20149320305 41:57267.81918741594 42:57205.405997541995 43:57678.00975360341 44:58095.32643059157 45:57950.34439154191 46:57253.07156969515 47:56510.700070336716 48:56280.35391799325 49:56653.82340730021 50:57176.50765905019 51:57282.93526906242 52:56797.94183415148 53:56078.84378047313 54:55704.677872955646 55:55949.0314650558 56:56521.144626334506 57:56847.65390191845 58:56594.048202998376 59:55948.922567047084 60:55462.0969596107 61:55554.69421063697 62:56121.58597289928 63:56633.48464871165 64:56627.956320886085 65:56111.38920824577 66:55553.41724047455 67:55477.671023257986 68:55974.828040439344 69:56614.163234546744 70:56850.03356487774 71:56508.344687916455 72:55937.355798942066 73:55711.822648674504 74:56108.51680696973 75:56836.152039567576 76:57309.854418205075 77:57182.26591165511 78:56646.00231339891 79:56277.898712146765 80:56527.47972236595 81:57285.314846557274 82:57980.871953216316 83:58109.73209212638 84:57678.252436840536 85:57210.25442115375 86:57297.630500248786 87:58042.33508322325 88:58943.78814623683 89:59364.36900422297 90:59099.208360677294 91:58566.02244764273 92:58465.79106695108 93:59142.05474710373 94:60230.92652406403 95:60995.29078181691 96:60993.99913590064 97:60476.96291623745 98:60205.33936691162 99:60782.993062358146 100:62055.536146280494 101:63230.20209191728 102:63602.97471683367 103:63185.55421174743 104:62743.87140874571 105:63167.956690717554 106:64612.16962669673 107:66290.25476139029 108:67195.52667961005 109:67003.38479168087 110:66416.01095761203 111:66659.53160325662 112:68353.86038377954 113:70805.54211700083 114:72605.17314079934 115:72894.04899548719 116:72194.15576396376 117:72218.6293077053 118:74460.24920519251 119:78550.68048501256 120:82386.28270587465 121:83960.79515097757 122:83202.75573293174 123:82928.20349413932 124:87773.87884531017 125:100104.40707918687 126:117338.4598330409 127:134437.0770801156 
1.0 0:147036.88315991717 1:152760.00862735324 2:151555.1191671619 3:145560.84630270375 4:138372.77317784738 5:133467.1291926582 6:132243.24682164774 7:133402.98200810715 8:134496.020131444 9:133929.68416611743 10:131802.19428452244 11:129449.46562119108 12:128244.28571516357 13:128494.61443774776 14:129334.47084915092 15:129608.5951884347 16:128825.18094870335 17:127433.53498954438 18:126354.07797313803 19:126177.89382409395 20:126699.08674622297 21:127172.68624134021 22:126993.76729575278 23:126171.04498357367 24:125258.45244776737 25:124852.79569369403 26:125084.66596126654 27:125543.4505053558 28:125674.0808498961 29:125252.80010968809 30:124543.15060566188 31:124040.99836297566 32:124038.77420616998 33:124386.58223771214 34:124652.9256668355 35:124513.35067157805 36:124015.08074865797 37:123513.11447554323 38:123350.84204677942 39:123563.76624309877 40:123865.74046632537 41:123915.06669660086 42:123608.225550714 43:123153.24895977206 44:122877.11285067408 45:122939.0804056571 46:123201.18222435529 47:123364.44517124494 48:123235.00529752353 49:122883.11036225378 50:122569.62272293227 51:122512.47131821464 52:122698.64199591012 53:122906.31503231883 54:122907.8611066705 55:122666.00564802505 56:122357.13739746588 57:122210.51330216261 58:122306.47828993677 59:122511.75124894788 60:122604.67333650759 61:122470.96845359437 62:122197.72853856668 63:121991.00857241415 64:121992.93839497483 65:122159.63180253356 66:122306.38015138655 67:122273.63047816882 68:122063.50264080496 69:121831.93188734273 70:121748.54072198739 71:121848.43562131112 72:122006.5047488462 73:122053.05917940017 74:121923.1286430929 75:121709.07029153922 76:121575.38588522974 77:121612.76864440781 78:121760.48782043859 79:121864.28565267003 80:121813.88790649084 81:121637.13524677901 82:121471.69603349561 83:121442.19784816858 84:121551.54388846068 85:121682.016804801 86:121701.93312955325 87:121580.32716480813 88:121410.35493820842 89:121324.40825731828 90:121377.03626037926 91:121499.27187111662 92:121563.1171718551 93:121495.59358247388 94:121341.06251089032 95:121219.67057820964 96:121220.3237823059 97:121323.13061518421 98:121419.5356099543 99:121409.79511468181 100:121289.8165637393 101:121152.45092607269 102:121104.25068831287 103:121171.70363594135 104:121279.81498779397 105:121320.45560262835 106:121247.66841304245 107:121116.12210710082 108:121031.04636879913 109:121054.8816636089 110:121153.28873899065 111:121227.58365387029 112:121202.72159720803 113:121092.13805577061 114:120983.90482436736 115:120961.98812785141 116:121032.57260966148 117:121120.48116008712 118:121137.34471785705 119:121059.52842382602 120:120947.5713402897 121:120891.5864450785 122:120931.46333968431 123:121022.53444133567 124:121076.36754373589 125:121038.95489586833 126:120936.96833929885 127:120852.76620661489 
1.0 0:120851.23714378173 1:120923.2709556386 2:120995.46027555518 3:120995.96872369043 4:120917.23827382822 5:120821.08422435945 6:120783.1363878673 7:120826.29466122725 8:120902.0482988139 9:120935.17623169963 10:120890.6767979878 11:120803.595567414 12:120746.58035094467 13:120764.72075749308 14:120835.73734965417 15:120890.59114008918 16:120875.12436085967 17:120797.51722163866 18:120720.29377278239 19:120704.69757713683 20:120756.85455699466 21:120823.3246573152 22:120839.18629042627 23:120785.17117040283 24:120703.67372041437 25:120660.5008078423 26:120686.68545324431 27:120751.94914603523 28:120792.79770264962 29:120769.22492131431 30:120699.44138314117 31:120642.64159834658 32:120645.75900969555 33:120701.70421973638 34:120756.13040489299 35:120756.06276191576 36:120696.69483626647 37:120625.27324743502 38:120599.19606067082 39:120635.55155311193 40:120696.75820927664 41:120724.56400710711 42:120691.55106862217 43:120624.6258709866 44:120580.45964746489 45:120595.0411303025 46:120652.08937972576 47:120698.06068211731 48:120689.71376954736 49:120631.76597494153 50:120571.9035439276 51:120558.2192295439 52:120596.98879978807 53:120648.10472631459 54:120661.56386216472 55:120621.90733565278 56:120561.3194650563 57:120530.40328163185 58:120552.94966328738 59:120605.02460071877 60:120636.76498277101 61:120616.9375560108 62:120560.49571142555 63:120515.03871560558 64:120518.41533064286 65:120565.12112565964 66:120611.27886782821 67:120613.44882393489 68:120566.6398426019 69:120508.26131738325 70:120485.00996020269 71:120512.10602520841 72:120560.84096799226 73:120584.96315164317 74:120561.83385357035 75:120511.8318181395 76:120479.36697436983 77:120492.79849137402 78:120539.05442750292 79:120575.44469029468 80:120567.74416160458 81:120520.47729872873 82:120472.79596969372 83:120463.87310214982 84:120498.54176035098 85:120543.58696703443 86:120557.60978089084 87:120527.5554790015 88:120479.6496677442 89:120455.5064291825 90:120474.87532129475 91:120518.19379987687 92:120544.28578960495 93:120527.06869765863 94:120478.55022787502 95:120438.00542813566 96:120437.1723617621 97:120472.42116181631 98:120508.54254137291 99:120510.43009273529 100:120474.20011359033 101:120430.26306607471 102:120415.91281447282 103:120441.92313400224 104:120482.92752062532 105:120500.04667054489 106:120475.42018463163 107:120428.01208100238 108:120396.89066913442 109:120406.85308897015 110:120446.81836805753 111:120480.0134287635 112:120476.58813709512 113:120439.60513161737 114:120401.67796317027 115:120395.5965139972 116:120425.17024590753 117:120462.20510480712 118:120472.05559513296 119:120444.70999463431 120:120403.76486651826 121:120385.43642788308 122:120406.2438727252 123:120448.07723213255 124:120473.90835037381 125:120460.10741291303 126:120416.8314771027 127:120378.78235988691 
1.0 0:120374.7143034112 1:120402.66075121272 2:120432.63460209096 3:120433.98287051833 4:120402.80496807162 5:120365.23796634364 6:120353.99494290796 7:120379.14415384909 8:120419.1223969228 9:120439.80606944184 10:120424.42885064111 11:120387.81551977454 12:120362.63113317938 13:120370.13080853345 14:120401.53072053009 15:120426.49672245966 16:120420.85512822757 17:120388.564837193 18:120358.36598939945 19:120358.10969710635 20:120389.63619838632 21:120426.67126101721 22:120437.65829149241 23:120413.22566718973 24:120374.06264902449 25:120352.41647113081 26:120363.67557907471 27:120393.24519122927 28:120410.2379003899 29:120395.51658929915 30:120358.99571641057 31:120330.86214616093 32:120334.54921005653 33:120365.55931569342 34:120395.13602950652 35:120395.61217152985 36:120364.9532996672 37:120328.79474119934 38:120318.09392585329 39:120341.97237122095 40:120379.67028839617 41:120398.67336322059 42:120382.94824948737 43:120346.54575432531 44:120320.90762098106 45:120327.24515419743 46:120358.33984823218 47:120385.62284734976 48:120384.86714714936 49:120357.52686530296 50:120329.00516250516 51:120325.6741126268 52:120351.18946621302 53:120383.15816711873 54:120392.97061362017 55:120371.00555495801 56:120334.90778623399 57:120313.81518062888 58:120322.65090606672 59:120349.31557472526 60:120366.02632016974 61:120354.4614816855 62:120322.24677053154 63:120296.24308739763 64:120298.69538642271 65:120327.45772496058 66:120357.84649889989 67:120364.33894966035 68:120342.75325369669 69:120313.39256386318 70:120302.64208961195 71:120319.5321154179 72:120348.12276181523 73:120362.28620784743 74:120349.3798925854 75:120321.54699808813 76:120304.62316856296 77:120314.6515225624 78:120343.13307279318 79:120364.3726703622 80:120358.42760908647 81:120329.16344082676 82:120301.25385492976 83:120298.58784467682 84:120323.08936706785 85:120352.77553362543 86:120360.86964236115 87:120339.12046920422 88:120304.85784774504 89:120285.69049173294 90:120295.37960736267 91:120322.17168365893 92:120339.77544860414 93:120331.01047314376 94:120303.04363698911 95:120280.77837305104 96:120284.34984221522 97:120310.79367051076 98:120336.31014235668 99:120337.20284140867 100:120310.96383765376 101:120278.88415067036 102:120267.80785098614 103:120286.94192372814 104:120320.02585942543 105:120339.62858727496 106:120330.86324904043 107:120303.77565662611 108:120283.87112591899 109:120289.42151248416 110:120315.62338346906 111:120339.37771631812 112:120340.04004484057 113:120317.51263779878 114:120291.80971654011 115:120284.84440604801 116:120300.88099067607 117:120323.08822684594 118:120329.04739466844 119:120311.09074860232 120:120283.23681822412 121:120268.62471544852 122:120278.75901751203 123:120303.17102189922 124:120318.73792760157 125:120310.25776941185 126:120283.90694594682 127:120261.69062201338 
1.0 0:120261.92881891708 1:120283.20732153363 2:120306.05745977424 3:120310.66592039521 4:120294.5895453453 5:120274.62240182808 6:120271.25076860085 7:120289.7527739021 8:120315.0633209329 9:120325.14904372006 10:120310.92641161023 11:120284.83095494626 12:120270.22055139542 13:120280.85510436588 14:120308.66270871717 15:120330.74384906636 16:120329.40560278365 17:120307.42358725729 18:120285.0456568286 19:120281.50041174273 20:120297.60100053056 21:120315.12908830163 22:120313.63541715164 23:120289.58109198918 24:120260.52469657804 25:120250.2578076555 26:120267.77577603271 27:120298.75763271589 28:120317.39795000323 29:120308.43933177496 30:120280.20451159445 31:120257.27266574268 32:120259.19177747352 33:120283.82888450516 34:120309.85825716205 35:120315.93602611561 36:120299.44284661785 37:120278.30282499135 38:120274.4891622725 39:120294.04052025561 40:120321.48963090977 41:120333.69393886352 42:120320.67173194075 43:120294.80894842617 44:120280.12690770619 45:120290.97400400895 46:120319.01380825491 47:120340.17708078706 48:120335.55819825007 49:120307.89918897553 50:120279.2202441695 51:120271.6863558311 52:120288.4882023101 53:120311.49095160986 54:120317.55082341238 55:120298.94963490826 56:120269.9978143068 57:120254.23356002771 58:120263.73349172022 59:120288.88684890437 60:120307.50752684685 61:120304.8365562793 62:120286.43565617522 63:120272.56705005257 64:120279.28205208934 65:120303.34763952016 66:120324.70792850261 67:120324.36911228919 68:120301.68021722315 69:120275.46296950428 70:120267.76637019077 71:120284.50904869707 72:120310.20946769191 73:120321.56490115012 74:120307.87658676878 75:120280.29452468482 76:120261.80373317216 77:120266.8928211034 78:120288.97821803842 79:120306.72204278696 80:120303.45417120021 81:120282.23627320367 82:120263.08815439619 83:120264.83554742072 84:120287.82822614875 85:120313.13180297271 86:120319.08336397099 87:120300.50323753727 88:120273.4175034493 89:120260.95514577492 90:120272.8156479227 91:120296.59607017934 92:120308.8472688861 93:120296.128765443 94:120267.36280384811 95:120246.40581937207 96:120251.18836823 97:120277.77339608985 98:120303.531942944 99:120306.75934093582 100:120285.5020918028 101:120259.08439005341 102:120251.01958169692 103:120268.34290017851 104:120295.59260424301 105:120308.69629705264 106:120296.36880521302 107:120270.085000307 108:120253.88386348219 109:120263.06348927203 110:120290.65311720133 111:120313.6426030459 112:120313.34186312045 113:120291.74474298803 114:120269.4568053167 115:120267.13021628004 116:120286.97726705865 117:120310.87752423747 118:120316.74163952704 119:120298.44893899963 120:120271.52304051732 121:120259.40938324948 122:120272.48669077417 123:120298.55792549229 124:120313.45605219273 125:120302.4511969338 126:120273.49608115773 127:120250.53123690092 
1.0 0:120252.64068054644 1:120277.41230601887 2:120303.23853062613 3:120308.48990639717 4:120290.53740097106 5:120267.83104780629 6:120263.26735984338 7:120283.63245927375 8:120313.43014907958 9:120328.5954413572 10:120317.84064324216 11:120292.63991466015 12:120276.99225702611 13:120286.03470073143 14:120312.5424891718 15:120333.39451553955 16:120330.2402557759 17:120305.93040725109 18:120282.06931585916 19:120279.8012529101 20:120300.89642492827 21:120326.08048162068 22:120332.20847420556 23:120313.01620966339 24:120284.95206316515 25:120272.76859290451 26:120287.49870667771 27:120316.37872072111 28:120333.82170105302 29:120323.83198023842 30:120294.08401969094 31:120269.24467133448 32:120269.3888765796 33:120292.5606482952 34:120316.93057804137 35:120320.55950856069 36:120301.10425897434 37:120277.91343397587 38:120274.59776292628 39:120297.53454872784 40:120329.56287287803 41:120344.71473513938 42:120331.06505124277 43:120301.513988097 44:120282.88670559478 45:120292.76865744358 46:120324.37766923709 47:120352.7652220212 48:120356.75470691844 49:120337.18072574197 50:120315.45256259214 51:120313.91928638806 52:120335.59945122183 53:120361.38665397758 54:120367.19406867545 55:120345.66355162773 56:120313.06614129068 57:120295.22698037418 58:120304.9445860908 59:120331.01882397535 60:120348.6730312617 61:120341.96246726182 62:120318.05201321715 63:120300.55562422666 64:120307.83710106046 65:120335.75817920358 66:120360.60727942428 67:120359.8996764294 68:120332.61639716431 69:120300.76686743253 70:120290.57424524835 71:120309.68843995803 72:120340.62924917667 73:120356.40204133016 74:120344.4802304369 75:120317.88740969835 76:120303.50241373669 77:120317.85613817336 78:120351.9443730567 79:120378.75710661853 80:120376.99441236134 81:120349.96593220445 82:120322.87036464442 83:120320.68510395775 84:120346.11326690966 85:120377.19622051503 86:120386.79538156689 87:120366.66161728742 88:120334.75354884326 89:120319.28951097249 90:120333.62521257182 91:120364.35501919303 92:120383.37773977453 93:120373.21898561418 94:120342.99737332824 95:120320.65871039958 96:120328.11490360086 97:120361.31528672024 98:120393.23565298032 99:120397.4527011808 100:120371.54116758471 101:120339.52773398402 102:120330.9594080046 103:120354.80669078701 104:120391.29504245908 105:120409.08934135991 106:120392.77960482398 107:120356.49804165264 108:120331.67664930903 109:120339.62276972014 110:120373.0401993365 111:120402.81219990576 112:120403.9124621869 113:120377.37904779294 114:120348.94466107737 115:120345.64927606867 116:120371.34420208253 117:120403.11896340235 118:120411.97376550922 119:120389.22986057668 120:120354.94440873682 121:120340.50902358476 122:120360.61031739949 123:120399.59214077565 124:120424.77826435005 125:120415.25802641777 126:120380.6902519325 127:120353.27982885801 
1.0 0:120359.59302974341 1:120396.88279023369 2:120435.03116232464 3:120442.67354752416 4:120414.61800947391 5:120376.4956380126 6:120362.47594731076 7:120385.4887693527 8:120426.15270028148 9:120450.14238240264 10:120438.48647208259 11:120403.98707674477 12:120379.40291002332 13:120388.00897299698 14:120422.82332630239 15:120453.13254389924 16:120452.42822488856 17:120422.62836851167 18:120392.77491943477 19:120393.09426458372 20:120427.42749767666 21:120468.9265560426 22:120483.30625206314 23:120459.18573238356 24:120418.55131677621 25:120397.78065313223 26:120415.67134172581 27:120456.78405632082 28:120485.12218634896 29:120476.12731691406 30:120438.5950763366 31:120406.9994486879 32:120410.82993019038 33:120448.12178847814 34:120487.00413477597 35:120494.13966820599 36:120464.74976175986 37:120427.35531344794 38:120418.63519925298 39:120450.42090642828 40:120498.39129955819 41:120523.06646397497 42:120504.7872995652 43:120461.67527002709 44:120434.32848560931 45:120450.22282897854 46:120499.12566646286 47:120541.63256743684 48:120543.61504813605 49:120506.25780752365 50:120465.15743852203 51:120459.02873233925 52:120495.43683316087 53:120544.03788923261 54:120563.54267013859 55:120538.49336108571 56:120493.20286665925 57:120470.33922056272 58:120492.87823549005 59:120543.30620563336 60:120578.98443187357 61:120570.22115459647 62:120527.15562628557 63:120491.31053669198 64:120498.78702549428 65:120547.56031119205 66:120598.39869967477 67:120609.16619412044 68:120572.29650882879 69:120522.15045728406 70:120505.24738273486 71:120539.15568848218 72:120596.55255798688 73:120629.11357809322 74:120610.36580052749 75:120559.62940367818 76:120525.6438792149 77:120543.78321250893 78:120604.47970421876 79:120661.1850248895 80:120671.11357949262 81:120632.75072185526 82:120586.96489179089 83:120580.52373264768 84:120624.13355171078 85:120682.58733073992 86:120706.22689987511 87:120675.78007960164 88:120620.5239251491 89:120593.12199225539 90:120622.78052846513 91:120688.36930262568 92:120736.17929228442 93:120727.14139750048 94:120671.80120157827 95:120621.86648854478 96:120625.08000586357 97:120682.88670725457 98:120748.80226500492 99:120769.42423489141 100:120731.81074334682 101:120675.20168053823 102:120656.3346891685 103:120698.62321266075 104:120770.60652481751 105:120813.57129676788 106:120794.04466999893 107:120734.37030289065 108:120693.71751426424 109:120715.5110968924 110:120787.82253317143 111:120852.88388709602 112:120858.10040642873 113:120803.40901361058 114:120742.61287164336 115:120736.46052605112 116:120798.22198779263 117:120880.63230985975 118:120916.96113752102 119:120880.30319254543 120:120808.52358306012 121:120772.00823312631 122:120811.50623242768 123:120901.00363679959 124:120969.69145104797 125:120964.3757243261 126:120897.22665790164 127:120836.26722085169 
1.0 0:120845.79717509067 1:120928.68112812245 2:121022.48232522598 3:121054.0102253915 4:121004.30510163947 5:120926.47667045756 6:120899.72964646123 7:120958.98635608096 8:121062.70328186876 9:121128.78051935864 10:121107.34472288942 11:121025.90046086577 12:120966.27537751893 13:120992.27888473935 14:121091.68004812079 15:121185.44958561359 16:121197.40028666309 17:121122.73137214404 18:121034.39424231973 19:121020.0495072379 20:121103.85766884679 21:121223.25559777072 22:121283.22543969552 23:121240.68751696804 24:121144.25303201895 25:121093.06814515487 26:121149.01404316412 27:121279.76654818254 28:121385.34058207445 29:121386.07339479112 30:121294.36236429765 31:121206.11567517734 32:121217.185948663 33:121337.03437868491 34:121477.74293289243 35:121530.47017356132 36:121462.3362082364 37:121347.94019975468 38:121305.88968469619 39:121393.61012524755 40:121553.81496027276 41:121662.98551465159 42:121640.3897925597 43:121521.35187020419 44:121429.0997852341 45:121466.90351473445 46:121624.36936982603 47:121783.6907715326 48:121822.9846987245 49:121725.60816284752 50:121598.340281728 51:121579.4772925441 52:121714.69657077345 53:121912.30721001288 54:122021.82438550789 55:121967.7658636906 56:121820.20218420759 57:121737.4896162122 58:121826.6647658748 59:122043.94249652336 60:122228.53257295306 61:122243.48228968824 62:122099.59092868502 63:121952.04600807774 64:121967.30431638141 65:122172.88055222055 66:122426.61791861388 67:122538.73934400658 68:122440.46790394605 69:122250.5575378869 70:122177.2320705472 71:122334.06806170555 72:122632.39660197134 73:122853.52187603881 74:122841.03865310924 75:122643.99373117021 76:122482.9445297433 77:122559.50158944454 78:122871.24454961023 79:123203.59663728214 80:123314.69481851145 81:123151.79029865953 82:122908.79709081599 83:122866.34164141734 84:123141.71966862476 85:123572.16773900592 86:123848.76277907478 87:123788.0371672031 88:123503.45784332843 89:123322.41110811953 90:123503.44027622064 91:123994.13919403819 92:124460.25147732247 93:124573.96294916359 94:124309.71216016673 95:123989.00535991164 96:124017.18732269295 97:124517.77545636467 98:125196.86976029653 99:125584.80847592164 100:125449.67583234851 101:125024.5209418891 102:124840.40007558609 103:125268.21093624989 104:126157.01083900522 105:126928.91243435112 106:127073.28890194079 107:126613.76819495534 108:126148.47350338743 109:126377.71406170077 110:127461.298983016 111:128803.19009652616 112:129525.20463550252 113:129233.06644737555 114:128441.5301331893 115:128271.77270286335 116:129518.97523402887 117:131829.70134693081 118:133856.040804869 119:134340.54942321862 120:133262.19493414092 121:132231.12508257755 122:133619.8885964121 123:138594.16512972498 124:145680.74788428572 125:151441.8703458272 126:152383.59695479873 127:146469.99800181444 
1.0 0:132086.29468366722 1:115422.92867196842 2:98666.41293792064 3:86656.44486146043 4:81849.23619577492 5:81984.20980917326 6:82626.85881157262 7:81065.44098151698 8:77353.80216682465 9:73403.09695091851 10:71216.4688784695 11:71144.3866759803 12:71767.28774570934 13:71451.79558025379 14:69699.04671856682 15:67329.6740756358 16:65688.22827418751 17:65433.809537890666 18:65973.91932516814 19:66138.30338710081 20:65257.22577901583 21:63643.04587262401 22:62258.08203751785 23:61849.869195319465 24:62266.84294763901 25:62657.358797996945 26:62291.122664299524 27:61161.12857944875 28:59943.643228244175 29:59394.13471883423 30:59653.374056919056 31:60138.56952131097 32:60121.20535577765 33:59367.03746992477 34:58305.72370412075 35:57646.872725130546 36:57735.89635528445 37:58237.123572015094 38:58474.79547097321 39:58050.87195141781 40:57169.9083752585 41:56450.932359681174 42:56373.514619412796 43:56830.77799895235 44:57244.77900455828 45:57109.80745890466 46:56426.28987475764 47:55689.70238184036 48:55454.17067681439 49:55820.25135725019 50:56344.971926320104 51:56466.190281682684 52:56000.662983641734 53:55292.33808761282 54:54912.85905619099 55:55141.82343803772 56:55702.63926977796 57:56031.251399316876 58:55789.971475356775 59:55154.50238560569 60:54662.610663523345 61:54735.364956114376 62:55280.504652443975 63:55783.290374692326 64:55786.10805906911 65:55288.091912063464 66:54745.92093401083 67:54675.00488336915 68:55168.86737044813 69:55806.44023101078 70:56048.37309119205 71:55717.5100882223 72:55152.289314596295 73:54920.04233972539 74:55300.5884471223 75:56014.20908832921 76:56485.815503220976 77:56367.987307714444 78:55843.549285683235 79:55477.54163933584 80:55715.89103815121 81:56456.96739912156 82:57141.60978800767 83:57269.919093137534 84:56842.28181609176 85:56371.35967016949 86:56443.370522617755 87:57166.7660546159 88:58054.55738489271 89:58478.35260333997 90:58231.03181378922 91:57717.98651407601 92:57626.868960833 93:58297.935680012946 94:59376.49198848755 95:60137.6595591162 96:60144.128257020086 97:59637.45519885181 98:59364.71568071704 99:59922.91563349913 100:61165.65221732334 101:62316.161571582685 102:62680.8381909042 103:62268.39359657357 104:61830.97154033707 105:62245.70380969527 106:63667.161853669415 107:65322.318482293966 108:66218.1128360583 109:66031.57896767838 110:65451.84374279691 111:65687.12611944071 112:67351.69670327142 113:69766.07081331892 114:71542.52578902931 115:71833.45145642095 116:71151.0899122515 117:71182.11198336072 118:73397.10954686701 119:77433.23798089035 120:81217.17121279542 121:82770.79464059489 122:82022.72222153224 123:81748.64289318385 124:86521.21386067905 125:98674.38449901596 126:115663.93916449188 127:132520.67980663106 
1.0 0:144941.4471678954 1:150581.45095773987 2:149390.68687694467 3:143479.17486645418 4:136393.58465903043 5:131561.60215433766 6:130360.72858476797 7:131507.8097123306 8:132585.31545433527 9:132023.65887357524 10:129921.76279123436 11:127598.8967256202 12:126409.55404039065 13:126656.81850122448 14:127485.62203232177 15:127756.11428052945 16:126983.18536445347 17:125609.61587787054 18:124542.2994370808 19:124363.56859589947 20:124871.18386094124 21:125332.98977624068 22:125155.54081310618 23:124349.2464895202 24:123459.28913715339 25:123070.21851534538 26:123306.23363270704 27:123760.38503816875 28:123886.98998250782 29:123469.17184806555 30:122769.82709411842 31:122278.07940919691 32:122279.62320754922 33:122623.38625880393 34:122882.48161849813 35:122738.02043390875 36:122238.68528392284 37:121735.89333471566 38:121568.13095295637 39:121769.73762576954 40:122059.00025317534 41:122101.21008954928 42:121797.15383609237 43:121353.24694937356 44:121090.00381360827 45:121159.96139146568 46:121422.72368112468 47:121582.0828861002 48:121449.03499465424 49:121096.8062967555 50:120785.69861849952 51:120730.99816257221 52:120917.8537939223 53:121125.06021223831 54:121127.10085134848 55:120887.95993325686 56:120583.07551356002 57:120439.43899520174 58:120536.07170822308 59:120740.7556382217 60:120834.46099520955 61:120704.72102255306 62:120437.83567449248 63:120236.91735817726 64:120241.39303014908 65:120407.21461003184 66:120552.20727638419 67:120519.91761117447 68:120313.61599256124 69:120087.65391745532 70:120008.83981792963 71:120110.66130365024 72:120268.77108933973 73:120315.56797270001 74:120187.29047028156 75:119975.39315176429 76:119842.24868862783 77:119877.38892314243 78:120021.31322851968 79:120122.58488809576 80:120072.9241771988 81:119899.42179557987 82:119736.56374525627 83:119705.79423355583 84:119809.42097365833 85:119932.23345934795 86:119946.15899789128 87:119822.21015037027 88:119652.71044473298 89:119567.65154347959 90:119620.07552797241 91:119741.81217822008 92:119807.00493686485 93:119743.72917575663 94:119594.69606930297 95:119476.5192300589 96:119475.46964808555 97:119572.3259831118 98:119662.31715411934 99:119649.8076273991 100:119532.0156748216 101:119399.38452702301 102:119354.37982717472 103:119421.10052713208 104:119525.77097796246 105:119563.94267634652 106:119492.66391026894 107:119366.48265457152 108:119287.59071964573 109:119315.09316843456 110:119413.78982590805 111:119487.15601128727 112:119463.28042635883 113:119356.96462771251 114:119254.79081310025 115:119237.76785429362 116:119310.20117437646 117:119397.50181828806 118:119413.38845206668 119:119335.51772002217 120:119223.52332518244 121:119165.27335178228 122:119199.46796293517 123:119282.9979791445 124:119330.9862830381 125:119292.23284270216 126:119193.02275705038 127:119112.14616224307 
1.0 0:119110.44386738424 1:119177.61944531502 2:119243.15113789107 3:119240.1593394908 4:119164.47070443779 5:119077.24741844586 6:119049.97136464962 7:119100.9486290569 8:119179.72405344648 9:119212.52773635564 10:119167.3168638907 11:119080.96199227167 12:119025.63701229678 13:119044.71094084383 14:119114.9872031763 15:119168.34876945504 16:119152.48230363826 17:119076.42100644049 18:119001.5093088518 19:118986.67364495988 20:119036.70343963435 21:119099.22852147865 22:119112.15625897163 23:119058.54395130316 24:118980.61881324269 25:118941.50653502691 26:118969.08629601607 27:119031.90949489555 28:119068.13157759549 29:119040.79363086115 30:118970.13550318034 31:118914.94508764421 32:118919.96876274889 33:118976.21825470666 34:119029.40232115632 35:119028.43572247775 36:118970.55428860063 37:118903.46640501195 38:118883.09046108225 39:118924.29231940943 40:118988.14694626404 41:119016.57097918351 42:118983.07406195652 43:118915.00216647876 44:118868.4907877305 45:118878.74207517275 46:118929.645020848 47:118969.2588417211 48:118956.57652147209 49:118897.72575845644 50:118840.07578997816 51:118830.05361417936 52:118872.22834947908 53:118925.85894062999 54:118941.41878859447 55:118904.14379963372 56:118846.27486043223 57:118817.8258765397 58:118842.09727684304 59:118895.37659738827 60:118928.44864182307 61:118910.15001101917 62:118854.24281458979 63:118806.44336397403 64:118803.69392618223 65:118842.00887558723 66:118881.24656822057 67:118881.8316779612 68:118840.13835280482 69:118791.19411915482 70:118776.75357640488 71:118807.48702662688 72:118853.22375345694 73:118869.91926181188 74:118839.04781562898 75:118784.34879946729 76:118751.15487887034 77:118766.51668762109 78:118815.380842617 79:118853.89384332174 80:118847.82549706605 81:118802.10679070182 82:118755.80714225993 83:118747.32564784447 84:118780.59859365526 85:118822.10276182907 86:118830.93178190615 87:118794.98284572517 88:118741.4643253877 89:118712.89091795034 90:118729.9378807112 91:118773.88404152753 92:118803.76398292115 93:118792.45469251247 94:118749.68348741936 95:118712.21652543983 96:118710.58359547723 97:118742.1626223757 98:118774.40748022526 99:118774.75438625405 100:118740.0388463464 101:118699.23496795607 102:118687.34001833164 103:118713.8614238016 104:118754.14856940442 105:118771.27493728827 106:118748.80083903023 107:118705.29648564859 108:118677.88662561214 109:118689.43169265965 110:118728.42457970459 111:118759.35492903506 112:118754.09932390484 113:118716.43434681167 114:118678.2577743092 115:118671.16934056538 116:118698.69192944866 117:118733.6912963734 118:118742.93324291684 119:118716.59875508254 120:118676.59743141256 121:118656.61619099135 122:118671.87087639347 123:118705.6041233934 124:118724.30799501702 125:118707.87777915335 126:118667.74984787055 127:118636.96258489102 
1.0 0:118640.95528522336 1:118675.00126916537 2:118708.32949352423 3:118711.19039951643 4:118680.82616223198 5:118643.55961718003 6:118631.38118464206 7:118653.80226791953 8:118689.83067951677 9:118706.9191711881 10:118689.75601249812 11:118653.37786641753 12:118629.29508992603 13:118637.20697039309 14:118667.55608400182 15:118690.38095476104 16:118682.32460639325 17:118647.5902609384 18:118614.28366097022 19:118609.48747129797 20:118635.26515518944 21:118666.97475755117 22:118675.30311906704 23:118652.27817180804 24:118618.17374271917 25:118603.27582547136 26:118620.73358328774 27:118654.68484966941 28:118674.27074700437 29:118661.04740810154 30:118625.47971155032 31:118597.95365520565 32:118602.17707087328 33:118634.38275158632 34:118666.6762257108 35:118671.4611751875 36:118645.32869741895 37:118611.54842610632 38:118599.23483692776 39:118617.68618250873 40:118648.5334000935 41:118662.41896607031 42:118645.15246043408 43:118610.17531201708 44:118586.53092080403 45:118593.15491873877 46:118622.2931770032 47:118646.63849588501 48:118643.6039434704 49:118615.09567561567 50:118585.45538462725 51:118579.6562898621 52:118601.22241063448 53:118629.45938823608 54:118638.24557548451 55:118619.43271331378 56:118590.04801475929 57:118577.03322538816 58:118593.15534846271 59:118625.52879623737 60:118646.90960236173 61:118639.60262194193 62:118610.771043138 63:118585.77656253465 64:118585.63912914251 65:118608.6769028333 66:118632.55356979746 67:118634.65181142493 68:118612.41249026077 69:118585.54768985212 70:118578.27167964022 71:118597.4479523094 72:118626.19294024874 73:118638.65349798302 74:118622.76376935639 75:118590.80546665256 76:118568.52120027685 77:118572.49662431669 78:118595.88475734217 79:118615.07058558015 80:118611.14301750541 81:118586.9324268317 82:118564.49300013839 83:118565.32479942983 84:118590.95667852164 85:118621.21770985593 86:118631.7374427995 87:118615.1042344608 88:118587.0057768611 89:118572.06923269221 90:118582.05242298005 91:118605.76952999407 92:118619.6064685806 93:118609.04954750223 94:118581.92138054466 95:118561.52815719906 96:118565.80809187244 97:118591.07412756 98:118614.93849902574 99:118615.90317492631 100:118592.26029570059 101:118563.60551714085 102:118553.6236624755 103:118569.31734150973 104:118595.02595172952 105:118606.4592924856 106:118592.21381269598 107:118563.75098810252 108:118545.14058180958 109:118551.72430468911 110:118576.60951217504 111:118596.90895497077 112:118594.05219306078 113:118570.10347154389 114:118545.75186371495 115:118541.90410819119 116:118561.25701840765 117:118586.15863590014 118:118594.47823031145 119:118579.19810875317 120:118554.34336400409 121:118542.16439508107 122:118553.140008588 123:118576.7035135946 124:118590.92657057843 125:118582.36122889971 126:118558.21684948626 127:118539.98554983892 
1.0 0:118544.18708845337 1:118567.44343016423 2:118589.30886054655 3:118590.40416334428 4:118569.71267856545 5:118545.64438428382 6:118539.84460685831 7:118558.0256022807 8:118584.83684993564 9:118597.35802837764 10:118585.24462156437 11:118559.72145681965 12:118543.53640048478 13:118550.787190932 14:118574.49272144891 15:118592.90603821912 16:118588.87787693249 17:118565.0502402985 18:118541.4796435769 19:118537.86718027727 20:118556.18044983859 21:118579.0929820068 22:118585.54662985874 23:118569.50665952377 24:118545.26323717038 25:118534.64975322175 26:118547.58134402786 27:118573.25645994155 28:118589.84501411897 29:118583.95649531235 30:118562.51291064924 31:118546.47245630054 32:118551.9686417196 33:118575.65051781265 34:118597.34615788954 35:118597.74345985174 36:118575.42042711632 37:118548.17304256078 38:118537.46670649013 39:118549.73179184823 40:118571.04108571191 41:118579.81848422159 42:118566.20538192698 43:118540.90606753131 44:118525.74137036981 45:118534.31618104572 46:118559.94891134705 47:118581.53931747527 48:118582.06380370699 49:118563.25080570443 50:118543.55010647197 51:118541.38407108308 52:118558.69215018161 53:118579.44631038737 54:118584.34277781408 55:118568.37895795103 56:118545.53163595308 57:118536.32822137077 58:118549.39886604833 59:118573.56569734507 60:118587.6563393794 61:118579.33209004537 62:118556.13452754534 63:118538.85602887861 64:118543.0300254889 65:118564.98752939358 66:118584.99261515477 67:118584.76466456048 68:118563.84115195002 69:118540.22742737472 70:118534.6424407437 71:118552.2069601958 72:118577.81425174272 73:118589.35446446996 74:118577.12271007703 75:118552.3047613222 76:118537.10234543953 77:118545.22281348876 78:118569.96256381001 79:118590.37146527818 80:118589.89524072119 81:118570.8865618579 82:118552.1897558988 83:118552.0657832356 84:118571.73296918896 85:118594.24552391258 86:118599.68850100215 87:118583.06035829773 88:118558.85968602373 89:118548.2520055581 90:118560.2136822184 91:118583.51612394738 92:118596.79979639871 93:118587.7873367599 94:118564.48738327062 95:118548.32257286638 96:118555.13934804515 97:118580.92713731654 98:118605.04829582809 99:118608.23083735345 100:118589.4217055996 101:118566.59729222307 102:118560.79004149245 103:118577.45645708709 104:118601.76744318062 105:118612.05267379126 106:118599.41421592706 107:118575.99459380071 108:118564.39215739034 109:118577.41096903534 110:118606.07854175499 111:118626.75587961994 112:118621.305947334 113:118592.72755474388 114:118562.61739154949 115:118552.67898888215 116:118566.4286918206 117:118587.04673034065 118:118593.00655479272 119:118577.42227456866 120:118553.97546448489 121:118544.33192787833 122:118558.39252425509 123:118585.09581506546 124:118602.05496186408 125:118595.4252436651 126:118572.259552319 127:118554.29436224939 
1.0 0:118558.58018024861 1:118582.13973178784 2:118604.4007101729 3:118605.35809969218 4:118583.39945664126 5:118557.00023509549 6:118548.69807378096 7:118565.40073910891 8:118592.42196682737 9:118606.52079711453 10:118596.36251880141 11:118572.3206056393 12:118557.03272116573 13:118565.12061257519 14:118590.08964268865 15:118610.06673431116 16:118607.2424172069 17:118583.71940499572 18:118559.73106452939 19:118555.81176339969 20:118574.7200647581 21:118599.17561299595 22:118607.37606924231 23:118592.41119295407 24:118568.31006634932 25:118557.39317586478 26:118570.2181021723 27:118596.05639440328 28:118612.46591229728 29:118605.40236045439 30:118581.88131335702 31:118563.83846362073 32:118568.554356309 33:118593.0728209747 34:118616.63802369071 35:118619.1026887275 36:118598.93517406042 37:118574.74537854489 38:118568.82233281285 39:118587.19782394172 40:118614.04604985133 41:118625.58324786297 42:118611.2101493687 43:118583.11112224523 44:118565.65832846677 45:118573.81861762155 46:118599.6866958699 47:118619.27792470892 48:118613.74650128477 49:118586.317293915 50:118559.90160027775 51:118557.28642833776 52:118581.1944423202 53:118611.82394442036 54:118624.11592395385 55:118609.55492959789 56:118583.36219282374 57:118570.81232159417 58:118584.74288757394 59:118614.13401547041 60:118633.86582366702 61:118626.95279511757 62:118599.55640712498 63:118575.55716098442 64:118575.51485076192 65:118598.6502598794 66:118623.82918025437 67:118628.58283142745 68:118609.1415352467 69:118583.66280110824 70:118575.8108848179 71:118593.33008522834 72:118620.82705970023 73:118633.34861621184 74:118618.70299207093 75:118588.62177902572 76:118568.7163995331 77:118575.96385896279 78:118603.67492389465 79:118627.42913619611 80:118626.7966491656 81:118603.55983147111 82:118580.21117019806 83:118579.91566328522 84:118605.62341337431 85:118637.00421092345 86:118648.14140945565 87:118630.4228858097 88:118600.39509201444 89:118585.52409817853 90:118600.2293056578 91:118633.26360489645 92:118657.59677750042 93:118654.02970367394 94:118627.69887744379 95:118603.05578157857 96:118601.92971438004 97:118624.22557490613 98:118648.44764794175 99:118651.4615047496 100:118629.67262854625 101:118602.60154926908 102:118595.55685526514 103:118616.80812254714 104:118649.78843390832 105:118667.5385900481 106:118656.63062128217 107:118629.23696958243 108:118612.45208770539 109:118624.1403507597 110:118656.76438106794 111:118683.79187976212 112:118683.15594184966 113:118656.94571729672 114:118629.75992473093 115:118626.98833284184 116:118652.19192458128 117:118683.83531629204 118:118694.48521629654 119:118675.44653369584 120:118644.8342453161 121:118631.64512058963 122:118649.69987445381 123:118684.67662690462 124:118706.15506205491 125:118694.34380610159 126:118657.95901612076 127:118627.31778786912 
1.0 0:118628.37029636258 1:118660.31852540297 2:118696.60609634296 3:118708.46103458903 4:118690.17079953031 5:118663.78146496667 6:118659.06019338557 7:118686.42844310153 8:118727.01588630016 9:118748.90669441801 10:118735.27534069351 11:118699.47894663633 12:118673.6238227247 13:118680.46526698652 14:118713.40276387279 15:118742.40807383557 16:118740.70180589404 17:118708.53255477344 18:118673.01255344485 19:118664.09538440163 20:118687.94393182217 21:118721.47705950451 22:118733.08480863336 23:118711.06140183653 24:118674.3882633743 25:118656.10576575642 26:118673.8293078736 27:118713.68969037401 28:118742.30693520753 29:118736.36073339329 30:118703.51024924534 31:118675.95951836603 32:118682.05743034492 33:118720.95353676006 34:118762.99434681222 35:118775.72780386942 36:118752.48638254628 37:118718.18301949215 38:118707.05151359984 39:118731.94785421292 40:118772.65366082077 41:118793.88492019239 42:118777.05611460289 43:118737.41876955894 44:118711.02649677562 45:118722.68741505782 46:118763.34185935093 47:118797.43647822374 48:118794.1944343493 49:118755.19467051083 50:118713.70321649486 51:118705.92267048509 52:118739.26166241601 53:118785.87069329193 54:118807.45902990359 55:118789.43506268681 56:118754.01382274288 57:118740.42256681914 58:118769.44452402253 59:118823.89843609872 60:118862.93158208433 61:118857.82205274559 62:118817.61824701444 63:118781.69873784336 64:118785.33305036454 65:118828.44954431262 66:118875.56850351705 67:118887.30620767058 68:118855.58459640398 69:118811.24307284737 70:118796.94966903575 71:118829.03707140568 72:118882.30430260906 73:118911.82405715337 74:118892.70719249803 75:118842.60329134569 76:118806.76134409262 77:118818.36538514384 78:118869.13637709942 79:118916.67862565944 80:118922.33990023758 81:118885.93150651809 82:118846.27403350039 83:118846.58985756611 84:118895.15071887663 85:118956.62236219726 86:118982.56727482357 87:118954.3646470867 88:118900.40597268914 89:118871.77935022727 90:118897.21390046533 91:118957.17267169426 92:119000.76179005294 93:118990.94585499718 94:118938.0342870578 95:118891.42985980152 96:118896.14633551995 97:118952.20686803274 98:119013.56405018432 99:119028.37008758051 100:118985.27958297622 101:118924.70105169121 102:118904.27725830956 103:118948.14558782427 104:119024.88599229099 105:119074.45488853056 106:119060.75959783923 107:119003.55616685182 108:118961.30154772387 109:118979.39865000223 110:119049.34166332163 111:119115.6198305803 112:119124.85197240923 113:119073.6956348855 114:119012.90511248514 115:119003.14674593369 116:119060.9100308734 117:119142.85746821186 118:119183.4477444346 119:119152.8980861739 120:119084.19220218167 121:119044.74278197913 122:119076.78117400447 123:119159.13934268098 124:119225.28120642592 125:119222.26067288812 126:119158.43275106435 127:119097.34917266952 
1.0 0:119102.15708958921 1:119178.96383684942 2:119270.10793680695 3:119304.37789298654 4:119260.01405797632 5:119184.69615610338 6:119154.13001019615 7:119204.78173647214 8:119300.5620787842 9:119364.23842447413 10:119346.23528577716 11:119269.71178023858 12:119211.38128787762 13:119233.70186037444 14:119328.0937906182 15:119420.9758838494 16:119438.56867566775 17:119373.19903851917 18:119291.94630279783 19:119278.49086249922 20:119358.21778263849 21:119473.78041996375 22:119534.68697253152 23:119497.70015679816 24:119406.75055398198 25:119355.94874573084 26:119406.37235823333 27:119530.04164981357 28:119632.78646507306 29:119637.18068894293 30:119552.25029280798 31:119467.64615610671 32:119475.30658984213 33:119586.42741400859 34:119718.97615901568 35:119769.21900857022 36:119704.58295966117 37:119595.36757783417 38:119555.307848152 39:119640.67428146477 40:119797.51206404291 41:119906.8002263562 42:119889.22875786589 43:119777.11998888086 44:119688.8948355058 45:119725.37480432459 46:119877.97607008029 47:120032.86902868324 48:120070.34047814403 49:119972.11104657128 50:119841.40246920778 51:119815.07048146274 52:119941.74046056149 53:120135.04439757677 54:120247.47649912184 55:120201.08884508519 56:120059.5532726774 57:119976.07716924445 58:120058.35918116159 59:120268.7661212403 60:120452.85699369905 61:120474.55919473285 62:120339.03618744662 63:120193.93772548795 64:120202.8699501137 65:120398.02022162481 66:120645.67208239394 67:120761.09397746099 68:120672.89491404935 69:120491.78480018953 70:120419.39228949399 71:120569.84399271615 72:120861.44710167029 73:121082.26242670417 74:121075.98556774527 75:120884.71296337363 76:120721.15048748135 77:120785.70929047963 78:121083.3740759736 79:121409.505356417 80:121525.88472558606 81:121373.43645384653 82:121134.59312617384 83:121083.12892882126 84:121340.70664017949 85:121757.10276783424 86:122033.64602699816 87:121986.224871895 88:121717.23792172171 89:121541.79664629257 90:121715.62672342987 91:122195.55464949679 92:122660.11811633974 93:122785.93551417917 94:122538.75576517892 95:122224.779113689 96:122240.48143937584 97:122715.56274568444 98:123372.75048513956 99:123755.27592726158 100:123629.57430998965 101:123214.08266314502 102:123025.15852882016 103:123432.94544635345 104:124301.55618283163 105:125070.52520083069 106:125232.64834920665 107:124796.08422984966 108:124335.69098950428 109:124540.98498428757 110:125585.80454348048 111:126902.93579204347 112:127633.25110348519 113:127374.63462480133 114:126610.31544175593 115:126429.62149404277 116:127625.07581193258 117:129877.08219330422 118:131880.8237878256 119:132394.91587760122 120:131370.1111234544 121:130355.34119560261 122:131671.9112271805 123:136496.78251004452 124:143432.7869363042 125:149128.36220857766 126:150139.8124067027 127:144432.7409414781 
1.0 0:90239.96127295413 1:78834.26616192923 2:67364.63648411655 3:59148.538523934636 4:55870.36159183222 5:55977.534457817084 6:56428.32283292428 7:55365.84372483264 8:52829.23778993518 9:50129.097677866645 10:48637.51588096934 11:48593.10174383552 12:49022.52590623519 13:48808.11447299077 14:47610.466529186284 15:45993.30971318633 16:44877.028713830674 17:44709.973401755014 18:45082.91539422243 19:45193.28846799786 20:44583.79838412603 21:43470.9083867161 22:42516.25040711563 23:42233.24132853015 24:42517.63919884538 25:42784.773956912235 26:42533.65758031612 27:41759.5993094654 28:40926.291529261245 29:40551.42756365208 30:40731.12309415004 31:41065.86186413916 32:41056.95759209413 33:40544.695182501266 34:39823.62862534762 35:39378.85404258908 36:39445.01899179416 37:39790.66908760698 38:39952.9826013656 39:39660.65350448888 40:39055.39779532926 41:38562.297473765524 42:38510.000103400125 43:38824.751755753874 44:39110.13585972888 45:39019.544697295874 46:38552.99057890153 47:38049.1161868052 48:37886.584331663245 49:38134.113109225924 50:38489.35592539573 51:38569.00358423 52:38248.786649663205 53:37764.17226970359 54:37505.221579365585 55:37661.7761198301 56:38044.21425184306 57:38268.00129810446 58:38104.35431432332 59:37674.85606732422 60:37346.36521058323 61:37403.46598437803 62:37779.51558121179 63:38121.60205078382 64:38119.00340244714 65:37774.70931814771 66:37403.57399209356 67:37357.75735398279 68:37698.26264448759 69:38134.134365178295 70:38295.8935373676 71:38064.24110108747 72:37673.35894262231 73:37512.71626248363 74:37772.581236410224 75:38258.928907199814 76:38576.61220593345 77:38488.63206109164 78:38122.805654671625 79:37868.91844181751 80:38033.53229760882 81:38545.73488577168 82:39020.19938216405 83:39113.07838324797 84:38824.543275190044 85:38506.25855753078 86:38559.88860808051 87:39058.99486031519 88:39668.92245553948 89:39958.51240070928 90:39785.62233059428 91:39428.03327627221 92:39357.462740793446 93:39808.347938338935 94:40539.22904918412 95:41054.59543289534 96:41055.24184479045 97:40706.34341989145 98:40518.89014953329 99:40900.92732808685 100:41751.56791547078 101:42538.794699414655 102:42787.93965204293 103:42505.06033217126 104:42204.80348707034 105:42487.29916825808 106:43458.44392709676 107:44589.81637315636 108:45202.762677011844 109:45076.91553023371 110:44683.563797353476 111:44848.10315184873 112:45989.06266461946 113:47640.55867750109 114:48853.33292248371 115:49047.75988429457 116:48573.74188569025 117:48584.6654185434 118:50088.00523543455 119:52838.81344755597 120:55421.74063615483 121:56484.762148409165 122:55977.123538144726 123:55791.46148281111 124:59047.53863537205 125:67339.03951451804 126:78931.48185423954 127:90434.78199034203 
1.0 0:98912.68041714335 1:102765.00507116491 2:101957.21200760384 3:97928.20948737716 4:93096.6960825774 5:89800.33054385839 6:88979.34989485971 7:89760.30390633625 8:90495.89193340782 9:90116.11737220458 10:88687.8583914324 11:87109.40140402496 12:86302.7846497706 13:86473.79577473283 14:87039.68945474875 15:87224.15710849482 16:86697.15791604522 17:85760.8376271847 18:85033.3944397964 19:84911.60332335747 20:85257.31050258288 21:85570.91950686731 22:85447.1643326809 23:84892.57898203109 24:84279.10095325722 25:84006.80257446047 26:84162.72001468783 27:84471.18092268877 28:84560.15056306927 29:84279.94781894702 30:83807.21845604379 31:83473.63387525882 32:83474.14235932715 33:83707.69096296471 34:83885.4086125877 35:83790.70190478061 36:83455.80570912384 37:83118.43573810326 38:83008.01961523654 39:83148.0569939882 40:83347.55657762894 41:83379.0459187854 42:83174.35243312985 43:82872.77422226808 44:82691.84931519227 45:82736.2185220697 46:82912.2100806249 47:83019.72340065148 48:82929.96479121865 49:82690.93247647579 50:82477.58019539985 51:82435.63113868017 52:82556.39141961354 53:82691.95110167099 54:82690.69648963398 55:82527.8514162951 56:82320.69031238125 57:82221.41756237154 58:82283.24630908255 59:82417.81069634201 60:82478.48028693501 61:82389.9494364901 62:82209.96375179397 63:82074.30206904306 64:82075.95502295847 65:82185.2834913172 66:82280.7514681158 67:82258.56085166613 68:82121.73218170449 69:81973.44630275884 70:81923.87564870717 71:81993.31166308855 72:82097.18802410559 73:82123.815563517 74:82032.64377408165 75:81887.28376530201 76:81797.45480766751 77:81822.09140741422 78:81919.22208472912 79:81985.91713035792 80:81949.90747505087 81:81831.08432386929 82:81721.37527155537 83:81702.68611249045 84:81775.55349192511 85:81861.19674308691 86:81872.89585760432 87:81791.44127620145 88:81679.35785475829 89:81623.79579487714 90:81659.36140442753 91:81739.24517132476 92:81779.08227659449 93:81732.37408034399 94:81630.44363284281 95:81553.42725238469 96:81558.94517366245 97:81631.72446486112 98:81698.51222129079 99:81693.46901338664 100:81615.16936329876 101:81526.13862056262 102:81496.74191830242 103:81543.25237052237 104:81614.77345721504 105:81639.53367109684 106:81588.10839981813 107:81498.08097877653 108:81439.91583456121 109:81454.80385172808 110:81519.4016525087 111:81568.06837648166 112:81551.41176084538 113:81478.81316137561 114:81408.5932989745 115:81395.62069190659 116:81442.97079119764 117:81500.30028909766 118:81509.35789804475 119:81455.29470828266 120:81378.89907166317 121:81340.03037481845 122:81364.90945655335 123:81423.83082932519 124:81458.41951665092 125:81433.19198478002 126:81365.77234894759 127:81310.23355404448 
1.0 0:81309.08539109517 1:81356.4684787518 2:81404.7362094532 3:81407.45323135151 4:81359.94062439512 5:81302.12287418652 6:81282.20116403425 7:81313.78873279708 8:81364.51806917092 9:81385.55521414973 10:81354.86727261331 11:81295.90694602916 12:81256.01389117588 13:81264.25331545828 14:81306.26885201837 15:81338.19467832643 16:81326.40359940194 17:81277.32331104451 18:81231.30902216867 19:81226.52844411501 20:81265.11934935213 21:81311.68272191587 22:81324.96052425723 23:81294.00577070333 24:81246.95892397064 25:81225.22013799971 26:81246.21306623613 27:81287.91680659141 28:81308.7342712617 29:81284.56940297979 30:81230.16584578123 31:81186.22778880624 32:81183.92748868013 33:81218.17163976289 34:81253.10012939398 35:81254.3739723693 36:81219.26486321464 37:81178.2764019005 38:81167.43478317984 39:81196.0655453122 40:81238.66494712232 41:81257.72170580091 42:81236.70036827498 43:81193.95343368324 44:81165.71513303352 45:81173.60244526053 46:81205.62902012927 47:81227.522362431 48:81213.85714102478 49:81171.0740377272 50:81132.08314612594 51:81127.31277744242 52:81157.82704801491 53:81194.35686598114 54:81202.96088854935 55:81174.47538686567 56:81132.04543849986 57:81110.53411885205 58:81126.10272611109 59:81162.69706023912 60:81186.96558523856 61:81177.81375715922 62:81144.33731519808 63:81116.78625180712 64:81119.10424789888 65:81147.6577826741 66:81174.97634234153 67:81174.71815350748 68:81145.25254593493 69:81110.96200696506 70:81100.35621493601 71:81120.6087375011 72:81151.26380153763 73:81162.60763919058 74:81142.11510716197 75:81105.47490905007 76:81082.59781974395 77:81091.09587563461 78:81120.78590357298 79:81142.91773569417 80:81135.70230502987 81:81103.4078360225 82:81072.32923186122 83:81067.41347178615 84:81090.31853394938 85:81118.33055538443 86:81124.84914938983 87:81102.98428399896 88:81071.39326706012 89:81057.41948001935 90:81072.63126268497 91:81102.55615722413 92:81119.66910482878 93:81107.87102698562 94:81076.65792565266 95:81052.55163925132 96:81055.47264145061 97:81081.04825330879 98:81104.58626345142 99:81103.07607708394 100:81075.61101633639 101:81044.24319137538 102:81034.59080858441 103:81053.30426393266 104:81082.2850306598 105:81094.65733029232 106:81078.21948890263 107:81045.77079644792 108:81023.50216481279 109:81027.87575601574 110:81051.43067655756 111:81069.90168612386 112:81064.0068173819 113:81036.44220112347 114:81009.22859137547 115:81004.02084784533 116:81022.96350600297 117:81047.07130214883 118:81053.36039267121 119:81035.27437747402 120:81008.29960932536 121:80995.97442991534 122:81008.8300642636 123:81035.02055759239 124:81050.90389263359 125:81041.98784698559 126:81015.59676719847 127:80994.17480623607 
1.0 0:80995.29830992932 1:81016.1939418307 2:81036.49553099835 3:81036.61768279807 4:81015.2605385866 5:80990.54085415417 6:80983.84250770704 7:81000.76760936106 8:81026.1469037291 9:81037.49559621153 10:81024.8410212006 11:80999.33769887309 12:80983.1560601916 13:80989.69034452032 14:81011.70470271597 15:81027.95833318902 16:81022.31801974017 17:80998.30299524778 18:80976.17403327549 19:80975.11775763582 20:80996.25519345005 21:81021.53279775937 22:81029.44751418725 23:81013.6573125186 24:80988.15669030437 25:80974.64375544731 26:80983.34238424989 27:81004.25584314784 28:81016.48174027237 29:81007.09832851622 30:80982.76097128128 31:80963.79010188309 32:80966.0649841946 33:80986.85055252428 34:81007.20642514249 35:81008.80765886193 36:80990.18271423937 37:80967.97663765257 38:80962.09980157591 39:80977.86314132994 40:81000.97093782677 41:81009.90183804803 42:80994.79870079359 43:80966.29528209225 44:80946.55684977552 45:80950.30741810567 46:80972.36730389258 47:80992.51720978924 48:80993.26268460689 49:80974.900257817 50:80954.91745127365 51:80952.51506664207 52:80971.89562703736 53:80998.83471163415 54:81013.19106668452 55:81006.05006595925 56:80986.5378440181 57:80972.80745986855 58:80975.6413670835 59:80989.36295777622 60:80997.89704231189 61:80990.09685755018 62:80970.29914827312 63:80954.61064120558 64:80956.32953629484 65:80973.67591856632 66:80990.96027971547 67:80992.23770753792 68:80975.31362770309 69:80953.70323588247 70:80944.82934682896 71:80954.87679987002 72:80973.6507147074 73:80983.84882610882 74:80976.3549232456 75:80958.0038178298 76:80945.15099374863 77:80948.99330692869 78:80965.80841874896 79:80980.7219802324 80:80981.36283758526 81:80968.94763103098 82:80956.81596717714 83:80957.80842512367 84:80971.98144935169 85:80985.95175432296 86:80984.70679951676 87:80965.41716147165 88:80940.84505178618 89:80929.03662861581 90:80938.10051531353 91:80959.36792120038 92:80974.95683550683 93:80973.08629816076 94:80957.75964376962 95:80944.52343299489 96:80946.2677858622 97:80961.7362317048 98:80976.90663531946 99:80977.85633793662 100:80963.50316664026 101:80946.82254942946 102:80943.42079094463 103:80957.58573825749 104:80978.24318020385 105:80988.4710832229 106:80980.17572459055 107:80961.01460072157 108:80947.53858854536 109:80950.63867266617 110:80966.13284604672 111:80978.739788698 112:80975.78287478577 113:80958.42517244566 114:80940.5754101779 115:80936.55249216896 116:80948.48985991211 117:80964.62138297888 118:80969.84620264862 119:80959.07527063663 120:80941.55894724632 121:80932.52623236369 122:80939.70431837397 123:80956.7359405274 124:80969.22106556444 125:80967.7422092535 126:80956.08236083658 127:80947.32835344657 
1.0 0:80951.5052245437 1:80966.03590641939 2:80977.79402523626 3:80975.00241557702 4:80958.25017097418 5:80940.57690091632 6:80936.27238972599 7:80948.18969179991 8:80964.92576934125 9:80970.58978331846 10:80958.68647751566 11:80937.93494673839 12:80924.8691065926 13:80929.63083371072 14:80947.37904909352 15:80962.8101566915 16:80963.68465154353 17:80951.35752654991 18:80939.086455468 19:80939.74776923876 20:80953.9738669556 21:80969.36074818943 22:80971.50563696936 23:80957.05495521445 24:80937.1352582114 25:80928.00742503747 26:80937.04943393917 27:80956.37003564375 28:80969.67470533049 29:80966.31605282362 30:80950.21516253338 31:80935.97408663765 32:80935.77881131187 33:80948.73482116194 34:80962.01693388887 35:80962.62403831267 36:80949.12288278744 37:80932.92102034745 38:80928.01772110084 39:80938.45723698595 40:80954.76328404402 41:80962.55996177407 42:80955.61118626906 43:80941.54225640601 44:80935.03049174946 45:80944.43813867528 46:80963.83461036858 47:80977.69523482348 48:80974.29086890181 49:80956.00222140677 50:80937.42934815839 51:80932.84179790643 52:80943.91056889198 53:80958.50297086778 54:80961.59326603712 55:80948.6603241538 56:80929.80818646833 57:80921.01843423935 58:80930.20959502229 59:80950.32996503757 60:80965.49266581557 61:80964.65540525231 62:80950.8270629262 63:80937.89996140485 64:80938.13578455431 65:80951.47219187746 66:80966.03991680202 67:80969.17319026303 68:80958.86955229809 69:80945.43327513088 70:80941.93616805237 71:80952.16843740678 72:80967.01937680723 73:80972.63262761707 74:80963.0376076628 75:80945.88956612193 76:80936.0497645179 77:80942.55537127322 78:80960.51443539053 79:80975.19777777143 80:80974.7729578586 81:80960.45450828923 82:80945.15733760028 83:80941.9000305785 84:80952.26986021505 85:80965.2169294918 86:80967.22032930324 87:80954.70177766701 88:80937.57136543377 89:80930.66745951917 90:80940.61093225054 91:80959.75529528195 92:80972.67750765607 93:80969.50492555326 94:80954.3227058555 95:80941.29117861106 96:80941.96207801993 97:80955.07517447892 98:80967.91780948876 99:80967.98884714047 100:80954.49286600626 101:80939.34879954821 102:80936.71148914142 103:80950.25150382335 104:80969.56057429945 105:80979.01471253744 106:80971.34267032142 107:80953.95323275469 108:80942.43689647177 109:80946.9285629629 110:80963.33929193187 111:80977.18469314738 112:80976.5534018726 113:80962.68216945637 114:80948.79505296491 115:80948.26970804819 116:80962.65301731628 117:80980.20800709892 118:80986.28300823897 119:80976.2411536179 120:80959.44329820499 121:80950.74996785312 122:80957.11567152404 123:80971.2995525541 124:80978.42969978697 125:80969.63726604471 126:80950.57132332838 127:80937.02555413808 
1.0 0:80941.24893746631 1:80960.87592635062 2:80980.34042861575 3:80983.75906478817 4:80968.21465252723 5:80946.03429199467 6:80934.20291735945 7:80940.14755507272 8:80956.17018646623 9:80967.08515585067 10:80963.970703372 11:80951.76877326911 12:80944.18739394777 13:80950.72702766836 14:80967.63526705684 15:80981.00472667348 16:80979.24749403555 17:80963.72095783314 18:80947.90595211028 19:80945.70632514787 20:80959.16415252359 21:80976.53824943998 22:80982.5467443423 23:80971.76741551845 24:80953.40395728436 25:80943.2397171426 26:80949.85908834302 27:80967.26718745106 28:80980.35791346744 29:80978.27298014678 30:80963.79533676578 31:80950.58557333151 32:80950.88595489853 33:80964.72447195329 34:80980.21584072529 35:80984.52295419131 36:80975.4796154708 37:80963.39134978819 38:80961.433028817 39:80973.36286479424 40:80989.77012057425 41:80996.40264864075 42:80987.14294444963 43:80969.89074995728 44:80959.85219133571 45:80965.99793375484 46:80982.76331822504 47:80994.62033516722 48:80989.71404957716 49:80970.5822125589 50:80952.4030047001 51:80950.10308519963 52:80965.51136330418 53:80985.84398008727 54:80994.85941833514 55:80986.8447224656 56:80971.1804300849 57:80963.61282423482 58:80972.09469490539 59:80989.8370896909 60:81001.71598726028 61:80998.14575292583 62:80983.83975218459 63:80973.50222909427 64:80978.25479111099 65:80995.06913106701 66:81008.97924266626 67:81006.38974329186 68:80987.67280674324 69:80967.62614116551 70:80962.97280293603 71:80977.67169417448 72:80999.09587853463 73:81008.7529184963 74:80998.34129644612 75:80977.09425766919 76:80963.85145016569 77:80970.60812606965 78:80991.89619725685 79:81009.40732394754 80:81007.90103272807 81:80988.52072583698 82:80967.9174129769 83:80963.93191542443 84:80980.29545702235 85:81003.67708454805 86:81015.51585126678 87:81008.0798493099 88:80990.67905613629 89:80980.82107854153 90:80988.389988816 91:81007.01346893844 92:81020.23449047857 93:81016.73598363747 94:81000.78042904718 95:80988.41747405099 96:80992.83499223602 97:81012.09898750402 98:81030.545300664 99:81032.80290104634 100:81017.91387522768 101:81000.72097752635 102:80998.90558289632 103:81016.94722624293 104:81041.39276016016 105:81052.03026082307 106:81039.40430517799 107:81013.31566220458 108:80994.67485576874 109:80997.5935382758 110:81017.3189657637 111:81034.67481496655 112:81033.13982257881 113:81013.52590605426 114:80993.33765466236 115:80991.3264052647 116:81010.80800115848 117:81036.53904782498 118:81047.9924582702 119:81037.3122633281 120:81016.1085168386 121:81005.08958822896 122:81015.63111061278 123:81039.59287260643 124:81056.47724890414 125:81051.60647887654 126:81029.22425232072 127:81008.93854939133 
1.0 0:81008.587782383 1:81028.63049596694 2:81051.90293489094 3:81058.93081170191 4:81045.13854887438 5:81024.69743019817 6:81017.63890324984 7:81031.715025272 8:81055.26077049454 9:81067.54294354537 10:81057.3853735991 11:81033.4301598522 12:81016.79722734359 13:81022.50756127581 14:81046.15988903491 15:81067.85233113395 16:81069.9470743571 17:81052.853259794 18:81034.7241691754 19:81035.19551763574 20:81057.54605047625 21:81085.30493614635 22:81096.5469452677 23:81083.25994365288 24:81058.5755793672 25:81045.33103115803 26:81055.94842343539 27:81081.506342462 28:81099.85031754944 29:81095.54442787728 30:81073.82260392068 31:81056.000496566 32:81060.2785637731 33:81085.06807477145 34:81110.0276474861 35:81114.19410242102 36:81095.09213592374 37:81071.57647937394 38:81067.41002013988 39:81089.80354636388 40:81122.14166287809 41:81137.88443473207 42:81123.7549202737 43:81091.83577473521 44:81069.65424044157 45:81076.50638503082 46:81106.6381826166 47:81134.26362011505 48:81136.1924947018 49:81112.22024704832 50:81085.3515548801 51:81081.52615493405 52:81106.57218946896 53:81140.8427886824 54:81156.45850649975 55:81141.95168246688 56:81112.52957095538 57:81096.7911664262 58:81111.4240917 59:81146.25172706113 60:81173.074203283 61:81170.56814465605 62:81143.18860920462 63:81117.30239712376 64:81117.7968621147 65:81145.79074974297 66:81177.43055850152 67:81185.07391535031 68:81162.10755778178 69:81129.33936775483 70:81117.05980456054 71:81138.35115478802 72:81177.32217793532 73:81202.94918795365 74:81196.34930883424 75:81167.32808489988 76:81145.51284199492 77:81153.77271144226 78:81187.52040034445 79:81218.59347951366 80:81220.46605567838 81:81192.33340417065 82:81160.49379226442 83:81155.41802657486 84:81184.5667668229 85:81225.31172689855 86:81244.65931481216 87:81228.42445486647 88:81193.95618970682 89:81174.92926395376 90:81191.3639637819 91:81231.53465658786 92:81262.25484258891 93:81258.59621703518 94:81226.52188383107 95:81198.02790495308 96:81202.61756625088 97:81240.30290554426 98:81280.71547759516 99:81289.8152807395 100:81260.71684353023 101:81221.0505477293 102:81209.55683132097 103:81241.79458630149 104:81295.3518913655 105:81328.39681367407 106:81315.8053398 107:81271.33687741261 108:81236.27353800609 109:81243.9497636579 110:81291.0029222997 111:81340.82488437917 112:81356.19183808625 113:81332.05295484682 114:81299.47317809497 115:81297.18557909176 116:81335.97539388639 117:81388.0946101336 118:81411.7838608493 119:81389.18584971348 120:81343.62409500945 121:81320.16099779631 122:81345.76060445045 123:81404.36137651517 124:81449.90224687419 125:81446.51366629523 126:81400.53308282765 127:81355.84049917728 
1.0 0:81355.82428410696 1:81404.99072897458 2:81464.60401037196 3:81486.82280771008 4:81457.20574195082 5:81407.87935871925 6:81389.27731572202 7:81424.87656266474 8:81489.3908833248 9:81530.74843107152 10:81516.7372721056 11:81464.75774730388 12:81427.66991550483 13:81447.13841960783 14:81515.49510124848 15:81581.03499281872 16:81593.09682876355 17:81547.24109322816 18:81490.29468354849 19:81479.76342969271 20:81532.53526947263 21:81608.90515109114 22:81647.36930623882 23:81619.78074113843 24:81557.79792075892 25:81526.25907260671 26:81565.51977648263 27:81653.74761951655 28:81724.27351130814 29:81723.90018307236 30:81660.84391159378 31:81599.4316739683 32:81604.4668373186 33:81683.10628098996 34:81776.746425965 35:81811.81419352906 36:81765.14732458816 37:81686.18744490796 38:81655.16578821612 39:81712.17493233505 40:81819.92173893578 41:81895.12889367704 42:81881.89103631736 43:81802.30947859937 44:81739.07806158332 45:81763.17688109286 46:81869.38229463254 47:81978.52859065848 48:82006.48334388166 49:81939.28173534971 50:81847.91228336816 51:81827.80283122884 52:81913.9192180253 53:82047.38838395724 54:82125.96463543724 55:82094.70657178106 56:81996.75744686773 57:81938.18436414734 58:81994.62093384369 59:82141.30362686656 60:82271.6135831792 61:82290.09367746406 62:82198.08943951053 63:82096.03086923352 64:82097.12141200516 65:82225.41244827554 66:82390.64094386892 67:82466.0800629135 68:82401.57890138507 69:82271.95273540012 70:82215.61389110754 71:82312.39499830607 72:82508.29849185114 73:82659.12735864987 74:82657.25896802303 75:82529.84994288239 76:82420.74025177996 77:82466.03698638902 78:82669.03455622909 79:82890.26856714192 80:82967.60522349986 81:82861.54573232519 82:82697.73596195086 83:82663.96794981614 84:82843.3024202305 85:83132.07694362702 86:83324.76069732753 87:83294.4733147616 88:83110.96888430306 89:82990.07883137208 90:83107.19372406258 91:83433.0942877675 92:83748.13482729951 93:83831.70770953121 94:83661.56495097886 95:83448.50854958381 96:83464.24647354249 97:83796.33482976761 98:84252.6512153002 99:84518.49652784472 100:84433.459725253 101:84148.21024595507 102:84018.09146512528 103:84297.58194930483 104:84893.0601040641 105:85419.19236030888 106:85527.67765278154 107:85224.79088192883 108:84906.39692319397 109:85046.88520327983 110:85765.54216463523 111:86671.74242506955 112:87174.23580111288 113:86996.24009094576 114:86469.8876438893 115:86344.41149221572 116:87165.37257309958 117:88713.65383920015 118:90092.40826734107 119:90447.64908379035 120:89743.48194775126 121:89041.53667994957 122:89935.54304139547 123:93235.92546784173 124:97987.00116154295 125:101891.88412159032 126:102590.49767237877 127:98688.67385362815 
1.0 0:90343.98256868705 1:78822.72268712206 2:67193.83895875487 3:58878.8544512486 4:55642.62806950087 5:55879.35387950757 6:56432.091656533004 7:55386.350902954946 8:52792.670436368855 9:50019.71239180122 10:48506.39921617055 11:48507.955594327184 12:49005.10600975315 13:48826.56670203318 14:47614.45419832568 15:45954.370026317556 16:44810.33266611886 17:44658.29588487117 18:45074.67266233447 19:45220.00883356829 20:44612.861525278226 21:43473.857420501125 22:42491.288430830726 23:42204.59102829402 24:42510.02277146394 25:42799.81117244136 26:42550.78201786771 27:41755.36538950463 28:40895.068284343484 29:40511.288784834214 30:40707.38869288675 31:41068.02343925149 32:41072.47243767726 33:40551.918018133765 34:39810.8724390727 35:39355.109540621335 36:39432.13282807609 37:39803.28996483154 38:39986.81448447602 39:39698.16107997828 40:39081.070634570526 41:38575.19644277389 42:38523.249863752506 43:38851.600221473076 44:39150.86480497221 45:39061.67592951638 46:38582.500999968484 47:38062.77007337221 48:37895.16343582969 49:38152.377058739 50:38522.19721490166 51:38607.601036718974 52:38278.74770933098 53:37777.88480873569 54:37508.74192620181 55:37669.5693974194 56:38066.004519002294 57:38301.07501956732 58:38137.69932454072 59:37700.09825396758 60:37366.47455373299 61:37431.351738133206 62:37826.628231571805 63:38187.583507747 64:38191.65619015287 65:37838.6904183169 66:37450.8223099757 67:37392.160455080266 68:37730.219349828134 69:38170.07285422243 70:38333.11525179376 71:38094.606263686226 72:37691.4675448671 73:37521.77958531877 74:37782.501139599546 75:38278.07960350156 76:38605.82227649445 77:38522.435253147574 78:38155.455501498385 79:37899.8013195536 80:38067.36647076207 81:38587.32318821652 82:39069.459800706725 83:39165.32990947279 84:38875.037608685125 85:38554.67364277429 86:38610.58979354935 87:39116.17250397515 88:39731.433340439544 89:40019.80260363722 90:39838.54010777665 91:39470.63491601667 92:39395.23836103581 93:39849.92623346532 94:40588.80334017796 95:41108.52737347712 96:41105.28111009672 97:40746.08764770699 98:40548.92222852656 99:40928.44323257083 100:41784.106265946124 101:42578.29323958667 102:42830.52272658847 103:42545.33556879853 104:42240.67963199748 105:42521.58286665291 106:43495.48292775225 107:44630.58503071117 108:45243.497722897926 109:45111.80837581152 110:44708.95126887041 111:44865.28746208826 112:46003.011493560094 113:47655.25009517852 114:48868.84856392613 115:49061.379322305416 116:48582.95113761395 117:48589.550241837256 118:50090.91331461058 119:52841.2139891087 120:55421.932820315444 121:56478.395084197466 122:55958.87512372333 123:55757.036609282615 124:58996.27889273896 125:67273.848281619 126:78854.95205236928 127:90348.46182343303 
1.0 0:98819.24936392196 1:102669.53459177939 2:101866.4778895828 3:97848.17550346913 4:93028.89313939768 5:89739.56700143122 6:88916.44794790931 7:89688.95348989332 8:90416.86272497477 9:90035.72556265302 10:88613.0981701848 11:87042.96351032225 12:86241.10067366474 13:86410.04304949768 14:86969.28127498027 15:87147.69278435815 16:86619.03769302505 17:85685.51970699549 18:84962.3012760553 19:84842.95982649464 20:85188.78829550467 21:85502.25299912333 22:85380.20341783976 23:84829.0320989556 24:84218.23685269046 25:83945.38087138276 26:84097.45194965659 27:84401.38997300096 28:84487.98432546144 29:84207.94674382845 30:83735.40042235449 31:83398.71123510132 32:83391.90260464432 33:83616.72213724206 34:83788.91038557317 35:83694.88806689266 36:83366.25678584358 37:83037.1075830718 38:82933.02828566017 39:83076.21006981669 40:83277.25608797286 41:83311.0361967511 42:83110.02975358116 43:82811.94990966699 44:82632.17905533053 45:82674.93422223398 46:82848.54787570664 47:82955.7052633225 48:82868.79749181373 49:82634.44779042409 50:82424.90056790935 51:82384.19286678908 52:82504.3644802022 53:82639.76482983949 54:82640.27557966897 55:82480.36330607602 56:82274.93427391627 57:82174.43300992834 58:82232.74163334651 59:82364.23539837547 60:82424.80343502465 61:82339.30030213465 62:82163.13394882702 63:82029.19386876398 64:82029.44612535229 65:82135.88223571373 66:82229.71990880085 67:82208.6654692293 68:82074.92029327128 69:81929.5528891478 70:81881.43508007313 71:81951.59580366587 72:82057.41816357715 73:82088.30085376979 74:82002.59688765545 75:81861.30847522763 76:81772.16501823571 77:81794.47487058457 78:81888.74198435436 79:81954.54505919837 80:81920.1848203554 81:81804.00674058487 82:81695.88395546895 83:81676.99791520378 84:81748.84794464667 85:81833.91118032421 86:81845.40882300971 87:81762.69792508485 88:81647.20414297882 89:81587.17249073328 90:81620.4462518069 91:81703.1634081954 92:81750.74229812007 93:81712.6569244607 94:81614.89495766102 95:81534.90972133186 96:81532.55575919084 97:81598.11118137153 98:81662.74399900857 99:81660.28150298078 100:81584.4691011904 101:81492.51798647302 102:81453.6092544995 103:81488.353316886 104:81552.52398645709 105:81578.16022016748 106:81533.87956270491 107:81451.17287542215 108:81395.05151963374 109:81405.9730554214 110:81464.66435173061 111:81510.52006761449 112:81495.84619504862 113:81427.26678042486 114:81358.70012995685 115:81343.15547160222 116:81386.25301767896 117:81442.43247874416 118:81456.18778672101 119:81410.76441277802 120:81341.71101286737 121:81304.54032265878 122:81325.70274442805 123:81380.30507273301 124:81415.6300761873 125:81398.30151115719 126:81342.89389531672 127:81297.5072341009 
1.0 0:81299.9309050074 1:81343.69930251216 2:81384.22470525486 3:81378.90855081835 4:81325.05359453379 5:81262.29182085041 6:81237.81306395216 7:81265.18157334754 8:81313.11885022047 9:81333.74563097392 10:81304.63567457312 11:81247.66959405818 12:81208.84126544648 13:81217.31179498768 14:81259.99343254305 15:81293.89742409067 16:81284.59258139232 17:81236.40473190245 18:81188.16142588852 19:81178.73586854164 20:81212.92454531768 21:81257.69815398191 22:81271.60932227616 23:81240.84527428041 24:81190.42962159388 25:81161.48623819476 26:81175.04629028794 27:81214.34798522516 28:81240.75945199921 29:81228.34402208451 30:81186.16370190018 31:81149.14759126045 32:81146.28684418001 33:81174.74295628155 34:81202.90285577188 35:81199.22119381677 36:81160.76677249084 37:81116.18770811179 38:81100.64624216394 39:81124.92637463052 40:81166.05261038891 41:81187.52200145801 42:81170.92082880462 43:81131.13817088022 44:81102.32700049928 45:81107.41518304504 46:81138.2123138317 47:81163.4881455127 48:81157.28623226708 49:81122.02306803537 50:81086.12329285993 51:81078.61452614928 52:81103.34666432289 53:81135.72292511602 54:81144.61717242039 55:81119.77786977073 56:81080.59480508351 57:81058.82316088647 58:81070.67807548313 59:81102.9308908408 60:81125.04135357335 61:81116.14587654808 62:81082.93689699359 63:81053.0491760544 64:81050.25400744585 65:81073.62049601297 66:81099.01983512209 67:81101.19385225046 68:81076.38538108325 69:81045.48652707324 70:81035.17998304998 71:81053.99860651066 72:81084.65842214492 73:81099.37280188034 74:81084.31117402435 75:81051.51659772055 76:81027.98199048963 77:81031.7489018359 78:81056.26499267909 79:81076.75631763632 80:81072.61330740745 81:81045.6843261649 82:81018.35983194195 83:81013.36850466428 84:81033.38264787373 85:81058.65940285509 86:81064.73679033473 87:81044.27785893143 88:81013.64480538937 89:80998.41436337565 90:81010.64007706141 91:81038.03138687836 92:81054.67767240568 93:81043.78642870799 94:81012.40119112519 95:80985.29233216422 96:80983.44867689787 97:81006.01771501855 98:81031.43613674646 99:81036.46420107002 100:81016.18643551662 101:80987.61753190443 102:80974.19207027036 103:80985.09999530941 104:81007.71599671933 105:81019.48412309706 106:81008.25534934411 107:80982.88888408434 108:80964.94686324545 109:80969.16809296432 110:80990.28590504758 111:81007.93303913756 112:81005.03879542428 113:80983.11248387207 114:80960.7867784822 115:80956.97611511683 116:80973.71733824532 117:80994.09990283217 118:80997.20011041994 119:80976.74116344891 120:80946.96436198165 121:80930.52598355184 122:80939.03067709056 123:80963.300369684 124:80981.82116420749 125:80979.6616427394 126:80961.0741572644 127:80944.87125026248 
1.0 0:80946.98987589643 1:80965.94547690699 2:80984.19121751236 3:80984.04441069729 4:80963.79062665379 5:80939.51597837769 6:80930.96051254465 7:80943.932544281 8:80965.0261568154 9:80973.49032615036 10:80959.77422309548 11:80934.31172041841 12:80918.67079534392 13:80926.66525049457 14:80951.97258764584 15:80973.23537917348 16:80972.26810007475 17:80949.54142314746 18:80923.59996082653 19:80915.02855394653 20:80928.90775594405 21:80950.91443733504 22:80960.18341636221 23:80947.43644434535 24:80922.6393765794 25:80905.90793445264 26:80909.98002457099 27:80929.68052812017 28:80947.30875746475 29:80948.64773905792 30:80935.1513450108 31:80921.72644346707 32:80922.54040105827 33:80937.85441722881 34:80953.73943238743 35:80954.7624728778 36:80938.0550414334 37:80916.08699461512 38:80905.68811540448 39:80913.1761960207 40:80928.94596941675 41:80936.35224830805 42:80926.84161901327 43:80907.72445776468 44:80895.61044129035 45:80901.34366150791 46:80919.94438837342 47:80934.68905923105 48:80931.82158841813 49:80912.86891072613 50:80893.61849205839 51:80890.53718110247 52:80906.48783272391 53:80928.29191501303 54:80938.2375428991 55:80929.34208094125 56:80911.01758466999 57:80900.35503176435 58:80906.87413480351 59:80924.25325586472 60:80936.24429897915 61:80931.30179354573 62:80912.82047003791 63:80895.96808869735 64:80894.07605261628 65:80906.81737888648 66:80920.75661167112 67:80921.70323823148 68:80907.70058806737 69:80890.9565021682 70:80886.90629244648 71:80900.10936371273 72:80919.63984147951 73:80928.26238831267 74:80917.4026760344 75:80894.75651183372 76:80877.8328911234 77:80879.03473619737 78:80895.30918434473 79:80911.35798086721 80:80913.37978957778 81:80901.08639279132 82:80887.45600454159 83:80886.63695798296 84:80900.90984163801 85:80918.42109299109 86:80923.72899612163 87:80911.71786285823 88:80892.44779610448 89:80882.55235875584 90:80890.70814189079 91:80910.01838811977 92:80924.07295744633 93:80921.30203002816 94:80904.93269046245 95:80889.8228818734 96:80889.05112162839 97:80902.19904573033 98:80915.77480549658 99:80915.3997780009 100:80898.89567637381 101:80878.61929924134 102:80870.87622923336 103:80881.6473262784 104:80901.20223914545 105:80912.39140626132 106:80905.36179474101 107:80885.88028677004 108:80870.15069603194 109:80870.80892989582 110:80886.39124949895 111:80903.34134837412 112:80908.41494219855 113:80900.23205375555 114:80889.77945608438 115:80889.70161121186 116:80902.2523890599 117:80916.92279056297 118:80919.95070823918 119:80907.10588422083 120:80888.1130809369 121:80878.49067322297 122:80885.84443840287 123:80902.80388797876 124:80913.08149075713 125:80905.51482006742 126:80883.82881063697 127:80863.54559324546 
