svm_type c_svc
kernel_type rbf
gamma 0.007874015748031496
nr_class 2
total_sv 424
rho 0.6122550272468574
label 1 -1
nr_sv 120 304
SV
1.0 0:1492.170649741672 1:1502.3059433127892 2:1511.3984118905787 3:1519.4277675741014 4:1526.3748053796667 5:1532.2214352772562 6:1536.9507129365854 7:1540.5468691400802 8:1542.9953378233063 9:1544.2827827068654 10:1544.3971224875183 11:1543.3275545604156 12:1541.0645772487396 13:1537.6000105219703 14:1532.927015189355 15:1527.0401105611468 16:1519.935190576828 17:1511.6095384070409 18:1502.0618395444235 19:1491.2921934082547 20:1479.3021234989374 21:1466.0945861513126 22:1451.673977950906 23:1436.0461418950879 24:1419.218372402348 25:1401.199419298388 26:1381.9994909385484 27:1361.630256663689 28:1340.1048488328431 29:1317.4378647332508 30:1293.6453687399242 31:1268.7448951869953 32:1242.7554525274616 33:1215.6975295043255 34:1187.5931042449677 35:1158.46565743639 36:1128.340191061596 37:1097.2432546047712 38:1065.2029812044864 39:1032.2491370060106 40:998.4131880172231 41:963.7283902260385 42:928.2299107662145 43:891.9549907861601 44:854.9431647827237 45:817.2365571285678 46:778.8802853218407 47:739.9230126787787 48:700.4177133138847 49:660.4227435318576 50:620.0033633604846 51:579.2339323243395 52:538.2011367642517 53:497.00883206671733 54:455.78547612290413 55:414.6958292471272 56:373.95986260064257 57:333.8841327913101 58:294.9150392542001 59:257.7302161477058 60:223.39208506829408 61:193.5791200963519 62:170.81202528130822 63:158.2579914423615 64:158.41041845283235 65:171.23215849113106 66:194.1873206966073 67:224.11274891870667 68:258.50805040560823 69:295.71231664052067 70:334.674662908836 71:374.72449678319475 72:415.41970750869405 73:456.456423404643 74:497.61642584608677 75:538.7361567997139 76:579.6880295260893 77:620.3688568472785 78:660.6924945026486 79:700.5850460860996 80:739.9816653558146 81:778.824379451363 82:817.0605797374341 83:854.6419585785139 84:891.5237497852376 85:927.66417952712 86:963.0240654535343 87:997.5665216841028 88:1031.256740393021 89:1064.061829429599 90:1095.950691330359 91:1126.8939331498977 92:1156.8637993816271 93:1185.8341222522092 94:1213.7802851157137 95:1240.6791957190485 96:1266.509266876548 97:1291.2504026591823 98:1314.8839886283508 99:1337.3928849647962 100:1358.761421587375 101:1378.9753945441537 102:1398.0220631037942 103:1415.8901470888957 104:1432.5698240825689 105:1448.0527262106662 106:1462.3319362590723 107:1475.401982931417 108:1487.2588350899798 109:1497.8998948532146 110:1507.3239894486765 111:1515.5313617412576 112:1522.523659374398 113:1528.3039224769875 114:1532.876569901526 115:1536.2473839701931 116:1538.4234937150857 117:1539.413356607321 118:1539.2267387771212 119:1537.8746937335954 120:1535.3695395988595 121:1531.724834876436 122:1526.9553527787198 123:1521.0770541426662 124:1514.1070589669082 125:1506.063616607189 126:1496.966074670426 127:1486.8348466508903 
1.0 0:1475.6913783549157 1:1463.558113163326 2:1450.4584561833037 3:1436.4167373438572 4:1421.458173491278 5:1405.6088295431366 6:1388.895578761354 7:1371.3460622068187 8:1352.9886474398313 9:1333.8523865324091 10:1313.966973460201 11:1293.3627009433853 12:1272.0704168076147 13:1250.1214799376876 14:1227.5477158983542 15:1204.3813722984223 16:1180.6550739762308 17:1156.4017780866373 18:1131.6547291719633 19:1106.4474143019986 20:1080.8135183712009 21:1054.7868796448622 22:1028.401445650314 23:1001.6912295144847 24:974.6902668555183 25:947.4325733440432 26:919.9521030594962 27:892.2827077791361 28:864.4580973528064 29:836.5118013359723 30:808.4771320783389 31:780.3871494970138 32:752.2746278039062 33:724.1720245097011 34:696.1114520953028 35:668.1246528314397 36:640.2429773456507 37:612.49736769349 38:584.9183459021357 39:557.536009240516 40:530.3800338605541 41:503.47968899291556 42:476.8638646322131 43:450.5611167073864 44:424.599735249177 45:399.00784326322145 46:373.8135372461786 47:349.0450851028374 48:324.731204539532 49:300.9014563153803 50:277.58680453432567 51:254.82042475070276 52:232.63888753270106 53:211.083923589782 54:190.20511056610334 55:170.06405436984286 56:150.74104616558424 57:132.34588672393912 58:115.03574566362425 59:99.04454593035571 60:84.72909152359317 61:72.62997507094084 62:63.50763098220477 63:58.21984346802925 64:57.28600706263556 65:60.40550419626212 66:66.57332601158734 67:74.66146296468301 68:83.79230061025572 69:93.38210068684178 70:103.06242332840185 71:112.6015563016645 72:121.85147597599034 73:130.71568520975123 74:139.13016491423608 75:147.0519979634846 76:154.45243107484035 77:161.31253373723462 78:167.6204087172219 79:173.36935191825296 80:178.5566073851502 81:183.1825042496701 82:187.24984425780326 83:190.76345709976812 84:193.72987025292144 85:196.15705834139254 86:198.05424860165581 87:199.43176652475145 88:200.3009106664533 89:200.67384890900647 90:200.56353069680006 91:199.98361131411912 92:198.94838535617393 93:197.47272731440424 94:195.5720377522011 95:193.26219395377996 96:190.55950423199388 97:187.48066531175897 98:184.04272238667093 99:180.2630315937924 100:176.1592247781227 101:171.74917653450746 102:167.05097363044854 103:162.08288703851 104:156.86334695357962 105:151.4109213532506 106:145.7442988998532 107:139.88227731031512 108:133.8437587800378 109:127.64775470846547 110:121.31340294545286 111:114.86000223283364 112:108.3070707395984 113:101.67443905867702 114:94.98239356530202 115:88.25189506529917 116:81.50491276910688 117:74.7649395922061 118:68.05780068819656 119:61.41295068614008 120:54.865611631333095 121:48.4604040377323 122:42.257706669928325 123:36.34508614839805 124:30.857968540425585 125:26.01511515323903 126:22.166107968070857 127:19.796597094676564 
1.0 0:19.33851549695934 1:20.797743618575133 2:23.710100104522446 3:27.514336250310983 4:31.796938277282152 5:36.30206433736692 6:40.87663625048144 7:45.426746619220644 8:49.89213429381715 9:54.23219986327315 10:58.418318566023125 11:62.42950039053039 12:66.24985580512757 13:69.86706384710848 14:73.27141495738088 15:76.45519409272602 16:79.41227144325407 17:82.13782333861457 18:84.62813684120653 19:86.88046933502432 20:88.89294496719673 21:90.66447620979335 22:92.19470279948712 23:93.4839428516664 24:94.53315259481032 25:95.34389226290855 26:95.91829641993904 27:96.25904749546658 28:96.3693516628924 29:96.25291644225744 30:95.9139295908099 31:95.35703897888322 32:94.5873332510446 33:93.61032315355388 34:92.43192347667282 35:91.05843562027617 36:89.49653084864536 37:87.75323436000343 38:85.83591036339322 39:83.75224843583379 40:81.51025153403765 41:79.11822616778613 42:76.58477542118247 43:73.91879575510916 44:71.12947887154209 45:68.22632041689168 46:65.2191380228003 47:62.11810224740824 48:58.93378557718518 49:55.67723708612564 50:52.360094132372545 51:48.99474845346119 52:45.59459365241682 53:42.17439685766524 54:38.75086366114115 55:35.343509872750225 56:31.976028940993274 57:28.678469622041117 58:25.490735931776683 59:22.468174687044982 60:19.690099162581696 61:17.27099009265861 62:15.368771171133387 63:14.171039177985469 64:13.831216930874913 65:14.373552157156391 66:15.6671567597656 67:17.50596318458699 68:19.697949292037748 69:22.09938934139216 70:24.611584786507073 71:27.167973731939025 72:29.722993604660427 73:32.244531294450226 74:34.709173952808044 75:37.09927263574708 76:39.40111523029319 77:41.603770911088574 78:43.69834441835873 79:45.677484490279376 80:47.53505294959767 81:49.26589736309542 82:50.86569176139582 83:52.33082288871198 84:53.65830741037828 85:54.845730477803556 86:55.89119921535716 87:56.79330674533085 88:57.551103720528545 89:58.16407524192009 90:58.63212165772173 91:58.95554216889895 92:59.13502046768476 93:59.17161185143453 94:59.06673141132702 95:58.82214301244889 96:58.43994887141928 97:57.92257960887169 98:57.272784713532964 99:56.49362340752161 100:55.58845595335218 101:54.56093549629916 102:53.41500059595164 103:52.154868673669704 104:50.78503069577264 105:49.3102475360893 106:47.73554863123452 107:46.066233780291036 108:44.30787928213188 109:42.466350102247 110:40.54782050203376 111:38.55880668491462 112:36.50621674220757 113:34.39742589801508 114:32.24038940785888 115:30.043812596938288 116:27.81740945037318 117:25.57230153150303 118:23.321644417573786 119:21.081631182792847 120:18.8731319591444 121:16.72441395236646 122:14.675660094682828 123:12.786219628934345 124:11.144791537266755 125:9.877923228962647 126:9.138376607935331 127:9.045467904793215 
1.0 0:9.601886012292795 1:10.687367258934737 2:12.13965916013247 3:13.82152918481112 4:15.636658566584948 5:17.521336101253222 6:19.43331601531891 7:21.34372946470434 8:23.23203144484455 9:25.082967505743806 10:26.88475253138305 11:28.627959592407375 12:30.304827077067245 13:31.90881652201335 14:33.43432400012057 15:34.876487719059426 16:36.23105723841073 17:37.49430296530567 18:38.66295247053929 19:39.7341449573149 20:40.70539818844847 21:41.574584061903 22:42.339910241609914 23:42.99990605135703 24:43.55341137572106 25:43.99956767710032 26:44.337810490498505 27:44.56786293534583 28:44.689729910642335 29:44.70369273218704 30:44.610304039455215 31:44.41038285224365 32:44.10500969881517 33:43.69552177180308 34:43.18350809863324 35:42.57080474226555 36:41.85949007814749 37:41.05188022708723 38:40.150524764593854 39:39.158202879454166 40:38.07792022408572 41:36.91290679561204 42:35.666616323440785 43:34.34272783782865 44:32.945150388640975 45:31.478032329711763 46:29.94577727414783 47:28.353069916612473 48:26.704916684300986 49:25.006709111194656 50:23.264322840174668 51:21.484273981290993 52:19.673970619650973 53:17.842127579409993 54:15.999471929736517 55:14.15998741624657 56:12.343198989873068 57:10.578533592700639 58:8.913856722275883 59:7.431745663313104 60:6.274597162436908 61:5.651536522650056 62:5.737883632060745 63:6.498232027386782 64:7.725294952430918 65:9.221565204071311 66:10.861901665024918 67:12.574794106854675 68:14.318555638893555 69:16.067306026915237 70:17.80375349455552 71:19.515497271921966 72:21.19307256347229 73:22.828873734621492 74:24.416536756924412 75:25.950571798035977 76:27.426137521356242 77:28.838898614473187 78:30.18493380272529 79:31.460675367887188 80:32.66286881613937 81:33.788545702571895 82:34.83500519212114 83:35.79980149582888 84:36.680735290011235 85:37.47584784183691 86:38.18341696481346 87:38.801954192626326 88:39.33020273853317 89:39.76713593025917 90:40.1119558960595 91:40.36409233850145 92:40.52320127652885 93:40.589163668785496 94:40.562083855580596 95:40.442287775741825 96:40.23032092968017 97:39.92694607257919 98:39.53314063272248 99:39.05009386043578 100:38.479203723751205 101:37.82207357852913 102:37.080508654420306 103:36.25651241500587 104:35.35228287253502 105:34.37020896752944 106:33.31286716504028 107:32.18301847862915 108:30.98360621966925 109:29.71775489863266 110:28.388770901767696 111:27.000145873280243 112:25.555564222897736 113:24.05891698152613 114:22.514325582016237 115:20.926181501054568 116:19.29921195704914 117:17.638589865643493 118:15.95012201649896 119:14.240582140038953 120:12.51832760934852 121:10.794508673169485 122:9.085612812501214 123:7.419282981317568 124:5.848833590124557 125:4.491126249314827 126:3.6053891124288078 127:3.5636746880575796 
1.0 0:4.383431856293838 1:5.69399038439904 2:7.220673790084992 3:8.83866765171593 4:10.491620590907877 5:12.150770087604446 6:13.799270886895936 7:15.42595614740533 8:17.022628313884514 9:18.58277903627871 10:20.100939061291335 11:21.57232791199634 12:22.99265591830861 13:24.35800811331675 14:25.66477424642003 15:26.909605829510408 16:28.089389564868192 17:29.201230973472626 18:30.242444511002486 19:31.21054787238232 20:32.10325902179636 21:32.91849499420477 22:33.65437183271109 23:34.309205230121215 24:34.88151157679035 25:35.3700092065706 26:35.77361969426017 27:36.09146910126902 28:36.32288909762041 29:36.46741791194282 30:36.5248010796259 31:36.494991974708654 32:36.37815212484009 33:36.17465132197254 34:35.88506755544231 35:35.51018680988731 36:35.051002789399526 37:34.50871665316842 38:33.884736878943926 39:33.18067941231131 40:32.39836831687669 41:31.539837220228854 42:30.60733196401971 43:29.60331503065259 44:28.530472560718493 45:27.391725137470942 46:26.1902440677412 47:24.929475750768294 48:23.613178099619837 49:22.245475219458577 50:20.830940294070775 51:19.374723077474208 52:17.88274980901782 53:16.362044260004637 54:14.821258091600491 55:13.271575666411792 56:11.728312314670397 57:10.213834264549147 58:8.763017635833524 59:7.433316496176241 60:6.321048776232287 61:5.5749505235850085 62:5.362271570426326 63:5.748379814532466 64:6.6299103514672355 65:7.838018992472731 66:9.239317160761622 67:10.750448714185106 68:12.321653146006964 69:13.92224971812433 70:15.532142736264468 71:17.137255879439937 72:18.727077513098266 73:20.293304573117965 74:21.829067239553602 75:23.328470351365247 76:24.7863136900245 77:26.197916791428778 78:27.55900682109271 79:28.86564561147149 80:30.114181652492828 81:31.30121834370341 82:32.42359305013768 83:33.47836345128809 84:34.46279887485474 85:35.37437506669077 86:36.21077133883886 87:36.96986936067954 88:37.64975307517195 89:38.24870937059188 90:38.76522924162434 91:39.198009247205725 92:39.545953125949254 93:39.80817346984579 94:39.983993387643544 95:40.07294811398721 96:40.07478654129209 97:39.98947267018863 98:39.81718699267706 99:39.558327841178574 100:39.21351275792062 101:38.7835799640772 102:38.269590038828404 103:37.672827957580964 104:36.9948056895538 105:36.23726562276876 106:35.402185176313274 107:34.49178308591802 108:33.508528024702365 109:32.45515046928941 110:31.334659077031066 111:30.15036335623529 112:28.905905171258905 113:27.6053027597435 114:26.253012661207556 115:24.854017607226766 116:23.41395256584308 117:21.939287695434775 118:20.437597478679294 119:18.91796226292442 120:17.391575667272363 121:15.87267396686779 122:14.37996549617794 123:12.938809455771134 124:11.58440564546458 125:10.365950895412649 126:9.350388825124769 127:8.620961925606599 
1.0 0:8.26166888586162 1:8.32442976442856 2:8.800118065137347 3:9.624213133964659 4:10.710437204344862 5:11.979518437252576 6:13.369809312241284 7:14.836506334296862 8:16.347511293422244 9:17.879510467936395 10:19.41509964624062 11:20.94085192825847 12:22.44605615048091 13:23.92189647830668 14:25.360915047018278 15:26.7566557782532 16:28.103425113413405 17:29.396129181579678 18:30.630161687198164 19:31.801325972642537 20:32.9057804509092 21:33.940000241101025 22:34.900750177273835 23:35.785065886568056 24:36.590240642983964 25:37.313816382635146 26:37.953577730065994 27:38.50754820643546 28:38.97398801618434 29:39.35139297004168 30:39.6384942193354 31:39.83425856334291 32:39.93788915732596 33:39.948826500610586 34:39.86674962644817 35:39.69157745214417 36:39.423470282114 37:39.06283149089988 38:38.6103094505853 39:38.06679981070831 40:37.43344829277752 41:36.711654231303164 42:35.90307518658955 43:35.009633082642125 44:34.03352250318018 45:32.97722203546396 46:31.843509925007933 47:30.635485856769176 48:29.35660151048931 49:28.010703814046135 50:26.602096813547845 51:25.135631260179117 52:23.616836193809164 53:22.05211542020392 54:20.449046420419666 55:18.81684460463716 56:17.167100466463257 57:15.514976087466705 58:13.88118395007658 59:12.295287271370228 60:10.801105267019999 61:9.464824423000012 62:8.383921841930892 63:7.685910955315725 64:7.4929954862443475 65:7.851159063756914 66:8.695750051219923 67:9.90181057544456 68:11.350035267615436 69:12.952232846796239 70:14.648839682324057 71:16.40002114221402 72:18.178383157234972 73:19.964243686461263 74:21.742761800267445 75:23.502213146588094 76:25.23294278729814 77:26.92671732386169 78:28.576315715163215 79:30.175265737723237 80:31.717671335449566 81:33.198097976073754 82:34.61149582511927 83:35.95314806450125 84:37.21863622862782 85:38.40381723887304 86:39.5048085877791 87:40.51797926282522 88:41.43994474554296 89:42.26756491939338 90:42.99794405766254 91:43.62843229607407 92:44.15662815909669 93:44.58038182693051 94:44.89779891703294 95:45.10724462002693 96:45.207348082094526 97:45.19700696972654 98:45.07539219201451 99:44.84195279406531 100:44.4964210759078 101:44.03881803816494 102:43.469459313269496 103:42.78896181509924 104:41.99825143899254 105:41.09857228045145 106:40.09149803279068 107:38.97894649972465 108:37.7631985624345 109:36.4469235422096 110:35.03321381354915 111:33.52563293829315 112:31.928283830978764 113:30.24590708874149 114:28.48402562203308 115:26.649161924409814 116:24.74917212742402 117:22.79377293274474 118:20.7953963598704 119:18.770618069727714 120:16.742615790922816 121:14.74550622226923 122:12.83205516427574 123:11.086839779702633 124:9.644864622145953 125:8.701109538404063 126:8.462008533583932 127:9.012913325750223 
1.0 0:10.246661458764313 1:11.965403998807476 2:13.997001144847607 3:16.224995491985815 4:18.575797074570644 5:21.002254048218436 6:23.47266422731178 7:25.96439551109032 8:28.460280512572382 9:30.946555546541187 10:33.41165337948671 11:35.845476524826125 12:38.23894834762896 13:40.58372950246964 14:42.87203561325295 15:45.09651863669174 16:47.25018928718573 17:49.32636653694238 18:51.3186453302258 19:53.220876768045855 20:55.02715696024148 21:56.731821976376395 22:58.32944712808584 23:59.81484934546197 24:61.18309176685714 25:62.42948990584202 26:63.549618929223385 27:64.5393217005454 28:65.3947173304367 29:66.1122100391607 30:66.6884981850587 31:67.12058335022704 32:67.40577940540092 33:67.54172150228521 34:67.5263749656717 35:67.35804408149968 36:67.03538080241692 37:66.5573934214177 38:65.92345529926283 39:65.13331377585658 40:64.18709945402514 41:63.085336122606606 42:61.82895169372174 43:60.41929068055244 44:58.858128958226466 45:57.147691864606315 46:55.29067716242571 47:53.29028508404543 48:51.15025875503758 49:48.87493997897372 50:46.46934807175896 51:43.93929388562727 52:41.29154868841425 53:38.534100668931416 54:35.676555414254 55:32.73078063478442 56:29.71198041183402 57:26.64055519435279 58:23.545460266721953 59:20.47053701713541 60:17.486893807024398 61:14.717299632665517 62:12.379939032694947 63:10.834827421164185 64:10.506838953348064 65:11.551670464131805 66:13.692022010574961 67:16.52766271119992 68:19.771863490843693 69:23.257011026225054 70:26.886583892221374 71:30.60178454286722 72:34.36385733920023 73:38.145088948187876 74:41.924126818158264 75:45.68344782189096 76:49.407932888252105 77:53.084034135198294 78:56.69927268169261 79:60.24192824708101 80:63.700843960564995 81:67.06530261087251 82:70.32494847680863 83:73.46973899290114 84:76.48991639511985 85:79.37599302162053 86:82.11874611450148 87:84.70921933605091 88:87.1387290935964 89:89.39887434602538 90:91.4815489533253 91:93.37895589606302 92:95.0836228771624 93:96.58841895085469 94:97.88657192105971 95:98.97168632565563 96:99.83776188239639 97:100.47921232266609 98:100.89088458553891 99:101.06807839078266 100:101.00656625943525 101:100.70261410869968 102:100.15300261935364 103:99.35504966550069 104:98.30663421774291 105:97.00622229520569 106:95.45289576906154 107:93.64638513982757 108:91.58710786781205 109:89.27621450048434 110:86.71564582264365 111:83.90820573277327 112:80.85765681402854 113:77.56884911162983 114:74.04789829380202 115:70.30243864859719 116:66.34199194809716 117:62.1785201129082 118:57.827277457511485 119:53.30816608938786 120:48.64796426624611 121:43.88412152649685 122:39.07145858608606 123:34.294382186435534 124:29.689529476133508 125:25.486453938143633 126:22.068409461228587 127:20.003705650633286 
1.0 0:19.8716464519695 1:21.832985075602732 2:25.504388733721132 3:30.341526527872652 4:35.92726906247435 5:41.999114866626236 6:48.397083742405506 7:55.019991365580424 8:61.799631887910444 9:68.68663675637875 10:75.64272267409989 11:82.63633276244352 12:89.64010575327991 13:96.62935902187392 14:103.58115284701994 15:110.47369908757585 16:117.28598046157673 17:123.99750242612116 18:130.588130835519 19:137.0379864951294 20:143.32737834204542 21:149.43676342826737 22:155.3467258905197 23:161.037969640778 24:166.49132116815207 25:171.68773994084376 26:176.60833463924521 27:181.2343839634107 28:185.54736111943546 29:189.5289613509435 30:193.16113207784693 31:196.4261053578793 32:199.3064325135576 33:201.7850208805793 34:203.84517274335258 35:205.47062663871043 36:206.64560133947433 37:207.35484298651164 38:207.58367603521438 39:207.3180589385472 40:206.5446458298101 41:205.25085593101278 42:203.42495305108758 43:201.05613843211123 44:198.13466147197022 45:194.65195468371738 46:190.60080193423602 47:185.97555299653007 48:180.77240349300084 49:174.98976862517338 50:168.62879373867636 51:161.69406830557736 52:154.19464855692578 53:146.14555899596255 54:137.57005503496592 55:128.50312680818257 56:118.99708149002791 57:109.13069752557186 58:99.02465078127821 59:88.8680517759399 60:78.96419435763343 61:69.80583170222671 62:62.177838991471354 63:57.213360839471676 64:56.17082182276911 65:59.78136206416625 66:67.77409573666884 67:79.24091398983202 68:93.26162151181309 69:109.16279874008323 70:126.50441367302346 71:145.00467641384373 72:164.47921141571598 73:184.80246788313 74:205.88474847160217 75:227.65861824219834 76:250.07073819227404 77:273.07684290735847 78:296.63857316669043 79:320.72142897972617 80:345.29341662207884 81:370.32413638083796 82:395.784156926296 83:421.6445803515199 84:447.87673676431865 85:474.45196867672837 86:501.3414788158538 87:528.5162235305702 88:555.9468395380056 89:583.6035954460422 90:611.4563619765463 91:639.4745965170845 92:667.6273388110953 93:695.8832154281082 94:724.2104512478687 95:752.576886618868 96:780.9499991624315 97:809.2969294219675 98:837.5845097265312 99:865.7792957647956 100:893.8476004613183 101:921.7555298198249 102:949.4690204540029 103:976.9538785692805 104:1004.1758201924065 105:1031.1005124716496 106:1057.6936158908522 107:1083.9208272566773 108:1109.747923331178 109:1135.1408049920362 110:1160.065541811033 111:1184.488416947974 112:1208.3759722627342 113:1231.6950535525891 114:1254.412855825757 115:1276.4969685252684 116:1297.9154206200267 117:1318.636725482353 118:1338.62992547346 119:1357.8646361602928 120:1376.3110900890497 121:1393.9401800424419 122:1410.7235017095263 123:1426.6333956986348 124:1441.642988825682 125:1455.7262346118875 126:1468.857952926792 127:1481.013868714324 
1.0 0:1414.627422357822 1:1424.2738241998793 2:1432.931467106488 3:1440.5810580076043 4:1447.2043298994838 5:1452.7840721790492 6:1457.3041597501715 7:1460.7495808612377 8:1463.1064636363694 9:1464.36210126589 10:1464.504975825103 11:1463.5247806942125 12:1461.4124415563151 13:1458.1601359548704 14:1453.7613113969867 15:1448.2107019943126 16:1441.5043436393898 17:1433.6395877221426 18:1424.6151133988744 19:1414.430938434911 20:1403.0884286520989 21:1390.5903060240416 22:1376.9406554755578 23:1362.1449304589262 24:1346.2099573985017 25:1329.1439391181887 26:1310.9564573938076 27:1291.6584748060727 28:1271.2623361112012 29:1249.781769397372 30:1227.2318873591828 31:1203.629189102715 32:1178.9915629959794 33:1153.3382912102068 34:1126.6900567661323 35:1099.068954118957 36:1070.4985046039244 37:1041.0036784464214 38:1010.6109255514992 39:979.3482179781613 40:947.2451079464909 41:914.3328065273749 42:880.6442899829991 43:846.214443298798 44:811.0802541358015 45:775.2810757965711 46:738.8589857206323 47:701.8592779215894 48:664.331145961074 49:626.3286413832941 50:587.9120375862382 51:549.1498023523264 52:510.12150418084786 53:470.92218559379046 54:431.6691007327338 55:392.51236824583316 56:353.6522904173025 57:315.36832342776614 58:278.06881272245215 59:242.37776211306294 60:209.2843868492473 61:180.3784495915961 62:158.10693750694742 63:145.6430877892593 64:145.576275517828 65:157.92143684017978 66:180.10508229061853 67:208.95033068495965 68:242.00075816901875 69:277.65907481707757 70:314.9313518877949 71:353.19082514004367 72:392.027547044239 73:431.1611248630124 74:470.3907066294127 75:509.56585539893564 76:548.56914205462 77:587.3054412486096 78:625.6951631853769 79:663.6698614281496 80:701.1693145547969 81:738.1395457513283 82:774.5314536142878 83:810.2998499974889 84:845.4027743544301 85:879.8009992966272 86:913.4576705467401 87:946.3380427281766 88:978.4092843791132 89:1009.6403335335283 90:1040.0017905968377 91:1069.465838945718 92:1098.006186263403 93:1125.5980214464676 94:1152.2179832251022 95:1177.844137584661 96:1202.4559617688526 97:1226.034333157479 98:1248.561521694691 99:1270.0211848328056 100:1290.398364176858 101:1309.679483184172 102:1327.8523454042622 103:1344.9061328467735 104:1360.831404145817 105:1375.6200922531034 106:1389.265501443581 107:1401.762303458661 108:1413.1065326458072 109:1423.2955799808915 110:1432.3281858825885 111:1440.2044317471366 112:1446.9257301478408 113:1452.4948136573016 114:1456.915722261999 115:1460.1937893488923 116:1462.3356262524496 117:1463.349105358183 118:1463.243341765526 119:1462.0286735189356 120:1459.716640421499 121:1456.3199614502091 122:1451.8525107965108 123:1446.3292925597507 124:1439.7664141248977 125:1432.1810582593084 126:1423.591453966483 127:1414.0168461377052 
1.0 0:1403.4774640451903 1:1391.9944887229294 2:1379.5900192838199 3:1366.287038223914 4:1352.1093757667506 5:1337.0816733027175 6:1321.2293459803109 7:1304.5785445079375 8:1287.1561162266537 9:1268.9895655158714 10:1250.1070135956843 11:1230.5371577910425 12:1210.3092303245642 13:1189.4529567063582 14:1167.9985137908418 15:1145.9764875722399 16:1123.4178307922555 17:1100.353820435385 18:1076.816015189548 19:1052.8362129522363 20:1028.4464084652768 21:1003.6787511647755 22:978.5655033368989 23:953.138998675157 24:927.4316013409318 25:901.4756656365289 26:875.303496409355 27:848.9473103175351 28:822.4391981019666 29:795.8110880284414 30:769.0947106871439 31:742.3215653671609 32:715.5228882626725 33:688.7296228180574 34:661.9723925850509 35:635.2814770516114 36:608.6867910165332 37:582.2178682362835 38:555.9038502753949 39:529.7734817695766 40:503.85511369113254 41:478.1767167327222 42:452.7659076621649 43:427.6499925443428 44:402.85603222321026 45:378.4109376347203 46:354.34160573746067 47:330.6751116735629 48:307.4389801393804 49:284.66157040046875 50:262.3726275499754 51:240.60408201799137 52:219.39122799632915 53:198.77449375099752 54:178.80215906723654 55:159.53462570846324 56:141.05129363390083 57:123.4618885983721 58:106.92542887328334 59:91.68192146439195 60:78.10276986847339 61:66.75708171409985 62:58.44431997700794 63:54.03217041890072 64:53.950709532222646 65:57.73871134318327 66:64.30229718502636 67:72.5374783365796 68:81.63589255962565 69:91.07762770658951 70:100.54009205746414 71:109.82201121025639 72:118.7952212084993 73:127.37626435417202 74:135.50980414231822 75:143.15878937852494 76:150.29847401275532 77:156.912678838381 78:162.99138838098224 79:168.5291637206681 80:173.52406674098174 81:177.9769127494029 82:181.8907387133297 83:185.27041602820773 84:188.1223620217044 85:190.4543200885532 86:192.27518829395814 87:193.59488271012884 88:194.424225981633 89:194.77485444933862 90:194.65913909197084 91:194.09011687776936 92:193.08143005387407 93:191.64727156616644 94:189.80233528203559 95:187.5617700397279 96:184.94113680925975 97:181.95636844823187 98:178.62373169030852 99:174.9597911285994 100:170.9813750613683 101:166.70554316212744 102:162.14955602813896 103:157.33084675855483 104:152.2669948249804 105:146.9757026345698 106:141.47477536455668 107:135.7821048899444 108:129.91565896677096 109:123.89347732403277 110:117.73367704029498 111:111.45447066910754 112:105.07420225015997 113:98.61140897207436 114:92.0849204823708 115:85.51401481969542 116:78.91866178336892 117:72.31990525702834 118:65.74047341660625 119:59.20577584578988 120:52.745583055894116 121:46.39696040090628 122:40.209609828564524 123:34.25602642176742 124:28.651533643528683 125:23.594008035936117 126:19.43446967799424 127:16.742537814843462 
1.0 0:16.13465185795723 1:17.693968556133978 2:20.820210149834704 3:24.821480263830928 4:29.24416331631255 5:33.835823325117204 6:38.456384110703794 7:43.023944799658594 8:47.48738885193035 9:51.8127359783178 10:55.97611040339331 11:59.959949434463816 12:63.75086306076471 13:67.33837276994419 14:70.71413893530793 15:73.87147049309824 16:76.80500352149167 17:79.51048405265986 18:81.98461698155461 19:84.22495789356138 20:86.22983333744484 21:87.99828028296353 22:89.52999870759372 23:90.82531327524379 24:91.88514136932407 25:92.71096559644634 26:93.3048094489737 27:93.6692152048329 28:93.80722341402931 29:93.72235351310589 30:93.41858524731543 31:92.90034068277637 32:92.17246666906182 33:91.24021767475475 34:90.10923897049432 35:88.785550180626 36:87.27552926975976 37:85.58589707815035 38:83.72370257397473 39:81.69630905625988 40:79.51138162587085 41:77.1768763525597 42:74.70103171636502 43:72.09236311054194 44:69.35966148904076 45:66.51199766789809 46:63.558734414765915 47:60.509549392369905 48:57.37447343532442 49:54.16395082532379 50:50.88893167641634 51:47.56101209293814 52:44.19264690296099 53:40.797475172981436 54:37.390825282370855 55:33.99051322375821 56:30.618132106868913 57:27.301183879566654 58:24.076678207073694 59:20.997277705943223 60:18.14162430531439 61:15.630177660905993 62:13.642344508710815 63:12.409515473591867 64:12.131508255492593 65:12.832050056484727 66:14.327679623719733 67:16.36095382383924 68:18.717389171882644 69:21.250955654860583 70:23.868082565999913 71:26.508489077342002 72:29.132024434223496 73:31.710773406896276 74:34.224460385081144 75:36.65775378905494 76:38.998650668662165 77:41.23748299821265 78:43.366289822005996 79:45.37841020422505 80:47.26821286421271 81:49.030912485032474 82:50.66244221267618 83:52.159363317722395 84:53.51879987184341 85:54.738390520837314 86:55.81625209277358 87:56.75095148360258 88:57.54148337643217 89:58.187252092268515 90:58.688056372403025 91:59.044076238742036 92:59.25586132085822 93:59.32432021140198 94:59.25071053716447 95:59.0366295265082 96:58.68400492542719 97:58.19508617142959 98:57.57243578214932 99:56.818920958334985 100:55.93770544228751 101:54.932241716504585 102:53.8062636771124 103:52.56377997746235 104:51.20906831534613 105:49.74667104163788 106:48.18139261180506 107:46.51829960429994 108:44.76272432139855 109:42.92027341578364 110:40.99684362542046 111:38.99864767287381 112:36.93225489761965 113:34.80465358892049 114:32.62334587785219 115:30.39649250939409 116:28.133135820618243 117:25.843548486668134 118:23.539790106329058 119:21.236617120459552 120:18.953010162800403 121:16.714804769212268 122:14.559307507442119 123:12.543359948596358 124:10.756471399850229 125:9.336857494093337 126:8.470245877286233 127:8.322808530092555 
1.0 0:8.91598424015554 1:10.102198186384499 2:11.682140876945022 3:13.497078430676956 4:15.442722636669288 5:17.4537002994892 6:19.488287024137115 7:21.518657201851923 8:23.525270899533943 9:25.493691360728214 10:27.412752137504956 11:29.27347342277977 12:31.06840264049604 13:32.79120181994184 14:34.43638263827924 15:35.999132272949396 16:37.47519653309527 17:38.86079995826634 18:40.152590264618965 19:41.347599110793716 20:42.443213964360474 21:43.43715760727293 22:44.327472942232845 23:45.11251149442004 24:45.79092448974549 25:46.36165571989025 26:46.823935630778905 27:47.17727622948148 28:47.42146651721228 29:47.55656823776465 30:47.58291179117174 31:47.501092208300285 32:47.31196511812808 33:47.0166426689944 34:46.61648939071959 35:46.11311800824504 36:45.508385241239154 37:44.804387649846106 38:44.00345761658673 39:43.10815959102631 40:42.12128677080837 41:41.04585845501558 42:39.885118390852675 43:38.642534553105556 44:37.32180096405819 45:35.92684240470833 46:34.46182322576118 47:32.93116200229934 48:31.339554592532604 49:29.692009430741628 50:27.99390090049851 51:26.251049907030186 52:24.469846207981206 53:22.657436334552436 54:20.82201715477477 55:18.973304245436076 56:17.123297748564866 57:15.287568366989014 58:13.48747257266161 59:11.75403618992978 60:10.134715419023602 61:8.704296269133204 62:7.577748103304453 63:6.907467659719688 64:6.825415211730256 65:7.342542019092114 66:8.33595945271847 67:9.645422592014326 68:11.144633837851337 69:12.750698972840762 70:14.411489906391267 71:16.093567251810267 72:17.774494716268965 73:19.43840905708484 74:21.07350225958405 75:22.670567869843744 76:24.222139721139403 77:25.72196706637513 78:27.16468590664886 79:28.54560799861774 80:29.86058238611524 81:31.105902766487453 82:32.27824449050154 83:33.374621110696374 84:34.392354051274616 85:35.32905121415488 86:36.18259174072589 87:36.95111504827064 88:37.63301284740774 89:38.226923237746114 90:38.731726243737484 91:39.14654033524571 92:39.47071960542846 93:39.70385137007408 94:39.845754019337804 95:39.89647500280407 96:39.856288867380805 97:39.72569529855206 98:39.505417141814 99:39.19639840492664 100:38.79980226483242 101:38.31700912756703 102:37.74961481717905 103:37.099429002934485 104:36.36847401594444 105:35.558984260957864 106:34.67340650224471 107:33.71440140276536 108:32.684846835754215 109:31.587843686460797 110:30.426725148227508 111:29.205070936833636 112:27.92672847224791 113:26.59584402405315 114:25.216908277140757 115:23.7948230678519 116:22.334999712488987 117:20.843505343848324 118:19.32728364461096 119:17.79449325376163 120:16.25503609385534 121:14.72139772599348 122:13.210005985319237 123:11.743445703571096 124:10.354024430263452 125:9.089158153600348 126:8.017952404770444 127:7.2338548638023354 
1.0 0:6.83918972618126 1:6.899529130730966 2:7.398276285068742 3:8.247909563724258 4:9.342799607541066 5:10.595447380045147 6:11.943714468084988 7:13.345528655217983 8:14.772258822640673 9:16.20383592039198 10:17.62562873426699 11:19.026522116056764 12:20.397738039042956 13:21.732103180333052 14:23.023585439565394 15:24.266994740492663 16:25.457786112566954 17:26.591927764293466 18:27.66581129333667 19:28.676189736906263 20:29.62013433552127 21:30.49500406730657 22:31.298424009839913 23:32.028269866693606 24:32.682656830303706 25:33.259931506290854 26:33.75866599757285 27:34.17765350224534 28:34.51590495697766 29:34.77264638311217 30:34.947316682511826 31:35.03956569550456 32:35.049252381568415 33:34.976443019770684 34:34.82140935402025 35:34.58462663047586 36:34.266771492893064 37:33.86871971775479 38:33.39154378602717 39:32.83651030346424 40:32.205077297884486 41:31.498891441267233 42:30.719785268956276 43:29.869774500585724 44:28.95105561189609 45:27.966003870006197 46:26.917172137387713 47:25.807290888681024 48:24.639270097602783 49:23.41620398616595 50:22.14138016850445 51:20.818295616574176 52:19.450683403567695 53:18.04255688067073 54:16.598282894418965 55:15.122705129188756 56:13.621357701268584 57:12.100849575795676 58:10.569591921393153 59:9.03926320151868 60:7.527992778634088 61:6.067904285593708 62:4.724464384487459 63:3.6453146253114372 64:3.1280133153285137 65:3.437678355859868 66:4.398102629457986 67:5.6801709533854705 68:7.101544827300792 69:8.581790325843736 70:10.082792810389265 71:11.58385517705851 72:13.07211316683534 73:14.53858260176851 74:15.976379688744677 75:17.37985365074444 76:18.744135115654615 77:20.064888103154654 78:21.338168035237356 79:22.560337915840343 80:23.728017867126162 81:24.83805452143494 82:25.88750260736467 83:26.87361421907721 84:27.79383302549713 85:28.645791702860986 86:29.42731148960729 87:30.136403142491158 88:30.77126881380069 89:31.330304526721665 90:31.812103031432116 91:32.21545689779322 92:32.539361753584785 93:32.78301961777507 94:32.94584231150475 95:33.027454958962885 96:33.02769961898174 97:32.946639118508514 98:32.78456119356363 99:32.54198308469419 100:32.21965678567521 101:31.8185752107821 102:31.33997963342007 103:30.785368865727527 104:30.15651080691364 105:29.455457204800453 106:28.68456277523752 107:27.84651024433775 108:26.944343472822034 109:25.981511670305952 110:24.961928929625394 111:23.89005508516899 112:22.77100648768377 113:21.610709071884177 114:20.416111599241912 115:19.195484843092455 116:17.958843350662214 117:16.71854013450317 118:15.490098302329969 119:14.293346148403826 120:13.153881833599709 121:12.104734692355061 122:11.187671151869823 123:10.452776233225517 124:9.953997212343333 125:9.738759264522834 126:9.833819233564451 127:10.235506268680728 
1.0 0:10.911965105798044 1:11.815370473035951 2:12.895115038907797 3:14.105893136093098 4:15.410464041438528 5:16.779365759033958 6:18.18952067459301 7:19.6227288344604 8:21.06440426466678 9:22.502614837171407 10:23.927384169504503 11:25.33019352508727 12:26.703628591391254 13:28.04112889715984 14:29.336809412831474 15:30.585332945188778 16:31.781818449651006 17:32.92177492151672 18:34.00105365126434 19:35.015813773872424 20:35.96249751907039 21:36.83781259263607 22:37.63871983345113 23:38.36242479472876 24:39.00637225657111 25:39.568242935390415 26:40.045951844164776 27:40.437647896938955 28:40.74171445599035 29:40.95677060095244 30:41.081672963357796 31:41.11551802303374 32:41.05764480884874 33:40.9076379890099 34:40.66533137866155 35:40.33081193816014 36:39.904424387698306 37:39.38677662731081 38:38.77874623145509 39:38.081488392146966 40:37.296445825128096 41:36.42536134573364 42:35.47029408856297 43:34.43364072290904 44:33.31816355753095 45:32.127028215662335 46:30.863854721702324 47:29.53278757564035 48:28.138593019714957 49:26.68679573741685 50:25.183873494814087 51:23.63753806472386 52:22.057146247644315 53:20.454309005150904 54:18.843803561554154 55:17.24494536482689 56:15.683635916475817 57:14.195318668795196 58:12.828869748726694 59:11.650543056533257 60:10.744659912821607 61:10.204013302551179 62:10.103797765016935 63:10.468621537813549 64:11.26077126571331 65:12.401910620011424 66:13.805575810772844 67:15.397104379708479 68:17.118865651773024 69:18.928213299786638 70:20.793698650487276 71:22.691724736763117 72:24.604089958304506 73:26.51630435964483 74:28.41646294845559 75:30.294494824971366 76:32.141660158062145 77:33.950210101021916 78:35.71315450567234 79:37.42410173572445 80:39.077147330287204 81:40.66679621667448 82:42.18790827336462 83:43.63566035064625 84:45.00552002549132 85:46.2932278086136 86:47.49478549251475 87:48.606448992111886 88:49.624724488175296 89:50.54636700547451 90:51.368380786257674 91:52.08802098469921 92:52.70279632886879 93:53.210472487038075 94:53.609075944030515 95:53.89689824743453 96:54.07250052761615 97:54.13471823322766 98:54.08266605817617 99:53.91574306932358 100:53.633638078889604 101:53.23633534413575 102:52.72412072233723 103:52.097588464903275 104:51.35764890561498 105:50.505537390826284 106:49.54282492335904 107:48.47143115989047 108:47.29364063310634 109:46.01212339312796 110:44.62996172018057 111:43.15068521652785 112:41.57831753924533 113:39.917439440273775 114:38.17327487863665 115:36.35181014740609 116:34.45996083446516 117:32.50580901113461 118:30.498944925019746 119:28.450966205487408 120:26.376216994187377 121:24.29289451568025 122:22.22471541487152 123:20.203411569128953 124:18.27236167671855 125:16.491460381257795 126:14.942318587487561 127:13.730026489860279 
1.0 0:12.97288205568411 1:12.771123441687743 2:13.163783249536234 3:14.109085604894577 4:15.508926087539924 5:17.251310794865113 6:19.238184087889945 7:21.393518136778827 8:23.6610720971979 9:25.999483231972988 10:28.3778274509472 11:30.772340273906615 12:33.16416764495051 13:35.537863008759594 14:37.88038795154679 15:40.180444399122564 16:42.4280242838571 17:44.614102728872766 18:46.7304269919779 19:48.76937015070888 20:50.7238291693009 21:52.587153812309936 22:54.35309728102379 23:56.015782335323685 24:57.56967857749508 25:59.00958786087718 26:60.330635662931144 27:61.528266868181454 28:62.59824483119342 29:63.53665289193498 30:64.33989773443304 31:65.00471414075038 32:65.52817081391113 33:65.90767703805649 34:66.14099002084376 35:66.22622282874636 36:66.16185288590997 37:65.94673106635884 38:65.58009147227767 39:65.06156206288983 40:64.39117638519161 41:63.56938676736884 42:62.597079478789325 43:61.47559255213989 44:60.20673722527756 45:58.79282432475288 46:57.23669742763302 47:55.54177537600238 48:53.71210779156526 49:51.752448821639064 50:49.668356720998084 51:47.46633048470459 52:45.15400032586258 53:42.74039754357067 54:40.23634324948708 55:37.65501783264275 56:35.01280935314945 57:32.33059766170379 58:29.635723229740275 59:26.96502387719156 60:24.369476274849 61:21.920996901297258 62:19.721255494350945 63:17.90936865302739 64:16.657898460582025 65:16.138614627070016 66:16.454395169848265 67:17.584873328521166 68:19.404134711398797 69:21.748452052330048 70:24.4695458408675 71:27.45262967550844 72:30.614042771387837 73:33.893329854325636 74:37.24598079819079 75:40.638158987155336 76:44.0431679565282 77:47.439144135724995 78:50.80755479676022 79:54.13221319092813 80:57.39862556661743 81:60.59355307809836 82:63.704714741551086 83:66.72058442117265 84:69.6302515171107 85:72.42332549720976 86:75.08987106490518 87:77.62036503997489 88:80.0056688304343 89:82.2370122335813 90:84.30598555725165 91:86.20453790914414 92:87.92498009657976 93:89.45999099778649 94:90.80262656544754 95:91.94633084156813 96:92.88494852528835 97:93.61273875976131 98:94.124389903269 99:94.41503513267156 100:94.4802688015064 101:94.31616354695687 102:93.91928821571774 103:93.28672676531062 104:92.41609840300168 105:91.30557936023538 106:89.95392688199402 107:88.3605062605434 108:86.5253220958704 109:84.44905547354537 110:82.13310949767839 111:79.5796667351877 112:76.79176383594464 113:73.77339125719918 114:70.52963026794299 115:67.06684634563281 116:63.392969707426936 117:59.51791377895148 118:55.454218094889185 119:51.21806777704268 120:46.830966824116075 121:42.32258943267615 122:37.73583725392223 123:33.13617777689277 124:28.629472382068833 125:24.39621446567494 126:20.751978270177357 127:18.21637464449865 
1.0 0:17.441278978564153 1:18.78248671384876 2:21.958612928457907 3:26.39072759906301 4:31.60935086658361 5:37.3241339583043 6:43.36445105530188 7:49.62619095592823 8:56.04122603837139 9:62.561330754888786 10:69.14967800387377 11:75.7762018450636 12:82.41497278319702 13:89.0426575504513 14:95.6375858116193 15:102.17916928129146 16:108.6475326472993 17:115.0232758964372 18:121.28732056512258 19:127.42081104192786 20:133.40505288391944 21:139.2214765978542 22:144.85161932500958 23:150.2771193780077 24:155.4797201927634 25:160.44128131976973 26:165.14379479058724 27:169.5694056827996 28:173.70043604812778 29:177.51941161406043 30:181.00909085212177 31:184.15249614804122 32:186.93294692624804 33:189.33409468500906 34:191.33995999865363 35:192.9349716483085 36:194.1040081612571 37:194.8324421815649 38:195.1061882737383 39:194.91175499386102 40:194.2363023724553 41:193.06770637396065 42:191.39463247831765 43:189.20662134379967 44:186.49419066730593 45:183.24895902838063 46:179.46379995117795 47:175.13303806570954 48:170.25270477859277 49:164.82087940247223 50:158.838155146988 51:152.30829103046176 52:145.239146439101 53:137.64405524954603 54:129.54390060989846 55:120.97033648826898 56:111.97093876531207 57:102.61769327231752 58:93.02139434791026 59:83.3566459696079 60:73.90555140296136 61:65.13112521617231 62:57.78122316072084 63:52.95459573638398 64:51.893007735941346 65:55.323994069869784 66:62.97040668942846 67:73.92734358125152 68:87.295487266018 69:102.4285521882311 70:118.91024149911131 71:136.47667487915595 72:154.9563676449406 73:174.2330283625186 74:194.2237392534599 75:214.8661776891011 76:236.1109942617692 77:257.91715103479623 78:280.2489940109961 79:303.07436757248104 80:326.36337168294773 81:350.08752594698717 82:374.2191975983989 83:398.73120469480494 84:423.59653816135267 85:448.7881661041597 86:474.27889616865696 87:500.0412795964414 88:526.0475457561342 89:552.2695593138591 90:578.678794490555 91:605.246322412899 92:631.9428086460508 93:658.7385187564429 94:685.6033302936336 95:712.5067499695067 96:739.4179350963387 97:766.3057185534052 98:793.1386367061904 99:819.8849598177903 100:846.5127245792312 101:872.989768451638 102:899.2837655638668 103:925.3622639482526 104:951.1927239273876 105:976.7425574884456 106:1001.9791685000811 107:1026.8699936415398 108:1051.3825439252098 109:1075.484446703101 110:1099.1434880551926 111:1122.327655463623 112:1145.0051806816323 113:1167.144582710255 114:1188.7147107991755 115:1209.6847873910665 116:1230.0244509312329 117:1249.7037984666033 118:1268.6934279600973 119:1286.9644802482142 120:1304.4886805714234 121:1321.2383796085687 122:1337.1865939481181 123:1352.307045930685 124:1366.5742027988758 125:1379.9633150921618 126:1392.4504542261752 127:1404.0125491976214 
1.0 0:1344.9814615519588 1:1353.9044354792918 2:1361.8879829235348 3:1368.914124550725 4:1374.965853237098 5:1380.027162237216 6:1384.0830721939976 7:1387.1196569530525 8:1389.1240681465356 9:1390.0845585147345 10:1389.9905039368498 11:1388.8324241459272 12:1386.6020021067336 13:1383.29210203951 14:1378.8967860771465 15:1373.4113295483803 16:1366.832234885257 17:1359.157244159448 18:1350.385350259154 19:1340.5168067264972 20:1329.5531362846555 21:1317.4971380948623 22:1304.3528937960573 23:1290.1257723949393 24:1274.8224340919187 25:1258.4508331497827 26:1241.0202199376422 27:1222.5411423141281 28:1203.0254465524515 29:1182.4862780577819 30:1160.9380821872799 31:1138.3966055584924 32:1114.8788983276452 33:1090.4033180420831 34:1064.9895358296496 35:1038.6585458944114 36:1011.4326795597193 37:983.3356254599955 38:954.392457965435 39:924.6296765771499 40:894.0752599238615 41:862.758739227168 42:830.711297832383 43:797.9659058543524 44:764.5575025118276 45:730.523243862369 46:695.9028412598748 47:660.7390273186368 48:625.0782037462637 49:588.9713528987248 50:552.4753388178198 51:515.6547952419344 52:478.584918136135 53:441.355686435105 54:404.0783981939196 55:366.89606745639196 56:330.00044741106234 57:293.6607442033163 58:258.2733946196588 59:224.44986969479064 60:193.16970275545285 61:166.02282184294623 62:145.46713870845937 63:134.6450422754583 64:135.94227934440346 65:149.03734157318408 66:171.20347277587055 67:199.3720069880913 68:231.2766056539078 69:265.47783349933076 70:301.08949647267076 71:337.55475379690245 72:374.5092475036689 73:411.7030941149206 74:448.9565674302884 75:486.1344008904427 76:523.1304589382748 77:559.8583174729623 78:596.2453078471773 79:632.2286504564196 80:667.7528845351103 81:702.7681231712837 82:737.2288464056548 83:771.0930529342658 84:804.3216555866551 85:836.8780455177016 86:868.7277750617782 87:899.8383252571841 88:930.178934560773 89:959.7204722772505 90:988.4353449730074 91:1016.2974274090471 92:1043.2820118060577 93:1069.3657708662734 94:1094.5267311310945 95:1118.7442540899685 96:1141.9990230690773 97:1164.2730343823575 98:1185.5495915669399 99:1205.8133017814998 100:1225.0500736414242 101:1243.247115914914 102:1260.3929366206432 103:1276.4773421586758 104:1291.4914361781684 105:1305.42761794248 106:1318.279579998051 107:1330.0423049903904 108:1340.7120615006277 109:1350.286398800817 110:1358.7641404466797 111:1366.1453766435875 112:1372.431455336019 113:1377.6249719829782 114:1381.7297579923763 115:1384.7508677964613 116:1386.6945645583037 117:1387.5683045063117 118:1387.3807198999168 119:1386.1416006350737 120:1383.8618745031793 121:1380.5535861214837 122:1376.2298745571625 123:1370.9049496709283 124:1364.5940672095319 125:1357.3135026796415 126:1349.0805240385766 127:1339.913363240085 
1.0 0:1329.8311866759386 1:1318.8540645565279 2:1307.0029392758788 3:1294.2995928086739 4:1280.7666131888404 5:1266.4273601212044 6:1251.3059297795112 7:1235.4271188458447 8:1218.81638784816 9:1201.4998238542425 10:1183.504102581991 11:1164.856449987466 12:1145.5846033937096 13:1125.7167722249014 14:1105.2815984120582 15:1084.30811653818 16:1062.825713792596 17:1040.8640898062808 18:1018.4532164421655 19:995.6232976170661 20:972.40472923484 21:948.8280593139438 22:924.9239483968054 23:900.7231303335758 24:876.2563735391128 25:851.5544428298338 26:826.6480619567084 27:801.5678769627713 28:776.3444205087416 29:751.0080773296166 30:725.589051009685 31:700.1173322948864 32:674.6226692020543 33:649.1345392372857 34:623.6821241045155 35:598.2942873759762 36:572.9995557163169 37:547.8261044126822 38:522.8017481794958 39:497.95393850124316 40:473.30976918146325 41:448.8959923287842 42:424.7390478017014 43:400.8651102593349 44:377.30015958879085 45:354.07008285488797 46:331.20081944698086 47:308.7185664282356 48:286.65006928885873 49:265.0230361481689 50:243.86673398696055 51:223.2128590384645 52:203.0968294979857 53:183.55974443044678 54:164.65141983663563 55:146.43520979126032 56:128.9958530836354 57:112.45252837329215 58:96.98085527629284 59:82.84952810548523 60:70.47670603583256 61:60.49453830134634 62:53.74122730348715 63:50.9869587369396 64:52.368732764336016 65:57.15020175746826 66:64.20101654779242 67:72.54092247964387 68:81.49899992401701 69:90.65420922205081 70:99.7463379016467 71:108.61227106953307 72:117.1473717631292 73:125.28300760844473 74:132.97342204086524 75:140.18790240598452 76:146.90598009976617 77:153.1144040885465 78:158.80517847864868 79:163.97425544652594 80:168.6206421352234 81:172.74577531118695 82:176.35307305595563 83:179.44760589293486 84:182.03584999358614 85:184.12549775548996 86:185.72530911283826 87:186.8449921875335 88:187.4951053649809 89:187.68697522080646 90:187.43262632879456 91:186.74472009627453 92:185.6365005616765 93:184.12174565513448 94:182.21472283674913 95:179.93014833583874 96:177.28314945099856 97:174.28922955845368 98:170.96423563231033 99:167.32432821853806 100:163.3859539364761 101:159.16582071846818 102:154.6808761518615 103:149.94828947231213 104:144.9854379918079 105:139.80989905473663 106:134.43944903770546 107:128.89207149834652 108:123.18597741767897 109:117.3396416971222 110:111.37186186462296 111:105.3018476331068 112:99.1493540555335 113:92.9348773879273 114:86.67994283877249 115:80.40752959758696 116:74.14270513115045 117:67.91358509589548 118:61.7528101708023 119:55.69985834206353 120:49.80472406650742 121:44.1338314587086 122:38.77948349093309 123:33.87430812167501 124:29.61032326599356 125:26.25318899123655 126:24.1189633683709 127:23.464634180992363 
1.0 0:24.324168469130342 1:26.46421840474289 2:29.524171613040185 3:33.1711092633211 4:37.15796490312284 5:41.31660928427482 6:45.53482867954028 7:49.73675750236917 8:53.86971918431135 9:57.89598940373994 10:61.7877196783665 11:65.52378469172207 12:69.08778989765214 13:72.46678530494864 14:75.65041634069945 15:78.630350618469 16:81.3998824387936 17:83.95365405917487 18:86.2874551173559 19:88.39807526544075 20:90.28319360159234 21:91.94129390797167 22:93.37159821392535 23:94.5740135162722 24:95.54908803802226 25:96.29797446158554 26:96.82239830157495 27:97.1246300938419 28:97.20746044178038 29:97.07417722465698 30:96.72854446698882 31:96.17478251411052 32:95.41754927193915 33:94.46192235917633 34:93.31338209573326 35:91.97779531820008 36:90.46140007698867 37:88.77079133524803 38:86.91290786191054 39:84.89502059616544 40:82.7247228656816 41:80.40992297581785 42:77.95883986547281 43:75.38000276644705 44:72.68225613527393 45:69.87477159083122 46:66.96706924965314 47:63.96905179782371 48:60.89105601818971 49:57.74392852920742 50:54.53913554034622 51:51.28892104873945 52:48.00653498514701 53:44.70656378374943 54:41.4054129253271 55:38.1220175370002 56:34.87889766428352 57:31.70373375521398 58:28.631712855078245 59:25.708954449865878 60:22.99723390052071 61:20.579578068297053 62:18.564204056232526 63:17.079749428274404 64:16.25053683611302 65:16.14954849566679 66:16.757175565102955 67:17.96637180807911 68:19.62999628779309 69:21.607071289878775 70:23.783955861199797 71:26.076120417235686 72:28.422453990109727 73:30.7787747536978 74:33.112668119555444 75:35.399842137799745 76:37.62166628987613 77:39.7635304254846 78:41.813747929270306 79:43.762815431247304 80:45.60290646490188 81:47.32751995006469 82:48.93123235929562 83:50.40952023934792 84:51.75863111474371 85:52.97548809597798 86:54.05761825417025 87:55.00309794216874 88:55.81051032155433 89:56.47891176092895 90:57.007804734715876 91:57.39711552173254 92:57.64717547532447 93:57.75870497517839 94:57.73279941734966 95:57.57091678219446 96:57.27486645960111 97:56.84679912121605 98:56.289197520577964 99:55.60486818222747 100:54.79693401667191 101:53.86882797583061 102:52.82428794981508 103:51.66735320825848 104:50.40236281765996 105:49.03395663348172 106:47.567079690635566 107:46.00699112535761 108:44.359279195091275 109:42.6298845805976 110:40.82513504715149 111:38.951795849847194 112:37.01714221077838 113:35.02906311784127 114:32.996210140984736 115:30.928211792511252 116:28.83598451551884 117:26.732187687459174 118:24.63189484656613 119:22.553589590080968 120:20.52064202189856 121:18.5634651665592 122:16.722525190094846 123:15.05208099417347 124:13.623470512984056 125:12.524261931930303 126:11.846369446402559 127:11.658452327166659 
1.0 0:11.9740368587027 1:12.742627107607394 2:13.873423060924903 3:15.268728722524784 4:16.84444641907543 5:18.53555589256752 6:20.29394628047456 7:22.08430729309259 8:23.88043196196397 9:25.662461927885698 10:27.414976059581672 11:29.125698078513977 12:30.784627083971063 13:32.383449567748464 14:33.9151377572439 15:35.37367184706184 16:36.75384537812031 17:38.05112707107957 18:39.26156146451558 19:40.38169655148537 20:41.40853041570106 21:42.33947137713705 22:43.17230783014394 23:43.90518508764274 24:44.53658731880178 25:45.06532320424978 26:45.49051430993716 27:45.81158544923666 28:46.02825649669564 29:46.14053525890386 30:46.148711113871244 31:46.05334921098867 32:45.85528508679745 33:45.555619603041215 34:45.15571415710878 35:44.65718615444387 36:44.061904770850404 37:43.371987072810846 38:42.58979460921661 39:41.717930642165115 40:40.75923825277773 41:39.71679964727765 42:38.59393710867376 43:37.39421620471907 44:36.12145209470743 45:34.77972010856506 46:33.3733722514049 47:31.90706199320751 48:30.385780760295802 49:28.814911152266856 50:27.200304391381017 51:25.5483934123126 52:23.866359226000032 53:22.16237827209426 54:20.445994977731402 55:18.72869086136577 56:17.024765592004417 57:15.352713873140447 58:13.737374828381832 59:12.213203057063865 60:10.828846992510803 61:9.652115001019293 62:8.77089548948152 63:8.279678640682855 64:8.243550627817468 65:8.659375984713924 66:9.45600217918034 67:10.533721689365166 68:11.800868750591011 69:13.18732467442958 70:14.643257296963176 71:16.13378887812318 72:17.63415408030896 73:19.126264312749264 74:20.596460258904802 75:22.034076510234794 76:23.43052466057495 77:24.77870118572609 78:26.07259917647703 79:27.307049477357122 80:28.477545242178493 81:29.58012116588307 82:30.611269153944857 83:31.567878658589375 84:32.447193954076816 85:33.24678319165412 86:33.96451573358468 87:34.59854535472726 88:35.14729762667713 89:35.60946029174014 90:35.98397577261622 91:36.27003520005801 92:36.46707350830053 93:36.57476526864999 94:36.59302101997157 95:36.52198392086989 96:36.362026599068685 97:36.1137481138099 98:35.77797098067972 99:35.3557382380795 100:34.8483105631093 101:34.25716347442692 102:33.58398469343648 103:32.83067177642814 104:31.999330183666803 105:31.092272023733948 106:30.112015812701102 107:29.061287733694517 108:27.943025097880856 109:26.76038303320228 110:25.516745929367296 111:24.215745960804448 112:22.861292293197227 113:21.457616712919542 114:20.009345068309067 115:18.521610354707462 116:17.000235051753275 117:15.45203268138983 118:13.885322793186127 119:12.310844967269285 120:10.743454259268445 121:9.205417816886738 122:7.733095834093374 123:6.390604474172645 124:5.294747281406825 125:4.637119013057356 126:4.61562553490886 127:5.23793569637798 
1.0 0:6.311640704267582 1:7.641008873776326 2:9.104989771486727 3:10.637107698421127 4:12.199849773495387 5:13.770403472161153 6:15.333670204652437 7:16.87882463031206 8:18.39754995667398 9:19.88308904848683 10:21.32971085993725 11:22.73239836626513 12:24.086659885453283 13:25.388411890309904 14:26.63390470613334 15:27.81967472790697 16:28.942513471755444 17:29.99944755195454 18:30.987725878600656 19:31.904811694859326 20:32.74837788928217 21:33.516304534822055 22:34.20667793999248 23:34.817790718302746 24:35.34814253121527 25:35.796441262961345 26:36.16160445866707 27:36.44276091070016 28:36.63925231880701 29:36.75063498208824 30:36.77668150852718 31:36.71738255318378 32:36.57294862141359 33:36.34381200062962 34:36.03062891527737 35:35.634282037393255 36:35.15588353252714 37:34.5967788822152 38:33.95855180545109 39:33.24303071111539 40:32.452297263066285 41:31.588697847192464 42:30.65485902121477 43:29.65370844244868 44:28.58850336537444 45:27.462869670552784 46:26.280855670015583 47:25.04700685180656 48:23.76647062364948 49:22.44514453639768 50:21.08988825819337 51:19.70883001055426 52:18.311814071691575 53:16.91105939233839 54:15.522131223078395 55:14.165361899806875 56:12.867863152145954 57:11.666149823711512 58:10.608884061932777 59:9.757893534746454 60:9.18334837194231 61:8.948357997737913 62:9.085521173576854 63:9.58154341564624 64:10.384622104120863 65:11.427041546606985 66:12.644462303001768 67:13.984309573167375 68:15.406450283764357 69:16.880898444673637 70:18.385141726920157 71:19.901957438229264 72:21.417829888341814 73:22.921856531062758 74:24.405004152978492 75:25.85960387595162 76:27.279006387736487 77:28.6573445020977 78:29.989368042189536 79:31.270327931317937 80:32.49589414318561 81:33.66209722451383 82:34.76528641533394 83:35.80209957898814 84:36.76944161302931 85:37.66446899735187 86:38.48457880916746 87:39.22740100027234 88:39.89079305836847 89:40.472836405560365 90:40.97183405325865 91:41.38630915345605 92:41.71500417529507 93:41.95688050234302 94:42.111118296556896 95:42.17711651418046 96:42.154492990132816 97:42.04308453329802 98:41.842946997476815 99:41.5543553131759 100:41.177803485340625 101:40.71400458298911 102:40.163890770022384 103:39.52861345413097 104:38.80954366513242 105:38.00827281851307 106:37.12661407912032 107:36.1666046205872 108:35.13050918823997 109:34.02082553211385 110:32.84029250560506 111:31.59190196078144 112:30.278916071650965 113:28.904892476327962 114:27.47372080472757 115:25.989676015334645 116:24.457496961486257 117:22.88250355658943 118:21.27077427967904 119:19.629420281825045 120:17.967018159926983 121:16.294310356300276 122:14.625368620029514 123:12.97957486439807 124:11.385050896584671 125:9.88455979898474 126:8.544975341226154 127:7.468831176647988 
1.0 0:6.794601472945558 1:6.652806079800779 2:7.077281753513071 3:7.9753608370443025 4:9.20334808797619 5:10.639160439187476 6:12.199508266594123 7:13.831011563648605 8:15.499118291624566 9:17.180532405907748 10:18.858713325294023 11:20.521280025761246 12:22.15850162938253 13:23.76240050411052 14:25.326205542159883 15:26.84401041591159 16:28.310555031880163 17:29.721083007117794 18:31.071247240672406 19:32.357046616319366 20:33.57478327486783 21:34.72103372571093 22:35.792629414847205 23:36.786643837407254 24:37.700384223758306 25:38.53138644235439 26:39.277412170820824 27:39.936447663194116 28:40.50670363173013 29:40.986615895362775 30:41.374846542536424 31:41.67028542611941 32:41.872051860727936 33:41.979496433767004 34:41.992202874908685 35:41.909989957592714 36:41.732913432901135 37:41.46126802293812 38:41.09558952976153 39:40.63665714925512 40:40.085496119917295 41:39.44338088803241 42:38.71183903807279 43:37.89265632752713 44:36.987883288888206 45:35.99984403332179 46:34.93114813319836 47:33.78470680858294 48:32.563755149150424 49:31.271882851313755 50:29.91307707380403 51:28.491782729298706 52:27.012988190124286 53:25.482348585797453 54:23.906365612913497 55:22.292653775954232 56:20.650341151009183 57:18.99068299984912 58:17.328016548818898 59:15.681265002705588 60:14.076312714116659 61:12.549681257731418 62:11.153812428492214 63:9.963114729261063 64:9.075963852369528 65:8.600643490888864 66:8.614802694513804 67:9.120410294189286 68:10.043336747291962 69:11.277841287294622 70:12.727072187998136 71:14.317376747514805 72:15.996570903597787 73:17.728080392856192 74:19.485768535027724 75:21.250322201090174 76:23.006911526882348 77:24.7437062753145 78:26.45093373356328 79:28.12027365833132 80:29.744463851295382 81:31.317039058458207 82:32.832155662870306 83:34.28447256723989 84:35.66906952573155 85:36.98139085080083 86:38.21720657666295 87:39.37258579538769 88:40.443878580262194 89:41.427704024852645 90:42.3209426685353 91:43.120732081954365 92:43.824464731608366 93:44.42978748428917 94:44.93460228357047 95:45.337067654403505 96:45.635600783199294 97:45.82887998980233 98:45.91584746166347 99:45.895712164477786 100:45.76795288150333 101:45.532321368896056 102:45.18884564959877 103:44.73783350647701 104:44.17987627983865 105:43.51585312931705 106:42.74693599089614 107:41.87459555440301 108:40.900608716467936 109:39.82706814567523 110:38.65639485626567 111:37.391355064323236 112:36.035083159303525 113:34.591113466072635 114:33.0634247660733 115:31.45650357201623 116:29.775435390489754 117:28.026038505031973 118:26.215063680551463 119:24.350498396384648 120:22.44204092383687 121:20.50185752486753 122:18.54582358870729 123:16.59560956764174 124:14.682254962085675 125:12.852304041344052 126:11.177880672804418 127:9.770495020285354 
1.0 0:8.788861784237065 1:8.408251008117011 2:8.72522258683395 3:9.681389860096498 4:11.11651657344677 5:12.869922415860584 6:14.823897522329702 7:16.900967705215326 8:19.05068490266198 9:21.239105313880334 10:23.442213121953284 11:25.642061470079554 12:27.824520272047046 13:29.977941046939577 14:32.0923472372494 15:34.158931468961846 16:36.169736559762974 17:38.11744939951378 18:39.99526592822076 19:41.79680196562813 20:43.51603425777834 21:45.14726182987981 22:46.68508122415376 23:48.124371376371165 24:49.460285269505334 25:50.68824640233191 26:51.8039487062938 27:52.80335894565033 28:53.682720912067744 29:54.4385609184756 30:55.067694235992654 31:55.5672322202802 32:55.93458995219981 33:56.16749428075838 34:56.26399221041232 35:56.22245962492088 36:56.04161039055716 37:55.72050593705982 38:55.258565480280105 39:54.655577132337136 40:53.91171025170852 41:53.027529528965495 42:52.00401150118234 43:50.8425644653123 44:49.54505315746354 45:48.113830142182785 46:46.55177671008998 47:44.862357368702895 48:43.049693984339164 49:41.11866871754412 50:39.07506981532641 51:36.92580234263654 52:34.67919929589536 53:32.34549130446516 54:29.93753275268171 55:27.47195240997178 56:24.97102246093847 57:22.46576289971786 58:20.00117068685833 59:17.64496004089402 60:15.50126643274043 61:13.727687705329894 62:12.540297484247954 63:12.165544202856111 64:12.719590079598861 65:14.126322695924689 66:16.1873489657734 67:18.701485443979134 68:21.51755002780485 69:24.533363503342766 70:27.68086281966384 71:30.913403664653103 72:34.19748418089997 73:37.507738781868184 74:40.823948732628324 75:44.12923813664057 76:47.40896439234481 77:50.65002138240508 78:53.840393232692826 79:56.96886381558638 80:60.024825373416114 81:62.99815167552315 82:65.87911409918395 83:68.65832683368859 84:71.32671220877339 85:73.87548016385034 86:76.29611780603435 87:78.5803862661265 88:80.72032290025062 89:82.70824745233746 90:84.53677118351098 91:86.1988082486198 92:87.68758879641253 93:88.99667341373078 94:90.11996864280287 95:91.05174338618325 96:91.78664608467612 97:92.31972261623315 98:92.64643492367587 99:92.76268044108419 100:92.66481245779777 101:92.3496616409743 102:91.81455903965349 103:91.05736102482173 104:90.0764767941737 105:88.87089930583849 106:87.44024082949733 107:85.78477475635216 108:83.90548595197158 109:81.80413286083973 110:79.48332592241573 111:76.94662886289666 112:74.19869244920508 113:71.24543492719773 114:68.09429060328364 115:64.75455953833836 116:61.237909974316466 117:57.55911590207424 118:53.73716386511286 119:49.796950978856295 120:45.77194612394721 121:41.70843797432212 122:37.67238891205825 123:33.760411824791504 124:30.116489664737195 125:26.953593005208834 126:24.568244636830244 127:23.310648850527965 
1.0 0:23.464897708822466 1:25.091761416941516 2:28.00500227105066 3:31.90711710750378 4:36.52139789988203 5:41.63884879472922 6:47.11300936540994 7:52.84206964823697 8:58.75344185323485 9:64.79320450706496 10:70.9193827930713 11:77.09774530125186 12:83.29916249490978 13:89.49792369026063 14:95.67064670894128 15:101.79555973144272 16:107.85202135436101 17:113.82019617251366 18:119.68083395104448 19:125.41511914743965 20:131.00456910894002 21:136.43096655595141 22:141.67631663426812 23:146.72282186861142 24:151.55287037497882 25:156.1490340565743 26:160.49407444678607 27:164.57095451830648 28:168.36285524405605 29:171.85319603489924 30:175.02565843274482 31:177.86421263405458 32:180.3531465783795 33:182.47709747452308 34:184.22108576550792 35:185.5705516635619 36:186.51139452861224 37:187.03001553034107 38:187.11336423949427 39:186.74899005828232 40:185.92509974919423 41:184.6306227945206 42:182.8552869710051 43:180.5897074380383 44:177.8254939387666 45:174.55538259381493 46:170.7734015279815 47:166.4750836904934 48:161.65774648647113 49:156.32086751677718 50:150.46660099571196 51:144.100504024112 52:137.23258243711322 53:129.87883430595426 54:122.06358719396772 55:113.8231337250554 56:105.21154545333258 57:96.3102284021197 58:87.24401413171306 59:78.20865243897205 60:69.5172675943273 61:61.672965109982336 62:55.453951340799605 63:51.91402412803198 64:52.08305635739349 65:56.37967863808433 66:64.38327414108464 67:75.26881360352303 68:88.27914609938013 69:102.87476437887553 70:118.7027188667258 71:135.53431028962174 72:153.21762478290754 73:171.64759781654917 74:190.74804997098133 75:210.4609320086848 76:230.7397830697656 77:251.54566111158397 78:272.8445497523357 79:294.6056670421914 80:316.80033867274636 81:339.4012329640081 82:362.38183311627773 83:385.7160684858141 84:409.37805464806456 85:433.3419093303563 86:457.5816222284581 87:482.07096375870333 88:506.7834224109371 89:531.692163444333 90:556.7700037530269 91:581.9893991624671 92:607.3224414173657 93:632.7408628285395 94:658.2160470509934 95:683.7190448307391 96:709.2205938246311 97:734.6911417942999 98:760.1008726217748 99:785.4197347043823 100:810.6174713697369 101:835.6636530150895 102:860.5277107240048 103:885.1789711509643 104:909.5866924937513 105:933.7201013963539 106:957.5484306431206 107:981.040957519142 108:1004.1670427231741 109:1026.8961697284965 110:1049.1979844944194 111:1071.0423354371162 112:1092.399313573328 113:1113.239292754543 114:1133.5329699126407 115:1153.2514052408812 116:1172.3660622366087 117:1190.8488475342422 118:1208.6721504591035 119:1225.8088822344203 120:1242.232514775562 121:1257.9171190071668 122:1272.8374026403903 123:1286.968747349079 124:1300.2872452852228 125:1312.7697348756321 126:1324.3938358434368 127:1335.1379833996652 
1.0 0:371.6516612550457 1:374.2632633467709 2:376.6196663454963 3:378.7156833645233 4:380.5463821520651 5:382.1070933047136 6:383.3934181993891 7:384.401236632853 8:385.12671415859876 9:385.5663091117436 10:385.71677931342725 11:385.57518844718714 12:385.1389121008521 13:384.40564346867114 14:383.37339870971675 15:382.0405219600695 16:380.4056899979531 17:378.46791656286786 18:376.2265563319184 19:373.68130855899665 20:370.83222038533745 21:367.67968983329314 22:364.2244684990862 23:360.4676639649305 24:356.4107419564361 25:352.05552827785533 26:347.40421056577014 27:342.4593399116355 28:337.2238324156657 29:331.70097074949916 30:325.8944058237383 31:319.8081586799386 32:313.4466227563614 33:306.8145667148067 34:299.9171380647614 35:292.7598678845996 36:285.3486770227076 37:277.6898842711855 38:269.7902171511028 39:261.65682614517476 40:253.29730348135135 41:244.71970793849036 42:235.93259765613385 43:226.94507364875184 44:217.76683774788935 45:208.4082701726715 46:198.88053409273022 47:189.1957177665551 48:179.36702970747334 49:169.40906982674366 50:159.33821126711516 51:149.1731464716283 52:138.93568181635106 53:128.65191655636806 54:118.35402958716085 55:108.08305026772382 56:97.89325942098172 57:87.85934503324737 58:78.08826490100667 59:68.7390660074248 60:60.05528111700735 61:52.412849822086905 62:46.36935302735659 63:42.64210294592875 64:41.874895442356966 65:44.23017342667408 66:49.25931426962352 67:56.23840791435487 68:64.52048658821754 69:73.64546732491132 70:83.31175072249344 71:93.32376941345656 72:103.55198142916497 73:113.9075320705575 74:124.32700285218681 75:134.7632650644432 76:145.17991175477607 77:155.54779288253144 78:165.84280716127822 79:176.04446138354032 80:186.13490954549496 81:196.0982989395122 82:205.9203170174425 83:215.5878723025942 84:225.08886652460728 85:234.41202992872826 86:243.54680103837887 87:252.4832381528458 88:261.21195379661157 89:269.7240659604709 90:278.0111617522861 91:286.0652702979783 92:293.8788425862726 93:301.44473655354045 94:308.7562061364546 95:315.806893332439 96:322.59082253645886 97:329.1023965917144 98:335.33639411804063 99:341.2879677769791 100:346.95264320488207 101:352.32631840095905 102:357.4052634001576 103:362.186120094299 104:366.6659020912649 105:370.84199452292444 106:374.71215372919806 107:378.27450675909273 108:381.5275506404609 109:384.4701513791599 110:387.10154265565285 111:389.42132419321285 112:391.42945977702635 113:393.1262749078304 114:394.51245407742124 115:395.58903765655157 116:396.3574183884939 117:396.81933748396506 118:396.97688031522773 119:396.8324717090832 120:396.38887084015596 121:395.64916572740293 122:394.61676733816233 123:393.2954033053248 124:391.68911126437195 125:389.80223181810084 126:387.6394011378519 127:385.20554321098035 
1.0 0:382.5058617451851 1:379.54583174111787 2:376.33119074546806 3:372.86792979743376 4:369.1622840821837 5:365.2207233055576 6:361.04994180487785 7:356.65684841133464 8:352.04855607997877 9:347.2323713039058 10:342.2157833297504 11:337.00645319213544 12:331.6122025852426 13:326.0410025901902 14:320.30096227744053 15:314.4003172040051 16:308.34741782580124 17:302.15071784613525 18:295.81876252197026 19:289.3601769504086 20:282.783654358683 21:276.0979444219712 22:269.3118416345337 23:262.43417376110426 24:255.47379039717927 25:248.43955166895566 26:241.3403171062557 27:234.18493472499316 28:226.9822303597589 29:219.74099729216866 30:212.46998622703939 31:205.17789567664624 32:197.87336282382122 33:190.5649549482229 34:183.261161517748 35:175.97038707014983 36:168.7009450403841 37:161.46105272968634 38:154.25882766664523 39:147.10228568391915 40:139.99934113444024 41:132.95780980917053 42:125.9854153112578 43:119.08979991350667 44:112.27854131493868 45:105.5591772755767 46:98.93924093674751 47:92.42631087075799 48:86.02808178129932 49:79.7524646779951 50:73.60772992037634 51:67.60271387531796 52:61.747121994702646 53:56.05198134886574 54:50.53033028933254 55:45.19829332588489 56:40.07679592837094 57:35.19436151096464 58:30.591749453570753 59:26.32965204609706 60:22.500971804302345 61:19.247623170896603 62:16.772371222096332 63:15.310528284924333 64:15.014934019457039 65:15.817700840926847 66:17.451769192210797 67:19.610548059095755 68:22.0546420572971 69:24.62529845315384 70:27.222782121537545 71:29.784635638449195 72:32.27108508065205 73:34.656249662823164 74:36.92296768170585 75:39.059722911588295 76:41.05877849405224 77:42.91501378509369 78:44.625179351111456 79:46.18740687279245 80:47.60087834544488 81:48.86559722924117 82:49.98222632389855 83:50.95197022756486 84:51.77648815922367 85:52.457827824188854 86:52.998374098621284 87:53.40080830454605 88:53.66807515697304 89:53.80335533988077 90:53.81004226200662 91:53.691721953026324 92:53.452155347259385 93:53.09526240532391 94:52.625107670405704 95:52.04588696252781 96:51.36191499332216 97:50.57761374354274 98:49.69750149171908 99:48.72618241913559 100:47.6683367468898 101:46.528711387643625 102:45.31211112000325 103:44.02339031931368 104:42.66744530728018 105:41.2492074168978 106:39.77363691220975 107:38.24571795931058 108:36.670454922855065 109:35.05287037178036 110:33.39800533530618 111:31.71092258114919 112:29.996714033243776 113:28.26051397305808 114:26.507520488667463 115:24.743028940207257 116:22.972483333782613 117:21.201555039496636 118:19.43626436224257 119:17.683171180151636 120:15.949680302367389 121:14.24454352640581 122:12.578710040177594 123:10.966812381949191 124:9.429834872501395 125:7.999957912987656 126:6.729009172505328 127:5.700482220081837 
1.0 0:5.03402065108122 1:4.84530801930648 2:5.150958611867768 3:5.840552226230391 4:6.767560411884459 5:7.820710567733585 6:8.930790037529011 7:10.056601710500559 8:11.173103664540589 9:12.264397895893428 10:13.319897954365493 11:14.332234235926068 12:15.296078768536747 13:16.20746303446653 14:17.06336781933031 15:17.861468147794024 16:18.599969564189355 17:19.277499888544565 18:19.89303562355794 19:20.445850562425207 20:20.935478949856606 21:21.361688381395112 22:21.724459341762902 23:22.023969347913038 24:22.26058033902886 25:22.4348283951781 26:22.5474151581032 27:22.599200525809735 28:22.59119633067549 29:22.524560809969486 30:22.400593751769872 31:22.22073225762376 32:21.986547112498094 33:21.699739797651045 34:21.362140227206556 35:20.9757053384336 36:20.54251872327143 37:20.06479155956539 38:19.54486519121916 39:18.98521582562375 40:18.38846197605269 41:17.75737549255558 42:17.09489732007157 43:16.404159528870007 44:15.68851572399242 45:14.951582716452887 46:14.197297405921834 47:13.42999427129025 48:12.65451077066072 49:11.876330316156606 50:11.10177505547151 51:10.338262527719442 52:9.594638831562317 53:8.881590291701954 54:8.21210339722887 55:7.60186765932212 56:7.069373254574765 57:6.635253006678047 58:6.320291887567175 59:6.141829289624987 60:6.1093379623143855 61:6.22126231882852 62:6.465143024413704 63:6.821009065412484 64:7.265965195869026 65:7.777856382579788 66:8.337232103870303 67:8.92792492848285 68:9.536860030923613 69:10.15356911324972 70:10.7696645795342 71:11.378378791284453 72:11.974195226062696 73:12.55256589901534 74:13.109699415374726 75:13.642403386923078 76:14.147967447334045 77:14.624076159529135 78:15.06874381419653 79:15.480265255209162 80:15.857178468891917 81:16.198235843772025 82:16.5023818517718 83:16.768735508703358 84:16.996576408338772 85:17.18533343916277 86:17.334575521183936 87:17.444003866705696 88:17.513445391276395 89:17.5428469915448 90:17.53227047422986 91:17.481887971128618 92:17.391977713516855 93:17.262920068676763 94:17.095193763965252 95:16.889372241543274 96:16.646120100907286 97:16.36618959767294 98:16.050417176425736 99:15.699720023495704 100:15.315092632793943 101:14.89760338490459 102:14.448391147070515 103:13.968661910293523 104:13.45968549055539 105:12.922792335725118 106:12.359370500552215 107:11.770862883346455 108:11.158764866498391 109:10.524622581159699 110:9.870032146497014 111:9.19664045802437 112:8.506148500225057 113:7.8003189057607205 114:7.080990944609789 115:6.350109146954406 116:5.609778431587554 117:4.8623745405343755 118:4.110780501378408 119:3.358944426902802 120:2.613387065294422 121:1.8881375912667369 122:1.225768269559402 123:0.8036311763524874 124:0.9941498694626115 125:1.585305806097514 126:2.278963881737097 127:2.998923029937874 
1.0 0:3.7239063679809425 1:4.445407102805453 2:5.158897805042089 3:5.861407758713648 4:6.550689002864524 5:7.224879922271846 6:7.88235300639499 7:8.52163985952918 8:9.141391887766492 9:9.740358756162166 10:10.317376243647445 11:10.871359308092273 12:11.401298145550836 13:11.906256013516577 14:12.38536810652908 15:12.8378410574239 16:13.262952800231954 17:13.660052626861255 18:14.028561328240706 19:14.367971347265529 20:14.677846894431704 21:14.957823992542648 22:15.207610427298185 23:15.426985587758951 24:15.615800185726945 25:15.773975846719495 26:15.901504567887962 27:15.998448040246661 28:16.064936834133103 29:16.101169448049216 30:16.107411222032297 31:16.083993117533975 32:16.03131036649567 33:15.949820992930807 34:15.840044210885651 35:15.702558703167938 36:15.53800078572702 37:15.347062463052449 38:15.130489380446432 39:14.889078679536642 40:14.623676763946994 41:14.335176982659704 42:14.024517239315902 43:13.692677536551777 44:13.340677465513558 45:12.969573652016201 46:12.58045717251912 47:12.174450955349768 48:11.752707185645844 49:11.316404736652553 50:10.866746655815914 51:10.404957742333451 52:9.932282264653745 53:9.44998188373349 54:8.959333873654169 55:8.461629770354076 56:7.958174639883766 57:7.450287253663385 58:6.939301614162333 59:6.426570534511813 60:5.913472422683294 61:5.401423216062018 62:4.891896881700611 63:4.386460733584673 64:3.8868375698494213 65:3.395018977399191 66:2.913482416006096 67:2.445634289095412 68:1.9967863463169504 69:1.576498815670809 70:1.2045936144427578 71:0.9254214740673657 72:0.819012256355608 73:0.9279680719377016 74:1.179996533163163 75:1.4926360187358976 76:1.8248460124574124 77:2.1587473904904186 78:2.4858658193455625 79:2.801671270023097 80:3.1034609061636873 81:3.3894707295102005 82:3.658468491298186 83:3.90955198765015 84:4.142042346810834 85:4.355424441394175 86:4.549312129489419 87:4.723427276354917 88:4.877586785633941 89:5.011694489508952 90:5.125736115825447 91:5.2197762987757965 92:5.293957027755196 93:5.348497185371635 94:5.383692987616299 95:5.399919248746081 96:5.397631474155205 97:5.377368850420477 98:5.339758261491247 99:5.28551951924527 100:5.215472058831544 101:5.130543415892424 102:5.0317798728429 103:4.920359729589019 104:4.797609707700566 105:4.665025010581593 106:4.5242934883345445 107:4.377324112382072 108:4.2262794158220895 109:4.073610492846609 110:3.922091287119083 111:3.7748459090993967 112:3.635358400587566 113:3.5074490093096085 114:3.395196129003997 115:3.302782050322931 116:3.234248986532982 117:3.193174470205022 118:3.182310782649175 119:3.2032676476508435 120:3.256327131766683 121:3.3404480548642104 122:3.453454700845182 123:3.592345988854419 124:3.7536376425597684 125:3.9336651056080942 126:4.128809608282519 127:4.335641992071772 
1.0 0:4.550997969219135 1:4.772004780078967 2:4.996077720815255 3:5.220900503952045 4:5.444398717830465 5:5.66471191886365 6:5.8801673157914145 7:6.089256391480292 8:6.290614874588793 9:6.483005978189309 10:6.665306590256781 11:6.836496017316519 12:6.995646877276357 13:7.141917769611658 14:7.274547397889085 15:7.39284986918152 16:7.496210941485043 17:7.58408503145412 18:7.655992830064093 19:7.711519403492032 20:7.750312681285146 21:7.7720822545641095 22:7.776598424412496 23:7.763691455497056 24:7.733251003061949 25:7.685225693424096 26:7.619622849630454 27:7.536508365738308 28:7.436006746056922 29:7.3183013406405415 30:7.183634826655745 31:7.032310008747328 32:6.864691042731366 33:6.6812052295439415 34:6.482345585855795 35:6.268674482435391 36:6.04082876395878 37:5.7995269444585045 38:5.545579342479262 39:5.279902429833714 40:5.003539299667092 41:4.71768914768742 42:4.423750225699557 43:4.123383229527068 44:3.8186060969288893 45:3.511937559541813 46:3.2066165102804636 47:2.9069375174877203 48:2.6187551766603088 49:2.350199523830979 50:2.1125387928448043 51:1.9207538154231445 52:1.7925942861673152 53:1.7443582369588473 54:1.7838658657511695 55:1.9061081892082774 56:2.096332192139585 57:2.337047161322622 58:2.6129032997845254 59:2.9121291438198655 60:3.226146896217062 61:3.548741297581595 62:3.8753266044877837 63:4.2024182452256404 64:4.527278241784084 65:4.847682708531969 66:5.161769720053088 67:5.46793902672005 68:5.764785195036021 69:6.05105247978829 70:6.32560400629221 71:6.587400511703396 72:6.835485565252488 73:7.0689752411944475 74:7.287050891064811 75:7.488954097292063 76:7.673983176174673 77:7.8414907887905985 78:7.9908823472387605 79:8.121614991957166 80:8.233196977284749 81:8.325187345726315 82:8.397195802312991 83:8.448882722866573 84:8.479959246472639 85:8.49018741482115 86:8.479380330529594 87:8.44740231401122 88:8.39416904454642 89:8.319647676475132 90:8.22385692628895 91:8.106867131275898 92:7.9688002857119855 93:7.80983006694855 94:7.630181871869643 95:7.430132895173459 96:7.210012296441858 97:6.970201525645081 98:6.711134910910364 99:6.43330066531343 100:6.137242553663672 101:5.823562598025853 102:5.492925432988495 103:5.14606532642368 104:4.783797613296602 105:4.407037669873699 106:4.016833285017639 107:3.6144219922655827 108:3.2013376597912284 109:2.779621305994157 110:2.352271999528799 111:1.9243110289642469 112:1.5056156096147142 113:1.1194988569426314 114:0.8291095388822268 115:0.768879005325251 116:0.9913473736743431 117:1.3698932928131198 118:1.8119271190401598 119:2.282197310227934 120:2.7666982577310657 121:3.2587281285033076 122:3.754433572690132 123:4.251225614515247 124:4.747140238533441 125:5.240551189616597 126:5.730029572984337 127:6.214270571147518 
1.0 0:6.692053276169029 1:7.162217925583017 2:7.623652779867892 3:8.075286583054245 4:8.516084378773085 5:8.94504540622301 6:9.361202318139787 7:9.76362125533799 8:10.151402483443613 9:10.523681400580351 10:10.879629788728227 11:11.218457222156102 12:11.53941257283961 13:11.841785570463115 14:12.12490838668262 15:12.388157221788816 16:12.6309538779982 17:12.852767308135519 18:13.053115131969102 19:13.23156511529419 20:13.387736609269718 21:13.521301949687496 22:13.631987817920988 23:13.719576567385893 24:13.783907521528002 25:13.824878251747561 26:13.842445846350458 27:13.83662818470096 28:13.807505234350073 29:13.75522039316904 30:13.679981903597744 31:13.58206437222369 32:13.461810435290976 33:13.319632619703174 34:13.156015460009916 35:12.971517945197505 36:12.766776385404139 37:12.542507808580883 38:12.29951402138097 39:12.038686497999281 40:11.761012296128737 41:11.467581241371228 42:11.159594670638329 43:10.838376080734534 44:10.505384088076674 45:10.162228163724503 46:9.810687653075464 47:9.452734600184515 48:9.090560834604862 49:8.726609579450328 50:8.363611398845455 51:8.004623461358763 52:7.653069626389839 53:7.312776477327502 54:6.987996851272568 55:6.683407570571725 56:6.404062480334875 57:6.155277276555065 58:5.942422571695294 59:5.770611512011502 60:5.644292786829999 61:5.566797966632374 62:5.53993107597394 63:5.5637048747493925 64:5.6363026527745 65:5.754279758331458 66:5.912946501159523 67:6.106830749514756 68:6.330120243458681 69:6.577018795992458 70:6.841992402769846 71:7.11991260784496 72:7.406119921427189 73:7.696433017234865 74:7.987125648364535 75:8.27488728886225 76:8.55677793698309 77:8.83018322950357 78:9.092773084937157 79:9.34246525492381 80:9.577394096415642 81:9.795884311464913 82:9.99642914006618 83:10.177672404382594 84:10.33839380851906 85:10.477496948502228 86:10.593999554928486 87:10.68702556120207 88:10.755798656198674 89:10.799637038529983 90:10.817949139586686 91:10.810230124556307 92:10.776059015517287 93:10.715096309530118 94:10.627081988413426 95:10.511833836561923 96:10.369245999596549 97:10.199287730610664 98:10.00200228301919 99:9.777505920252803 100:9.525987023567188 101:9.247705291051648 102:8.942991034894177 103:8.61224460218273 104:8.25593597038415 105:7.874604607964345 106:7.468859753793243 107:7.039381375425269 108:6.5869222537982175 109:6.112311987198672 110:5.616464375333691 111:5.100391010269709 112:4.565226881200462 113:4.012280827694426 114:3.443141907675232 115:2.859926103701941 116:2.265930633342205 117:1.6677406970154893 118:1.0843400802677496 119:0.6070712952040284 120:0.636191472909676 121:1.150390524032826 122:1.776756319356875 123:2.4352436548847742 124:3.1083551130340443 125:3.7896304458822136 126:4.475569329401038 127:5.16371387832709 
1.0 0:5.852043571821752 1:6.538745174829283 2:7.222113458242384 3:7.900504582276627 4:8.57231311150275 5:9.235960574518954 6:9.889890062770371 7:10.532564170752357 8:11.16246487264997 9:11.778094564714978 10:12.37797783099845 11:12.960663668003749 12:13.524728004218204 13:14.068776409153037 14:14.591446921915757 15:15.09141295131752 16:15.56738621354658 17:16.01811968263771 18:16.442410535172915 19:16.83910307496906 20:17.207091626629914 21:17.54532338920246 22:17.852801243068928 23:18.12858650481794 24:18.371801626322636 25:18.581632835708067 26:18.75733271941804 27:18.8982227462741 28:19.00369573635147 29:19.073218279780725 30:19.106333113345244 31:19.102661466143566 32:19.061905389821618 33:18.98385009423139 34:18.868366316192308 35:18.715412757818992 36:18.525038642302757 37:18.297386450024852 38:18.032694917741583 39:17.731302410143762 40:17.39365080898044 41:17.020290113908313 42:16.61188401678178 43:16.169216805314598 44:15.693202084989021 45:15.184893997950175 46:14.645501892227118 47:14.076409797004962 48:13.479202657285228 49:12.855702181053083 50:12.208016525271013 51:11.538610169899215 52:10.85040364801844 53:10.146918029571582 54:9.432487305758254 55:8.712574679732514 56:7.994248029943354 57:7.286895696349182 58:6.6032880192823935 59:5.961074301068417 60:5.384624963099643 61:4.906490460344457 62:4.56631297162417 63:4.403621735649164 64:4.443692103515176 65:4.68513582263726 66:5.101400526166459 67:5.654355858658104 68:6.3071635622278635 69:7.029985710895325 70:7.800431503601909 71:8.602058793806629 72:9.422691693582129 73:10.253092687555347 74:11.08602929067455 75:11.915645689627441 76:12.737044972404043 77:13.546010949918157 78:14.338821478862522 79:15.11212192622298 80:15.862838543068847 81:16.58811866439238 82:17.285289200515212 83:17.951827786056345 84:18.585342817273673 85:19.183559821361474 86:19.74431240041055 87:20.26553652673724 88:20.74526732838167 89:21.18163775291309 90:21.57287867225542 91:21.91732011583553 92:22.21339341035246 93:22.459634072976176 94:22.654685358497296 95:22.797302405437133 96:22.88635696563984 97:22.920842739957607 98:22.899881382597847 99:22.8227292819943 100:22.688785280736873 101:22.497599566322826 102:22.24888405524577 103:21.942524715016347 104:21.578596436231894 105:21.157381300498997 106:20.679391420800457 107:20.145398005521606 108:19.556468987350236 109:18.914018574309857 110:18.21987359509946 111:17.47636379641887 112:16.686446734205976 113:15.853883254348634 114:14.983487809578971 115:14.081490500436052 116:13.156066642112489 117:12.218116254189066 118:11.282407540207686 119:10.369217118938971 120:9.506540771292928 121:8.732634100042324 122:8.097721026081407 123:7.661938189338776 124:7.485311988139585 125:7.609426155909708 126:8.041173984520803 127:8.752741074839527 
1.0 0:9.69707774213853 1:10.824786534830983 2:12.093346662252667 3:13.469335502957012 4:14.927336526949123 5:16.44802518181805 6:18.016436670316743 7:19.62065165614563 8:21.250864968705887 9:22.898742852352214 10:24.556982428995195 11:26.219009026606326 12:27.878766837369596 13:29.530572955497053 14:31.16901482318371 15:32.78887774377211 16:34.3850934868461 17:35.95270388680071 18:37.486835243975925 19:38.98268061386616 20:40.43548793320291 21:41.8405525223084 22:43.19321291199853 23:44.488849229834955 24:45.722883583816156 25:46.89078202771717 26:47.9880577988092 27:49.01027559760426 28:49.95305673889361 29:50.812085049539725 30:51.5831134254789 31:52.2619709913597 32:52.84457083366516 33:53.32691830413137 34:53.70511991671314 35:53.975392890216995 36:54.13407542224973 37:54.177637821031084 38:54.1026946734418 39:53.90601829524371 40:53.584553799480695 41:53.135436241351655 42:52.55601046649995 43:51.8438545257342 44:50.99680785441418 45:50.01300589774516 46:48.890923569808706 47:47.62943098442788 48:46.2278664837834 49:44.68613443499314 50:43.00483910097451 51:41.18547203749513 52:39.23068053067828 53:37.14466144479414 54:34.93375375175012 55:32.60735371319007 56:30.17936742724666 57:27.670579931771762 58:25.11261662280821 59:22.554680971426592 60:20.074970274450028 61:17.7989332057401 62:15.922818841620742 63:14.723097775862529 64:14.497804330994766 65:15.413581140479513 66:17.402076446269458 67:20.246299394485757 68:23.724396611653027 69:27.671425133238184 70:31.97802545885433 71:36.57338712569056 72:41.41083662783214 73:46.45846468673768 74:51.69345198254755 75:57.09867071020366 76:62.660623721088214 77:68.36816802429745 78:74.21170510672812 79:80.18265513345692 80:86.27310792379352 81:92.47558666374606 82:98.7828851911641 83:105.18795435780073 84:111.68382181124338 85:118.26353498159027 86:124.92012047852174 87:131.64655529743254 88:138.43574666547673 89:145.28051831004095 90:152.1736015748397 91:159.10763024943577 92:166.07513828434034 93:173.06855977965336 94:180.08023078909662 95:187.1023925922796 96:194.12719616893935 97:201.14670766844435 98:208.15291471209326 99:215.13773339888024 100:222.09301591043194 101:229.01055862986163 102:235.88211070386998 103:242.69938298866896 104:249.4540573290204 105:256.1377961264824 106:262.74225215828585 107:269.259078612462 108:275.67993930816937 109:281.9965190728134 110:288.20053424967284 111:294.28374331144954 112:300.23795755654146 113:306.0550518659677 114:311.7269754998041 115:317.2457629127653 116:322.60354456922556 117:327.79255773853566 118:332.80515725198865 119:337.6338262032299 120:342.2711865743156 121:346.71000977000284 122:350.9432270432243 123:354.96393979505825 124:358.7654297328678 125:362.34116887064795 126:365.68482935600093 127:368.7902931085532 
1.0 0:217.23827796618306 1:218.87980975669942 2:220.3760056454409 3:221.72360492715268 4:222.91948721117893 5:223.96067765175437 6:224.84435202210582 7:225.56784162441556 8:226.12863802800732 9:226.5243976284512 10:226.75294602064727 11:226.81228217934637 12:226.70058244100176 13:226.41620428131648 14:225.95768988337554 15:225.32376949181995 16:224.5133645491541 17:223.52559061097818 18:222.35976003771918 19:221.0153844613136 20:219.49217702628826 21:217.79005440581687 22:215.90913859463038 23:213.8497584821632 24:211.61245121107424 25:209.19796332835304 26:206.60725173867917 27:203.84148447265952 28:200.90204128613723 29:197.7905141111344 30:194.50870738436993 31:191.05863828598635 32:187.44253692951642 33:183.66284655475374 34:179.7222237887719 35:175.6235390578513 36:171.36987725585143 37:166.96453880449207 38:162.41104128069102 39:157.71312183927157 40:152.874740731329 41:147.9000863170776 42:142.79358210846036 43:137.55989656816158 44:132.20395666357018 45:126.73096656611357 46:121.1464334598255 47:115.45620327606329 48:109.66651046307982 49:103.78404789358927 50:97.81606615834227 51:91.77051656838 52:85.6562605867122 53:79.4833826989169 54:73.26366879461871 55:67.01135758053812 56:60.74435800286154 57:54.48629268032888 58:48.27006701819831 59:42.14438028192958 60:36.18614177909568 61:30.52501822928728 62:25.391999363147672 63:21.204185902721232 64:18.635374542597592 65:18.392823210576847 66:20.564251621058336 67:24.513653080322776 68:29.527994184175245 69:35.14261836073312 70:41.09795836112818 71:47.249295187221065 72:53.511743322645415 73:59.83216302414712 74:66.17501177966535 75:72.51498445627232 76:78.83301405906678 77:85.11400104757344 78:91.34547079760499 79:97.51675066331435 80:103.61844934472258 81:109.64211836922387 82:115.58002675996208 83:121.42500804110887 84:127.17035463764383 85:132.80974402345578 86:138.3371865597399 87:143.74698841234166 88:149.0337251130242 89:154.1922227336301 90:159.21754456584722 91:164.10498181814782 92:168.8500472630498 93:173.44847105950987 94:177.8961981799602 95:182.18938701710056 96:186.3244088504353 97:190.29784792898548 98:194.1065019829451 99:197.74738301902437 100:201.21771828581123 101:204.51495131949378 102:207.63674299871383 103:210.58097255159834 104:213.3457384691808 105:215.92935928823778 106:218.3303742135904 107:220.54754355556958 108:222.5798489629344 109:224.4264934352995 110:226.08690110224785 111:227.56071675891764 112:228.84780515006472 113:229.94824999649134 114:230.8623527593641 115:231.59063113937185 116:232.1338173089288 117:232.49285587674743 118:232.6689015851114 119:232.6633167410899 120:232.47766838376344 121:232.1137251903005 122:231.5734541244295 123:230.85901683151147 124:229.97276578503582 125:228.91724018994205 126:227.69516164871777 127:226.30942959674232 
1.0 0:224.76311651383594 1:223.05946291944676 2:221.20187215935107 3:219.1939049921743 4:217.03927398444756 5:214.74183772331062 6:212.30559485635396 7:209.7346779684587 8:207.03334730585252 9:204.2059843579511 10:201.25708530789848 11:198.1912543630618 12:195.01319697708308 13:191.7277129754372 14:188.3396895968089 15:184.8540944629781 16:181.2759684903091 17:177.61041875637707 18:173.86261133575152 19:170.03776411951 20:166.14113963368055 21:162.1780378725542 22:158.1537891636782 23:154.07374708238814 24:149.94328143500746 25:145.76777133139677 26:141.55259836945734 27:137.30313995658454 28:133.02476279606682 29:128.72281657021188 30:124.40262785679344 31:120.06949432156304 32:115.72867923748922 33:111.38540639164516 34:107.04485545404538 35:102.71215790031835 36:98.39239360338416 37:94.09058824039118 38:89.81171170302501 39:85.56067775619846 40:81.34234526823477 41:77.16152144401671 42:73.02296764463078 43:68.93140859301705 44:64.89154607594112 45:60.90807870613616 46:56.98572998020958 47:53.12928787883137 48:49.34366080311075 49:45.63395705262861 50:42.0055988808023 51:38.46448836751231 52:35.01725260105435 53:31.671612932358983 54:28.43695265271538 55:25.325208680933805 56:22.352301261806332 57:19.540462732071518 58:16.92204102840702 59:14.545529155016455 60:12.484074229579043 61:10.84325909521476 62:9.754209337537858 63:9.326426775915591 64:9.568005979153778 65:10.360243239488344 66:11.527684490889564 67:12.915011090404015 68:14.412232657505719 69:15.948049790251584 70:17.477218077901618 71:18.970786520989936 72:20.40988196267601 73:21.78196223983443 74:23.07856947194716 75:24.2939630570689 76:25.424268977128637 77:26.46693689113709 78:27.420384675931416 79:28.283759797291633 80:29.0567751917953 81:29.739593725189813 82:30.33274497814471 83:30.83706395944789 84:31.253644955389376 85:31.583805996680383 86:31.829060883660176 87:31.991096665126797 88:32.07175510138023 89:32.07301707170042 90:31.996989181482025 91:31.84589202970127 92:31.622049742403895 93:31.327880481560516 94:30.965887713637432 95:30.53865207714303 96:30.04882372910007 97:29.49911508093005 98:28.89229385748407 99:28.23117643097693 100:27.518621395890218 101:26.75752336266298 102:25.95080695812326 103:25.10142102995335 104:24.212333061848486 105:23.286523816348943 106:22.326982234789345 107:21.336700640093255 108:20.318670310772177 109:19.275877527471458 110:18.211300243318586 111:17.127905607329332 112:16.028648695751695 113:14.916473014804366 114:13.794313695965688 115:12.665104940707922 116:11.531794447794896 117:10.397369834953963 118:9.26490672332355 119:8.137658285946511 120:7.019229828801839 121:5.913943037909819 122:4.8276701361774785 123:3.7700001164544177 124:2.7609031863589557 125:1.856154524189452 126:1.254568556806177 127:1.3733099611467183 
1.0 0:2.0603927396154287 1:2.9160720007977825 2:3.8081963706220905 3:4.698408602921076 4:5.572078094631219 5:6.4220749120807765 6:7.244207933372425 7:8.035650338371097 8:8.794304266100749 9:9.518512345310342 10:10.206914182328035 11:10.85836954762257 12:11.47191469058799 13:12.046736153302565 14:12.582154300227295 15:13.077612464022263 16:13.53266944284872 17:13.94699404667798 18:14.320360917290431 19:14.652647146860774 20:14.943829396981814 21:15.193981327590102 22:15.403271212634126 23:15.571959662719244 24:15.700397403737725 25:15.789023080195607 26:15.838361065969929 27:15.849019275704512 28:15.821686978374627 29:15.757132621686003 30:15.656201682629327 31:15.51981456627841 32:15.348964582330565 33:15.144716037512895 34:14.908202492466733 35:14.6406252448943 36:14.34325211767517 37:14.017416652781172 38:13.66451784113296 39:13.286020557841058 40:12.883456925510679 41:12.458428901119724 42:12.012612482546134 43:11.54776407096195 44:11.065729722306179 45:10.56845830023294 46:10.058019941452656 47:9.53663181643052 48:9.006693991846062 49:8.470839384342586 50:7.932003478125373 51:7.393521814191025 52:6.8592663249387 53:6.333835123621888 54:5.822813044692893 55:5.333117940183924 56:4.87342978441283 57:4.4546426304542175 58:4.090144251225221 59:3.795487892513893 60:3.586783417787394 61:3.477351358972111 62:3.4734358531643905 63:3.5714456619560853 64:3.758903125118029 65:4.018420762724226 66:4.331966229136077 67:4.683513444481821 68:5.059965407966117 69:5.451053662211777 70:5.848850676513809 71:6.2472356141042695 72:6.641440811425572 73:7.0277035805563965 74:7.403010640308532 75:7.764914074202724 76:8.111399517300441 77:8.440791554091808 78:8.751685389814467 79:9.04289705980112 80:9.31342676961361 81:9.562431594617742 82:9.789204900619719 83:9.993160628617732 84:10.173821126615987 85:10.330807586370769 86:10.463832405150393 87:10.572692977496324 88:10.65726655352552 89:10.717505894776876 90:10.753435527073549 91:10.765148439973641 92:10.752803119395832 93:10.71662082762493 94:10.65688306572293 95:10.573929169254205 96:10.468154000507765 97:10.340005710049315 98:10.189983548189268 99:10.018635713374497 100:9.826557230057343 101:9.614387853662667 102:9.38281000524227 103:9.13254674368453 104:8.864359789433301 105:8.579047621218646 106:8.2774436772517 107:7.960414706088654 108:7.628859332107358 109:7.283706929756239 110:6.925916945171044 111:6.5564788731174515 112:6.176413208344507 113:5.786773873458965 114:5.388652936016742 115:4.983188972322894 116:4.571581427149393 117:4.155115201246452 118:3.7352034479086416 119:3.313464449291 120:2.8918661325273565 121:2.4730144600496304 122:2.060773778743137 123:1.6617272321186731 124:1.2889637253535209 125:0.9724147331523573 126:0.7803800208461547 127:0.8022156690624799 
1.0 0:1.0188542771931182 1:1.3335631247624204 2:1.6874911023982215 3:2.0558010034708865 4:2.4274864561006506 5:2.796943387951771 6:3.1608941528398224 7:3.5171789278603374 8:3.8642315849152613 9:4.200831285654198 10:4.525975683296378 11:4.838812135660754 12:5.138598486768852 13:5.424679782354123 14:5.69647398291409 15:5.9534629607088725 16:6.195186702888488 17:6.421239512844537 18:6.631267483856928 19:6.824966796028867 20:7.002082551886546 21:7.16240796653964 22:7.305783791491294 23:7.432097891981802 24:7.541284924798141 25:7.633326081929769 26:7.708248878443144 27:7.7661269724487285 28:7.807080012314437 29:7.831273512171963 30:7.838918761850424 31:7.830272782066245 32:7.80563834032079 33:7.765364047767299 34:7.7098445625415 35:7.63952093091733 36:7.554881104377071 37:7.456460678482202 38:7.344843908522954 39:7.220665067508156 40:7.084610224288563 41:6.937419533536856 42:6.7798901447740025 43:6.61287985409335 44:6.437311638476516 45:6.254179226274352 46:6.064553864344198 47:5.869592435335488 48:5.670547045963077 49:5.4687761302150975 50:5.265756961972225 51:5.063099208229459 52:4.862558720802263 53:4.666050092055528 54:4.475655519851663 55:4.293626204120325 56:4.122370903005302 57:3.964424703728944 58:3.822390173916807 59:3.6988439693094493 60:3.596206079808976 61:3.516577179561341 62:3.4615613176985423 63:3.4321029081687056 64:3.4283726407665593 65:3.449731118170136 66:3.4947813612901464 67:3.561498444211193 68:3.6474065423694166 69:3.7497676238399915 70:3.8657518701870375 71:3.9925722313325465 72:4.1275779772469665 73:4.268310873574054 74:4.412531881262868 75:4.558227105740742 76:4.703600619478362 77:4.84705997426079 78:4.987198426675262 79:5.122776434885006 80:5.25270391413988 81:5.3760240160871495 82:5.491898740812326 83:5.599596421066969 84:5.69848097164369 85:5.788002727300414 86:5.867690668842395 87:5.937145838813058 88:5.996035763249321 89:6.044089716688176 90:6.0810946898464415 91:6.106891940883757 92:6.12137403083262 93:6.124482261255722 94:6.116204447461845 95:6.096572973871553 96:6.065663089652181 97:6.023591412865312 98:5.970514620412648 99:5.9066283093619 100:5.832166023110785 101:5.747398443640531 102:5.65263275918437 103:5.548212225387701 104:5.434515947929802 105:5.311958926167252 106:5.180992411326683 107:5.042104649966511 108:4.89582210490581 109:4.742711272891062 110:4.583381252545574 111:4.418487259477585 112:4.2487353398085 113:4.074888600578861 114:3.8977753561140918 115:3.7182996811325086 116:3.537454955039298 117:3.3563410544482766 118:3.1761858522893265 119:2.9983715114685223 120:2.8244655312751803 121:2.6562552897400584 122:2.4957824141408618 123:2.345369036840139 124:2.2076213158980855 125:2.085386999380954 126:1.9816366007519743 127:1.8992401924170332 
