svm_type c_svc
kernel_type rbf
gamma 0.05
nr_class 2
total_sv 195
rho 0.25
label 1 -1
nr_sv 90 105
SV
1.0 3:1153.4637461413583 4:649.3294237773471 5:591.0405984514196 6:355.2194687024237 7:345.4842231581839 8:897.1329574274839 9:362.6100309906295 10:663.1535985567908 11:387.7042849345775 12:701.9321295627794 13:517.7701997674876 14:789.1285905862876 15:463.43480463084074 16:812.9907324099122 17:526.397384716665 18:925.1714417249194 19:885.8198997357379 20:578.0623247504012 
1.0 3:828.4283496723557 4:1851.8630531818665 5:2417.7907116000415 6:872.8776343100311 7:291.8327040501625 8:366.0515951382368 9:259.437674088132 10:419.1661590244786 11:673.355960203076 12:910.0759979528931 13:638.5041046989584 14:411.8737459754508 15:552.6804518386024 16:451.67244850159017 17:1032.8605798011536 18:845.796015581201 19:737.6954182185337 20:992.565062523388 
1.0 3:1989.609790839012 4:738.6920764422882 5:729.2462179244774 6:788.3989242796041 7:947.0255490433088 8:282.6626072654048 9:710.9387206197301 10:551.4799517184708 11:743.9217477450475 12:538.1373487671871 13:389.43753208247904 14:845.8845317163675 15:748.4985632316334 16:841.1285561668594 17:737.98810064468 18:891.3130915653725 19:987.8454281002126 20:1136.885495495773 
1.0 3:1059.2920227175625 4:849.3692645925124 5:1405.325993659139 6:92.77720814545916 7:614.9324016568916 8:650.4809056099485 9:449.24502431328926 10:509.3849973954298 11:192.89538389123575 12:663.1842826788001 13:755.7910602686633 14:589.6995104476701 15:472.6096689478306 16:512.3358192301056 17:575.2659903092703 18:570.9087180014318 19:756.5390871149597 20:836.2899768726622 
1.0 3:629.5469222935355 4:383.871128807192 5:619.0113107400383 6:215.4733684573077 7:259.51448457240554 8:673.4540339947054 9:637.4614729097733 10:268.8837152256353 11:502.2511090386291 12:496.6986267207562 13:488.6998559290009 14:672.5909765151243 15:614.8911448082005 16:759.7265963542941 17:641.5879861416848 18:737.7721280488473 19:755.2641149989354 20:791.5234196331903 
1.0 3:37453.61542228512 4:37588.39171175682 5:36772.156585376404 6:37073.81634806949 7:37443.50010044445 8:37445.95918551286 9:37508.964770750936 10:37550.09455024988 11:37263.04684357768 12:37147.237542733455 13:37344.809869815195 14:37499.06882656203 15:37449.481123199395 16:37219.37684445752 17:37343.75411607354 18:37494.982012368404 19:36959.84709534038 20:37111.799970566964 
1.0 3:1172.8067281720203 4:928.3024699152124 5:588.0772927598174 6:907.7355782858646 7:736.6871344553906 8:1075.8678589612894 9:501.45678625535925 10:804.7450041209958 11:527.6421203108554 12:744.9380612892677 13:820.1217262585576 14:751.4855149566293 15:1015.6422225805841 16:763.4690687054148 17:1043.3012544490998 18:989.3568970552435 19:999.9540080593433 20:1071.8323096199056 
1.0 3:789.5794524428477 4:1069.8880340451353 5:914.3886695395843 6:1128.5582205491555 7:793.2932318323739 8:791.332234433122 9:856.9093978765437 10:1091.0362004259264 11:739.3573403387724 12:818.7962469499398 13:692.4523653384438 14:863.0919975037632 15:725.2710276702238 16:927.895180053689 17:769.8508465587545 18:857.1642161896983 19:1009.1597332417912 20:989.1425205423543 
1.0 3:849.2901134545543 4:938.6161270722379 5:1510.3292142168593 6:1134.5445716055574 7:520.6630164368956 8:138.8259229584128 9:442.36776296839525 10:279.30013273278263 11:721.9812440375753 12:273.8572037969514 13:367.34282083873796 14:674.886808385514 15:454.67209877969367 16:662.6053544284277 17:636.8103954098826 18:692.9496567716207 19:619.2750130382902 20:789.8732199274802 
1.0 3:978.6647927443892 4:1258.6407472873923 5:751.0556814609006 6:53.33965705632108 7:843.963904697655 8:797.9463746802185 9:597.1986383991673 10:450.6389966394601 11:631.2656148599364 12:743.6368198610814 13:532.5105311054607 14:870.61394921397 15:756.1527464645195 16:784.6517439195144 17:976.5023293397073 18:908.9407311155934 19:949.667781954772 20:982.184062694833 
1.0 3:807.4720381010255 4:323.13734418271304 5:1393.0762103503707 6:574.6468372878307 7:707.7424618173759 8:665.2243604038803 9:750.7153687825677 10:760.7137320352255 11:797.4630619892076 12:687.3079067107241 13:686.7166718294112 14:810.3296639257833 15:848.8211212216636 16:855.1235105955079 17:729.3820084868966 18:856.138688317646 19:1124.2262133915788 20:918.1890447195655 
1.0 3:857.3424137073691 4:237.1270109888028 5:384.04503182197783 6:404.11245302910214 7:153.42947051867495 8:99.72872166210738 9:209.86102242493934 10:550.0751919473719 11:489.2390199306084 12:382.424402975058 13:476.2895236574995 14:367.1617503696793 15:349.83975130701845 16:381.1781027276915 17:495.56439616214044 18:618.1799104002827 19:743.9920522810821 20:575.7376332247965 
1.0 3:1079.3177345761771 4:593.9742357300863 5:133.67926309987115 6:380.7443104973244 7:601.4768155210829 8:383.2892386758461 9:636.7160003526302 10:516.8299696771633 11:358.1759867254753 12:548.4949950507746 13:522.5855743049405 14:760.3766872152706 15:629.7837771240687 16:703.2711260517864 17:576.1000384420273 18:685.3751912965965 19:717.4155936094749 20:1073.3941866866512 
1.0 3:671.2928929835416 4:1108.263435576803 5:1161.5766465894703 6:984.4166420892899 7:653.6026554247234 8:883.012460896909 9:848.4561697102996 10:877.9384235791816 11:711.8958569417065 12:631.8128798768666 13:429.98859176848913 14:686.2310966187338 15:744.7979590424449 16:852.4314287795335 17:1055.8873309014355 18:816.2487425899235 19:983.3858687022619 20:984.2301695331024 
1.0 3:491.951754240132 4:799.9808266684664 5:661.4479831480903 6:210.19321591875217 7:742.8201465001229 8:487.96097828352254 9:478.1469985778774 10:288.27413044352136 11:213.28449583688428 12:606.37283357852 13:345.7409812842499 14:397.2520270746993 15:606.7545144550261 16:702.6109001716974 17:712.7938004715663 18:783.9773395491956 19:741.3021508009738 20:783.8928363544205 
1.0 3:877.5926882820157 4:477.2647846042304 5:426.75017629284923 6:266.2879127636076 7:313.6987176276624 8:436.3875284215094 9:415.6129116010269 10:620.2587425216857 11:540.0448697531731 12:316.3658654437169 13:348.45423675042537 14:422.7687680351642 15:395.23333962559536 16:492.2071510747381 17:382.6071244343102 18:407.4803493270634 19:590.977208810936 20:773.7045945988368 
1.0 3:703.2944315516605 4:871.143991946757 5:291.6861445521267 6:953.4958524670534 7:809.1155694633434 8:947.8781104697154 9:312.00836857301096 10:936.2252069963494 11:522.0803216931357 12:657.6158558237294 13:797.3999285391138 14:720.1797505936368 15:760.0780109850336 16:698.2319475396786 17:737.2245634893176 18:900.7515048623534 19:873.4189509347092 20:991.1236183429703 
1.0 3:1205.5119468107425 4:906.3887859008821 5:872.752607745396 6:188.978592785984 7:67.51019330543424 8:626.5233269205725 9:546.2242374325847 10:563.2406479437768 11:599.9788148852231 12:263.4849096036066 13:496.13241442780935 14:535.5722380171447 15:575.884029912031 16:447.6524696953136 17:532.7918387368888 18:517.7187152951984 19:663.6601689647133 20:612.2800540667284 
1.0 3:308.912753030424 4:244.39553219037853 5:771.0615585721089 6:520.0456337030627 7:290.2011423373866 8:316.51286273889366 9:79.11601739705985 10:487.02167266302723 11:348.13626139832 12:240.51543746580026 13:308.6684236902539 14:262.831684740584 15:447.3180605809446 16:487.59284056451753 17:419.5133311714736 18:512.743083196598 19:444.71329995028464 20:543.7251199780568 
1.0 3:499.18422784353373 4:359.8469914637775 5:322.84518499639546 6:314.59359908006735 7:854.7091425930751 8:458.05938087004245 9:717.1436357137903 10:577.8862834164319 11:740.5909187206626 12:696.4106280439271 13:547.4495941297843 14:899.3271101698823 15:723.5985513027249 16:781.1321068772754 17:1091.9422190091582 18:799.0632452343538 19:1059.9685131876033 20:950.4846422099977 
1.0 3:31019.15030176906 4:30600.09993425727 5:30420.58081615755 6:30841.97393009927 7:30728.52102352974 8:30558.580321513546 9:30596.187018387962 10:30789.827357379785 11:30738.35779205329 12:30681.818397115352 13:30647.663995209503 14:30463.575269166104 15:30531.449652229123 16:30262.16607228558 17:30603.910468605118 18:30487.155318399244 19:30289.162258571625 20:30361.326878175456 
1.0 3:1015.0317680703273 4:430.6474336024789 5:823.9137092207892 6:561.3483370783158 7:928.9492545392454 8:579.9496505135238 9:1027.634323719061 10:576.6921865410932 11:747.0867368002066 12:516.3418889585648 13:726.768267920592 14:576.0737392964758 15:834.9064549400146 16:674.1494044244856 17:778.6189928760572 18:881.5488287020571 19:979.3443992624124 20:942.0068752096289 
1.0 3:301.2553332493228 4:602.9981742991321 5:298.3074675377132 6:292.9356087640371 7:652.824807406727 8:546.0132673924475 9:206.0090708745146 10:492.41751203546283 11:796.8620345510692 12:408.1026872773056 13:289.31717298370415 14:479.44304286819374 15:235.5009618772907 16:447.45194568209325 17:433.14298595102224 18:590.174204358738 19:432.24173596444786 20:636.8504124857504 
1.0 3:360.4107109043739 4:128.7704548812279 5:312.48042474644024 6:522.9935092710433 7:398.0629619618207 8:190.5157925906815 9:398.76951060872165 10:251.60970020868012 11:324.4635899987993 12:372.6077245465355 13:430.0593749896955 14:356.17261398769097 15:444.09141236309557 16:387.73220566533627 17:413.0413643064187 18:428.33780299625585 19:512.1176233690536 20:495.9271902794204 
1.0 3:315.80240122503676 4:1062.8636783070983 5:623.3695453671968 6:705.1124419587421 7:615.3248741963449 8:509.49671584862716 9:733.1540980288332 10:543.9475641256781 11:581.1270888229772 12:688.1188154569872 13:708.7424855138527 14:909.3287172663375 15:670.8780723481844 16:885.2071411398083 17:728.32959957822 18:830.6598463179874 19:868.4450801374436 20:987.1880250389328 
1.0 3:426.5902900055738 4:1090.9984105379397 5:996.8881733513276 6:258.6495102637723 7:551.6324675917273 8:624.9179232038291 9:663.6161529366126 10:613.6543273515736 11:353.5097320514349 12:558.2151522774333 13:333.691615693857 14:636.9596985377707 15:551.8375354278646 16:587.8910165803893 17:466.1866674465306 18:625.2013169530055 19:651.5114711422262 20:803.7194117269363 
1.0 3:863.2701975491725 4:385.99997679136106 5:2128.4856976049023 6:1153.742829456524 7:630.0234584553658 8:405.00944954921783 9:552.071824112341 10:199.82906973665558 11:539.6874135976998 12:377.49055138483453 13:622.7099953644821 14:251.23189568961791 15:536.3181281010136 16:371.93668921042735 17:590.4437407202729 18:420.00975944398556 19:643.1951862407377 20:627.7252176367934 
1.0 3:234.75091956625226 4:522.6162828045883 5:1043.1099275985453 6:954.522023684087 7:696.0249387372344 8:728.8382175295715 9:753.5864844646248 10:868.6193034876848 11:610.7764519017404 12:830.106137824163 13:814.8946551559716 14:658.7508827418809 15:619.0933014020593 16:709.8461944673952 17:661.2903187705439 18:952.2878993018397 19:1026.4959650777118 20:971.5446936487841 
1.0 3:165.05042325083096 4:835.7027560629858 5:1575.7020625805662 6:1807.9248342324538 7:1083.4065494509682 8:1034.5272339851024 9:682.8375545145468 10:511.319729538538 11:48.939199653191 12:556.8779200830929 13:618.0469740101122 14:442.73124365097 15:493.212975391544 16:697.565841180939 17:557.4266144295395 18:605.683414212561 19:660.9107964740675 20:945.575318173227 
1.0 3:294.6131291967819 4:183.38125840969823 5:1291.2625909058054 6:969.1186397852047 7:587.5893098538838 8:159.42373582930486 9:633.8109402993757 10:239.9588062302955 11:402.7799275984166 12:232.19757203084126 13:770.7606348306658 14:284.24712248503255 15:551.7761505482034 16:399.93824467403897 17:465.90919324264286 18:558.7937676637283 19:395.67319164616003 20:547.0818703307277 
0.25 3:521.8185004797151 4:1041.837278592487 5:704.9945503899078 6:1146.3848061761719 7:349.82443821110263 8:435.29480562151656 9:255.94180916200924 10:654.7395095987483 11:497.3553042519978 12:380.22362334570596 13:711.036477752237 14:547.5070503028691 15:470.0508712936419 16:661.6925026813852 17:607.6148024686939 18:684.1000058811055 19:325.3148639242802 20:694.6473291217968 
0.25 3:1162.9204083381014 4:395.3850611927674 5:390.7903223183723 6:777.3087937432575 7:452.96983075649615 8:137.9421951505913 9:201.9578179904478 10:117.43519654265468 11:342.9646323711995 12:697.2508930917857 13:442.495090802483 14:309.43465964867494 15:500.42166753720477 16:393.2652468862127 17:430.28762382758526 18:440.0681331249417 19:575.0457043441689 20:464.31578281289234 
0.25 3:623.3890374362832 4:156.16925698093235 5:1566.5822480812503 6:1066.9383599790524 7:398.74568154483984 8:656.9493301264398 9:421.1151189174648 10:684.0291382536054 11:509.8126347360644 12:628.7488663826862 13:725.7286597930014 14:679.2452416428848 15:606.4582664814207 16:716.2177822423221 17:656.0841357327286 18:693.0465249083973 19:742.810102973971 20:787.543428139484 
0.25 3:1454.7026739519408 4:350.4769831953706 5:1841.4012046492328 6:1357.5300019300591 7:408.90857566965195 8:311.7717046901422 9:36.553636224993525 10:261.3855863133927 11:417.8076054612976 12:206.1055734968761 13:438.61125693554993 14:434.6310273242595 15:690.6125578225093 16:487.1220206115199 17:589.2617066954549 18:628.5025153249891 19:712.3891557946564 20:576.161546267096 
0.25 3:914.4011725729071 4:230.72831069876614 5:1349.729206112102 6:1260.8477296185508 7:240.1321139265743 8:361.54361733238625 9:169.38158027306767 10:304.20495465070525 11:315.0694767935475 12:272.4503700579967 13:131.41142036942955 14:374.5309346665498 15:236.09604234451223 16:293.4910060340379 17:289.23090642142853 18:413.9783683830953 19:315.0282404645743 20:253.83906923971384 
0.25 3:27496.393814030635 4:27083.983624308854 5:27594.090414563987 6:26791.360943782052 7:27365.501066464178 8:27030.126361375223 9:27105.30699633253 10:27092.129110679725 11:27458.763462007028 12:27195.661091955546 13:27271.845810334395 14:27263.12902283666 15:27233.56390829987 16:27279.815745701035 17:27219.711670287797 18:27204.191415655096 19:27306.35722816329 20:27216.88157696959 
0.25 3:607.6245112056873 4:72.35396380663275 5:1117.7006731733686 6:332.0110561696391 7:151.90171969676956 8:282.48295597747034 9:344.0784383961682 10:65.25867477565897 11:165.19409419443735 12:317.84105574163897 13:261.72789732754774 14:382.4641724271876 15:255.41102098019454 16:312.1554579545447 17:389.5034405030503 18:298.7085472472026 19:544.6777248942337 20:529.1318375663831 
0.25 3:601.8938211645122 4:777.6522646201701 5:672.0873031178841 6:933.7632756678635 7:799.2569878784657 8:708.7349243064976 9:663.9539013810388 10:503.2745844858602 11:569.0669565270841 12:558.0947111058045 13:543.2627824354363 14:714.8046516717677 15:534.2647271014486 16:655.851919491995 17:622.8722863634442 18:729.0255536035247 19:667.0954259148173 20:746.4810640380642 
0.25 3:139.5449994613119 4:504.91190522838724 5:253.79294336005043 6:472.1739749573682 7:436.72582761976713 8:359.68294333685446 9:510.16572188007535 10:448.38804416289753 11:416.7001437133403 12:230.45728123885263 13:525.3882310866063 14:543.5377763892805 15:491.53065389048646 16:375.2949666467481 17:596.8678581578073 18:503.8560228573641 19:711.7047231711135 20:567.1730564405382 
0.25 3:454.6881131152606 4:263.46620305040125 5:358.064108066843 6:197.38681123632335 7:478.2574480017904 8:106.62965255281303 9:151.85850333940607 10:343.0208758824821 11:212.8092687794297 12:376.4810919445222 13:208.3569715352216 14:365.5615227370189 15:193.2440133304401 16:360.7456306033659 17:401.4307206254107 18:381.78227075719076 19:366.21187120553486 20:454.9110123761109 
0.25 3:583.9706670800576 4:86.60408921223205 5:783.055006759301 6:502.83288630718476 7:737.4473901683705 8:645.2370336917827 9:114.49475071598339 10:685.0746063831377 11:723.961752355095 12:403.79873983442855 13:339.37164288864636 14:545.7554378950286 15:531.8008277110044 16:521.2265357096477 17:653.473140527399 18:631.6459504430195 19:814.3897269600458 20:733.611991504038 
0.25 3:409.43864161017876 4:1365.657293283338 5:735.1311814768441 6:979.7894081264394 7:307.3063546967593 8:496.68257829094216 9:586.3358184108845 10:533.1884010032093 11:599.0702945854379 12:334.53628085479164 13:437.6063399375388 14:313.4079929578671 15:598.1990934801803 16:567.5785568420808 17:596.3575384087637 18:418.2266004769252 19:556.6228815878395 20:630.4648596273878 
0.25 3:430.30416773629975 4:259.51985980824236 5:257.8447610621757 6:370.76418380773384 7:202.13354010897254 8:466.5407353674143 9:78.65602702332947 10:296.93420780198073 11:175.51165486995234 12:237.639205571062 13:477.26415502938295 14:260.4708664985377 15:289.2465000979299 16:302.0172837329964 17:243.65746237088433 18:321.1372518303139 19:458.7035072336575 20:456.17446073485127 
0.25 3:1237.9686136771923 4:538.9001163296158 5:1361.2560605518124 6:620.4355421278216 7:511.9730818187067 8:431.2276697278326 9:592.4484839079078 10:343.40109307361126 11:444.25534236081495 12:109.43175018140114 13:357.33520077775654 14:578.8943946928863 15:520.1082825098978 16:487.67669144173146 17:507.5685173828255 18:489.72548888312264 19:632.6479861313269 20:713.5670124280498 
0.25 3:1642.9907026873343 4:784.4527495093245 5:1237.7555382236394 6:900.6697429237805 7:474.6980053329829 8:575.1647814644933 9:645.6157815542853 10:664.9211355990623 11:552.4245451212516 12:481.6670557051066 13:445.342348447525 14:514.1312611428694 15:380.2584991840556 16:396.2036611283937 17:547.4932190690006 18:466.963348312183 19:653.0316316598747 20:600.7506717681481 
1.0 3:521.8185004797151 4:1041.837278592487 5:704.9945503899078 6:1146.3848061761719 7:349.82443821110263 8:435.29480562151656 9:255.94180916200924 10:654.7395095987483 11:497.3553042519978 12:380.22362334570596 13:711.036477752237 14:547.5070503028691 15:470.0508712936419 16:661.6925026813852 17:607.6148024686939 18:684.1000058811055 19:325.3148639242802 20:694.6473291217968 
1.0 3:1162.9204083381014 4:395.3850611927674 5:390.7903223183723 6:777.3087937432575 7:452.96983075649615 8:137.9421951505913 9:201.9578179904478 10:117.43519654265468 11:342.9646323711995 12:697.2508930917857 13:442.495090802483 14:309.43465964867494 15:500.42166753720477 16:393.2652468862127 17:430.28762382758526 18:440.0681331249417 19:575.0457043441689 20:464.31578281289234 
1.0 3:623.3890374362832 4:156.16925698093235 5:1566.5822480812503 6:1066.9383599790524 7:398.74568154483984 8:656.9493301264398 9:421.1151189174648 10:684.0291382536054 11:509.8126347360644 12:628.7488663826862 13:725.7286597930014 14:679.2452416428848 15:606.4582664814207 16:716.2177822423221 17:656.0841357327286 18:693.0465249083973 19:742.810102973971 20:787.543428139484 
1.0 3:1454.7026739519408 4:350.4769831953706 5:1841.4012046492328 6:1357.5300019300591 7:408.90857566965195 8:311.7717046901422 9:36.553636224993525 10:261.3855863133927 11:417.8076054612976 12:206.1055734968761 13:438.61125693554993 14:434.6310273242595 15:690.6125578225093 16:487.1220206115199 17:589.2617066954549 18:628.5025153249891 19:712.3891557946564 20:576.161546267096 
1.0 3:914.4011725729071 4:230.72831069876614 5:1349.729206112102 6:1260.8477296185508 7:240.1321139265743 8:361.54361733238625 9:169.38158027306767 10:304.20495465070525 11:315.0694767935475 12:272.4503700579967 13:131.41142036942955 14:374.5309346665498 15:236.09604234451223 16:293.4910060340379 17:289.23090642142853 18:413.9783683830953 19:315.0282404645743 20:253.83906923971384 
1.0 3:27496.393814030635 4:27083.983624308854 5:27594.090414563987 6:26791.360943782052 7:27365.501066464178 8:27030.126361375223 9:27105.30699633253 10:27092.129110679725 11:27458.763462007028 12:27195.661091955546 13:27271.845810334395 14:27263.12902283666 15:27233.56390829987 16:27279.815745701035 17:27219.711670287797 18:27204.191415655096 19:27306.35722816329 20:27216.88157696959 
1.0 3:607.6245112056873 4:72.35396380663275 5:1117.7006731733686 6:332.0110561696391 7:151.90171969676956 8:282.48295597747034 9:344.0784383961682 10:65.25867477565897 11:165.19409419443735 12:317.84105574163897 13:261.72789732754774 14:382.4641724271876 15:255.41102098019454 16:312.1554579545447 17:389.5034405030503 18:298.7085472472026 19:544.6777248942337 20:529.1318375663831 
1.0 3:601.8938211645122 4:777.6522646201701 5:672.0873031178841 6:933.7632756678635 7:799.2569878784657 8:708.7349243064976 9:663.9539013810388 10:503.2745844858602 11:569.0669565270841 12:558.0947111058045 13:543.2627824354363 14:714.8046516717677 15:534.2647271014486 16:655.851919491995 17:622.8722863634442 18:729.0255536035247 19:667.0954259148173 20:746.4810640380642 
1.0 3:139.5449994613119 4:504.91190522838724 5:253.79294336005043 6:472.1739749573682 7:436.72582761976713 8:359.68294333685446 9:510.16572188007535 10:448.38804416289753 11:416.7001437133403 12:230.45728123885263 13:525.3882310866063 14:543.5377763892805 15:491.53065389048646 16:375.2949666467481 17:596.8678581578073 18:503.8560228573641 19:711.7047231711135 20:567.1730564405382 
1.0 3:454.6881131152606 4:263.46620305040125 5:358.064108066843 6:197.38681123632335 7:478.2574480017904 8:106.62965255281303 9:151.85850333940607 10:343.0208758824821 11:212.8092687794297 12:376.4810919445222 13:208.3569715352216 14:365.5615227370189 15:193.2440133304401 16:360.7456306033659 17:401.4307206254107 18:381.78227075719076 19:366.21187120553486 20:454.9110123761109 
1.0 3:583.9706670800576 4:86.60408921223205 5:783.055006759301 6:502.83288630718476 7:737.4473901683705 8:645.2370336917827 9:114.49475071598339 10:685.0746063831377 11:723.961752355095 12:403.79873983442855 13:339.37164288864636 14:545.7554378950286 15:531.8008277110044 16:521.2265357096477 17:653.473140527399 18:631.6459504430195 19:814.3897269600458 20:733.611991504038 
1.0 3:409.43864161017876 4:1365.657293283338 5:735.1311814768441 6:979.7894081264394 7:307.3063546967593 8:496.68257829094216 9:586.3358184108845 10:533.1884010032093 11:599.0702945854379 12:334.53628085479164 13:437.6063399375388 14:313.4079929578671 15:598.1990934801803 16:567.5785568420808 17:596.3575384087637 18:418.2266004769252 19:556.6228815878395 20:630.4648596273878 
1.0 3:430.30416773629975 4:259.51985980824236 5:257.8447610621757 6:370.76418380773384 7:202.13354010897254 8:466.5407353674143 9:78.65602702332947 10:296.93420780198073 11:175.51165486995234 12:237.639205571062 13:477.26415502938295 14:260.4708664985377 15:289.2465000979299 16:302.0172837329964 17:243.65746237088433 18:321.1372518303139 19:458.7035072336575 20:456.17446073485127 
1.0 3:1237.9686136771923 4:538.9001163296158 5:1361.2560605518124 6:620.4355421278216 7:511.9730818187067 8:431.2276697278326 9:592.4484839079078 10:343.40109307361126 11:444.25534236081495 12:109.43175018140114 13:357.33520077775654 14:578.8943946928863 15:520.1082825098978 16:487.67669144173146 17:507.5685173828255 18:489.72548888312264 19:632.6479861313269 20:713.5670124280498 
1.0 3:1642.9907026873343 4:784.4527495093245 5:1237.7555382236394 6:900.6697429237805 7:474.6980053329829 8:575.1647814644933 9:645.6157815542853 10:664.9211355990623 11:552.4245451212516 12:481.6670557051066 13:445.342348447525 14:514.1312611428694 15:380.2584991840556 16:396.2036611283937 17:547.4932190690006 18:466.963348312183 19:653.0316316598747 20:600.7506717681481 
1.0 3:3853.959174661093 4:3745.8851047757375 5:4227.410325364548 6:2595.177150365598 7:2801.4326204245394 8:2852.617056486475 9:2497.9265977199043 10:2929.957468041197 11:3150.5018447819025 12:3510.03364272348 13:3473.1244739096305 14:3343.3522415130533 15:3612.564728709754 16:4029.076635224729 17:4026.138909158614 18:4161.167283370099 19:4686.4997444424735 20:4980.814463170968 
1.0 3:2615.6944056914645 4:2062.366945956826 5:1589.9425011692692 6:1937.1811250181438 7:2372.198297180859 8:1660.2044640424406 9:2164.041756170441 10:2105.5501515698325 11:2205.7814692648826 12:2165.2852274197653 13:2427.2905297650354 14:2414.997911651801 15:2408.6148084748133 16:2614.805015411841 17:3064.2733395474984 18:3043.8919268595214 19:3473.4822410325423 20:3729.5465985825294 
1.0 3:679.1160210035943 4:973.2193827906389 5:1200.2788096148126 6:1104.5202871108752 7:1544.2186348914875 8:1182.659223010712 9:1501.283600700852 10:1450.7511918416571 11:1419.7506200403384 12:1843.1800883998453 13:1543.5018439904063 14:2062.07746337076 15:1780.4479729330592 16:2132.332443671257 17:2306.656728261839 18:2579.0886495275513 19:3260.931170380597 20:3233.451182536675 
1.0 3:2924.60752163291 4:3449.5197666627937 5:3133.164901720802 6:3673.9568252051854 7:3220.6604547334027 8:3490.810263023681 9:3292.594375409616 10:3781.188450006509 11:3524.230218888646 12:3393.7232285199525 13:3896.0890941875246 14:4039.303149252663 15:4083.580017036164 16:4132.873634646233 17:4420.741295353579 18:4666.684987756606 19:4885.712923997437 20:5330.997828993027 
1.0 3:2737.329727290576 4:2853.2144309791165 5:3067.5153432388693 6:3189.0960895901867 7:3039.0814059733307 8:3193.071971964043 9:2842.473985042565 10:3129.1184281828314 11:3459.1418880528668 12:3319.1751275333822 13:3464.5459804491 14:3781.263810982265 15:3765.0487093946103 16:4000.639139740846 17:4214.148998008055 18:4394.511437121323 19:4676.354988437354 20:4901.690191775745 
1.0 3:53692.322740885975 4:52090.26047615034 5:52825.78510921638 6:51206.89123277453 7:52895.47937883753 8:52867.51157552106 9:52891.70701083998 10:52638.30030396441 11:53401.74728510852 12:52860.08296626404 13:52880.56974924931 14:53309.592941910254 15:53249.84499311748 16:53361.03334544541 17:53474.70833349318 18:53881.198130358905 19:53923.725773150516 20:54342.83279856314 
1.0 3:2893.3373181214424 4:2727.3431946112096 5:4044.318391348862 6:2216.0788081328783 7:2578.48183699822 8:2591.4559834030647 9:2386.1802518640684 10:2459.0642523166466 11:2571.364409326445 12:2842.378506634178 13:2900.246698556438 14:3093.5911434775235 15:3107.6543380107305 16:3271.3646933609775 17:3243.6075683445465 18:3439.1446181575707 19:4207.928236862888 20:4386.242013438783 
1.0 3:877.1174438955353 4:853.2000323229065 5:562.1686238779045 6:886.9202305230972 7:995.6011522851495 8:875.0100335025173 9:1028.5777554476865 10:1283.7603358206773 11:1348.2569286124478 12:1294.2640409164542 13:1248.5708701141168 14:1603.2936898988203 15:1767.6871993858565 16:1985.6401690682853 17:2218.1668499323814 18:2541.320325389773 19:2663.231184068801 20:3279.156836775802 
1.0 3:2311.678004167603 4:3273.7457714420066 5:3190.430527668216 6:3026.007901524595 7:2939.950152892059 8:3517.3750678732517 9:3307.162430966904 10:2950.2652326411344 11:3376.945498505703 12:3462.524988973078 13:3686.9554383844447 14:3822.5823524319107 15:4030.5571159219435 16:4107.424944181416 17:4343.481441654715 18:4530.601835781649 19:5115.63270487196 20:5183.387240743663 
1.0 3:772.3852699795814 4:1351.782284860746 5:2237.244324356173 6:1529.1700344286232 7:1371.5652783616038 8:1217.4437342789217 9:1483.1753494404868 10:1115.2680256424485 11:744.9338155545574 12:396.7467591377725 13:392.72289222654985 14:803.7705965592609 15:1424.1485958584256 16:2122.443636965864 17:2525.5967561718253 18:3174.90658531752 19:3541.3683888672635 20:3886.9313243405927 
1.0 3:2717.838858305221 4:1845.7836344185407 5:3019.727516104794 6:3182.259437550172 7:3001.2167725276927 8:2977.8948220235347 9:2942.3480367562834 10:2887.8854388845916 11:3116.390579344247 12:2927.5528956216367 13:3240.407970208869 14:3530.5471066196346 15:3791.696271463263 16:3811.5440291623045 17:3709.1374690543744 18:3878.8716097218644 19:4325.515845061317 20:4558.598627922556 
1.0 3:2262.1406437682253 4:1817.4265473627734 5:2348.774858550564 6:2863.108147979683 7:2156.2332931995243 8:2149.4395673205836 9:2956.5167917857743 10:2487.6430227453143 11:2667.1936980554224 12:2631.9490402191777 13:2682.672080842072 14:3020.027103383464 15:3142.47198186154 16:3093.4531362903026 17:3463.2522971774097 18:3649.580876259732 19:4067.8798062659635 20:4175.650590217539 
1.0 3:1113.8321620824704 4:837.5709478135042 5:868.4124628101259 6:397.4889842445319 7:1109.437842460964 8:1200.832768135457 9:1167.0738602569834 10:1345.215296115825 11:1378.14922100134 12:1356.5419455217634 13:1577.7382052169414 14:1706.8220339977443 15:1789.5823676903574 16:1863.271188509269 17:2390.18417218903 18:2406.6893771472537 19:2630.551648610089 20:3126.0828770342932 
1.0 3:1704.544909806801 4:1666.9077511492653 5:1735.3151089516762 6:2476.893890818577 7:1998.9923536494343 8:1598.6475172705786 9:2015.060741670846 10:1978.571251600516 11:2196.0105267415697 12:1842.8814217881518 13:2211.717046426791 14:2223.923646419892 15:2518.4025689639266 16:2793.962927819638 17:2939.6619875131096 18:3188.2454508477167 19:3445.008541267358 20:3926.609974230634 
1.0 3:3258.899963972538 4:2767.8059674659644 5:3364.081375226418 6:2656.736114080051 7:3272.785767696825 8:3356.0623581997047 9:3484.1489888745864 10:3354.5942511527783 11:3004.123622661648 12:3598.421121973434 13:3487.347679549053 14:3769.187571109028 15:3824.676997571868 16:4125.617564681861 17:3998.9953552734673 18:4324.218223092351 19:4576.868436734555 20:5057.319141803721 
1.0 3:1855.4656444523673 4:2007.9551010967934 5:1705.5090375174057 6:2058.139468657445 7:1645.131940506679 8:1221.3392501338303 9:1717.768841890548 10:2372.4220944885515 11:1954.9358096969365 12:2179.288102655432 13:2413.3889488289988 14:2449.7462025254063 15:2486.9652741968366 16:2598.3823954774384 17:3048.0622272447686 18:3215.7983223491196 19:3626.6732547879456 20:4013.2541288646034 
1.0 3:741.5902795487893 4:853.7279319648939 5:1079.6369369926747 6:1182.8047443319786 7:1474.1235371204577 8:1316.6990597196416 9:1204.0629066322717 10:1345.2088937207113 11:1336.1542460874705 12:1753.6458810089841 13:1839.1305134342288 14:1956.1615414336568 15:2156.0071404098794 16:2271.001155883043 17:2494.993532834768 18:2841.175481166973 19:3312.9537544830887 20:3439.1361989886545 
1.0 3:2863.712532335855 4:2796.5064526358583 5:2287.996626971614 6:2579.8228329415642 7:3083.351368841183 8:2553.1658888589295 9:3006.979966959461 10:3331.8561273117025 11:3150.769148520537 12:3141.6568700536554 13:3025.839732192583 14:3321.803288325356 15:3563.323175023925 16:3714.7512383890057 17:4215.765375064254 18:4174.732345881511 19:4739.086178831272 20:4874.214292138197 
1.0 3:3425.59048059966 4:1677.6639771378254 5:2528.2626694652968 6:2770.1311207989697 7:3010.7026343511125 8:2740.406438763016 9:2667.1685706194944 10:2714.4652351789914 11:3112.068571826853 12:3141.2971684563936 13:3300.9864156222325 14:3427.9653594862602 15:3375.025284299482 16:3634.0392321690397 17:3825.5235357983865 18:3997.178498374504 19:4224.7087274457135 20:4757.6955522629205 
1.0 3:930.2477918269317 4:1109.0081396621902 5:788.8890816125408 6:1097.3459585696676 7:1067.438786575464 8:1174.6232184143098 9:1574.572190739974 10:1282.0547859205099 11:1357.1829148603279 12:1577.9582168024294 13:1833.357558333945 14:1870.6757309651493 15:1979.0332339047418 16:2248.8733180979393 17:2486.032928384938 18:2834.441747340961 19:3153.178088608672 20:3357.331334754456 
1.0 3:52653.35570250575 4:52665.00395196791 5:52762.261013448944 6:52760.075227802365 7:52517.70357475754 8:52990.42091723729 9:52851.441323722116 10:52529.835796498875 11:52688.27016079139 12:52545.98848329425 13:52811.35736361804 14:52387.4002201959 15:52495.31466258078 16:52617.62778749779 17:52553.81191082122 18:52833.78586547045 19:52524.423166195615 20:52878.13577039197 
1.0 3:604.6374151625249 4:1166.7208127999015 5:839.9919752817691 6:1152.0879800665282 7:1173.777495879317 8:1169.6572833460561 9:1022.6879035742317 10:1169.7940962142554 11:1152.757065462541 12:1438.5375141797979 13:1561.5887020459945 14:1665.471878187587 15:1827.1516303372885 16:1931.0351293545164 17:2336.765148922549 18:2526.7308740501126 19:2908.0521967543077 20:3409.486107416817 
1.0 3:2876.663991470688 4:2810.3935200914007 5:2367.2411689064074 6:2104.2551623194063 7:2646.49284549335 8:2781.2836523261617 9:2573.198086865187 10:2893.309879045857 11:2816.2039319181476 12:2941.472602080934 13:3123.0650398696716 14:3202.0937478772007 15:3398.075294837695 16:3585.6758902979905 17:3787.6199666801344 18:4079.9783605971975 19:4301.88897174686 20:4677.467897457738 
1.0 3:2967.5160882337645 4:2842.635901210122 5:2454.226718455056 6:3361.9036513222118 7:3078.122250161688 8:3210.2124558908386 9:3270.6044686372616 10:3181.498741870453 11:3346.604110789075 12:3343.0469032404885 13:3646.348351860748 14:3774.7547256243897 15:3709.4854150185547 16:3865.017029077995 17:3881.691212163846 18:4431.776578208857 19:4555.011351561375 20:4953.334890108304 
1.0 3:1609.5802165929172 4:2060.7810261231275 5:1379.2177944145174 6:1231.268907990307 7:1197.5845242399926 8:1603.5536439528084 9:1563.0480595754077 10:1674.3867210002022 11:1557.8183120434621 12:1917.156654008616 13:2016.7941293981382 14:2103.6262534180387 15:2322.003171080686 16:2398.083535464455 17:2695.5725407744526 18:2936.9769799189535 19:3309.9030012989947 20:3670.148376950171 
1.0 3:2079.6751005790416 4:1794.685972992958 5:1642.2328388016924 6:2100.182466822281 7:1512.3281850344006 8:1689.7331444381553 9:1904.2024920609388 10:1843.4507207238707 11:1999.120531560208 12:1693.7292973863982 13:2118.3860352650518 14:2233.183994677841 15:2415.0492709985533 16:2585.3976137389354 17:2963.5925549350663 18:3150.385012990141 19:3397.571612964162 20:3729.0854645714585 
1.0 3:3157.064837116417 4:3600.606372469513 5:3078.414272769406 6:3337.0195649853163 7:3624.851535081593 8:3554.0070927400047 9:3705.757532428819 10:3586.948558496914 11:3840.392224931062 12:4042.2820621100395 13:4011.633305898951 14:4100.981645550771 15:4299.267599327812 16:4610.273090789636 17:4682.028797587158 18:4944.034898866555 19:5277.703868411243 20:5710.052034399407 
1.0 3:2077.0858473819812 4:2136.11531624667 5:1644.2700686115159 6:3179.4274585034336 7:2810.3126699110744 8:2750.310411251082 9:3291.7542985186014 10:3248.3846056297944 11:3072.3400737246307 12:3231.930658139058 13:3483.3882944881807 14:3425.274351165925 15:3377.758367404499 16:3685.1090896554324 17:4038.610712884731 18:4135.361628175849 19:4595.259530913928 20:4657.944480701073 
1.0 3:1535.4806411011766 4:1583.317154923436 5:935.1066431390932 6:378.9989089508901 7:405.59890447730896 8:880.3658408783828 9:886.0924539598411 10:975.5770566829032 11:1338.09515960067 12:1346.1547842616044 13:1612.9130040196865 14:1811.3358660012523 15:2011.94337494074 16:2304.4338600198384 17:2090.711863813638 18:2516.357923722635 19:2912.335288945574 20:3212.587044200889 
1.0 3:3315.128517265465 4:3646.6121963514493 5:3953.393137685123 6:3450.783672644001 7:3231.700936510427 8:3681.675331137085 9:3643.6341500500575 10:3621.452110447559 11:3941.834829118119 12:3833.8659505825735 13:4085.2161980365972 14:4051.427059042529 15:4132.0240800774745 16:4511.500099155328 17:4677.15350035041 18:4877.141871080462 19:5216.287504565287 20:5688.730500437897 
-0.75 3:343.0524607528281 4:346.55220803722824 5:409.90387458620955 6:342.9267554248955 7:435.477828601674 8:202.8639775352197 9:245.5892348420765 10:343.2967933973485 11:325.4929783180464 12:152.6778711787225 13:270.58999709137845 14:479.93329979199024 15:397.78849988239796 16:399.75912320964204 17:251.21436838536079 18:504.4326592237849 19:497.2820099452579 20:422.2479035129204 
-0.75 3:524.2400614335507 4:954.7870510899726 5:288.87218257393084 6:370.4361691359182 7:569.2553118326548 8:632.8892686386331 9:560.7309500184555 10:105.0810209907409 11:318.0227177902316 12:243.85284363662487 13:690.8877017869671 14:806.8343791509708 15:338.81640107811774 16:385.8702393992888 17:473.2001987654739 18:694.8526366439787 19:500.61211432900257 20:589.2267446730273 
-0.75 3:639.4141859653573 4:726.320157629842 5:912.3315845789388 6:250.15014638099174 7:448.0514054551364 8:133.62493774649982 9:369.46353139143866 10:152.43972900152787 11:102.34624120946917 12:152.0319167309374 13:153.61169639713674 14:332.466764818633 15:267.112636078072 16:403.3936760488486 17:332.0057332298321 18:434.23069660096365 19:356.90402924876184 20:370.23927952789165 
-0.75 3:213.15297323640695 4:247.79785862267704 5:548.2093923749893 6:426.01228082173856 7:92.22321017096397 8:375.89543863636567 9:79.16393786415183 10:377.7529325777695 11:395.75754076770727 12:356.2483187736442 13:262.9768021205126 14:111.96744828935653 15:296.3967101226065 16:179.624014087459 17:322.3584729010358 18:343.2703860810858 19:368.9616838155986 20:275.1866463561309 
-0.75 3:303.37341072101634 4:705.2297797573393 5:1012.4993948777903 6:382.88292579901093 7:600.4994334769917 8:281.77040855696373 9:524.3396333017636 10:357.58054940771893 11:654.7692625910558 12:293.6036305665393 13:595.8420434559104 14:515.2564315788686 15:587.8886333084805 16:332.38121294312197 17:651.7613149670112 18:585.9742101599662 19:577.3771145569965 20:543.9963125552998 
-0.75 3:26996.96073405143 4:27024.586294355297 5:27010.924599486578 6:26344.250591660137 7:26817.92566508853 8:26765.426391740584 9:26664.647593977494 10:26837.936731298407 11:26718.796716300956 12:27031.02335326984 13:26737.152265045384 14:26807.910379902838 15:26837.243570595085 16:26725.968025490438 17:26643.50427527975 18:26700.678317723636 19:26702.899194292273 20:26630.973729949983 
-0.75 3:421.2225084630719 4:494.6064575267077 5:879.4629216820824 6:955.8777448565045 7:300.86534465343146 8:284.99665366438524 9:536.2743789976505 10:329.7890741931393 11:82.42470105173821 12:639.3786781600546 13:365.58890645765916 14:648.4143370263885 15:439.33535498942416 16:626.1673747844586 17:484.25698834724466 18:581.2070708079613 19:520.2666020708673 20:464.136479582734 
-0.75 3:145.99218762385487 4:691.8478324887942 5:775.309089903195 6:579.9118559673491 7:187.80951100983202 8:327.1839490038214 9:589.5653134907562 10:372.64938917530696 11:497.4023456326454 12:318.33263167668105 13:308.76659373560307 14:344.5495725469168 15:258.09450180369873 16:409.4988250701868 17:150.3864997660461 18:203.9884461061547 19:351.2189431746485 20:502.3141726402469 
-0.75 3:310.89344471924267 4:702.0722890756826 5:574.5290338862424 6:508.39725838836654 7:196.78266114810083 8:126.86610957217373 9:59.90993353932961 10:342.82574354844814 11:234.116058502185 12:268.7419260561964 13:503.5141018248693 14:238.44731792873327 15:38.191667276120334 16:276.5825884582231 17:341.4932807675696 18:115.24171119846628 19:362.18516032490817 20:309.3892570082427 
-0.75 3:438.7633899713865 4:1151.172799046224 5:187.03522200837648 6:603.5678069807395 7:455.53679710041433 8:297.8236500307656 9:403.3650955816402 10:287.8987677672625 11:271.45070933771086 12:447.23720381548 13:340.6681030578786 14:603.6657196907287 15:390.8044332824915 16:387.4420987030907 17:429.5687417621063 18:509.86730928355234 19:530.455537085532 20:710.466696197442 
-0.75 3:476.9468189449045 4:527.8975830647692 5:617.5333875012316 6:362.48902631461715 7:150.164750909295 8:64.22646373955011 9:86.86474329199869 10:163.06641123335976 11:161.67994221991205 12:253.10535676621683 13:408.1448692627554 14:320.91984968450254 15:301.0496975412433 16:418.8512543719239 17:495.05737105509735 18:352.59841881018355 19:400.9758257197257 20:400.3225006728279 
-0.75 3:211.22916304818943 4:149.25861045966786 5:1919.1643272520494 6:752.0221069126203 7:245.00677386513377 8:123.53747819293419 9:94.3215108539325 10:249.6778813242693 11:149.554271149162 12:127.55290854990609 13:84.10243882072484 14:106.84905439734163 15:232.27204785220988 16:191.04086016268434 17:315.95436614326985 18:215.44918529276896 19:317.19633304317205 20:376.8472208518106 
-0.75 3:1041.9562132460385 4:444.95722616626625 5:502.89959206946827 6:595.7806814915192 7:469.3414737348241 8:444.79930350771343 9:186.5653589008458 10:354.7440057932807 11:60.72051107423916 12:449.4764686006763 13:294.0114431846081 14:256.8187062777673 15:384.2195425654128 16:170.22927426884146 17:278.41597451065206 18:302.50291827577524 19:303.56272569010406 20:332.8811659633363 
-0.75 3:461.08220230949456 4:360.86193025708207 5:1070.8718155154522 6:1070.9476692417268 7:302.058224528094 8:415.4778883867085 9:192.11374647893652 10:331.4596951496645 11:510.83058601017825 12:517.9837184617197 13:299.460991664151 14:309.9537421738513 15:432.66586083132245 16:426.2298263087432 17:431.92416367657125 18:417.7107814098984 19:418.7080923405461 20:312.7729050284886 
-0.75 3:343.6398033352977 4:350.07295754109043 5:214.12600200926562 6:602.8885009517842 7:573.4162550985892 8:252.48875215503332 9:249.43311787445504 10:479.330277213954 11:293.0017677748206 12:219.69088315200563 13:93.6818978649321 14:292.620667105433 15:287.79790037624775 16:349.68904918271306 17:314.2101419812667 18:478.4068171061532 19:465.44842969601564 20:383.7855523383606 
-0.75 3:756.3917269323991 4:1700.1916130048444 5:1635.3064368123153 6:1074.892691152265 7:1305.5805399441408 8:1399.0695603246452 9:1611.7638575332141 10:1349.0233360713264 11:1494.9728783501218 12:1638.2241291510768 13:1443.309883291136 14:1756.384677957645 15:1616.1163888934889 16:1638.0317808422494 17:1784.0363943489501 18:1869.0757238859735 19:2035.7535071127834 20:1975.2586072826964 
-0.75 3:2246.2647252146594 4:1011.2138972708486 5:1155.9147167141812 6:973.737364030547 7:1250.7803538658911 8:1325.419165291714 9:926.719000165626 10:874.5331627704977 11:1064.294164126564 12:929.8857462351097 13:1209.0246217957715 14:1021.0973529657787 15:896.4459312617422 16:1288.242947471912 17:1272.0065181750117 18:1245.6660243813124 19:1442.861069053873 20:1368.6511508312155 
-0.75 3:459.70096692757056 4:759.1342727764584 5:1309.5218088960332 6:385.8087970749245 7:228.90702662955022 8:306.53869455418425 9:113.73077013772584 10:374.8724200090364 11:572.3532433212067 12:207.33983123277315 13:425.98480000162726 14:402.9641047334037 15:258.19930530153164 16:908.3733521429613 17:601.2377551444262 18:473.97530949529795 19:578.4026633795232 20:697.736089398074 
-0.75 3:510.2884859980509 4:1181.6107741454443 5:687.6582168070282 6:639.7448137697471 7:555.9649718875266 8:1105.1578576399172 9:1023.884578589416 10:1067.2784434889436 11:1408.1225598599128 12:983.8213902042328 13:1194.272881293745 14:1253.431687715744 15:1279.871827040871 16:1128.863084157272 17:1453.3894689031647 18:1391.6664976203003 19:1424.6792030985384 20:1742.854796611544 
-0.75 3:415.98545647446537 4:2472.0669819622 5:1056.6050278321936 6:1655.9113600768032 7:1319.4010165176649 8:1264.73966349022 9:1262.767165498158 10:1206.2466018992152 11:1076.9261190454229 12:784.2993693329665 13:980.821426068253 14:918.3507330848275 15:1557.9939778957523 16:1409.1456644620846 17:1516.7605206143896 18:1648.8740647056625 19:1500.324345822391 20:2034.7227216660108 
-0.75 3:44801.623784365416 4:44486.12273872006 5:44684.9743278888 6:45158.06312510881 7:44508.033443493114 8:44835.640938071796 9:44430.98484471268 10:44388.29233042145 11:44529.396288971184 12:44343.29228943628 13:44717.08988862093 14:44507.455673732446 15:44555.37641452231 16:44498.4251500617 17:44705.03545453369 18:44702.86882091691 19:44708.010459400946 20:45003.43064322383 
-0.75 3:1484.185265777713 4:932.3592420432254 5:1001.417905402066 6:712.1372865770593 7:532.1445014781663 8:767.1940724177522 9:515.4435219483842 10:625.2475208105878 11:536.212982260379 12:689.5548402968747 13:972.6045625959591 14:1187.916080061724 15:1077.4423261265501 16:961.1099863435489 17:1218.843854942062 18:1202.9903879844471 19:1474.2978840529006 20:1597.3320609174177 
-0.75 3:1317.348485565201 4:1020.0348053570552 5:768.668092827774 6:710.8049317254322 7:817.6826088069041 8:788.0060034094996 9:527.6136245077926 10:748.8073675313095 11:888.5927650405314 12:741.6513213537548 13:828.9903561421426 14:726.2684339432076 15:832.3689179596483 16:1006.6674040201916 17:996.3169128241813 18:1338.3330267005106 19:1242.7756990394928 20:1318.123118512693 
-0.75 3:1204.7048357992735 4:1703.4918465321168 5:1153.843130859208 6:1455.405706716347 7:1214.155750366704 8:1243.3406182546425 9:1329.112241578001 10:1449.0070744261147 11:1311.2387667806681 12:1737.8428504998317 13:1646.3683971265878 14:1460.957457309733 15:1621.5931714392068 16:1654.7495099556938 17:1858.6208981684802 18:1957.386680400661 19:2089.9969428632876 20:2309.6218458983167 
-0.75 3:1173.516411410759 4:689.0238785312573 5:691.0116229287564 6:988.8327129004981 7:529.225349548284 8:963.3343324790444 9:772.3379579451841 10:728.9864721791571 11:1039.2278406226108 12:959.5066560855606 13:1060.6534871662902 14:1199.0419794941447 15:1138.289926211644 16:995.1829637963464 17:1216.837938560823 18:1278.2728447703023 19:1453.0305099801467 20:1801.8773953118334 
-0.75 3:612.8962591540893 4:995.9849832297976 5:802.1179109921829 6:63.06737147101816 7:600.1850003788448 8:716.9587680773365 9:650.7493709564068 10:524.9490583503784 11:369.51245382440436 12:784.1453053523564 13:589.0342844295296 14:481.5986315071151 15:1117.4827884077454 16:1133.0546886772952 17:1147.1752441935373 18:1080.0815071171346 19:1220.8392406896223 20:1226.2919674546695 
-0.75 3:1605.0990618073351 4:2017.101185581163 5:1530.783875941747 6:1179.9220306315524 7:1416.9522541060157 8:1725.5651259053477 9:1792.2215450593378 10:1584.4047483908278 11:1569.5985722067999 12:1805.7480540672193 13:1829.7240443838286 14:1631.9267940623765 15:1764.8852266127112 16:1878.424908134493 17:2049.448224648694 18:1956.8543476107554 19:2196.9817318529313 20:2352.0090056400663 
-0.75 3:863.0485790001877 4:1148.564886388741 5:1271.4985934755584 6:643.3930182098044 7:1534.9820382598652 8:939.8413330375256 9:1182.6871079494645 10:1200.4257260295924 11:1338.691656482222 12:1181.8686264547898 13:1165.2764052810712 14:1008.7456705362903 15:1441.8693729793363 16:1469.150716850892 17:1410.3504132841588 18:1637.2841297168727 19:1813.4847895465364 20:1791.6188545434932 
-0.75 3:589.7564716914259 4:737.8154394006438 5:693.2343584632207 6:461.6635587172521 7:595.9020303009033 8:381.2316110539137 9:393.23065833435516 10:514.2508406107978 11:521.2555544217313 12:732.4356325462916 13:548.042895161244 14:865.4488521636756 15:730.3377830150262 16:878.7671456917241 17:929.4456575442507 18:955.87248132315 19:1285.91435636598 20:1300.1893452694976 
-0.75 3:1689.8200685857132 4:1561.8089986065474 5:1509.2215186976819 6:1775.6626628048882 7:1555.500988681565 8:1560.0871372625404 9:1321.0877699797356 10:1481.5312998332327 11:1595.125274489828 12:1418.9168570190916 13:1753.757194428366 14:1765.169692672918 15:1878.8872619567817 16:1846.7744035850246 17:1977.6653180773174 18:2178.327992819776 19:2145.983073317119 20:2434.4668470485894 
-0.75 3:1017.5862744533149 4:337.76127163950673 5:380.9661731561174 6:83.8394087074077 7:203.52588433874178 8:474.1005123745428 9:449.6452512566411 10:249.47234398395253 11:376.0917632496647 12:807.0848240456232 13:683.8991370537475 14:798.1382827413884 15:816.9603442874081 16:1353.9316358306837 17:1444.769937021257 18:1359.2055251954819 19:1886.7859699450466 20:2161.047540115351 
-0.75 3:2294.2885545505064 4:2276.25974798936 5:2600.1255926346917 6:2137.4110759272285 7:2112.8144569802926 8:2026.1631518646263 9:2264.4887587052503 10:2129.2480894575797 11:2622.816596337134 12:2334.9689691996036 13:2123.333858576952 14:2662.7376085209157 15:2826.439762814683 16:2660.2759469458238 17:3184.758002993483 18:2849.306058869564 19:3265.7695506711316 20:3582.6823620379223 
-0.75 3:2228.9848337847343 4:2805.4274253301965 5:2136.6242308537694 6:2826.1967511436405 7:2383.592955612374 8:1905.3194757882848 9:2593.2816618800166 10:2782.761067375721 11:2697.5744829767245 12:2561.0403688503093 13:2325.6253804959606 14:2722.8861541362103 15:2917.6189644703463 16:2991.8344020420022 17:3247.314736101343 18:3281.2842157620858 19:3323.4584823878445 20:3780.1388473838524 
-0.75 3:1052.483390312744 4:727.2302349861155 5:713.1901816338808 6:407.8032276352603 7:612.5249345480267 8:681.87805360481 9:909.9387185753482 10:998.7274951356003 11:895.8630787302543 12:1079.830497299247 13:1016.6958492373992 14:1267.5235515163192 15:1150.091891320416 16:1464.305297212066 17:1579.8967909540593 18:2011.491991962792 19:2019.2402763827529 20:2191.4760158410186 
-0.75 3:1613.743167314506 4:1621.6082153883833 5:1682.2799749643455 6:898.9668121748346 7:1904.8566809430085 8:1766.1911268794515 9:2096.72603222867 10:1558.0222361715564 11:1637.392793641842 12:1280.6533759438819 13:1698.3937409250082 14:1834.1781698841535 15:2263.905142729653 16:2014.9354490271141 17:2473.8870810104336 18:2407.9320147053686 19:2601.08219922541 20:2959.6025960414254 
-0.75 3:13188.835559111973 4:12301.456668985007 5:12874.493342911614 6:12707.526275411527 7:12880.982145475375 8:13075.916657455864 9:12325.95629527868 10:12332.203334959444 11:12659.225480406385 12:12271.893470527155 13:12165.022562041626 14:12504.159282598728 15:12159.109606896258 16:12050.40841253341 17:12227.382459389826 18:12147.03428572388 19:11951.120975238278 20:11848.310202643388 
-0.75 3:2547.485139130231 4:2684.460997821735 5:1958.8245678197904 6:2277.52846657397 7:2288.731295674052 8:2248.17650220594 9:2281.1230399305023 10:2363.4183565934864 11:2677.5011739072697 12:2918.7122176845587 13:2510.937640640414 14:2531.618698206754 15:2882.342042825392 16:2915.855303125687 17:3085.158018053637 18:2962.680608416266 19:3622.6082816149233 20:3668.065050625488 
-0.75 3:2112.476689542493 4:2259.2657705279194 5:2889.3438946170095 6:2043.8727626770558 7:2574.0477549720204 8:2504.130276665005 9:2500.3164191593078 10:2842.356229487392 11:2642.1000858904035 12:2470.2736832213304 13:2792.003772197255 14:3195.923095890213 15:3065.0668346545644 16:2976.9123789444543 17:3275.0110817771165 18:3470.511061790435 19:3754.292125235663 20:3811.580421776133 
-0.75 3:183.4004199736215 4:239.7309166102988 5:271.16802031313046 6:1322.3634752028283 7:767.9048905603106 8:780.1455912351094 9:826.5815610246208 10:798.3130156973194 11:1288.8810895878178 12:1022.3120636900644 13:1086.6989886063202 14:1086.1272091143255 15:1209.540239287284 16:1614.652030130664 17:1576.8054734534257 18:1985.2770205580678 19:1940.1993195649925 20:2276.8598356798248 
-0.75 3:1357.0004870794346 4:1339.2097649961186 5:1036.2338778063843 6:1721.5729004350972 7:1582.907172326027 8:1744.9382398550324 9:1496.285274370785 10:1677.0736326408623 11:1839.7576857467463 12:1478.8086081393474 13:1690.1645900795065 14:2054.8254578700194 15:2118.8844945267633 16:1972.5981990253658 17:2232.9910047834937 18:2439.1334239585417 19:2569.965855650696 20:2803.7215343356547 
-0.75 3:2356.7381305951553 4:2074.131145820245 5:2537.034291882937 6:2044.6828984819942 7:2431.6133907113867 8:2197.728424189522 9:2104.4534434646616 10:2512.899621166615 11:2186.363916205406 12:2279.7612757254446 13:2250.8010869108266 14:2475.894346385168 15:2786.6068074140358 16:2784.2590799533677 17:2975.910351023739 18:3280.6939409458832 19:3250.3622886338408 20:3629.078698290982 
-0.75 3:1288.6812668476323 4:1173.2746761333303 5:2171.828577931 6:1439.8866067962863 7:1554.0683146379977 8:1628.1755663435042 9:1883.8910462167407 10:1155.4753842225864 11:1432.8120626368884 12:1539.464354548007 13:1803.4212800933385 14:1550.9616729329966 15:1971.6423729651722 16:1931.3231206152573 17:2413.9159171977444 18:2378.9336559119984 19:2566.7110536926657 20:2917.0411017199403 
-0.75 3:637.8875113395512 4:1061.782371135463 5:1471.5321172162307 6:857.1006491103656 7:678.4519657794247 8:989.5530838351018 9:956.7796435732647 10:964.6926762306479 11:1124.247264709195 12:1166.0466152506876 13:1094.5159195826911 14:1195.3888115041516 15:1546.0703449692426 16:1441.6409498513424 17:1891.563622768035 18:1836.8710564739256 19:2166.3387025695733 20:2339.174810801191 
-0.75 3:1850.4457395217817 4:1703.7597132653152 5:2053.8961628487546 6:2159.1735914887104 7:1693.9254859712928 8:1392.3872850873154 9:1972.1639497885874 10:1689.200855505754 11:1856.6521189684827 12:1875.189223587395 13:1991.575652987024 14:2008.208599088368 15:2216.2059298191352 16:2367.5948287677656 17:2669.4289255883486 18:2623.778979329296 19:2761.147415545945 20:2972.30087250035 
-0.75 3:1836.6355857635845 4:1511.9179123498873 5:1741.195673865878 6:2613.214171509557 7:2295.5594235661947 8:2075.9175062849004 9:2057.370326624929 10:2153.519476817642 11:2310.497071577634 12:1950.6968379396885 13:2367.2133077115327 14:2606.0142524030866 15:2617.9298377060795 16:2571.4775309651936 17:2981.230444862596 18:3069.9534799666826 19:3136.0054241572634 20:3550.0152682305074 
-0.75 3:477.7821308862165 4:521.3358397767528 5:690.6134287907813 6:732.052075130201 7:446.2466804014539 8:652.9152822485371 9:470.5590924443805 10:694.2772726085569 11:668.7964943729924 12:680.1970572313929 13:694.9322237138423 14:640.6670865940137 15:1209.721034844545 16:1133.8117507610464 17:1133.7206711344259 18:1384.3137413811073 19:1227.2387654120125 20:1468.175800471174 
-0.75 3:1094.5625451282317 4:815.3373300099128 5:1261.03902159764 6:1668.3222987645752 7:926.5662828387264 8:785.6085690214888 9:1142.2891826254518 10:945.6921555447342 11:1280.0216249614243 12:1330.1342944238734 13:1174.377152698697 14:1202.963674576911 15:1226.2417224531991 16:1526.176823817086 17:1611.8768518114125 18:1776.707706506291 19:1995.2912606670873 20:2054.5301635842657 
-0.75 3:1544.7972452905913 4:1792.7315235739707 5:2457.3395358696057 6:1602.6112237625214 7:1776.2194365384103 8:1894.2176109770364 9:2131.455031307373 10:1772.6033494436172 11:2205.522325068256 12:2057.922624750112 13:2143.421100661804 14:2069.785883962738 15:2007.3417229454678 16:1985.4007533682675 17:2132.0350782314404 18:2460.6310122528957 19:2628.8635893443725 20:2653.551359289379 
-0.75 3:1299.0102535809656 4:1312.847893657548 5:1030.6836105955765 6:1239.5432484880837 7:1365.312558919269 8:1222.5078260977216 9:1269.7149112936884 10:1503.2916948884256 11:1553.5898962174444 12:1533.0063854729322 13:1754.6612889308544 14:1558.3207057577072 15:1734.6564737018882 16:2002.0246953501214 17:1969.6732938090427 18:2131.822186035594 19:2243.565671025325 20:2257.771019681015 
-0.75 3:1095.4079281073025 4:1184.9091213473614 5:508.90699187928203 6:408.7925670661719 7:341.3852811391253 8:542.9325746891753 9:121.32423651273183 10:610.6742133600237 11:571.1088199486837 12:203.12576594201698 13:607.8848524958138 14:685.3566916329671 15:846.2987504866508 16:1200.2851814794406 17:957.1643601908189 18:1018.7974327097638 19:1253.1386268119759 20:1561.9645263962109 
-0.75 3:31855.8112973482 4:32212.013972263747 5:31650.44298332601 6:31323.747566965278 7:32057.52317262878 8:31837.84587562314 9:31736.61318119848 10:32244.26959186805 11:31686.595020733756 12:32152.1580680489 13:32224.893647502355 14:32261.873280753898 15:31894.497407436294 16:32268.3595370601 17:31988.849002660132 18:32219.28701345906 19:32377.411581409262 20:32594.769675710395 
-0.75 3:546.3643633102633 4:655.6999393156474 5:571.3204046815046 6:373.86083887725886 7:126.01832311742213 8:561.746228435629 9:570.8027063696521 10:240.61388326804115 11:419.5335407387553 12:505.2863564694688 13:765.4089999756086 14:489.8845157690985 15:950.8737452869894 16:724.3678159273625 17:914.2623410272386 18:787.7880576572082 19:1211.6625231662886 20:911.2319361742234 
-0.75 3:810.8255568558616 4:290.5029061574022 5:253.4403491184517 6:549.3083618075229 7:698.3075017310181 8:151.66035032285794 9:709.5876524222049 10:219.28418571999748 11:251.64442031242086 12:742.2786697437073 13:787.5515623995669 14:560.003163642085 15:740.3319324222012 16:710.373877678312 17:593.5040424017814 18:659.7825593681905 19:654.2335297725303 20:860.6019777303076 
-0.75 3:263.92404583918903 4:881.4740708763148 5:64.92017534674032 6:277.8746069582567 7:602.9405523024109 8:360.57131945021285 9:284.23035200548236 10:239.71603439650215 11:191.8394693472842 12:142.12937831045608 13:111.97384978003258 14:88.43995548761431 15:230.57858589278987 16:198.09152712878304 17:91.68541947669249 18:263.4084477484815 19:224.12686938384556 20:326.6864268072286 
-0.75 3:1246.5504335859944 4:598.6130677332504 5:410.2820569472085 6:580.6414947939854 7:194.85578755584785 8:175.67048264963375 9:370.05230946964735 10:159.6439601372153 11:398.6678768952021 12:387.25378230956716 13:257.80399525285645 14:190.9603892647532 15:219.68566943992545 16:248.84562195561992 17:181.5853205363067 18:391.72544204625837 19:81.27666280988004 20:27.81025657172675 
-0.75 3:911.8297828759834 4:835.3444087449858 5:189.90190184372852 6:970.3181621508476 7:390.65560859113805 8:399.63074634677923 9:419.1769396245121 10:416.9855293794417 11:214.7979395270565 12:333.57429199741676 13:61.203206483630126 14:434.22062110837186 15:159.96286705206765 16:160.11549437429613 17:202.26009475689935 18:169.00742915314578 19:87.06189273870983 20:274.7157117667971 
-0.75 3:350.26585098766884 4:587.8080352819338 5:873.4063073052113 6:671.2763144876338 7:703.5667838536822 8:194.01861396857345 9:302.80225227525966 10:738.6356001078442 11:108.0553554654326 12:369.4935746395387 13:182.39285641884334 14:383.8018120023771 15:81.79069381007774 16:60.99997395665372 17:223.84472528782558 18:304.15863996498194 19:360.88331814571694 20:251.69248653811874 
-0.75 3:199.05893584760753 4:691.9752075007933 5:380.9725298161593 6:633.132518391196 7:199.8812683827017 8:536.6784625155581 9:313.5659711588987 10:107.15325045982064 11:258.8056394304669 12:226.01466433160508 13:318.4870705067771 14:272.05777026470764 15:311.84097831000645 16:60.139948265846456 17:143.76815885283196 18:94.08419782675291 19:52.05636143124841 20:185.0000725009097 
-0.75 3:592.5069253413805 4:576.9330746228275 5:447.7146583347865 6:263.41223254390087 7:342.75584664780916 8:630.6076338729055 9:504.0060811417649 10:241.0865408592921 11:465.7155887524174 12:558.0747461039284 13:207.18088334238487 14:147.87774880285735 15:112.829152089254 16:193.64823616906466 17:71.26055920669364 18:295.35355872089895 19:182.2366731241464 20:219.89031894106822 
-0.75 3:388.3131118478865 4:694.6500083447092 5:1079.6089991587673 6:373.0972111328996 7:167.78018991715075 8:422.84774050604415 9:513.5455107226333 10:173.51211023010447 11:263.1385529680185 12:293.49505067316977 13:212.340423936879 14:365.95598823507123 15:181.28942636877548 16:220.66119633603594 17:115.73907927694123 18:393.7298029589504 19:327.877278412597 20:210.24381912847755 
-0.75 3:1043.9198327487675 4:447.7401191473274 5:320.8599556593049 6:429.69103124383673 7:357.11620524494344 8:51.017940673957895 9:556.5323703253267 10:772.006598349581 11:800.3170553584645 12:677.6447831231274 13:1166.60136927553 14:1049.0845494869454 15:1215.8919678126954 16:1397.6858313824152 17:1549.3107547859424 18:1764.2464195090065 19:1996.7884743131094 20:2054.8116374303795 
-0.75 3:2533.977851017219 4:2265.175594694359 5:2721.86815280663 6:2191.7104569719545 7:2598.639853468992 8:2578.9442738284242 9:2079.53783097165 10:2013.1479661670749 11:2441.794609515888 12:2337.446050233185 13:2325.912917725689 14:2417.244396609654 15:2859.4576491810026 16:2874.87450902272 17:2826.4900736408795 18:3055.0319451324553 19:3527.003963108929 20:3633.4655212472244 
-0.75 3:2705.2072330055926 4:2123.406357387211 5:2126.947681429306 6:2480.1756422342473 7:2976.03258466865 8:2698.134037719977 9:2582.867834058929 10:2648.3784826065694 11:2644.2770876390855 12:2808.13844781325 13:3145.16232772428 14:3084.553157763967 15:3349.6805220344386 16:3224.7625360364495 17:3492.8362941817163 18:3528.930536115318 19:3868.887171419271 20:3998.6465029660453 
-0.75 3:1616.3348469853734 4:908.2171103441674 5:668.6576655143223 6:1209.3087683209571 7:1232.6110844477007 8:796.1126870144584 9:1153.4737105759573 10:1677.3781511297257 11:1448.1640175181099 12:1398.3983049963883 13:1672.644742516088 14:1634.7190847319212 15:1710.45860552477 16:1727.2146358469763 17:2017.71162766066 18:1912.658437050849 19:2393.3632465333926 20:2703.5465845855897 
-0.75 3:1172.071923282859 4:929.3447873346555 5:1181.4472210911824 6:1030.3100834613351 7:645.4518382749688 8:738.9287843190643 9:1234.7052352744688 10:873.1024557933357 11:1226.306836624293 12:1494.527898964258 13:1527.1286778717072 14:1657.7888724442691 15:1926.2800229061609 16:1664.0170639058683 17:2012.8522095486403 18:1930.6275349441803 19:2703.8003521219944 20:2457.7804215121 
-0.75 3:38347.79371939165 4:38520.92944093257 5:37947.281114497884 6:38473.82107764925 7:38590.015144134384 8:38284.489212642286 9:37987.01547381856 10:38032.33318149691 11:38212.38542541731 12:38035.44358240287 13:37655.015533118516 14:37957.92553738451 15:37900.54731201163 16:37699.786546236304 17:37799.83324430799 18:37689.42534314403 19:37588.23083975749 20:37486.35603574026 
-0.75 3:1707.1521475026793 4:1269.4008472874045 5:2215.8459889225996 6:1692.417312773563 7:2143.95365602602 8:2403.583127302343 9:2155.882236364322 10:2378.589792756434 11:2249.520663024676 12:2276.133971007146 13:2293.429621795979 14:2420.3502543503078 15:2501.814422150929 16:2614.7395915770576 17:2994.3505346845463 18:2829.579997479921 19:3278.7303310331295 20:3513.6328358406204 
-0.75 3:4047.731320142022 4:1947.3518403977591 5:2401.2993526606615 6:2990.733021873268 7:2357.2919084747673 8:2733.101803743621 9:2644.616717010208 10:2862.2839836605503 11:3155.209119504877 12:3046.3820207222575 13:3173.3317297429194 14:3162.3478021226156 15:3342.251656464108 16:3837.4397471641423 17:3838.2552332437053 18:4043.947166748304 19:4457.938760546023 20:4571.832278021328 
-0.75 3:1645.6133214347842 4:1258.698399186093 5:2577.789721149639 6:1915.139505079582 7:1160.171537334255 8:1682.2326537808465 9:1667.342509987569 10:2019.7730503818732 11:1995.052348865172 12:1878.4610027218287 13:1964.2177844546227 14:2173.89765157897 15:2138.3692463790467 16:2669.471631639552 17:2988.4389725890496 18:2873.439696307891 19:3141.9744891298487 20:3722.403690675994 
-0.75 3:632.1090668046158 4:1032.6175153106872 5:759.7504090740972 6:898.4141536535136 7:1177.0076885312296 8:717.8372240842161 9:1015.4889386657017 10:1459.4552595675325 11:1267.3346795247603 12:1411.3344562882062 13:1607.8655938728768 14:1816.557282089777 15:1858.1069951433556 16:2101.855771515597 17:2417.5313232908898 18:2605.863481990807 19:2725.475170617738 20:2740.1152060855497 
-0.75 3:1809.9853875074314 4:2350.1182316474756 5:1808.299080800196 6:1846.572663459369 7:2501.7329907239264 8:2655.7179609828463 9:2894.1805570392353 10:2767.0273269836143 11:2853.277804330935 12:2647.1165505675535 13:2442.3428694279905 14:3222.0538896582866 15:3165.1029016079224 16:3531.2865961601547 17:3503.2698107014967 18:3854.575951013406 19:3757.6633803943787 20:4490.16900086411 
-0.75 3:2947.9871636257317 4:3414.218885748112 5:1825.6111676326302 6:2718.0367539325916 7:2698.671813205358 8:2906.2256202705375 9:2735.159161747752 10:3011.098654872561 11:2625.242396131012 12:2804.8880849284974 13:3303.156381926977 14:3376.067153865738 15:3527.061991715645 16:3637.001470532823 17:3843.4385495830193 18:4033.9442522694294 19:4248.524967643273 20:4741.045355687124 
-0.75 3:1457.9317821534262 4:959.3678872574208 5:1193.9169466014102 6:1665.8434976385406 7:1202.1686838768478 8:1541.5357706094348 9:1885.3542106449593 10:1431.2428615857127 11:1543.5199548772189 12:1944.225853945609 13:2038.3497481564568 14:1963.2175860644245 15:1994.3948544239324 16:2396.2247453817813 17:2621.892248962625 18:2667.5969617848978 19:3025.5185393462925 20:3279.775066928078 
-0.75 3:1516.0023211686891 4:1493.1555991201549 5:929.7117758272435 6:1697.0924933852832 7:1307.9605839190333 8:1328.103450227033 9:1630.0007871147366 10:1855.2718829718904 11:1724.1864690311759 12:1831.7445285389772 13:2333.928755862895 14:2048.6045720465727 15:2346.7342809060788 16:2601.124216950292 17:2699.9862830916163 18:2844.1541763701894 19:3204.740325340034 20:3560.5029080009876 
-0.75 3:3308.657412543629 4:3225.8797590089107 5:2790.206493487572 6:4054.6443637011635 7:3386.2411584734964 8:3716.714348005962 9:3397.4446569877964 10:3377.01519944141 11:3509.7463894659068 12:3838.2722030200534 13:3686.5403582949075 14:3865.313071555717 15:4231.5081996338295 16:4289.033697095238 17:4517.239840077723 18:4829.248697254324 19:5096.367147177411 20:5428.469011776184 
-0.75 3:477.89757332494986 4:510.910015895841 5:226.99458741611386 6:611.9819040172873 7:295.82305813290225 8:259.36912869939465 9:681.7984629099511 10:667.4486431107798 11:727.72662360933 12:1213.1570682097454 13:1112.5899544111824 14:1163.4238096503937 15:1503.857296512121 16:1545.8569888945258 17:2078.4152804333908 18:2071.5388132362827 19:2111.868918309545 20:2501.1768025797232 
-0.75 3:2820.904430603118 4:2833.30947798562 5:2062.924443257098 6:2936.761825214368 7:2812.352033456009 8:2609.565706084686 9:2650.91598645767 10:2628.071852971881 11:3147.1067086182316 12:2841.8762357091077 13:2916.594857552791 14:2876.981761178396 15:3135.644210215473 16:3343.286508831858 17:3510.088015090379 18:3787.077748950768 19:4023.376915311136 20:4435.980572045871 
-0.75 3:2671.880472103796 4:2581.802323751706 5:3451.55417825573 6:2981.206652800072 7:2732.5491341563634 8:3250.936529022167 9:3021.1564722749226 10:3032.36214079715 11:3118.2290028789585 12:3066.3032657979375 13:3704.675264447398 14:3390.7766634088825 15:3517.115551447177 16:4102.897098412254 17:3883.977267361896 18:4106.064697866539 19:4396.970109344632 20:4886.74144407743 
-0.75 3:789.2166243012271 4:875.225262394701 5:1100.9774594598875 6:993.3329226388124 7:712.1327607927199 8:1015.8581906702475 9:1098.844847370374 10:1085.1785021360813 11:1193.9532829455145 12:1372.575259837514 13:1571.2043459690453 14:1685.4860485375727 15:1520.2990968357528 16:1924.9738560151586 17:2070.2057670558556 18:2044.8196343110765 19:2615.300497104289 20:2746.2174900766418 
-0.75 3:1834.8335365157648 4:2092.4804422207385 5:2398.067699930757 6:1697.2290514200274 7:2116.918176694613 8:1953.5906421992963 9:2040.3919820637027 10:1976.7120457281776 11:2186.5270597030017 12:2377.8475505031515 13:2246.743903995297 14:2304.1537140366363 15:2502.3084413114143 16:2537.4908934622017 17:2808.2442190799356 18:3017.7659465429924 19:3294.3239527101982 20:3477.8838694094234 
-0.75 3:41198.21435401096 4:42235.62554060912 5:41447.459360964516 6:41873.71426264127 7:41567.59706711406 8:41940.4244012945 9:41534.90589209602 10:42003.32676756979 11:41609.724193828355 12:41689.27096423921 13:41500.22139456429 14:41614.10169641428 15:41376.499703967835 16:41330.91593414871 17:40988.803157232505 18:40973.16316266721 19:40939.34708564871 20:40751.2992278436 
-0.75 3:2357.4878868799333 4:2672.974010473171 5:2528.346858936059 6:2077.706883605995 7:2320.396556084804 8:2797.260734076153 9:2551.72169143791 10:2791.1937665879823 11:2860.8923620451787 12:3355.501582144785 13:2805.652957985101 14:3348.4631994675583 15:3220.762168914635 16:3655.04785119032 17:3828.467453109287 18:3783.7954630962936 19:3846.979647173894 20:4614.0474703641585 
-0.75 3:2771.246849916848 4:3627.119359378367 5:3233.5912903865355 6:3159.6623706811106 7:3328.2575529812657 8:3050.202355911131 9:3096.578295219828 10:3215.2327362770275 11:3510.19064816521 12:3027.237416482777 13:3353.7081271830357 14:3269.239996136292 15:3547.9850085246953 16:3773.1719064885724 17:3973.681990792532 18:4155.072061638575 19:4513.978440153431 20:4526.363962944021 
-0.75 3:519.9976977999102 4:361.98677259569814 5:664.6131269354225 6:1183.2483096765784 7:757.0376386878032 8:811.4020670505865 9:1070.8259506711804 10:1022.9885104952554 11:1011.5398317084611 12:1211.213382286978 13:1156.2494626940756 14:1047.1157999772242 15:1549.7290813154882 16:1596.9326181439649 17:1665.0069678834852 18:2255.073335442063 19:2342.4845667030877 20:2561.621014592084 
-0.75 3:1995.441100458571 4:1785.1771477377533 5:2002.6794985817953 6:2237.245373886257 7:2717.2662821996432 8:2329.7391825316686 9:2546.3650515649165 10:2636.1478583251314 11:2617.6709732220256 12:2842.1301962912753 13:2751.7929705538004 14:2791.8015277627574 15:2892.396460938277 16:2972.2907021032197 17:3165.164183618934 18:3321.6895843822485 19:3594.2521215014804 20:4075.2139550548363 
-0.75 3:3207.573754896739 4:3127.4350253234084 5:2551.9979557701104 6:2694.7886240499083 7:2502.6145601849566 8:2999.837059766766 9:2918.481512688549 10:2969.25915802723 11:3144.954497365431 12:3048.9025871746153 13:3207.1367124635094 14:3532.3564936817093 15:3911.9874774156074 16:3873.148008497751 17:3835.305401006129 18:4103.465089623235 19:4398.072378315871 20:4546.023760040882 
-0.75 3:1225.6068313664232 4:1570.0998736866377 5:1016.1462452866083 6:1571.0767140090056 7:1281.3925497916016 8:1286.5234927335832 9:1252.350520780703 10:1301.952962950318 11:1250.8886369441352 12:1479.0779330643843 13:1807.2458620608222 14:1603.6404477096362 15:1886.6293932153412 16:2156.522196482771 17:2423.7506957523883 18:2337.992988437997 19:2894.5995266860295 20:2996.761568064208 
-0.75 3:1158.498457539211 4:1405.0876905687783 5:1361.3442767083363 6:1353.2006459947158 7:1193.2778531741708 8:1647.3649973265617 9:1917.4661397543255 10:1383.1524088744072 11:1703.322235639902 12:2060.0768824443085 13:2050.8431167894105 14:1848.365812878354 15:2478.5978598175534 16:2404.0113192158465 17:2643.170724439445 18:2884.4016947485793 19:3090.0441550053542 20:3458.311718460069 
-0.75 3:2669.4157122559177 4:2432.4028217060854 5:2707.309280928338 6:2511.964240958474 7:2405.4408121722695 8:2802.816202767309 9:2641.6930135248826 10:2816.898613753739 11:2841.1813892629184 12:2851.9999326802413 13:3105.984135328938 14:3360.544499146457 15:3056.3031423234333 16:3461.9935413256653 17:3758.893539931713 18:3772.3029126355927 19:4200.063500650462 20:4379.7948899933845 
-0.75 3:1750.2417866080957 4:1028.4580312746014 5:1849.6311162647826 6:1654.2416033730135 7:1564.3966315984371 8:1717.2175320769593 9:2159.525645275426 10:1999.2829989703516 11:2017.5206931110106 12:2169.481079312543 13:2219.9242939310275 14:2171.6703317042957 15:2416.5802978585943 16:2447.5839909835618 17:2780.7981869820987 18:3053.979125665032 19:3368.853136201558 20:3452.8994066117175 
-0.75 3:686.8104031043545 4:893.666623997961 5:778.4422510694244 6:421.0268667475428 7:932.6614138108915 8:704.341779111181 9:855.6333632095992 10:507.714060541042 11:592.5319947275461 12:831.0127120908471 13:640.463103337752 14:669.9958684652519 15:667.64337019681 16:837.2807101552972 17:1144.2486151439455 18:1277.9047053218505 19:1128.7641431746035 20:1282.2587867963334 
-0.75 3:877.7630210403406 4:1342.647681063458 5:754.8395681403508 6:1221.8350833208012 7:879.0897322688681 8:1271.4513759665638 9:1221.9777077402018 10:1232.8628302652144 11:1505.041362824675 12:1414.6811203119737 13:1272.0168131437172 14:1469.152932575251 15:1441.6201955910096 16:1357.3785869903347 17:1451.0594363197565 18:1605.2971093516105 19:1520.16794668334 20:2237.207988279137 
-0.75 3:177.31942190843844 4:839.9945465750029 5:996.1479950878824 6:857.5135720236638 7:1146.6464505986082 8:856.0567286467361 9:843.159663263466 10:1141.7910208714866 11:690.813831726157 12:780.5304266816031 13:782.4902088525912 14:1131.9427462072138 15:928.3062097683397 16:879.9831759703521 17:1028.1441452855277 18:1410.5974310327558 19:1266.0653228214005 20:1304.3311200687315 
-0.75 3:934.0752063667575 4:458.8061026326173 5:757.2802529185856 6:583.8768652668222 7:861.0002283196956 8:513.8294277857034 9:366.1643513710294 10:108.148230825863 11:589.5241938524491 12:980.2195956980269 13:762.0409166852129 14:645.1918244226838 15:703.5581744249544 16:827.0402667618782 17:894.0274226509921 18:880.7134035939042 19:1141.981193540598 20:1262.197414041672 
-0.75 3:1394.4464248555264 4:1138.93049725879 5:1147.8311251872324 6:1537.9271076393093 7:1089.592746263794 8:1244.9489361115116 9:1494.027705163436 10:1744.5393970026544 11:1351.0095830851405 12:1638.5937997256633 13:1258.427596844919 14:1525.086714918072 15:1371.1406088947867 16:1537.4382311037605 17:1622.656112224332 18:1861.6819068510836 19:1894.6372790183227 20:1855.2309195548385 
-0.75 3:23711.867300377147 4:23778.45238553384 5:23395.0586338806 6:23729.400420689057 7:23672.983314195622 8:23380.60068687494 9:23549.704176911004 10:23318.876994762402 11:23658.533928395012 12:23555.133558066354 13:23470.25339584683 14:23378.18600731537 15:23353.237480012944 16:23203.135978508406 17:23031.372051324975 18:23269.497660484223 19:23136.869113588204 20:22967.37577330104 
-0.75 3:690.1887801702095 4:698.7908862268241 5:886.3020879688312 6:1046.3417965061444 7:1119.0798907957576 8:985.7893592471536 9:1333.1116161205805 10:1403.029313852681 11:1025.6124258285963 12:1401.001420057662 13:1357.0912388953711 14:1180.295274320014 15:1424.4541106577017 16:1555.513875838868 17:1518.8299660696068 18:1529.2977469774046 19:1711.5813766728568 20:1770.379394221567 
-0.75 3:390.04288669516154 4:646.4261070361812 5:794.8597152930306 6:749.9211273961696 7:763.6505529561156 8:631.8476596627141 9:544.313478669701 10:499.6316498360345 11:673.3430028204809 12:592.7724290102226 13:708.9617443600185 14:891.6571338675024 15:821.8732167135468 16:1026.030056695154 17:1069.2749967264049 18:1142.7209927669653 19:1269.3589503970802 20:1269.8517908806252 
-0.75 3:1455.395574017703 4:887.833307234943 5:843.1055443231111 6:872.2043890568149 7:168.98205123027216 8:686.37759304538 9:493.4999815382364 10:578.772814468331 11:726.2944561345828 12:503.8010142374677 13:751.5730267752615 14:726.0926913468098 15:899.2795467917022 16:962.025091790896 17:1004.4513027165852 18:1140.0439147573204 19:1118.9338210421054 20:1180.3214058604292 
-0.75 3:1161.8980960586764 4:1099.5657071219 5:1074.4669743408813 6:928.0398200512507 7:1176.0584348934353 8:1101.5518073895141 9:1103.8306632833062 10:1243.1070449064114 11:1577.0412794757544 12:1593.7978599513542 13:1652.6075040106114 14:1554.6410519004073 15:1636.5013494562977 16:1601.753895507503 17:1469.53193894502 18:1540.6940992059604 19:1866.6229480316747 20:1821.7570194355978 
-0.75 3:1013.5333813284432 4:706.5102883279371 5:823.8478694542771 6:1174.0768762602668 7:747.0325409312638 8:1051.840137483947 9:760.9600843094945 10:1026.1928851142097 11:720.814765643999 12:880.348823380956 13:1160.1211736473258 14:910.3322886827674 15:1182.96660635667 16:1099.0822963173314 17:1374.90232532891 18:1249.9916774275666 19:1349.53171908272 20:1423.0581960967274 
-0.75 3:977.5787503817196 4:469.4435424975823 5:828.0415946486568 6:588.3548403225188 7:409.1661635202459 8:323.97967667387064 9:616.922208720075 10:369.70179890504613 11:398.5852057889261 12:349.4973707558417 13:474.050975990226 14:544.6822406461566 15:577.7526410545996 16:972.439759320848 17:959.6563242532005 18:949.9659287979102 19:1182.0925975392395 20:1225.586250409409 
-0.75 3:2521.9308174312428 4:2378.6924949876834 5:1812.7108901393542 6:1743.9712139227001 7:1545.7848990786229 8:2023.307148873962 9:1446.94166920854 10:1638.4122009988318 11:1534.8057188888865 12:1375.420828663299 13:1523.2766221571371 14:1390.314338690125 15:1739.3356677101638 16:1437.0488150743429 17:1707.9466025795248 18:1794.8434335224126 19:1813.8298391127325 20:1941.3361703809678 
-0.75 3:1380.4450748178906 4:1171.0672788497604 5:626.070970269646 6:1366.0450226921132 7:1211.958004803744 8:955.6582652151882 9:1370.454111026642 10:967.6298714245465 11:1126.5909219672315 12:1107.7721690557646 13:1195.4059435499828 14:1396.7178250368563 15:1192.5014370827885 16:1407.230557963889 17:1461.9890957352707 18:1451.1794016960496 19:1587.0123134837595 20:1630.7762284119353 
-0.75 3:1172.2774527181127 4:945.8310646471806 5:467.67221055401444 6:925.7359785517328 7:341.27827390403394 8:219.14346717158344 9:284.4108161489633 10:222.99777648373254 11:398.8782454847301 12:192.17349065571395 13:295.3409579917364 14:242.1577954550787 15:514.755143381613 16:777.3476560285526 17:561.8200949215586 18:676.3231643618974 19:900.9605034368836 20:915.6523469726412 
