svm_type c_svc
kernel_type rbf
gamma 0.007874015748031496
nr_class 2
total_sv 424
rho 0.6052631578947368
label 1 -1
nr_sv 120 304
SV
1.0 0:116277.14661119026 1:101442.00543964039 2:86510.07943906286 3:75865.72261886035 4:71736.07592823365 5:72031.30881777237 6:72708.95980913458 7:71335.18960918247 8:67992.57264041984 9:64441.64635389569 10:62515.19381103802 11:62520.291834901 12:63142.13647224889 13:62886.74990604818 14:61308.68384505489 15:59168.47700701435 16:57701.732077940025 17:57508.70886620646 18:58036.99498755409 19:58210.02782499647 20:57417.73399168629 21:55951.39822217658 22:54696.74860369185 23:54340.466024864654 24:54741.01503762171 25:55114.96989475942 26:54793.72399637085 27:53772.28740259849 28:52670.40921085131 29:52179.95158993649 30:52429.21036604989 31:52884.55185758963 32:52881.669653536715 33:52209.03781498901 34:51259.62887557853 35:50679.434588976445 36:50779.91088367518 37:51251.34094449967 38:51477.76145452384 39:51099.670776589715 40:50306.067445918474 41:49660.95212541844 42:49599.01680722626 43:50020.402577162014 44:50399.12248848152 45:50278.21950839721 46:49661.014541443474 47:48997.92110581345 48:48789.410809646695 49:49122.605590625775 50:49593.70723041383 51:49695.76722913656 52:49268.194446700356 53:48626.9771132653 54:48290.35399312874 55:48507.28642860108 56:49021.75287963354 57:49321.65887931621 58:49104.87528802236 59:48535.07102511917 60:48100.5846859514 61:48179.10484144134 62:48680.76157825955 63:49135.93244766277 64:49131.948493637436 65:48672.16052592506 66:48173.33905835604 67:48103.080166746025 68:48544.693311351315 69:49115.57677466416 70:49328.323991335164 71:49024.5847992527 72:48511.5172223835 73:48301.56815798837 74:48645.82386623038 75:49289.70390535055 76:49713.75104102446 77:49605.531395707025 78:49130.51771264563 79:48797.8697432907 80:49009.225857233774 81:49673.45093449417 82:50288.559586510964 83:50406.41905821725 84:50027.311070632735 85:49609.590069479 86:49676.80488102117 87:50324.971994233354 88:51118.6600231463 89:51497.510168352754 90:51277.35788539299 91:50818.97700238556 92:50733.20924832374 93:51321.112173056084 94:52266.54878536528 95:52926.688528949206 96:52916.308960118 97:52453.542807964324 98:52203.87949457895 99:52696.41390239176 100:53797.68947822376 101:54815.71240172018 102:55135.48329048286 103:54766.76093792015 104:54377.69645917157 105:54744.633283648065 106:56001.363033235946 107:57460.962749997736 108:58245.34052635045 109:58072.25255693426 110:57555.0165253008 111:57763.53153008392 112:59238.213816203286 113:61373.65302792699 114:62940.90045526422 115:63191.151379718875 116:62577.07561192455 117:62587.72798589531 118:64521.99995945699 119:68062.03873375499 120:71381.89883626427 121:72739.606940714 122:72071.7499751874 123:71819.24063593661 124:76002.53579270639 125:86672.47981096114 126:101591.44472109989 127:116393.11584261945 
1.0 0:127299.49129853869 1:132254.39541006277 2:131216.50473247803 3:126038.4930785398 4:119830.05594735962 5:115593.4914638988 6:114534.65003431051 7:115531.88809001907 8:116471.92142966817 9:115982.91924922551 10:114151.33687985821 11:112128.81976684873 12:111096.02540038049 13:111315.24496422458 14:112039.34721695495 15:112274.27398182181 16:111597.981486537 17:110397.82585927457 18:109465.32114038989 19:109308.34569494221 20:109750.51622208272 21:110153.21347638006 22:109998.17711993694 23:109293.12061722454 24:108512.17021412641 25:108164.98603297259 26:108361.61385401282 27:108749.69252081512 28:108854.65005861194 29:108486.50376220177 30:107872.4499937247 31:107437.81171964889 32:107432.99049987063 33:107729.5050005388 34:107957.81225086132 35:107839.72687105817 36:107414.6806307392 37:106985.2420696536 38:106844.62903488615 39:107024.02454442787 40:107280.534440994 41:107323.44843920214 42:107064.21084212611 43:106678.96490871461 44:106444.90196838832 45:106496.87175157826 46:106717.58876259543 47:106853.33631278598 48:106739.81676955518 49:106437.04585388536 50:106166.81869610446 51:106114.34874020802 52:106268.64290262746 53:106441.22421023693 54:106438.46440443653 55:106228.43888226127 56:105961.23075726663 57:105832.71540680132 58:105912.89989444155 59:106089.87103463808 60:106174.91574332805 61:106068.44725350603 62:105840.9021022976 63:105664.78217509888 64:105661.10628759896 65:105795.79176942699 66:105916.03725706282 67:105888.68890546437 68:105714.9038440323 69:105524.22482278262 70:105457.67822383762 71:105543.82464974627 72:105677.19822158544 73:105715.15123596306 74:105603.15270641913 75:105419.20926485979 76:105302.54821623478 77:105330.83502155714 78:105454.2261557598 79:105543.11416942997 80:105503.404300235 81:105356.35689103199 82:105216.15368972163 83:105187.68880877494 84:105275.14764040608 85:105381.62806061546 86:105397.26226110043 87:105295.13523000457 88:105151.85201716337 89:105077.70191891688 90:105119.16118684727 91:105219.99674378622 92:105273.95639367183 93:105219.48570729951 94:105092.32294405984 95:104991.92815097743 96:104992.87984592494 97:105079.82027195634 98:105163.07713820088 99:105159.00792543087 100:105062.55391372555 101:104949.43864728388 102:104907.97518797868 103:104961.20821329902 104:105048.16889020888 105:105079.54006513607 106:105016.58541476597 107:104903.92681320991 108:104829.09975185888 109:104845.40664884793 110:104926.21769282823 111:104990.40946336939 112:104974.59232605147 113:104887.56514571287 114:104800.46560338594 115:104782.83042242398 116:104841.48726631643 117:104916.11643389294 118:104934.02209480014 119:104874.15350570972 120:104784.24479976516 121:104737.37300538526 122:104767.0217618473 123:104838.25144227433 124:104879.88371336891 125:104847.80889513086 126:104763.10456883973 127:104692.39415211894 
1.0 0:104688.62304996415 1:104744.81206259984 2:104801.49233228453 3:104800.16008905246 4:104734.6204487632 5:104655.48047613092 6:104624.80585422233 7:104661.3365604685 8:104724.69786784965 9:104751.93210026808 10:104713.04333621517 11:104636.59412258999 12:104583.78077725453 13:104594.42717803716 14:104652.62424357094 15:104701.94772349266 16:104695.74436794964 17:104637.58124741529 18:104576.98150641228 19:104565.15402142254 20:104610.09013384202 21:104670.45061418122 22:104692.65328476396 23:104657.35615940385 24:104594.57496133914 25:104555.34481455867 26:104565.9751987495 27:104605.77844767501 28:104627.52831477845 29:104601.24558089944 30:104541.64712986491 31:104495.03959295774 32:104497.66985484304 33:104542.9027086547 34:104586.70175037366 35:104586.37170367864 36:104537.93650269114 37:104479.31123170786 38:104456.77727273306 39:104484.42884871589 40:104532.41714303911 41:104554.04002523031 42:104527.12805612398 43:104473.13671766789 44:104437.60550831803 45:104449.60760619775 46:104496.18177215877 47:104534.24448438016 48:104528.89238476659 49:104483.89817528713 50:104437.80335364143 51:104429.50985104433 52:104463.98906839131 53:104508.45017469229 54:104521.929446551 55:104491.54136687488 56:104443.33086417645 57:104418.53660980344 58:104436.56702686817 59:104477.69225102352 60:104500.777081784 61:104479.99203177336 62:104427.84395839907 63:104384.33571571439 64:104381.89271378658 65:104417.01337176135 66:104453.68399018196 67:104455.30250423068 68:104416.73554134267 69:104368.51263873526 70:104349.81985626047 71:104374.17464603503 72:104417.97194804484 73:104441.6654265631 74:104424.4120314909 75:104381.64340431489 76:104350.60069325396 77:104357.03463815332 78:104392.64566062657 79:104423.0577080655 80:104418.7471138403 81:104381.18321225012 82:104341.21671988475 83:104331.45671917534 84:104357.27632399485 85:104392.22921931585 86:104401.78909488444 87:104374.11566874807 88:104330.64986947758 89:104307.34676675498 90:104323.12745251009 91:104363.35409015963 92:104392.77688201895 93:104386.23672025654 94:104350.04089603105 95:104315.61579709155 96:104311.46138449684 97:104338.30584735573 98:104369.27579402355 99:104374.45656457693 100:104347.65664071664 101:104311.7115056491 102:104297.91003628321 103:104317.94526154261 104:104353.33599069114 105:104371.63005901185 106:104354.85247192602 107:104315.08509684331 108:104283.70317374116 109:104283.93822743872 110:104310.96795909235 111:104336.91831613878 112:104335.95023312829 113:104307.01864317272 114:104274.41751382056 115:104266.00254032748 116:104288.53415752755 117:104321.91812301306 118:104337.13207540984 119:104321.61457042012 120:104289.70537484098 121:104269.32251138233 122:104277.04511608789 123:104303.81127196424 124:104323.7103203969 125:104317.58272135325 126:104290.15350445044 127:104265.57872088128 
1.0 0:104265.62761077445 1:104290.12536431629 2:104317.15775348914 3:104322.70988729228 4:104302.03202112592 5:104273.69588323499 6:104262.83193104003 7:104278.54197312583 8:104305.68405000871 9:104318.36124517224 10:104303.01200125799 11:104270.54471519626 12:104246.79212752114 13:104249.74735400583 14:104273.76907472666 15:104294.77597788136 16:104291.7329224008 17:104265.31782108323 18:104237.32326947425 19:104231.40156633453 20:104252.1925741593 21:104281.29147340737 22:104293.51950408315 23:104278.96688914334 24:104251.38856206417 25:104235.74856775587 26:104246.05310700832 27:104273.08147856405 28:104292.72404855593 29:104287.275649706 30:104260.74367672249 31:104234.85437135548 32:104229.61148547569 33:104245.82691103434 34:104265.09038805551 35:104266.88939789431 36:104247.2846747036 37:104222.41301267545 38:104213.81690301574 39:104228.86533928908 40:104253.93878117429 41:104266.55693187198 42:104255.54338428185 43:104231.12311420738 44:104215.85218197017 45:104224.36343061198 46:104250.01172609013 47:104270.50348522459 48:104267.64563451376 49:104243.69552647014 50:104219.7283908049 51:104217.24021557572 52:104239.05516590094 53:104266.43411378245 54:104275.08688528925 55:104256.13739589375 56:104223.805492717 57:104203.20124155175 58:104208.89428500303 59:104232.88852413995 60:104252.27066179758 61:104249.45725865998 62:104227.14030682467 63:104205.10331908011 64:104202.18653789062 65:104219.6395471334 66:104240.59507154656 67:104245.78522231612 68:104231.10207402954 69:104211.18208703857 70:104205.85735381217 71:104221.70662946122 72:104245.43319137416 73:104255.25687969121 74:104240.32095547522 75:104210.86931356197 76:104190.00822512833 77:104194.03705458976 78:104218.49089173372 79:104242.13615394595 80:104245.36384979021 81:104226.83598494348 82:104203.96548805326 83:104197.06545294265 84:104211.26854948328 85:104232.16783493564 86:104238.87493488859 87:104222.75825833787 88:104195.27594802981 89:104178.09058304879 90:104184.25401002732 91:104207.05067773045 92:104226.21392267512 93:104225.78918031255 94:104207.77506679768 95:104189.69377384342 96:104188.55349098053 97:104205.6136273799 98:104225.4741224512 99:104230.08947983498 100:104215.012569644 101:104193.3861958942 102:104184.2439449224 103:104195.62632785269 104:104217.56494209006 105:104231.08000911829 106:104224.99211006521 107:104205.51967162534 108:104190.26387693424 109:104192.1570414943 110:104207.860440164 111:104221.0074146845 112:104217.24253039589 113:104197.40468368781 114:104176.95996574296 115:104172.17796086603 116:104185.48931541946 117:104203.28044731371 118:104208.19732266518 119:104194.90891599182 120:104175.1131139867 121:104167.14723686251 122:104179.36131495732 123:104202.17713890149 124:104216.15326165406 125:104209.05616911496 126:104186.8000795677 127:104168.44093564375 
1.0 0:104169.46618155633 1:104188.08740611505 2:104206.76585105855 3:104207.74591656816 4:104188.91713366084 5:104165.98611824542 6:104158.93133748916 7:104174.53202974162 8:104200.31403213958 9:104215.2447955352 10:104207.75443596565 11:104185.32619349813 12:104167.44342822557 13:104168.30430318417 14:104184.63291235478 15:104199.26354708806 16:104197.0394856595 17:104178.65289798095 18:104160.05575420376 19:104158.01856530007 20:104174.80991646412 21:104195.8212391619 22:104202.37997320661 23:104188.35394553322 24:104165.73107751335 25:104154.11944787514 26:104163.38378077149 27:104184.84255790207 28:104198.93415566637 29:104192.59166671381 30:104170.9142948125 31:104152.76061648289 32:104154.07904504592 33:104173.69286424882 34:104194.19352430555 35:104197.21762077718 36:104179.62170490266 37:104156.30355919317 38:104147.18780215626 39:104159.82752985595 40:104182.96347536963 41:104196.6665678787 42:104189.96925866813 43:104170.35710513771 44:104156.82228599327 45:104162.7529377393 46:104183.93571441388 47:104202.37142264187 48:104202.43132848183 49:104184.8641249119 50:104166.13385853507 51:104163.6393218594 52:104179.97678453129 53:104200.37422469092 54:104205.70872481707 55:104189.56908962489 56:104164.18605767134 57:104149.8838151385 58:104157.29861770985 59:104178.12877995434 60:104192.68344309644 61:104187.52169904832 62:104167.47088341552 63:104151.29137907193 64:104154.74222877278 65:104176.08468104685 66:104197.0835390188 67:104198.84740637807 68:104178.60257071613 69:104152.56017871675 70:104142.16865103923 71:104155.63871568012 72:104180.92577856669 73:104196.35660028378 74:104189.5408154537 75:104167.98156321775 76:104152.17195899377 77:104157.33241758523 78:104179.91764609439 79:104200.79490813521 80:104202.18951579207 81:104183.3393277834 82:104161.06451646618 83:104154.82214638153 84:104169.506303385 85:104191.25741408796 86:104199.95946590902 87:104187.24197521726 88:104163.98150984854 89:104150.65381137743 90:104159.07045265674 91:104181.72799939263 92:104198.29911465518 93:104193.5485243785 94:104170.83222127867 95:104149.28231287682 96:104147.15020054551 97:104165.97312985465 98:104189.50508587636 99:104198.22581312637 100:104186.44808568306 101:104166.91170415793 102:104158.97573282132 103:104171.08470300958 104:104193.2612182182 105:104206.35656103461 106:104199.68818730183 107:104181.13671565596 108:104170.47085959291 109:104181.61255223835 110:104209.58384740676 111:104233.96962065241 112:104236.13582555925 113:104215.20445969792 114:104188.80979170353 115:104177.93238290763 116:104189.02606518094 117:104209.04391767086 118:104217.56134051649 119:104205.08670797586 120:104181.34583640828 121:104166.35606027581 122:104172.35695039664 123:104192.75343068421 124:104207.94391069512 125:104202.78206300446 126:104180.07381130294 127:104158.12441529764 
1.0 0:104154.54289062135 1:104170.73905792386 2:104190.95837216788 3:104196.66710983573 4:104183.32719743345 5:104164.49477115605 6:104159.509937281 7:104175.73829784208 8:104201.36347916714 9:104215.42065727821 10:104206.30363732121 11:104182.30423711817 12:104164.68336799096 13:104169.16681063491 14:104192.1207488068 15:104213.69994520293 16:104215.25290877944 17:104195.62445226897 18:104171.99915427851 19:104164.56802625633 20:104178.5960389046 21:104199.84195880938 22:104207.42848527005 23:104192.68873925993 24:104167.2045512221 25:104152.82298363635 26:104162.38518534187 27:104188.24199008233 28:104208.8344479942 29:104207.56224081587 30:104187.2561668024 31:104167.49279077107 32:104167.12943748025 33:104187.51435279468 34:104211.28689677024 35:104217.81488861494 36:104201.5082690557 37:104176.7711161669 38:104165.24120691614 39:104176.65922195207 40:104200.4021080313 41:104215.20247921158 42:104208.27607172684 43:104186.70861700184 44:104170.9263959174 45:104176.08039062552 46:104198.07349740605 47:104216.93948053101 48:104214.7095145962 49:104191.80467024223 50:104167.18171916153 51:104161.83232108499 52:104180.14480378418 53:104205.82623960765 54:104216.25205244 55:104202.60740615145 56:104177.89285170111 57:104165.48850628377 58:104178.17725565215 59:104206.24331171681 60:104225.49370528046 61:104218.39835349606 62:104189.80435519684 63:104163.29701051502 64:104161.13562391324 65:104185.16387454109 66:104215.42641538635 67:104227.67973772813 68:104214.34461064875 69:104190.56032194015 70:104180.20652303167 71:104194.38425964904 72:104221.50432399694 73:104237.7735135742 74:104228.61880666103 75:104201.88208851802 76:104181.00733479352 77:104184.22613558198 78:104208.29567943014 79:104231.41969375362 80:104232.82054078895 81:104211.46752249786 82:104187.16786135446 83:104182.8609807776 84:104203.76737228538 85:104232.14189104231 86:104242.63679359283 87:104224.82977291167 88:104192.94504891676 89:104173.9453145489 90:104184.19300286956 91:104215.18216491707 92:104241.05877875932 93:104241.36573811842 94:104218.95268987527 95:104197.27640081722 96:104199.44003373226 97:104227.4675879603 98:104260.243543421 99:104271.99821275234 100:104254.92775022822 101:104225.92600281625 102:104211.47962355688 103:104224.08948024877 104:104251.2176634949 105:104266.6894173179 106:104254.38537782179 107:104223.07366100604 108:104199.08924396138 109:104203.18489687421 110:104232.07104494983 111:104261.21107288393 112:104266.49816082184 113:104245.53033399097 114:104219.54209416742 115:104214.18759156033 116:104236.23405611663 117:104267.14578015213 118:104279.59479449256 119:104262.31302418075 120:104231.04247390802 121:104215.43475093754 122:104232.9804938502 123:104272.90387911869 124:104304.59116591224 125:104303.51386256865 126:104272.11493413168 127:104237.50011272055 
1.0 0:104227.95705935053 1:104248.81701566376 2:104278.79180100307 3:104289.73868912352 4:104272.01132162017 5:104242.84555777666 6:104230.49397003802 7:104248.43491834129 8:104282.94965262187 9:104305.41961718404 10:104298.33269963552 11:104271.52482763171 12:104253.78363347458 13:104266.88466315388 14:104305.15983290429 15:104339.29145951994 16:104341.53442318668 17:104310.27959584525 18:104272.17427519288 19:104259.53860016566 20:104282.59606232635 21:104320.97102013756 22:104342.03319050952 23:104329.7914490515 24:104298.72819064572 25:104280.35075682665 26:104294.40079207317 27:104330.52178777316 28:104357.11978203143 29:104349.76940004724 30:104313.83530555847 31:104280.88051314016 32:104281.46141663993 33:104318.04825631873 34:104362.27946002291 35:104379.39727856906 36:104358.48226185757 37:104321.87865911634 38:104305.39885907836 39:104326.57106308297 40:104369.03934974938 41:104397.1241232262 42:104387.63528189895 43:104350.64326085219 44:104320.69172340295 45:104326.02863284056 46:104363.15416154875 47:104399.67137474878 48:104403.21456287398 49:104370.76821081848 50:104332.16236382935 51:104324.17748345656 52:104357.78539518638 53:104407.71268558898 54:104434.03718976403 55:104416.96485048694 56:104374.1604350804 57:104345.27940954665 58:104357.10258519556 59:104400.04166910867 60:104437.01408197382 61:104436.79988758659 62:104402.1095127109 63:104367.33842969828 64:104367.7944666025 65:104407.67450253788 66:104455.67274476912 67:104472.54031146299 68:104446.1178764626 69:104402.54166512532 70:104383.30026843311 71:104408.1408268082 72:104457.00835353325 73:104487.70475465008 74:104473.86366832773 75:104429.37578167574 76:104397.09705380668 77:104411.08531246864 78:104465.58717821866 79:104518.88560508727 80:104529.28557185644 81:104491.66537945285 82:104442.26676864673 83:104427.05900673929 84:104461.1604597143 85:104515.41674428014 86:104542.49697486636 87:104519.4516648989 88:104468.84819860787 89:104439.34780289071 90:104462.3163123628 91:104522.96247792953 92:104572.42024770885 93:104570.70200367837 94:104522.62377360756 95:104474.66964158864 96:104474.74587915621 97:104529.72681753396 98:104598.6379011255 99:104628.09491725409 100:104598.88136442302 101:104542.65051844736 102:104513.88540849045 103:104541.49155002132 104:104603.00077436243 105:104644.80076135862 106:104630.50349363609 107:104574.267535545 108:104529.13202148037 109:104540.01929042203 110:104602.94519820431 111:104667.52471445604 112:104681.32428520975 113:104636.78498308951 114:104578.83363350801 115:104565.62243491974 116:104616.4113121874 117:104693.27854584843 118:104733.97103597409 119:104707.20735717393 120:104641.37326399579 121:104600.60491575647 122:104628.29548714873 123:104707.8189356802 124:104776.28693947381 125:104779.88434755267 126:104721.87254123755 127:104660.57045119614 
1.0 0:104658.18577527451 1:104725.07029441535 2:104809.5171768016 3:104843.16062728928 4:104801.89247214362 5:104728.14264999496 6:104694.07128102967 7:104737.2130482327 8:104825.95240648219 9:104886.92217961566 10:104870.6635926871 11:104797.10574200001 12:104739.74574073701 13:104760.88809594676 14:104854.67339027273 15:104949.94714661199 16:104972.0541096633 17:104909.30217516208 18:104825.1000543194 19:104803.58168174149 20:104875.02625969239 21:104987.53053034292 22:105051.75678109973 23:105019.84483478428 24:104928.77360331482 25:104869.19780285217 26:104905.48561091648 27:105017.25738749582 28:105116.01717977389 29:105123.3694067309 30:105041.57041779604 31:104953.56901509142 32:104950.69814502454 33:105050.47192210471 34:105178.77246458284 35:105234.44177067332 36:105179.54633032228 37:105075.1888891593 38:105029.7015822485 39:105102.45430295695 40:105248.60986783593 41:105356.61418950897 42:105346.62215149822 43:105242.72071857222 44:105154.24694742834 45:105179.84868495671 46:105317.6252647435 47:105463.67032849487 48:105503.11661648969 49:105413.4651789551 50:105288.32831215089 51:105257.82680814645 52:105372.412315357 53:105554.21555049984 54:105663.23124870914 55:105621.35255171744 56:105484.61118366862 57:105398.10024390715 58:105468.58109969756 59:105665.86706674924 60:105844.83869446485 61:105872.0923303473 62:105745.77113594479 63:105602.35020608366 64:105599.87552421508 65:105775.8916202544 66:106008.6805765879 67:106121.79882487135 68:106040.86873322669 69:105864.32264000027 70:105782.74323855396 71:105910.6635155432 72:106178.80086944094 73:106389.57310389576 74:106390.70896381783 75:106213.88760234813 76:106054.99231361735 77:106105.27125678697 78:106376.17334880041 79:106679.76633197404 80:106790.56077782909 81:106647.2617353249 82:106416.96309858211 83:106358.5786794046 84:106592.97757093812 85:106984.30503154393 86:107250.66912043105 87:107211.44260031544 88:106954.38719513593 89:106773.39586404992 90:106915.39661863327 91:107350.1748692566 92:107781.37802064752 93:107901.98098639942 94:107670.6336221735 95:107367.73373399032 96:107367.14638537122 97:107799.70567465757 98:108413.08963752734 99:108777.72523964412 100:108664.15838934628 101:108264.84454257376 102:108060.19885870432 103:108406.86653501532 104:109193.21670166173 105:109903.10981587526 106:110056.63400286747 107:109646.0478331795 108:109195.82719921398 109:109352.06121631728 110:110292.7033400741 111:111503.25265570446 112:112182.90562838201 113:111940.29841291504 114:111202.71031867532 115:110975.72930265959 116:112014.79612692645 117:114053.97700952116 118:115899.17182785523 119:116386.35074992523 120:115427.06644737704 121:114404.72009578919 122:115452.07576037823 123:119701.97964056513 124:125939.68128700434 125:131143.03021308855 126:132187.33352054373 127:127216.05081924173 
1.0 0:116810.8583110203 1:101995.49691124553 2:87048.94179928575 3:76335.74990620538 4:72103.56828572064 5:72321.9337431269 6:72977.21091155281 7:71619.52060909312 8:68300.19855471075 9:64752.38202020995 10:62800.560508755065 11:62770.46128492751 12:63372.825594937254 13:63121.448548415305 14:61560.111591054345 15:59431.325192464334 16:57958.314394267065 17:57745.13222156368 18:58255.12602507789 19:58422.78991633769 20:57636.194431776246 21:56176.10427206408 22:54918.121269917734 23:54548.13597283452 24:54934.10405308059 25:55302.34082296328 26:54985.49510901909 27:53971.84162660453 28:52872.42016266977 29:52375.64117268842 30:52614.77413581798 31:53064.02515817371 32:53061.64466204028 33:52391.531814143615 34:51439.23466378285 35:50847.13828680307 36:50931.18890039987 37:51390.748610293645 38:51615.38059898108 39:51243.89157335413 40:50458.845604810136 41:49818.20693221248 42:49755.71046635154 43:50175.856398932956 44:50557.17771810664 45:50442.710942942074 46:49831.40595495517 47:49168.80141133475 48:48954.695338346544 49:49281.14550483573 50:49750.46885114253 51:49857.37942046701 52:49437.31865349594 53:48799.78581942994 54:48458.99364740168 55:48665.95393524133 56:49170.91740703558 57:49466.39250771763 58:49249.806878980016 59:48680.73947936741 60:48243.793093928434 61:48316.984620124116 62:48814.76869638544 63:49271.5105324237 64:49274.36636073179 65:48822.341832384845 66:48326.72925620551 67:48252.84682365626 68:48687.36440214496 69:49254.01532398119 70:49469.561828442005 71:49175.134685541234 72:48673.49227328057 73:48471.64592618633 74:48817.92705325082 75:49459.29424569844 76:49879.809619568005 77:49769.376587088234 78:49293.56222449773 79:48960.183677306806 80:49169.72090224545 81:49831.184648468494 82:50443.545348017804 83:50559.31014621636 84:50178.760133004376 85:49759.874449328236 86:49825.65809150629 87:50471.38502392354 88:51260.51158421016 89:51631.43293814389 90:51399.729801717986 91:50928.3377620425 92:50832.80264123291 93:51418.78791107375 94:52370.96143839158 95:53043.003582948244 96:53044.861026489925 97:52591.55378163422 98:52348.56373807766 99:52847.39693372085 100:53956.75863747342 101:54984.08419925102 102:55311.34677717281 103:54945.23493978337 104:54553.3155686576 105:54914.9747723074 106:56168.68438250876 107:57629.546347912576 108:58417.15640396695 109:58245.00751922576 110:57723.61100994639 111:57923.865911399604 112:59390.58210594635 113:61521.92112350214 114:63088.35641580165 115:63338.183696690394 116:62722.80217629371 117:62733.74932654449 118:64674.333739096124 119:68227.9166082022 120:71564.26470922527 121:72935.24244742969 122:72274.4604438735 123:72026.3191421536 124:76221.01762902767 125:86918.1497349635 126:101878.11474270053 127:116723.47130211258 
1.0 0:127664.22856241463 1:132636.47177058563 2:131597.39811516943 3:126404.81448949363 4:120178.55413012847 5:115931.3636441056 6:114873.16339555691 7:115877.48085044019 8:116822.41819831615 9:116330.51542988584 10:114488.46013937992 11:112452.8186427366 12:111410.02178329081 13:111624.78351097972 14:112347.95730073558 15:112581.93320619683 16:111903.14049044352 17:110700.4858058392 18:109768.22942003288 19:109615.13086794833 20:110062.43412773276 21:110467.55868593193 22:110309.70198239756 23:109597.29674035654 24:108808.08558072013 25:108456.00079694732 26:108653.35623853286 27:109047.0154948132 28:109159.79216947645 29:108799.15958909415 30:108190.81089353666 31:107759.46479409686 32:107755.3772378348 33:108050.29416994934 34:108275.497197856 35:108154.308518475 36:107727.90445967465 37:107299.85835187978 38:107162.79033050955 39:107345.8403802593 40:107603.89862119827 41:107645.23936276844 42:107381.94862280223 43:106991.87172190787 44:106753.88191491616 45:106803.70610825713 46:107024.11027890144 47:107161.11302985217 48:107050.20859641471 49:106751.13798475779 50:106485.0500383441 51:106436.27136485497 52:106593.38194813882 53:106768.51465360356 54:106769.34536314425 55:106564.70849021722 56:106303.67324231916 57:106179.30392153023 58:106258.66329815179 59:106429.06026891521 60:106504.20150717428 61:106388.95715779519 62:106157.66176040942 63:105983.80790004163 64:105986.00887015302 65:106126.18642236025 66:106248.64603866555 67:106219.89449992539 68:106042.66128262531 69:105848.1692931647 70:105777.92668847856 71:105860.01026894234 72:105988.85610045573 73:106023.08172358287 74:105910.28613440346 75:105729.79131134917 76:105619.88434019704 77:105655.24547134501 78:105782.95324727421 79:105872.36763455352 80:105830.94371636356 81:105682.6549731845 82:105543.40698619111 83:105517.66542655506 84:105607.75380032623 85:105715.3347866463 86:105730.78747607744 87:105628.69598152961 88:105486.80961333674 89:105414.95041168868 90:105457.8216919482 91:105557.75374876962 92:105608.8247371212 93:105551.41358548644 94:105423.12636157287 95:105323.49188464374 96:105325.13968831369 97:105410.37855505156 98:105488.9294446367 99:105478.96146403934 100:105378.27289099107 101:105264.18714665121 102:105224.0713873079 103:105278.38119247156 104:105364.29905382876 105:105393.14639180305 106:105328.82856555472 107:105218.25363351786 108:105148.62213980837 109:105170.10957705344 110:105252.41799421507 111:105313.06724492947 112:105290.6682188323 113:105197.7694887806 114:105108.07493163041 115:105090.61255329926 116:105149.32817858247 117:105221.33355197137 118:105234.02066402236 119:105169.11490463554 120:105077.58246048455 121:105033.5783873832 122:105068.69570310957 123:105144.78289346353 124:105188.75920167337 125:105157.2419862204 126:105073.63249818055 127:105006.08915133914 
1.0 0:105006.67436373692 1:105065.68605933321 2:105121.38927578961 3:105115.47372626486 4:105044.40841537509 5:104961.99139075403 6:104931.72993387055 7:104971.29455009667 8:105038.01390423762 9:105067.46996831168 10:105030.01013244483 11:104955.45325311422 12:104905.36445514167 13:104918.1030667226 14:104975.37669754517 15:105019.50913678264 16:105005.07119066185 17:104938.68829692605 18:104872.54260753773 19:104858.04622912774 20:104900.81922386328 21:104956.6398469468 22:104971.17503952754 23:104927.56175079042 24:104860.16558490205 25:104823.36825258631 26:104843.50523839274 27:104896.50525332628 28:104930.45134915622 29:104912.01803670802 30:104855.32566885938 31:104808.37445605849 32:104809.7953666938 33:104854.58307379932 34:104899.14377340609 35:104900.5026269338 36:104854.29769294841 37:104798.14214445146 38:104777.91672882243 39:104807.11432068938 40:104855.34822700331 41:104875.87505781483 42:104847.13435571692 43:104791.49885343765 44:104755.1386479803 45:104767.10700646903 46:104813.91811110229 47:104851.92377697305 48:104845.9394513197 49:104799.6662552389 50:104751.50211944152 51:104740.05796325613 52:104770.18303595592 53:104809.56484966804 54:104818.37706512811 55:104785.01848950594 56:104736.21678991211 57:104712.91849103963 58:104733.6191350521 59:104777.85753542885 60:104804.47716904439 61:104788.09059416167 62:104741.30838809515 63:104703.31720545464 64:104705.08704639337 65:104742.04418181974 66:104778.38626146868 67:104778.93371700142 68:104740.11157343793 69:104692.9237144235 70:104675.62071208161 71:104700.27393474845 72:104742.71470631516 73:104764.3859008372 74:104746.30920269382 75:104705.16112629576 76:104677.73202617979 77:104687.89034091213 78:104725.44043108643 79:104755.49604757839 80:104749.656928271 81:104711.14195352072 82:104671.8647322923 83:104664.30830540115 84:104693.14095216346 85:104731.59486731014 86:104745.44383842558 87:104722.97689251993 88:104684.58723511362 89:104663.98795626377 90:104678.04073312803 91:104712.03935295313 92:104733.2743244412 93:104720.35427339202 94:104682.05145753796 95:104649.19811076741 96:104647.13923276003 97:104673.3888261731 98:104700.34952259922 99:104700.37294852476 100:104670.54800360963 101:104635.18666319623 102:104623.95609696649 103:104645.21507908692 104:104678.39946734242 105:104692.23979701716 106:104672.48395439125 107:104634.51898891176 108:104609.82171875187 109:104618.2614186701 110:104650.77735625523 111:104677.70659796536 112:104675.12278841482 113:104645.68703126334 114:104615.7030955061 115:104611.23946580163 116:104634.70097451226 117:104662.81750263128 118:104667.79353538231 119:104642.60982673947 120:104607.84683637886 121:104593.78895809407 122:104613.44481982302 123:104650.39084881656 124:104672.41497081838 125:104659.11717447155 126:104619.3996786984 127:104583.72398711249 
1.0 0:104577.94672542665 1:104601.53001156062 2:104629.01788146143 3:104633.10133542641 4:104608.73311821153 5:104577.25288660041 6:104567.23184337429 7:104589.06849509454 8:104625.70403152508 9:104647.43382434492 10:104637.50494172366 11:104606.05563322714 12:104580.59007729226 13:104581.76970817392 14:104605.93234450762 15:104629.45654160918 16:104630.50238767597 17:104608.46364423998 18:104584.02459684975 19:104580.19065567518 20:104601.47643370264 21:104629.86060134237 22:104640.9044482874 23:104625.37297240223 24:104597.06222732103 25:104580.07986109154 26:104587.14921882456 27:104608.44707789183 28:104620.92523816318 29:104609.5621217147 30:104581.33379673013 31:104559.31061473819 32:104562.05826164644 33:104586.7445994932 34:104611.21471179185 35:104613.37642586668 36:104590.75348627596 37:104562.8798239781 38:104554.28665247378 39:104572.92094499322 40:104602.98604723826 41:104618.53562235297 42:104605.86167196723 43:104575.14058752381 44:104551.37722777273 45:104552.76219471525 46:104575.43186765096 47:104597.7809243145 48:104600.0641063607 49:104581.68073901754 50:104561.00092563684 51:104558.26599983017 52:104577.05555301484 53:104600.93699616348 54:104608.18203693726 55:104591.23537635598 56:104563.5199717955 57:104547.55229420365 58:104554.96892822554 59:104576.29050160437 60:104589.56675564504 61:104580.15185805413 62:104553.98523867023 63:104532.59432311036 64:104534.21314231242 65:104557.70471693395 66:104583.51579295145 67:104590.741965572 68:104575.14259754798 69:104552.30836883718 70:104543.43036076779 71:104556.45966766094 72:104579.4178805656 73:104591.63651542558 74:104582.60939837024 75:104561.45793724807 76:104548.54659243797 77:104556.79493835913 78:104579.5526459449 79:104596.13609652707 80:104590.27160347262 81:104565.03463800633 82:104540.84426106935 83:104537.95731242684 84:104558.68155973025 85:104585.02334375131 86:104593.9975463893 87:104577.28807715958 88:104548.19278816775 89:104529.93829504466 90:104535.65812926045 91:104557.53566296396 92:104574.43173535037 93:104570.93469245042 94:104550.84177357215 95:104533.26772400136 96:104535.03895598084 97:104555.17783828867 98:104575.41949396585 99:104576.382660365 100:104555.05191417118 101:104528.05688894716 102:104517.69998657123 103:104532.81711429414 104:104561.16757505843 105:104579.9640368907 106:104575.25968624768 107:104553.35499930725 108:104534.60448902968 109:104535.38700554475 110:104554.15400756986 111:104573.58885529297 112:104576.48897541042 113:104560.98085920679 114:104541.66876065552 115:104536.05068504099 116:104548.605908948 117:104566.86762557205 118:104572.87902275324 119:104559.57326069835 120:104537.31116846556 121:104524.71631760945 122:104531.99814299855 123:104551.70360473153 124:104565.22087401901 125:104559.25316985302 126:104537.613017134 127:104517.9088553051 
1.0 0:104516.09463566446 1:104532.58909583635 2:104552.2399938233 3:104558.0133835306 4:104546.07989774313 5:104528.88199738016 6:104523.58160097909 7:104536.33046365177 8:104556.53625000306 9:104566.31936897922 10:104556.69835381217 11:104536.0179908881 12:104523.03277294381 13:104530.65788178369 14:104554.7042278966 15:104577.5077716063 16:104583.1074930463 17:104570.46503179931 18:104553.19701740757 19:104546.44015864686 20:104552.93713877401 21:104561.01582838525 22:104556.23770879323 23:104535.95831721155 24:104513.26521445734 25:104506.2371385036 26:104521.78113593372 27:104548.56895661155 28:104565.82844418357 29:104560.6839523358 30:104539.00772332118 31:104520.25192310181 32:104520.64477271323 33:104539.35002735503 34:104559.6514858903 35:104563.97890895681 36:104549.41148758757 37:104530.01063667788 38:104524.05072732609 39:104537.58795506098 40:104559.07424644877 41:104569.85574916673 42:104561.14321175033 43:104542.21435366724 44:104532.35083237507 45:104543.4567527529 46:104568.77134400005 47:104587.93336706443 48:104584.23921312853 49:104559.1027839246 50:104531.07694353333 51:104520.18664189606 52:104531.12318210972 53:104549.88649286225 54:104556.6580643102 55:104543.45534710867 56:104521.08936904948 57:104509.47961183268 58:104519.98451277886 59:104545.35905225234 60:104566.11747854247 61:104567.50213276735 62:104551.99538940094 63:104536.46926613092 64:104536.73186263812 65:104553.3416934824 66:104571.33277087046 67:104573.96804878899 68:104558.07677438697 69:104537.18671110015 70:104529.57960348781 71:104541.85980303111 72:104562.73840659174 73:104572.71346691402 74:104561.16357085561 75:104535.78481341043 76:104516.06305960103 77:104516.51240650164 78:104534.41756988964 79:104552.79925599963 80:104555.76069875863 81:104542.4441148689 82:104527.25354333223 83:104526.32953566691 84:104542.53030954483 85:104562.5100066622 86:104568.59127623744 87:104554.7760669983 88:104532.47539845014 89:104520.66573219726 90:104529.07792528089 91:104549.40591943593 92:104562.53557549253 93:104555.5153260665 94:104533.24481901673 95:104514.44586770804 96:104515.30912596757 97:104535.17264086944 98:104556.94384860607 99:104561.97342570261 100:104546.29563084176 101:104523.9758702122 102:104514.66785023738 103:104526.36919095714 104:104548.60872465318 105:104562.02515840769 106:104555.7043002939 107:104536.82333546411 108:104524.07697284134 109:104530.78359809578 110:104552.78672516665 111:104572.03349322846 112:104572.66629106805 113:104555.23470002163 114:104536.28795885116 115:104533.59632913899 116:104550.11786958492 117:104571.13802915238 118:104577.34437768451 119:104562.29534338444 120:104538.66569450384 121:104527.43225024264 122:104539.24703065332 123:104564.42994083483 124:104580.71037159469 125:104572.26804857439 126:104543.61104707583 127:104516.20283294085 
1.0 0:104510.61582002458 1:104529.52459732656 2:104556.14033340981 3:104569.18009715897 4:104561.09574045763 5:104543.74973775902 6:104536.96646995965 7:104550.39797254684 8:104574.8577568377 9:104590.67333132462 10:104585.36895300397 11:104564.80306649448 12:104547.88677571902 13:104549.66454667073 14:104567.90297132108 15:104585.20200510092 16:104584.71802229255 17:104565.40897722112 18:104543.18341578344 19:104536.88709903545 20:104551.56719806934 21:104573.96532434657 22:104584.31353297891 23:104573.9296869916 24:104552.94964594778 25:104541.2955682838 26:104550.83972023362 27:104574.61036810932 28:104592.69963564687 29:104589.66165471658 30:104567.99721497596 31:104545.85766181834 32:104541.07684142348 33:104555.7286232201 34:104574.90212217403 35:104580.60605121718 36:104568.1451812673 37:104550.1956767735 38:104544.92259571061 39:104558.8964659892 40:104580.43684972197 41:104589.75702113658 42:104577.06544305262 43:104552.36679630261 44:104537.79725673649 45:104548.72951446487 46:104580.10563100435 47:104610.23114871763 48:104618.98888164417 49:104604.68542990301 50:104584.88293114149 51:104580.51374851751 52:104597.19653043288 53:104620.2000896635 54:104627.49237929854 55:104609.33728997973 56:104577.2045479612 57:104554.2144354885 58:104555.52604571778 59:104575.88443995878 60:104595.14157106649 61:104596.5487175246 62:104581.38469245675 63:104566.99333751352 64:104570.21316949642 65:104591.27189287191 66:104612.85203490447 67:104615.37184937941 68:104594.84375265709 69:104567.2246994838 70:104555.074603714 71:104568.0772325978 72:104594.65909842245 73:104612.25394181676 74:104607.17890794697 75:104586.53906636161 76:104571.63949559748 77:104578.7332772963 78:104604.23129115168 79:104627.64021627222 80:104629.68276646994 81:104609.47246435919 82:104585.43787685932 83:104579.07056458593 84:104595.84670184391 85:104620.34186266696 86:104629.98296284449 87:104615.21830529401 88:104588.15661669729 89:104571.95249595033 90:104580.30329754367 91:104605.33999134488 92:104624.82027263923 93:104622.22970074895 94:104601.77611656887 95:104584.75692798856 96:104590.33686997193 97:104617.8327047915 98:104646.56720189999 99:104653.77002795033 100:104634.76883860823 101:104607.47441666399 102:104596.88946572591 103:104613.06107110092 104:104642.01047877071 105:104657.91356124991 106:104645.93651072694 107:104615.59919334612 108:104592.78562012642 109:104597.24336450521 110:104625.32388591843 111:104653.27318917832 112:104658.18237391536 113:104638.02888438 114:104613.10588401635 115:104607.60804463645 116:104627.75361946701 117:104656.05747048462 118:104667.01471836415 119:104650.22310456999 120:104620.22989489012 121:104604.08051809097 122:104617.34091986147 123:104649.91068789901 124:104674.55697460608 125:104670.87403310102 126:104643.49742939638 127:104618.30170538448 
1.0 0:104619.60958855553 1:104648.36735649245 2:104680.77734150313 3:104688.92005918935 4:104665.34549902815 5:104629.9962843316 6:104613.19921777511 7:104629.40927202345 8:104664.72137095829 9:104689.18533595126 10:104683.03056225923 11:104653.71649951769 12:104628.95498618673 13:104632.0018707199 14:104661.15938234696 15:104691.71071473582 16:104698.41520990759 17:104678.29850411089 18:104653.31369906527 19:104650.41779983311 20:104676.82410514897 21:104712.78429350819 22:104728.70745312933 23:104711.51441920632 24:104676.71707669224 25:104655.22782225105 26:104666.25868705554 27:104700.30882274041 28:104727.59294717331 29:104724.58752054024 30:104695.12134721938 31:104667.19237186456 32:104668.09975977252 33:104699.85270415808 34:104736.94051154188 35:104748.7335534819 36:104726.69279930173 37:104692.1757079192 38:104677.69272697743 39:104697.99578054414 40:104736.762038488 41:104761.02331226596 42:104750.65474972213 43:104716.66663032291 44:104691.83826556885 45:104701.64598270139 46:104741.20777305267 47:104779.07724127929 48:104784.8572749652 49:104756.20185058194 50:104721.15088136842 51:104713.39784878468 52:104742.15144219273 53:104783.5474539119 54:104801.655072514 55:104780.60616775625 56:104739.29164125223 57:104715.2878264522 58:104731.7945168125 59:104776.8274569996 60:104813.50296893308 61:104812.56562744935 62:104778.34941501502 63:104745.04315107649 64:104746.22703158797 65:104784.52036045316 66:104828.65281528646 67:104841.02671811539 68:104811.43949693424 69:104766.92371143354 70:104748.51629574325 71:104774.99457211468 72:104825.77871266106 73:104858.6959846013 74:104847.2074538543 75:104804.2047702842 76:104771.13261682232 77:104781.55253280181 78:104831.1589805498 79:104881.15799611731 80:104892.34572311163 81:104859.73862449324 82:104817.04089198845 83:104806.71534071269 84:104841.91945075811 85:104894.40804729538 86:104919.69005757319 87:104897.21718029991 88:104849.7086367884 89:104823.9030591927 90:104849.04184861966 91:104909.83723362668 92:104958.6815760283 93:104956.98380013996 94:104909.33982786855 95:104860.25726310106 96:104855.6899051542 97:104902.77567022938 98:104963.54907468805 99:104988.53209741227 100:104960.47782535129 101:104909.56317057073 102:104886.46353355814 103:104916.87981776104 104:104978.1221444004 105:105019.1796795882 106:105006.57294078314 107:104954.97857343538 108:104914.95557892462 109:104927.94534390267 110:104988.40643639829 111:105047.66576890678 112:105056.9069569725 113:105011.23685444606 114:104955.34537657804 115:104944.75077655083 116:104996.13191827999 117:105071.27923793854 118:105110.04639198526 119:105083.62965092748 120:105020.95795921009 121:104984.1858720614 122:105013.83100749091 123:105091.94852787784 124:105157.03493863804 125:105158.2619012493 126:105101.1375533044 127:105043.84713611552 
1.0 0:105046.39154952363 1:105116.71993253495 2:105202.33842184245 3:105236.0188995028 4:105195.52377767143 5:105124.41569374647 6:105094.69062728417 7:105142.95144967394 8:105236.67865567542 9:105301.79894836262 10:105287.89404022349 11:105213.47700243066 12:105150.94462133013 13:105163.1995836828 14:105247.30960316434 15:105336.17558324998 16:105357.7829890529 17:105299.63143607337 18:105221.06487882165 19:105201.51803574103 20:105269.28544616714 21:105374.70701573664 22:105433.31004205965 23:105401.22785955043 24:105315.83021676866 25:105264.52751486821 26:105307.37703435522 27:105421.73662424358 28:105520.11500045148 29:105526.97779566547 30:105446.74054760515 31:105362.26302047727 32:105363.054743762 33:105464.91682016992 34:105593.52825476794 35:105648.82274067127 36:105593.90850553746 37:105489.8715019281 38:105444.24929578432 39:105516.01333824979 40:105661.05947300637 41:105769.09607410569 42:105760.67291186783 43:105658.66566959117 44:105570.44042728633 45:105593.80601617877 46:105728.36457112651 47:105873.20269351354 48:105915.51930651403 49:105832.01757789265 50:105712.93441652613 51:105684.94241247379 52:105797.7804787327 53:105976.23937259015 54:106084.09300396063 55:106044.89750156364 56:105912.75236967363 57:105828.74125903801 58:105896.88980912614 59:106087.90918152241 60:106260.44549533025 61:106284.55999535193 62:106158.83840660313 63:106017.15680951999 64:106014.52959134357 65:106187.9601852005 66:106418.1750242254 67:106531.72235699875 68:106454.72899104844 69:106282.83250477954 70:106202.78706096268 71:106327.79352169178 72:106591.26098521714 73:106800.14076776922 74:106804.5075150705 75:106633.9151258018 76:106479.17930413251 77:106527.90437086746 78:106792.91085740062 79:107091.97699775366 80:107205.03600517986 81:107071.32143416711 82:106852.71159048425 83:106800.86783740616 84:107032.98257839636 85:107415.87490207888 86:107674.04568121901 87:107631.53869579121 88:107375.63358716624 89:107195.74571647983 90:107334.9682491391 91:107763.87261246135 92:108190.88121059965 93:108313.08273036304 94:108088.41804865446 95:107791.82173728544 96:107791.55803105135 97:108218.31906151985 98:108826.17781727026 99:109193.40210765519 100:109093.11776662775 101:108712.31243859201 102:108521.27714432859 103:108869.68566502343 104:109648.05935200358 105:110349.5101041814 106:110502.35580262046 107:110099.42821418762 108:109657.9174548363 109:109815.3009092957 110:110748.2042056155 111:111950.2093666215 112:112630.83922820372 113:112402.10500054926 114:111683.95531890146 115:111468.3824501174 116:112502.54325012829 117:114526.8790227311 118:116363.91794695775 119:116862.89841300595 120:115935.18325057585 121:114948.18579354911 122:116011.02987351955 123:120245.72831100237 124:126451.75499416889 125:131631.01258556434 126:132672.9703662034 127:127720.73144262627 
1.0 0:119126.25014827582 1:104030.61290673487 2:88789.18357340143 3:77853.47713991659 4:73525.01590891762 5:73742.84304403333 6:74413.0870407302 7:73030.668384773 8:69642.7088710542 9:66016.58253851274 10:64018.58670919641 11:63987.08548224213 12:64607.12288245298 13:64357.358092889066 14:62766.58587876734 15:60589.93412720346 16:59078.70547686837 17:58856.46484522533 18:59380.62197230569 19:59563.14809935514 20:58775.26211170853 21:57298.99210142314 22:56025.49007690624 23:55655.22291209352 24:56055.54928034898 25:56438.08536673154 26:56120.93971318206 27:55090.28840375095 28:53968.671398411214 29:53459.67153929973 30:53701.69170548188 31:54159.49989753299 32:54156.838014369445 33:53471.11192233928 34:52494.75344938816 35:51884.82560820379 36:51966.9840309192 37:52436.418865782885 38:52669.031636580694 39:52292.93721980549 40:51491.401470005534 41:50833.18036038794 42:50763.255412566585 43:51187.53106898919 44:51575.35782633488 45:51459.439739418856 46:50836.89732225776 47:50161.66010733288 48:49944.75565175107 49:50281.58113074363 50:50766.25994402837 51:50881.1579680487 52:50455.73810641684 53:49804.54804938419 54:49453.64874647095 55:49662.36560863831 56:50178.01973729219 57:50481.79943090694 58:50261.55651180221 59:49676.81204004811 60:49221.575588931744 61:49285.07213518577 62:49785.26842994283 63:50250.242631921516 64:50258.4615687085 65:49806.4845341264 66:49311.32383007768 67:49246.09132736094 68:49698.59613832427 69:50284.398612410325 70:50509.039659822745 71:50208.28122640469 72:49689.65169384992 73:49471.870832500856 74:49812.892305429166 75:50459.50717063438 76:50887.319952911865 77:50778.35215956574 78:50297.88341013545 79:49960.444747486006 80:50173.006861887356 81:50843.57771995798 82:51462.809565408206 83:51575.26017484659 84:51181.41107878665 85:50748.770388958896 86:50812.10415381994 87:51470.33486912722 88:52279.13254146398 89:52665.341910891264 90:52439.73458418864 91:51971.04940768404 92:51885.54892225121 93:52493.59459956803 94:53472.71630578268 95:54163.27471699376 96:54166.95381626611 97:53702.50520454377 98:53448.73287091248 99:53949.16482717501 100:55072.250133675814 101:56113.38344371834 102:56442.722599694716 103:56066.96759206621 104:55666.9105765444 105:56037.356635769094 106:57318.89764760512 107:58811.81713487901 108:59617.107523275365 109:59442.26198940285 110:58910.70836956227 111:59116.12081308552 112:60615.22416640671 113:62794.06089398855 114:64397.85405504892 115:64659.73266630143 116:64040.80163115926 117:64062.71751551497 118:66053.072500499 119:69685.6790818411 120:73091.44066876853 121:74487.1244588909 122:73807.66925862274 123:73552.45186445316 124:77839.23738047754 125:88769.48308584851 126:104051.99444461727 127:119214.05886912273 
1.0 0:130384.77644233048 1:135456.93553898466 2:134387.9507274987 3:129076.70294071411 4:122711.16653527459 5:118369.45328359371 6:117286.94628133118 7:118311.54121789904 8:119274.84597503579 9:118770.19221681856 10:116887.36542730457 11:114808.86484344737 12:113746.51096340662 13:113969.17552112309 14:114709.73305138595 15:114948.20772159591 16:114252.23951556545 17:113020.10890176981 18:112064.18391314449 19:111904.826199899 20:112359.87294187043 21:112773.60917457785 22:112615.0834755666 23:111893.66682462345 24:111096.74326335346 25:110746.78506866406 26:110955.23120948201 27:111359.46671371603 28:111472.90918086973 29:111101.90853939689 30:110480.1634459935 31:110042.59359787403 32:110042.84896753477 33:110346.13072333398 34:110572.81628610646 35:110439.94929393596 36:109991.82703612927 37:109541.75758360514 38:109390.8715897286 39:109569.21332864265 40:109825.55074886484 41:109861.63641347512 42:109588.93345341207 43:109191.05080949655 44:108953.44877704572 45:109012.5828574443 46:109244.49926707125 47:109386.19634978504 48:109269.13090596808 49:108957.28454567514 50:108681.07020130758 51:108631.7855342113 52:108797.20411980296 53:108981.87266078158 54:108985.50459058402 55:108774.80304958814 56:108503.75584564274 57:108373.08947655666 58:108454.11389216574 59:108632.0648559723 60:108714.77032808909 61:108602.63561167926 62:108370.20602280882 63:108194.75441143836 64:108198.18004909855 65:108341.98831857332 66:108466.91313226614 67:108436.36558054695 68:108253.72101231737 69:108054.52719128985 70:107984.86664539672 71:108073.73508704497 72:108211.87883595415 73:108252.42674107607 74:108139.74662216613 75:107954.15088444421 76:107837.67351066187 77:107868.10294895791 78:107992.6817807072 79:108078.70934283292 80:108032.17323654803 81:107878.2546473797 82:107736.0190742116 83:107712.04219991545 84:107807.16397400587 85:107918.43148152957 86:107931.84447822903 87:107821.41123543074 88:107668.94824571755 89:107590.27058689474 90:107633.67532568374 91:107740.13310060941 92:107798.63485698708 93:107744.59384047598 94:107614.10896937668 95:107509.08622206213 96:107505.9471344116 97:107589.06855381695 98:107667.32313974765 99:107656.64023542183 100:107553.78167894413 101:107437.486139916 102:107397.81015596313 103:107456.64409131954 104:107549.75532417858 105:107585.00731858869 106:107523.35410240458 107:107411.44434180351 108:107339.00154392024 109:107359.46252090202 110:107444.01255533715 111:107508.92576014508 112:107490.12609442174 113:107398.35551289766 114:107307.81862710019 115:107289.79184302727 116:107350.17425756312 117:107425.88826053088 118:107441.83225670863 119:107376.5524080835 120:107279.3105714319 121:107225.22411949687 122:107248.97445290563 123:107315.78723987016 124:107354.42209185843 125:107321.1459655503 126:107237.52473011811 127:107169.80137522098 
1.0 0:107169.26742303671 1:107227.00154615518 2:107283.04423345404 3:107280.71483076432 4:107216.87002285641 5:107143.95450608857 6:107122.81011426201 7:107168.40886357533 8:107236.82420969175 9:107264.57783297478 10:107224.64982106879 11:107149.66947747406 12:107102.54559626654 13:107120.79027432848 14:107183.77940796076 15:107231.65009596525 16:107218.29427756443 17:107151.32729063202 18:107084.55084187361 19:107070.26853052349 20:107113.6622819965 21:107169.31500656433 22:107182.1180511421 23:107135.59985665 24:107065.39065194252 25:107026.96317349953 26:107046.69108128788 27:107099.53654369862 28:107132.51731444169 29:107112.08730462629 30:107053.15304716163 31:107004.7808939913 32:107006.00832524929 33:107051.2823464565 34:107096.11820915903 35:107097.24221698387 36:107050.9637482758 37:106995.97962841249 38:106978.64343130756 39:107011.7432427972 40:107063.43914986812 41:107085.84419024954 42:107057.30172851364 43:107000.89496390283 44:106963.33031861395 45:106973.25898669548 46:107016.13961990541 47:107047.84399258942 48:107034.41013180875 49:106982.36773844341 50:106933.00520765437 51:106925.87498722124 52:106963.88336568838 53:107010.8995564723 54:107023.74406758658 55:106989.94585551269 56:106938.14286425944 57:106912.40863405162 58:106933.32807417269 59:106980.16000783611 60:107009.54308170882 61:106993.67428877973 62:106944.18229502911 63:106901.20234142264 64:106897.81465543143 65:106931.42361939808 66:106967.17425544854 67:106969.69258507488 68:106934.45245944735 69:106891.13256578922 70:106876.50750992355 71:106901.31180871153 72:106940.71764557288 73:106956.74886700988 74:106932.31426427391 75:106886.52192141573 76:106857.8300382614 77:106870.00817920777 78:106911.10715216395 79:106944.0765452946 80:106939.4004104032 81:106900.76145863623 82:106861.29455028339 83:106853.96625401507 84:106882.32270946751 85:106917.49621977229 86:106923.95416470879 87:106891.0241582704 88:106842.49800640793 89:106816.0878393966 90:106830.82459136653 91:106870.95359573652 92:106900.17640293493 93:106893.22862824224 94:106856.97737247599 95:106823.09796105538 96:106819.47595295621 97:106845.87995994842 98:106875.2132708296 99:106878.5397874208 100:106851.05285252068 101:106815.93497910954 102:106803.0957194387 103:106822.09254526341 104:106853.58088157383 105:106866.83938146468 106:106847.44853764276 107:106810.3333813673 108:106786.62225168833 109:106796.03095655219 110:106829.3574582964 111:106856.66182458571 112:106853.71164481968 113:106823.12634126312 114:106791.63013289584 115:106786.03690363068 116:106809.36299728195 117:106838.3082459711 118:106844.19422883974 119:106818.53764135942 120:106780.55346563083 121:106760.05706855627 122:106771.00644739013 123:106799.25423800397 124:106815.40799250724 125:106801.23950671432 126:106766.11986317395 127:106738.92487052335 
1.0 0:106742.5198066649 1:106773.37121345934 2:106804.39312219134 3:106808.5086584831 4:106782.11412837726 5:106747.92311788598 6:106734.85535907044 7:106752.71416199525 8:106783.92283451083 9:106799.40776014664 10:106784.32432646785 11:106750.89946106773 12:106727.30100624068 13:106732.56124738223 14:106759.79226931231 15:106782.48013444322 16:106778.0649803436 17:106747.8275562423 18:106715.66576364159 19:106707.05107852684 20:106726.83959447258 21:106755.5021393861 22:106766.84699943151 23:106751.24422891668 24:106723.79341238001 25:106710.45336146826 26:106724.64425128272 27:106755.1916227268 28:106776.2714392752 29:106770.32789129474 30:106743.53248223817 31:106720.18838886207 32:106721.16167065267 33:106745.51914854751 34:106771.64587186815 35:106776.67351836363 36:106756.78480099748 37:106730.39239385122 38:106721.49169675159 39:106738.05660167513 40:106764.76787288138 41:106776.57589808566 42:106760.99886624848 43:106729.3697544323 44:106707.08925887037 45:106711.44003644724 46:106736.5132371844 47:106758.53589501463 48:106756.79544101954 49:106731.66485891542 50:106704.00738591196 51:106696.69083277752 52:106714.60146621354 53:106740.75141236906 54:106751.6828979859 55:106738.27476666147 56:106713.53569303025 57:106700.70348752967 58:106712.3853466942 59:106739.32014323743 60:106758.66911848595 61:106754.27949710099 62:106730.85150877578 63:106709.57116608223 64:106709.24919951103 65:106729.79078900571 66:106752.64244715011 67:106757.60270510982 68:106740.809726306 69:106717.87753645601 70:106709.51853452229 71:106722.61575005103 72:106743.79262627773 73:106751.31855442325 74:106734.7044235659 75:106704.46009796478 76:106683.22810318315 77:106686.02415063244 78:106707.0874806488 79:106725.09759383189 80:106722.18566073116 81:106699.906725836 82:106678.03950915017 83:106677.19338669803 84:106700.48508291904 85:106730.46008205692 86:106743.99128754008 87:106732.03286912014 88:106706.97151819893 89:106691.32089944347 90:106697.84776474503 91:106718.6690014174 92:106732.81876965892 93:106725.34704046874 94:106700.90185641102 95:106679.80573224237 96:106680.14604132161 97:106701.73845297213 98:106726.1498062955 99:106732.68819644296 100:106716.17680829742 101:106690.95370776921 102:106677.81576469365 103:106685.62039331756 104:106703.85610663802 105:106712.60214092079 106:106700.75971268358 107:106676.21253955222 108:106658.91815012596 109:106663.13400392211 110:106684.64307783301 111:106704.38723969957 112:106705.25063851503 113:106687.0577195333 114:106666.53973866226 115:106662.36952656718 116:106678.56004589508 117:106700.95471889633 118:106709.85060585054 119:106697.44427402836 120:106674.63186058392 121:106661.23624013584 122:106668.40875741393 123:106688.8623820506 124:106703.57562743449 125:106698.88412323626 126:106678.6936666431 127:106661.00117927161 
1.0 0:106661.86182596705 1:106681.07303889998 2:106702.31282541697 3:106707.55599206204 4:106692.89628320419 5:106671.77252102652 6:106662.84480808955 7:106673.3683256603 8:106692.88307188325 9:106702.78284850412 10:106693.11012469881 11:106671.54334671084 12:106656.57913896434 13:106660.99135624325 14:106680.3389513846 15:106696.82821537342 16:106695.1050523757 17:106675.91159932266 18:106655.47839038195 19:106651.1795536927 20:106666.16620825768 21:106686.63732010854 22:106694.15030560856 23:106681.97646458774 24:106660.98845953927 25:106649.92307112765 26:106658.72477055462 27:106679.82417013754 28:106695.10343734152 29:106692.23417515526 30:106675.71877140518 31:106662.74394447061 32:106667.51058054106 33:106688.05240813865 34:106707.45415426207 35:106708.5457628135 36:106689.08313028488 37:106663.94297508705 38:106652.30345703832 39:106661.06037741169 40:106679.14085810535 41:106687.73602389883 42:106677.3035835966 43:106656.20547371893 44:106643.29800575125 45:106651.02275401655 46:106674.04814409939 47:106693.66603695272 48:106694.12442022354 49:106676.4382581627 50:106657.43856101569 51:106654.83355423089 52:106671.44076238906 53:106692.58341742816 54:106699.01761100843 55:106683.98024760444 56:106659.32270566159 57:106645.3130694631 58:106653.03848786886 59:106674.88002478199 60:106691.41027524954 61:106688.5201646009 62:106669.62348956289 63:106652.27805760366 64:106652.35650629338 65:106669.87244490383 66:106689.052371151 67:106692.5088466612 68:106676.8234015631 69:106655.68628305093 70:106647.82349433609 71:106660.42133126677 72:106682.77148514592 73:106695.76126080843 74:106688.71815421572 75:106668.66375735599 76:106653.8670708394 77:106657.51641666873 78:106676.07355424589 79:106692.65449928284 80:106692.29866307539 81:106675.39018641203 82:106657.24882683124 83:106654.29969386819 84:106669.24201463637 85:106688.5816266577 86:106694.79366137079 87:106682.19514061915 88:106662.24430104996 89:106653.3999884994 90:106664.49211603845 91:106686.52605385911 92:106700.46274641975 93:106694.22232235468 94:106673.81044326675 95:106658.53371625511 96:106664.26512014697 97:106689.38621911686 98:106715.8576946865 99:106724.56079232863 100:106711.45963027242 101:106690.48890266693 102:106680.81250347458 103:106689.86077919908 104:106707.24342387466 105:106714.85479194918 106:106703.92130694087 107:106683.51311180157 108:106672.67829998069 109:106683.04504243619 110:106707.49734840897 111:106725.39580643423 112:106720.12387700702 113:106693.64615992668 114:106665.1983787854 115:106655.03231531124 116:106667.29506655301 117:106687.03777259841 118:106693.94771648737 119:106680.61477599536 120:106659.1811555705 121:106650.49518438848 122:106665.33288058729 123:106694.3611309762 124:106715.86370894876 125:106714.48160845676 126:106694.44239383086 127:106675.6113125907 
1.0 0:106675.80436909762 1:106694.9642099867 2:106715.26253796856 3:106717.09764254598 4:106696.82634042237 5:106670.50515032992 6:106660.18646673716 7:106674.66812800078 8:106701.62267810339 9:106718.11542032461 10:106710.33021366323 11:106685.29219388765 12:106664.47067886175 13:106664.9752658758 14:106684.85458170976 15:106705.30067843606 16:106707.54588956495 17:106689.34176652682 18:106666.54644054324 19:106658.67314019549 20:106671.4352784379 21:106691.89811342351 22:106700.46581947537 23:106688.80626122998 24:106667.57553412614 25:106656.9858891642 26:106668.59764881698 27:106694.64713608802 28:106714.5760646158 29:106713.02824011433 30:106693.319162499 31:106674.41570545496 32:106674.08359963418 33:106693.16979403498 34:106715.03309875389 35:106720.58678274146 36:106705.43019877789 37:106683.72699181127 38:106675.3522122391 39:106687.82314419442 40:106709.34006998184 41:106719.37480514111 42:106707.39560083197 43:106682.85620403489 44:106667.22251170536 45:106674.81213181463 46:106699.48461193255 47:106719.38212240864 48:106715.93424496616 49:106690.4895649463 50:106663.76380328079 51:106658.22022383388 52:106678.57763799067 53:106707.5963063074 54:106721.01585958197 55:106708.63650343096 56:106683.10815120845 57:106668.71947193789 58:106679.94640150432 59:106708.581041991 60:106730.79877021835 61:106727.93052405 62:106702.6765819326 63:106676.60910710378 64:106671.23548846862 65:106689.30180588065 66:106712.7873538508 67:106719.20779982938 68:106701.63310577052 69:106674.71917032945 70:106661.55852157774 71:106673.12853389482 72:106698.66408363699 73:106715.48581541395 74:106709.36468046521 75:106687.15924476676 76:106670.47574662355 77:106676.06517535272 78:106700.58821973356 79:106723.54803189334 80:106725.82371521965 81:106707.11346994176 82:106686.48330673792 83:106685.2641884055 84:106707.46046514942 85:106735.4251583574 86:106745.10980910745 87:106727.59040438628 88:106697.7059196469 89:106681.77398890522 90:106694.76005382744 91:106726.8991057199 92:106751.77868858245 93:106749.01563010868 94:106721.75974701549 95:106693.77277809248 96:106688.65780575067 97:106709.46525849447 98:106736.62387768018 99:106745.8828426371 100:106730.16843621308 101:106705.89765872934 102:106698.1445235822 103:106717.85290554687 104:106751.52641106147 105:106772.8178609597 106:106765.82662642807 107:106739.38052816807 108:106719.47815840921 109:106726.33516594123 110:106756.27878742375 111:106784.70577934793 112:106787.66157925596 113:106763.00304316271 114:106732.43858694311 115:106722.54777264534 116:106741.45130520541 117:106771.82669261648 118:106786.52052356857 119:106772.84259963369 120:106743.91275652162 121:106726.91586085963 122:106738.58951626281 123:106769.80898674263 124:106793.27071915778 125:106787.67644084217 126:106757.01174427422 127:106727.72698859824 
1.0 0:106726.01274984515 1:106755.02004950345 2:106792.19334855347 3:106809.13909627091 4:106796.42420483025 5:106771.40441594577 6:106762.23034355245 7:106782.25634476867 8:106817.73073749195 9:106839.89649982075 10:106830.73168459472 11:106799.30478871062 12:106774.01265982098 13:106777.3473234554 14:106805.59148309019 15:106831.80811634407 16:106829.77070271593 17:106797.65947039216 18:106760.38303000217 19:106748.12881439128 20:106769.83674803747 21:106805.17514182089 22:106822.39895231593 23:106806.40581604347 24:106772.18736155005 25:106751.6905892055 26:106765.5056685706 27:106804.42045415757 28:106837.38035556705 29:106838.88624057524 30:106811.5196971176 31:106783.6041685413 32:106783.94196474568 33:106815.95753969515 34:106854.39107776832 35:106867.66088991593 36:106846.00376936438 37:106810.31886963364 38:106793.70112616135 39:106811.89425976026 40:106849.07257733008 41:106871.93688809895 42:106859.69308659827 43:106823.11892750922 44:106795.46123532204 45:106802.82082296097 46:106840.25669080408 47:106875.31680245406 48:106876.38417419091 49:106840.92006081576 50:106798.51739443302 51:106785.64100207487 52:106813.94919228843 53:106860.24024221374 54:106887.1472182586 55:106876.27420614348 56:106844.37101875404 57:106828.10517586644 58:106850.72886794165 59:106900.34088356681 60:106939.5419605991 61:106938.24738269822 62:106900.57897228724 63:106861.81834330839 64:106857.66865213576 65:106892.75743719573 66:106936.56186640334 67:106950.73167600398 68:106923.62174491514 69:106881.26685415846 70:106864.66974067834 71:106893.06501408845 72:106945.84441559651 73:106979.77372431594 74:106966.6804476482 75:106918.44603018514 76:106877.16380040762 77:106878.76069785356 78:106921.97000796933 79:106970.24164906383 80:106984.8676015335 81:106959.64222043625 82:106926.10006481595 83:106924.50866704537 84:106966.41183664548 85:107022.69538159882 86:107048.62283211798 87:107023.85852959029 88:106971.69633664432 89:106939.75396125918 90:106958.37895700385 91:107013.50008234628 92:107058.66323761009 93:107056.08067571056 94:107010.36681843048 95:106964.84810691804 96:106963.13544348338 97:107009.7314741331 98:107065.24776452956 99:107081.25613696943 100:107044.03674516188 101:106988.15016780808 102:106966.99427718822 103:107005.51845034059 104:107077.13164453341 105:107126.23233171499 106:107116.99867158898 107:107065.3290783731 108:107025.29924318186 109:107041.22281322238 110:107107.40900700094 111:107172.09445855816 112:107182.93734827661 113:107134.02709085833 114:107072.58680381883 115:107058.4750642931 116:107111.26383846386 117:107191.97159219078 118:107236.6066047766 119:107212.33071223374 120:107146.7145114997 121:107103.89764846521 122:107127.80370338848 123:107202.47581261046 124:107265.63204083905 125:107264.1190621766 126:107202.1854765401 127:107139.48219394004 
1.0 0:107139.37696141034 1:107212.33491852794 2:107305.12163194483 3:107346.53972789747 4:107309.68897868648 5:107235.89287020643 6:107198.72776548316 7:107238.9017119087 8:107327.61277673155 9:107391.88415722895 10:107379.79430651161 11:107307.60692299395 12:107246.61596585282 13:107260.18899182978 14:107346.3034618901 15:107437.83293035832 16:107461.56795603524 17:107403.76717045746 18:107323.82655812083 19:107302.7339041613 20:107370.59257865332 21:107478.16234040463 22:107539.49144716821 23:107508.52412240334 24:107421.65261416309 25:107367.53942500996 26:107408.90101056335 27:107525.07180474832 28:107628.20661068753 29:107640.26146973082 30:107562.80783713874 31:107477.52158539869 32:107475.06762968542 33:107573.69002786036 34:107700.95397082523 35:107757.0023458798 36:107703.81293802385 37:107601.1915146195 38:107556.13807149488 39:107627.8124660113 40:107772.40856351556 41:107879.63897188749 42:107870.03434965464 43:107766.95743607804 44:107678.72507984245 45:107703.68835244815 46:107840.61776795473 47:107986.43349973789 48:108026.21302578959 49:107936.38100320754 50:107809.4405468357 51:107775.63790050657 52:107887.1134563874 53:108068.10022799156 54:108179.34944997329 55:108141.39506756388 56:108007.74905594521 57:107921.7766752991 58:107990.71399930485 59:108186.66092467483 60:108366.60843193774 61:108397.26451757143 62:108274.83369457877 63:108133.4842656311 64:108130.58934802227 65:108305.28022935402 66:108538.27023308656 67:108654.19120665833 68:108577.46484741213 69:108404.15865784435 70:108323.44256014135 71:108450.70532215692 72:108719.01585369241 73:108932.33535569638 74:108937.49648312076 75:108763.43836013055 76:108603.77592601838 77:108650.13391873207 78:108917.07781623474 79:109220.14681653894 80:109334.85688823053 81:109197.70545073733 82:108972.11908527525 83:108914.66662497498 84:109146.93989683336 85:109536.07537104824 86:109802.80584591099 87:109766.90844733555 88:109514.71007091519 89:109338.5582545666 90:109485.11744454797 91:109924.95951816106 92:110361.81727463927 93:110486.80534751715 94:110255.74630865005 95:109947.73162123325 96:109938.73773157269 97:110364.55261043068 98:110977.32684370043 99:111348.15599659609 100:111244.43351263946 101:110854.60355833813 102:110657.28812005838 103:111010.55432310581 104:111805.41215050992 105:112526.00422926465 106:112689.14365690484 107:112283.09779191746 108:111831.66456117814 109:111985.32031661698 110:112929.07334244173 111:114152.30128436067 112:114851.0435057186 113:114626.56214816106 114:113900.92115627234 115:113680.77282291724 116:114728.4016145525 117:116784.65800164512 118:118654.42772974119 119:119165.06826092042 120:118221.65241533238 121:117211.90165867859 122:118283.52377479509 123:122585.69996679803 124:128903.85068668608 125:134186.87243589773 126:135262.46977726603 127:130232.13465099203 
1.0 0:135039.01129698174 1:117901.33358488434 2:100672.45530034741 3:88363.67906623993 4:83511.06519478216 5:83743.06793963371 6:84454.56786813508 7:82854.74596410361 8:79021.7845619721 9:74950.78059431055 10:72721.20361080833 11:72685.08110119686 12:73356.73643429448 13:73041.53848106695 14:71231.41315983981 15:68787.50545138627 16:67108.67728183532 17:66872.72518593668 18:67453.32526209646 19:67630.58384643178 20:66712.95176920289 21:65032.008189363165 22:63593.25845945 23:63174.82893674968 24:63615.56357502002 25:64026.55682096604 26:63648.96547782682 27:62478.08625906406 28:61218.97702395655 29:60657.06593028028 30:60936.50264590713 31:61449.477296221885 32:61439.63734378655 33:60665.93884026348 34:59575.836938125554 35:58904.921855497465 36:59008.41742336204 37:59534.9812314837 38:59783.800680121756 39:59345.19578048002 40:58434.55431964482 41:57694.874665570496 42:57621.65549016012 43:58100.92979611365 44:58532.130724478644 45:58392.44702847116 46:57684.417291385405 47:56922.10480540175 48:56678.30546595764 49:57055.08048245042 50:57593.07802682805 51:57712.3599468176 52:57226.538260171736 53:56493.66689048821 54:56104.70594554758 55:56346.01901797435 56:56928.803619849394 57:57270.0384738909 58:57023.56194103724 59:56373.75624246097 60:55876.177652477214 61:55962.00226448924 62:56530.92029266563 63:57049.38117159982 64:57047.28952169558 65:56528.151469818404 66:55966.53855629971 67:55894.2317518477 68:56404.4973973514 69:57059.7164989235 70:57303.31051182945 71:56955.021474840396 72:56366.6357861273 73:56123.977524023816 74:56513.59241204267 75:57244.18491512892 76:57722.13938434032 77:57591.58710009704 78:57044.57970049703 79:56666.10089924256 80:56915.46379159409 81:57685.07489097853 82:58396.24905059979 83:58533.86308887591 84:58099.6839510868 85:57622.35911535795 86:57704.04224846275 87:58453.267918253325 88:59366.447522754206 89:59797.02834713523 90:59533.675626986806 91:58995.32047318707 92:58890.55210355568 93:59569.80589907903 94:60668.43727285706 95:61441.68959359838 96:61441.04644155613 97:60915.48734575623 98:60632.463371709826 99:61204.05697885509 100:62478.299271574 101:63657.01450498773 102:64029.00253795934 103:63604.283436238504 104:63154.79118585767 105:63579.332779389566 106:65034.964347405876 107:66728.58226926197 108:67643.4182643398 109:67450.36118817893 110:66856.55562924403 111:67098.97308730519 112:68804.23617553485 113:71273.93090106882 114:73086.32596283717 115:73374.00602433059 116:72661.53664149527 117:72675.91749874334 118:74924.73445513795 119:79040.18602277056 120:82903.18725907055 121:84490.22797672558 122:83724.96726084882 123:83438.3116905832 124:88297.74925283925 125:100689.32804407168 126:118020.11903873179 127:135220.0037725747 
1.0 0:147897.98050175005 1:153661.52327740376 2:152459.01163234518 3:146441.0820373623 4:139222.13015930512 5:134295.09334439962 6:133065.55149771512 7:134230.26472340804 8:135329.60381892842 9:134765.1554951041 10:132635.57060464338 11:130280.58309796451 12:129075.5980890384 13:129327.81438800355 14:130168.46450484652 15:130440.04301299137 16:129650.59234969702 17:128251.04965867025 18:127163.6222096608 19:126980.1059980348 20:127494.41369392617 21:127961.35106443567 22:127776.34725332305 23:126948.96844818213 24:126033.7399967305 25:125627.1759474003 26:125859.04340150843 27:126318.24829480663 28:126449.90408432126 29:126030.63732158781 30:125323.82416773608 31:124824.31689050561 32:124823.37500474977 33:125170.85538612204 34:125436.12108935862 35:125295.7449973089 36:124797.03148412051 37:124293.82515972211 38:124128.10966479026 39:124335.3245971801 40:124631.23912306159 41:124676.99272515821 42:124370.97499187288 43:123920.88621490872 44:123651.22239704829 45:123718.16848102982 46:123981.921858878 47:124143.53091411345 48:124010.19707849983 49:123653.17651014743 50:123333.92503828315 51:123271.02149919436 52:123452.63481689269 53:123658.27503990622 54:123660.69989048324 55:123421.3373278303 56:123114.07702809355 57:122966.14734059095 58:123058.02217422424 59:123258.8069715999 60:123349.66463245945 61:123217.33341557776 62:122947.30406971769 63:122742.73127451946 64:122744.05596356766 65:122908.52949395069 66:123054.58693857491 67:123025.22988110184 68:122822.38544363319 69:122599.05604611042 70:122521.38429962096 71:122623.07405132255 72:122780.4480763646 73:122826.33231491494 74:122696.78794564011 75:122482.68711983859 76:122345.962957567 77:122376.36181364756 78:122515.31611615577 79:122612.55561031692 80:122560.55664714237 81:122386.40945152882 82:122223.95844448647 83:122193.87794762904 84:122298.18732443004 85:122422.11170708472 86:122438.40290398295 87:122318.59336512865 88:122154.58686597101 89:122074.88946658268 90:122130.6341113654 91:122252.44009885963 92:122314.82137110233 93:122247.87046698954 94:122097.09169582791 95:121981.2168339992 96:121986.71525185781 97:122092.44387905503 98:122190.6638532032 99:122183.43271839939 100:122067.58894410578 101:121935.15056756305 102:121890.8656104799 103:121960.09229822495 104:122068.25920726081 105:122108.49657920873 106:122035.42758669828 107:121902.86973137392 108:121814.59932346051 109:121832.72256861295 110:121924.63760950322 111:121994.57700780148 112:121969.49112292474 113:121862.34593068801 114:121758.60153876006 115:121739.44623061964 116:121810.13152839837 117:121896.72780896124 118:121912.75287362152 119:121835.18908348917 120:121723.40314270192 121:121665.85608824875 122:121702.19901675115 123:121789.54427412825 124:121841.85317218842 125:121805.9213900549 126:121706.66255040611 127:121623.4031669012 
1.0 0:121619.36341842775 1:121686.87167378087 2:121756.24140578974 3:121758.77348442002 4:121686.88524942365 5:121599.02782751834 6:121566.55713902389 7:121610.32261346829 8:121683.25876278305 9:121713.4959076129 10:121668.31833126265 11:121582.20380068652 12:121525.2123079674 13:121540.47291889932 14:121606.45518765584 15:121657.20469900405 16:121641.47955108524 17:121567.77479097123 18:121496.06608951875 19:121484.35335566531 20:121537.60694951414 21:121604.30028474491 22:121622.79318186578 23:121575.52927596304 24:121503.31290314399 25:121467.93548083658 26:121496.76218272184 27:121558.60941578551 28:121592.02083603281 29:121560.04796976651 30:121482.80626151999 31:121419.61708128233 32:121416.93031588718 33:121468.13726861212 34:121520.6248443324 35:121523.01651480742 36:121470.17373034236 37:121406.6233601276 38:121386.1933023557 39:121423.99296395773 40:121483.37967201903 41:121508.99971430961 42:121475.82793357022 43:121410.71042741602 44:121367.92746014864 45:121380.79374269203 46:121432.32585052913 47:121470.85543597066 48:121456.15774614493 49:121394.93216642555 50:121334.65425062817 51:121321.63615448277 52:121360.46989285543 53:121410.65903970771 54:121422.92484521747 55:121382.54110653621 56:121321.65323165602 57:121290.38751669129 58:121312.65667832314 59:121365.77562938802 60:121401.47761368916 61:121388.87305162502 62:121341.00796983633 63:121302.04150622441 64:121307.04346539902 65:121350.46894588592 66:121391.37967380507 67:121390.32191409751 68:121344.61815962294 69:121290.79208248992 70:121272.18840086042 71:121300.59897284232 72:121346.04938451547 73:121363.69516714194 74:121333.64413820836 75:121278.43707430856 76:121243.00176759595 77:121254.92492119511 78:121300.22586215526 79:121336.01023754483 80:121328.46241695056 81:121282.41988763631 82:121236.71517414162 83:121229.69840699936 84:121265.46193076964 85:121310.55300337047 86:121323.72202444359 87:121292.03805513246 88:121241.66804063106 89:121214.33614860759 90:121230.57935754587 91:121272.32382985066 92:121299.85006760796 93:121287.45746774304 94:121245.94148629603 95:121212.285435794 96:121216.13469385476 97:121253.10461448506 98:121288.7424616858 99:121289.3763519498 100:121252.14952571751 101:121207.6121021379 102:121192.68604135248 103:121217.99358430835 104:121258.57087822595 105:121276.11901332258 106:121252.84231430227 107:121206.934224722 108:121176.250172804 109:121184.72698247463 110:121221.3001943223 111:121249.93534368004 112:121241.64236075799 113:121200.02963014499 114:121158.03615501209 115:121148.94935012542 116:121177.35563662153 117:121215.61970846976 118:121228.67785490074 119:121204.86251318747 120:121165.59304424736 121:121145.76484528361 122:121162.48841722186 123:121199.98880684063 124:121223.91375655873 125:121211.98785833718 126:121173.66366357167 127:121141.5328766156 
1.0 0:121142.30377855607 1:121173.17055875862 2:121204.52952265111 3:121206.4064291671 4:121174.94830819924 5:121135.62120986312 6:121120.52902581867 7:121140.08676331764 8:121174.19197116395 9:121190.53111471157 10:121173.42509871573 11:121137.51713274409 12:121114.34647939319 13:121123.92604806862 14:121156.74077907491 15:121182.25041828373 16:121176.2063146862 17:121142.37072104153 18:121109.36888457558 19:121105.45350795411 20:121133.52293326806 21:121168.58225849645 22:121179.84585867633 23:121157.77482145751 24:121122.16897300741 25:121104.30887807372 26:121119.03699229567 27:121151.58565345789 28:121170.84004819977 29:121157.14342568972 30:121119.9377918144 31:121089.66466263849 32:121091.05221465076 33:121121.36352794379 34:121152.85984342945 35:121157.23550265576 36:121130.37531587628 37:121095.71244677511 38:121083.37489513191 39:121103.54211798507 40:121137.51145011692 41:121154.25026782101 42:121137.64508716927 43:121100.4545122288 44:121072.92099642528 45:121076.25798238078 46:121104.42831681171 47:121130.16336636638 48:121129.57643041771 49:121103.39927208594 50:121076.1843491484 51:121074.37755917736 52:121102.73699154692 53:121139.93941009743 54:121157.08941532679 55:121142.58634125047 56:121111.51543152097 57:121091.6630179492 58:121098.83738599096 59:121123.42583470941 60:121139.88099953889 61:121130.2570404059 62:121100.57060479374 63:121075.45206015513 64:121075.97444395727 65:121100.53474835416 66:121125.95727162776 67:121127.88705540508 68:121102.34397800828 69:121069.37740699045 70:121055.6129266812 71:121071.06270159235 72:121100.61710794062 73:121117.5777373632 74:121107.06531361853 75:121078.6542425664 76:121057.38929570183 77:121061.44902765412 78:121086.3623256048 79:121109.62143405183 80:121111.17993907588 81:121091.26723597554 82:121069.66800323625 83:121067.33069824525 84:121086.97393557409 85:121110.25251329919 86:121114.1275595095 87:121091.79466809644 88:121059.4372700618 89:121042.64488074977 90:121054.34752434008 91:121083.7211395247 92:121105.83719992022 93:121103.41349068652 94:121081.44002257455 95:121061.98523226021 96:121064.08072258848 97:121086.72516897426 98:121110.13025317065 99:121113.88276414578 100:121095.55338209256 101:121073.01644460711 102:121068.36660737814 103:121087.79745203607 104:121115.54539523671 105:121127.49400771513 106:121112.42958482364 107:121082.09513969439 108:121061.08531360152 109:121065.4131367708 110:121088.65401799866 111:121107.91413886547 112:121104.25411881339 113:121079.4303720772 114:121054.21055399821 115:121049.8489728091 116:121069.18495788897 117:121094.14926093485 118:121101.81938265491 119:121084.66586472826 120:121057.05662494547 121:121042.38430048553 122:121052.34859221034 123:121076.85304369462 124:121093.43036475344 125:121087.58156938753 126:121065.72631013817 127:121049.1860024607 
1.0 0:121054.61025156551 1:121078.469322669 2:121099.72557642202 3:121098.50038730368 4:121074.12031909163 5:121046.33249944432 6:121038.29778068027 7:121056.18085765748 8:121083.44371209857 9:121095.10389646789 10:121079.5450966154 11:121048.77113015526 12:121028.10111979245 13:121034.27036849146 14:121061.09684215566 15:121085.23449237522 16:121086.78274121232 17:121066.50630470824 18:121044.612659099 19:121042.36644516626 20:121062.9369481238 21:121088.51655133134 22:121096.22480417644 23:121078.58464890787 24:121050.37683005635 25:121035.77446297182 26:121047.07696722391 27:121073.84838850942 28:121092.09253369975 29:121085.32825278438 30:121058.97619519838 31:121035.48671322236 32:121034.59974224029 33:121056.16878320907 34:121080.64062242651 35:121086.54904089042 36:121069.3541894198 37:121045.01520500913 38:121035.37646853495 39:121048.56540039701 40:121071.95469445153 41:121083.89694071135 42:121073.54983847974 43:121050.90985153559 44:121037.97576473953 45:121048.83371658722 46:121076.48546811937 47:121098.3945269195 48:121096.03932340757 49:121071.22273297164 50:121044.68051925223 51:121038.0791466367 52:121055.16653633815 53:121078.70569773899 54:121085.89878032768 55:121068.64674928585 56:121040.79296725846 57:121026.01429997 58:121037.0376349015 59:121064.50861237888 60:121085.28941858669 61:121082.7318371263 62:121060.99025239346 63:121040.89117915143 64:121041.20729921249 65:121062.02844164107 66:121084.96647583715 67:121089.83677029547 68:121072.78091659861 69:121049.65647994464 70:121041.72102299459 71:121056.42072208405 72:121080.52098801694 73:121091.81870641084 74:121079.03439178449 75:121052.17046231065 76:121034.05987001708 77:121040.45731253117 78:121066.23573038672 79:121089.91955968064 80:121092.50744452595 81:121073.90430058453 82:121052.52109744404 83:121048.53619187423 84:121065.76176832919 85:121088.28609075896 86:121094.84959932345 87:121078.06568295378 88:121051.33422713974 89:121037.26111564475 90:121047.80583289085 91:121073.78351537397 92:121093.06163436087 93:121090.1126264025 94:121069.51993671554 95:121051.50214769067 96:121053.51714104463 97:121074.41768507582 98:121095.4059137437 99:121096.9899986477 100:121076.77471301924 101:121052.12111843677 102:121045.10251123665 103:121062.94083783691 104:121091.31706385838 105:121106.65004390848 106:121096.59546783331 107:121070.73269866343 108:121052.06365868842 109:121056.81996186933 110:121080.39401016937 111:121101.7888375881 112:121102.49593137926 113:121082.93808060879 114:121061.913003733 115:121059.61701167715 116:121079.42821359461 117:121104.76958291134 118:121113.87698625917 119:121099.2368803001 120:121074.29573462806 121:121061.39061688674 122:121071.61031689488 123:121094.65994520373 124:121108.00923169128 125:121097.32093082272 126:121069.9283080703 127:121049.11345863777 
1.0 0:121053.84747990944 1:121081.7089003956 2:121110.2418376605 3:121115.88751873194 4:121094.1110291147 5:121063.24228851803 6:121048.69749992876 7:121061.29876919306 8:121088.5521012005 9:121106.30303581974 10:121100.22165852242 11:121078.10467238406 12:121062.33126055442 13:121069.39314686545 14:121094.8247973443 15:121117.00483848325 16:121116.40603238899 17:121093.1048229575 18:121066.96932097395 19:121060.29863348287 20:121078.23910001274 21:121104.35213643925 22:121115.2681140971 23:121101.39821045472 24:121075.39134617426 25:121060.93091128708 26:121071.81566178155 27:121099.84561425564 28:121122.17959503716 29:121121.47447381525 30:121100.87153313839 31:121080.68805558232 32:121079.99556967466 33:121099.65927737032 34:121122.00213657279 35:121127.21223644103 36:121111.52632071033 37:121090.71617068509 38:121085.67903882268 39:121103.10456144325 40:121128.82216732996 41:121140.13795215626 42:121126.28648471885 43:121098.63153012824 44:121081.19430566092 45:121089.5627025449 46:121116.83642604951 47:121139.32802259686 48:121137.23464750529 49:121112.09943400486 50:121085.59825703134 51:121080.56877569237 52:121100.91776147665 53:121128.2088035769 54:121138.00999287252 55:121121.52058873573 56:121093.34711820373 57:121078.5697372012 58:121090.55319558532 59:121119.23281795211 60:121140.31887289618 61:121137.13196780287 62:121115.48977735142 63:121098.28718543722 64:121104.52661013209 65:121131.59332115644 66:121156.92923957932 67:121157.95253612814 68:121132.58581359143 69:121101.95393315652 70:121092.40869629408 71:121112.40622560146 72:121144.71205976371 73:121161.13077660995 74:121147.02344778094 75:121114.14249488557 76:121090.46759651927 77:121095.81973472166 78:121124.61423273652 79:121150.95753363046 80:121151.55026691868 81:121126.15272185793 82:121097.63803094378 83:121091.67151526493 84:121114.01624179783 85:121145.60484688664 86:121159.69665483308 87:121145.74098979424 88:121118.6989794118 89:121105.56773274118 90:121121.10468369846 91:121154.45729689063 92:121178.74467687878 93:121175.04988231472 94:121149.36049633053 95:121127.27950290665 96:121131.10486934532 97:121159.72508244752 98:121189.49776772149 99:121195.5208100015 100:121174.2921156371 101:121147.33548633405 102:121142.17738583825 103:121167.3330952131 104:121203.76018686434 105:121220.90370398565 106:121203.49826009196 107:121165.48323669338 108:121138.46736697108 109:121144.45523623248 110:121176.67376977154 111:121205.56284452809 112:121204.82735972381 113:121174.6580235954 114:121141.67317245611 115:121135.50626893647 116:121162.55038406764 117:121200.12426643693 118:121216.36242557233 119:121198.29302815221 120:121163.32943306108 121:121143.98306159781 122:121159.13001938789 123:121197.1791650297 124:121226.13379607102 125:121221.69063038197 126:121188.57899179264 127:121156.39871432887 
1.0 0:121153.64482601102 1:121182.83494615076 2:121218.74573841078 3:121231.17560258697 4:121211.80780357325 5:121181.28860604823 6:121170.33137082332 7:121191.77603387872 8:121228.73320910324 9:121249.60760420983 10:121236.57865769985 11:121201.97680620935 12:121177.72337353672 13:121186.96347558907 14:121223.16062044179 15:121255.6202241932 16:121256.79848417878 17:121227.11115025752 18:121195.00850454721 19:121191.89319754952 20:121223.92965540965 21:121266.00967785696 22:121283.61382148186 23:121263.32168425026 24:121224.88200674405 25:121203.93750770074 26:121220.44551517151 27:121260.85552727614 28:121290.18043967134 29:121283.37490209687 30:121248.052507431 31:121218.12337705753 32:121223.62744983076 33:121263.46010874497 34:121305.65702939773 35:121315.4763483374 36:121286.49645680899 37:121246.96687063893 38:121235.26619340084 39:121265.71325993408 40:121315.14599221389 41:121342.71865973706 42:121325.78924545743 43:121280.27242613675 44:121247.25457419833 45:121257.16711590471 46:121302.9137667208 47:121345.95522975248 48:121350.2238632253 49:121313.96566202622 50:121271.39365093375 51:121262.49947823092 52:121297.51297396961 53:121347.6705183106 54:121370.76786896608 55:121348.85966643233 56:121304.58266400808 57:121281.37326100019 58:121304.71894244352 59:121358.84455459575 60:121400.02024541069 61:121395.03458369037 62:121350.8013895273 63:121308.74259980158 64:121308.46630136721 65:121352.60495895123 66:121404.26335470338 67:121419.70977819157 68:121387.39795157051 69:121338.67438120066 70:121320.36282357841 71:121353.09273328894 72:121412.44626733316 73:121450.159931555 74:121436.81088489521 75:121388.14298294378 76:121351.50946516356 77:121363.96130642117 78:121418.98172492217 79:121471.84595809196 80:121479.23204150666 81:121437.9580612616 82:121388.35189148922 83:121378.80723286032 84:121422.55426864089 85:121485.34183313258 86:121515.5686288624 87:121490.27941814055 88:121436.09068094938 89:121406.06374622538 90:121432.41274264555 91:121497.06917907341 92:121547.02435378595 93:121541.3491727538 94:121488.18195457949 95:121438.51868181607 96:121441.46473835665 97:121500.12736815943 98:121567.8866601803 99:121589.21691262613 100:121549.18748978655 101:121487.69402030933 102:121465.10997646676 103:121508.81527826603 104:121588.00710391134 105:121639.97544014422 106:121625.11428583661 107:121562.16816208985 108:121512.37317461031 109:121525.74505216852 110:121596.65233171477 111:121668.60252601614 112:121684.45651895089 113:121637.48991258003 114:121577.86607086596 115:121568.19251704487 116:121627.03227111208 117:121711.13624264872 118:121753.250926201 119:121722.2478167974 120:121651.98932355992 121:121612.52745304201 122:121647.93530113348 123:121735.82911967637 124:121805.80215651313 125:121801.41216725188 126:121730.99539707258 127:121661.9290000843 
1.0 0:121662.09628539311 1:121739.37693530091 2:121833.51118804199 3:121868.72432535827 4:121820.86848209538 5:121739.64145825813 6:121705.48215075226 7:121758.0768151853 8:121860.02194683404 9:121929.22949646758 10:121911.93224933448 11:121831.47408764025 12:121769.06338044933 13:121792.07009837385 14:121892.86701410032 15:121993.928991037 16:122016.00967379722 17:121949.10504329253 18:121862.93985042268 19:121846.24646300742 20:121927.18741674047 21:122046.42040795756 22:122108.73308967189 23:122068.1404550971 24:121970.75515510216 25:121916.13922811468 26:121969.06793854195 27:122099.66711228789 28:122207.44881354508 29:122209.72422622427 30:122116.34629575507 31:122023.88634780237 32:122031.81141595714 33:122152.88060590121 34:122298.83335055524 35:122356.73525365749 36:122289.28664191437 37:122170.31330064755 38:122122.19823716173 39:122207.42893718644 40:122370.3721898104 41:122484.02834836149 42:122462.12366268074 43:122337.64042658833 44:122237.39695308528 45:122271.57868222176 46:122433.88451970406 47:122603.51770837074 48:122650.31570338726 49:122550.71446716337 50:122411.96260851863 51:122380.4199252669 52:122511.0790756742 53:122714.99573058625 54:122835.46941378532 55:122787.08681920191 56:122634.72515081747 57:122540.92418642259 58:122623.00716107257 59:122844.77764137952 60:123043.60257156541 61:123072.56183010833 62:122932.46331268952 63:122776.55632565432 64:122778.8311173028 65:122977.1934461518 66:123233.73322246573 67:123353.4843793847 68:123258.1902004301 69:123061.58490986438 70:122976.07567531428 71:123125.05033177888 72:123426.24638843391 73:123657.77375821717 74:123652.88514049322 75:123451.99549652824 76:123276.40572649147 77:123337.66548666371 78:123644.06402798071 79:123983.13297329046 80:124104.8913227852 81:123945.66363882921 82:123695.39962497845 83:123641.49540407192 84:123912.84798002677 85:124352.3570819 86:124645.2817885233 87:124595.76930622247 88:124309.14569224771 89:124116.37507301202 90:124288.7200685151 91:124784.34760988774 92:125267.56575718895 93:125398.19005170706 94:125138.21410754113 95:124807.75323530872 96:124823.69521380351 97:125323.89930876685 98:126017.79561771583 99:126424.05332072075 100:126293.99484068996 101:125853.88521824864 102:125645.74521638767 103:126061.66899353996 104:126963.46274617343 105:127764.8967826083 106:127932.03621633377 107:127469.43772019446 108:126977.3662125179 109:127180.53112336967 110:128265.79801954584 111:129641.70624109995 112:130406.60697204726 113:130133.55126877462 114:129322.1461968129 115:129111.89602712642 116:130339.32507749705 117:132679.17266485438 118:134770.11401383596 119:135308.09847899212 120:134225.9333787013 121:133124.4291948861 122:134424.6965290514 123:139373.31713619083 124:146539.7129948274 125:152454.9863025033 126:153551.49573744187 127:147720.68208688145 
1.0 0:137544.48924280124 1:120034.82177261318 2:102362.76748239601 3:89715.11617968668 4:84767.42139473539 5:85093.90623625832 6:85913.95623192553 7:84321.41219479634 8:80386.94977740367 9:76179.99025265941 10:73877.75556407556 11:73867.7913011934 12:74609.48601725874 13:74330.07481798287 14:72486.69725668732 15:69965.14938874723 16:68224.69454702555 17:67986.43163850326 18:68610.07184979036 19:68824.7895698708 20:67900.874128812 21:66171.92010482702 22:64680.375883607005 23:64243.7898236936 24:64705.82918371189 25:65146.031189769375 26:64770.85818525129 27:63567.21557478384 28:62263.07915098948 29:61678.14310034223 30:61970.15902915119 31:62511.78009517887 32:62514.95731885848 33:61723.37518354243 34:60597.2161279467 35:59901.921065173876 36:60012.87558377373 37:60570.057836856344 38:60844.99078440923 39:60407.14920560709 40:59474.174354346964 41:58711.3512724399 42:58636.51411525543 43:59136.79586107745 44:59591.21310179442 45:59455.11492354099 46:58726.571952693586 47:57935.9406741795 48:57679.33590707134 49:58067.76664027073 50:58628.238662081894 51:58758.464384838015 52:58260.88970036447 53:57502.23540223036 54:57094.347294169886 55:57337.78075923867 56:57937.796047193806 57:58292.05114650225 58:58040.397853714145 59:57371.01048923037 60:56858.278026884844 61:56950.68607501451 62:57546.72485453619 63:58093.74856339969 64:58101.73081341731 65:57569.26617466664 66:56984.17702385887 67:56898.50108664514 68:57414.67868240728 69:58085.14018529773 70:58334.859914889224 71:57973.78650537522 72:57361.12342276754 73:57101.66042134721 74:57495.88951074335 75:58248.426361345126 76:58748.14414661697 77:58624.4677107638 78:58069.21834501988 79:57680.689531855074 80:57932.567160082115 81:58718.76132044913 82:59448.152951070435 83:59591.874809792695 84:59149.4630386966 85:58661.19965755282 86:58744.69570389177 87:59512.76919009162 88:60450.065982659136 89:60893.10522886366 90:60623.32873584728 91:60068.34451684365 92:59954.56482039583 93:60643.50351815483 94:61763.928956454634 95:62553.19253024587 96:62550.04457428256 97:62006.93413088674 98:61708.87008179079 99:62284.76926030135 100:63582.6407190015 101:64787.40505511172 102:65170.206670476044 103:64737.95123190129 104:64276.65873742142 105:64704.36838330118 106:66183.74365859153 107:67907.10308470827 108:68836.67600050587 109:68635.01670472177 110:68022.0400842712 111:68260.07133357596 112:69990.96808345769 113:72504.97122340927 114:74352.72188771382 115:74648.09919126004 116:73922.61752299541 117:73933.29046066813 118:76215.66925007533 119:80397.20006299172 120:84321.81205536869 121:85929.1879259167 122:85139.38380818632 123:84830.68030731578 124:89752.99580434071 125:102338.28587521179 126:119951.06548336848 127:137433.91119658426 
1.0 0:150321.2369253426 1:156181.261626715 2:154962.84442413718 3:148852.84586891043 4:141523.73475161954 5:136521.83118099175 6:135271.9076551085 7:136449.53457942436 8:137558.84664685183 9:136979.78925663343 10:134814.8914874098 11:132424.7295496017 12:131203.6506882978 13:131460.72206637744 14:132312.77518459666 15:132585.7768227459 16:131782.37150458444 17:130361.86837500817 18:129260.61760206953 19:129078.50524364406 20:129605.47038719992 21:130084.72756957528 22:129902.23752519896 23:129066.62492514208 24:128139.0793327094 25:127724.08685751566 26:127954.37573450884 27:128415.35354195416 28:128546.09329950639 29:128119.87509240147 30:127401.59015701961 31:126890.50880732086 32:126881.44480968824 33:127224.64686026234 34:127487.47054801088 35:127344.7300368783 36:126844.0341022464 37:126340.935819887 38:126178.3458142569 39:126390.50039457918 40:126690.5997302812 41:126737.89813709556 42:126431.06666929997 43:125979.89060915008 44:125710.879038807 45:125780.47856964024 46:126047.38050270839 47:126210.87449729556 48:126077.78523368281 49:125720.70982120726 50:125402.88440602749 51:125343.32428697213 52:125528.59758574911 53:125735.57288696608 54:125735.19592745123 55:125489.26718142588 56:125174.14513584685 57:125020.18635238263 58:125109.86280417941 59:125312.1792327919 60:125406.47652789201 61:125277.21144203108 62:125008.3121374993 63:124802.5832699979 64:124801.18345667247 65:124962.65003999522 66:125106.68541243007 67:125077.11981431379 68:124876.07691068984 69:124656.05147151656 70:124582.09740613958 71:124686.71976376777 72:124845.57175225863 73:124891.73555863541 74:124762.34576376715 75:124549.54003517854 76:124415.85707210535 77:124450.47506400557 78:124593.34304106371 79:124692.71434480717 80:124640.6024724977 81:124465.06236888217 82:124301.77477724037 83:124272.83128237339 84:124380.05692466557 85:124506.70422781173 86:124522.94048092407 87:124398.95133254972 88:124227.82741918182 89:124141.49818096812 90:124194.77371803926 91:124319.71992553295 92:124388.89288443905 93:124328.13875946993 94:124179.14265416183 95:124059.74666329903 96:124058.99073854425 97:124159.7935486626 98:124256.86384353999 99:124251.24372419162 100:124136.1182493268 101:124000.07270842671 102:123947.42747153447 103:124006.69629331617 104:124107.8721466142 105:124146.82306784607 106:124077.32263030423 107:123949.68722219419 108:123864.3075875124 109:123882.45341535131 110:123973.43737617876 111:124044.06119377096 112:124022.00778671076 113:123918.40128156231 114:123815.88442548022 115:123794.44631830601 116:123861.11766992274 117:123945.55590943505 118:123963.85277753942 119:123892.39695021127 120:123787.06022446448 121:123732.47770297174 122:123767.12331901549 123:123850.63024271665 124:123901.4178255684 125:123869.46577077653 126:123779.2986241131 127:123706.42904099758 
1.0 0:123709.22982482257 1:123777.06250227573 2:123840.59936190053 3:123834.08188033049 4:123753.43732840553 5:123659.41740449904 6:123623.84570132509 7:123666.70030944997 8:123739.63512758119 9:123769.78057791188 10:123723.94843207665 11:123636.65161302352 12:123578.37841406494 13:123592.85339937203 14:123658.92591459707 15:123710.43873302202 16:123695.35871291297 17:123621.30089151268 18:123547.95674400155 19:123533.9008661351 20:123585.01163962288 21:123650.02271706748 22:123666.37150762568 23:123614.99201812722 24:123536.0647989858 25:123492.8584605481 26:123516.08530905466 27:123577.92014654602 28:123617.9940509168 29:123597.17805639424 30:123531.23851890868 31:123475.46753296556 32:123474.77932777675 33:123523.89099398303 34:123572.82917171092 35:123572.1068050808 36:123516.80963727368 37:123450.7630070526 38:123427.60972366686 39:123463.45161684467 40:123523.01172703975 41:123551.16843747933 42:123521.28990907088 43:123457.70778550536 44:123413.23537255995 45:123422.14751162306 46:123470.38223556061 47:123509.07957424881 48:123498.66240778321 49:123443.91802888783 50:123389.36323095174 51:123379.48681506836 52:123419.30529393746 53:123470.21804005514 54:123484.44133510883 55:123447.02971312254 56:123388.46863552717 57:123357.24828572775 58:123376.95589362753 59:123425.88784678231 60:123456.91297474125 61:123439.35062891328 62:123385.60440185879 63:123339.48533574851 64:123337.06427835036 65:123374.9544763446 66:123414.0811925865 67:123415.08463902344 68:123373.47649438503 69:123323.49491049803 70:123307.56168354086 71:123338.54744515612 72:123388.34764032884 73:123412.70804270245 74:123389.95326402734 75:123339.4271534158 76:123303.82777895532 77:123311.39071639904 78:123351.45601050019 79:123384.82474327087 80:123379.12251818871 81:123337.42160234232 82:123294.9539242132 83:123287.21151100464 84:123318.01203216007 85:123356.0733992762 86:123363.0419841123 87:123327.83128741177 88:123276.79804921575 89:123250.79092272012 90:123269.27056976459 91:123313.18678522413 92:123341.71468902538 93:123327.90800841292 94:123281.90149679415 95:123241.624425434 96:123239.4646426386 97:123274.23082540128 98:123312.89195625471 99:123320.04909485149 100:123288.78111750406 101:123245.93768462887 102:123227.79563142234 103:123247.93319639373 104:123285.73462965908 105:123305.29497016768 106:123287.403416873 107:123246.15297050239 108:123215.86870560989 109:123220.37740988348 110:123252.09993075246 111:123279.42868381075 112:123275.37619577856 113:123241.6567763235 114:123206.84993911434 115:123200.50626937846 116:123226.42349860203 117:123259.04362725787 118:123266.1746983256 119:123237.71582143624 120:123194.91131278158 121:123172.00344332156 122:123186.46959505566 123:123224.08919477969 124:123251.86129915659 125:123247.00827289064 126:123216.32072544044 127:123189.07310588894 
