svm_type c_svc
kernel_type rbf
gamma 0.007874015748031496
nr_class 2
total_sv 424
rho 0.6052631578947368
label 1 -1
nr_sv 120 304
SV
1.0 0:39171.74934486691 1:34157.96603933288 2:29126.293799946703 3:25555.15963497716 4:24183.99740081914 5:24294.111522817744 6:24521.15882638231 7:24051.871912007402 8:22921.488424258132 9:21727.03563607643 10:21084.03836534565 11:21090.055687433945 12:21298.581759614997 13:21207.74471796666 14:20671.391451645242 15:19948.904291714327 16:19456.625167191727 17:19393.662683709 18:19570.781447486534 19:19625.0959462126 20:19353.43060250506 21:18856.69392832737 22:18434.365230809482 23:18316.168357511346 24:18451.572873262194 25:18575.307240614373 26:18463.196548701166 27:18115.873751742154 28:17743.909064237778 29:17580.25297187454 30:17666.239778069426 31:17820.346284865285 32:17818.65905104659 33:17591.10903827768 34:17271.255741139546 35:17076.710783015227 36:17111.1861848284 37:17269.311509485655 38:17343.995506131905 39:17215.805743667563 40:16950.078602962847 41:16737.000621765725 42:16721.15603015385 43:16866.365398484504 44:16994.32435151691 45:16951.971783544403 46:16742.175952210495 47:16517.76563364748 48:16446.887959829528 49:16557.468928655053 50:16712.746304788707 51:16742.892105783525 52:16595.910806810178 53:16380.007227962486 54:16269.574109251866 55:16346.040600683407 56:16520.379024014594 57:16619.339931837316 58:16542.98594371903 59:16349.565583416623 60:16205.766028394286 61:16238.151402658184 62:16413.212567228657 63:16569.57412105009 64:16567.323494470485 65:16409.123908758138 66:16238.05154983672 67:16213.58244537695 68:16363.688362455463 69:16557.85543294898 70:16630.51074313764 71:16528.294120684768 72:16355.755584975777 73:16286.504236700644 74:16404.884921874214 75:16623.81125139234 76:16767.171604593685 77:16729.812133506002 78:16568.743510560325 79:16456.973483915386 80:16530.22303254552 81:16756.69395338368 82:16965.674713019325 83:17005.414976332046 84:16876.47530092933 85:16734.47800014504 86:16756.769316834838 87:16975.71702693181 88:17244.036885448808 89:17372.7300844603 90:17300.359971264967 91:17149.29345437128 92:17125.078372825752 93:17327.19602439202 94:17646.70113983864 95:17866.03991550664 96:17856.721384612847 97:17695.277324394614 98:17609.084410305477 99:17777.3542340521 100:18152.893247870263 101:18499.20266255289 102:18607.452316029583 103:18482.082243036457 104:18351.175894115248 105:18478.59717262256 106:18908.7093662757 107:19406.972192130015 108:19674.986213814576 109:19617.624918887373 110:19443.92063390527 111:19517.256516123198 112:20020.38200673747 113:20747.098110611307 114:21280.784182053223 115:21368.887546231035 116:21166.430119986286 117:21178.27002054217 118:21841.946632115007 119:23045.94100194478 120:24170.373035053664 121:24627.712878565482 122:24402.31476613257 123:24328.537379435675 124:25770.87300744293 125:29414.773832293853 126:34490.78624119875 127:39515.86216870576 
1.0 0:43210.851496544434 1:44881.280737934954 2:44515.957021676775 3:42746.06294825601 4:40629.12070423392 5:39185.493640370296 6:38824.06004948511 7:39161.96103621959 8:39479.763980117335 9:39311.03457732437 10:38685.651310572706 11:37995.82700613599 12:37643.55190379787 13:37718.10374691175 14:37965.00343500952 15:38045.62572228712 16:37815.9505678755 17:37407.373501550464 18:37088.968748293846 19:37033.60910962506 20:37181.62185538168 21:37316.194348709665 22:37261.46476496998 23:37020.409887822505 24:36754.45087537702 25:36636.70539721456 26:36703.91013706456 27:36835.34542277854 28:36869.04856365323 29:36740.52562795524 30:36527.858008504365 31:36376.840041819225 32:36373.468295718165 33:36474.0984361288 34:36552.44668719344 35:36513.214749617175 36:36369.506662110034 37:36224.33870781612 38:36177.61475496214 39:36239.787707676616 40:36327.738813717966 41:36342.13616230348 42:36252.9128550141 43:36120.65036158452 44:36040.519238200905 45:36058.80037185422 46:36135.11602925124 47:36182.05784822044 48:36142.77466928691 49:36037.53636655448 50:35942.59816365911 51:35922.20014178683 52:35973.43230237355 53:36032.12935074798 54:36031.745736416764 55:35960.79577704939 56:35870.27556271232 57:35827.27615564527 58:35856.02488692478 59:35918.240829544564 60:35948.839258633685 61:35912.908734363664 62:35833.95599807496 63:35771.197998826035 64:35767.09646015117 65:35811.34412927813 66:35852.490602885104 67:35844.79104979728 68:35787.57028549761 69:35723.82354249727 70:35700.95607689941 71:35728.78733945996 72:35772.04465770337 73:35782.98936294439 74:35743.77451033443 75:35681.385302042436 76:35643.24975804794 77:35655.39572830224 78:35700.10166377385 79:35732.42339293044 80:35719.7630214003 81:35669.25440571346 82:35620.10532220588 83:35608.56399790828 84:35636.482453552475 85:35671.01548452713 86:35674.700233133844 87:35638.33785354056 88:35588.16017932831 89:35562.01821467669 90:35575.98593023095 91:35610.924337612814 92:35630.39080144317 93:35613.00936078884 94:35570.52711999803 95:35536.47376349354 96:35536.03993215185 97:35563.99339135824 98:35590.092219508406 99:35586.46704267911 100:35552.15453437354 101:35513.45783108435 102:35500.305279880966 103:35519.61918879815 104:35549.33105142369 105:35558.08422712869 106:35532.73448230051 107:35489.589481944044 108:35460.07496274248 109:35463.57381325215 110:35491.222566119 111:35514.61630342541 112:35511.04080036532 113:35482.73016206284 114:35453.815153406555 115:35448.31648966817 116:35468.844363391145 117:35494.78138583329 118:35501.05137520433 119:35480.30718323294 120:35449.053206285345 121:35432.776305125684 122:35443.44544966822 123:35469.31027263912 124:35485.78107112767 125:35477.22669523755 126:35450.271571297555 127:35427.2586553578 
1.0 0:35426.03187511643 1:35444.09902899829 2:35461.21200058698 3:35457.74378349056 4:35432.262051236656 5:35402.85322828075 6:35391.20344354458 7:35403.51596942829 8:35425.156965250244 9:35433.654681755856 10:35418.34576068663 11:35389.45575539953 12:35368.96810435954 13:35371.45057258872 14:35391.681772787895 15:35409.820252861246 16:35409.19475874478 17:35390.87364752603 18:35372.46227892707 19:35372.45627965876 20:35393.927675483894 21:35421.7546538753 22:35435.485995936644 23:35426.24558966405 24:35403.129547495555 25:35384.20018804294 26:35380.54051459312 27:35387.53201763447 28:35390.661285950235 29:35379.93967940017 30:35359.570594926015 31:35344.22307771637 32:35345.462080239275 33:35360.753967915436 34:35375.15310137676 35:35374.25020916604 36:35356.82150751945 37:35335.97799084191 38:35327.78000893526 39:35337.29051473463 40:35354.348437900146 41:35362.70609354028 42:35354.30968937019 43:35336.16799186249 44:35323.97038624084 45:35328.20853704539 46:35345.054848727545 47:35359.94420739175 48:35360.44808658674 49:35346.95369261566 50:35331.92031534235 51:35328.64982710295 52:35339.63856482256 53:35354.779110977346 54:35360.7253914269 55:35352.772837926255 56:35338.64553559046 57:35331.03355388482 58:35335.78416833675 59:35346.50305376831 60:35350.47102321743 61:35340.47266737405 62:35321.801848221 63:35308.029730340946 64:35309.113807702546 65:35322.36468716009 66:35334.437848858004 67:35332.75470133062 68:35316.39184035837 69:35296.96366508924 70:35288.71138015814 71:35296.36535338724 72:35311.32393605788 73:35319.38141614197 74:35313.09098310449 75:35297.97008467511 76:35287.31984358289 77:35290.35750781464 78:35304.12999363693 79:35316.2532070484 80:35315.87488159275 81:35303.09182157201 82:35288.63236258702 83:35284.24237127161 84:35292.331026816195 85:35304.0259027239 86:35307.26074617953 87:35297.623904173684 88:35282.39571802729 89:35274.28608933327 90:35280.38207588488 91:35295.9791724959 92:35308.627558233464 93:35308.70706606529 94:35297.274142674396 95:35284.5696816694 96:35280.80594564808 97:35287.47259133252 98:35296.72296216828 99:35299.049572403754 100:35292.102187023585 101:35282.71787019864 102:35280.466636174955 103:35288.623260548375 104:35300.77157243616 105:35306.1652176875 106:35299.08811763238 107:35283.91871960558 108:35271.436118667436 109:35269.60286367023 110:35276.91345111805 111:35284.12194884552 112:35282.715719780885 113:35272.586712481054 114:35262.1820961177 115:35261.068824514536 116:35271.46897672059 117:35286.177480224454 118:35294.5923002785 119:35291.47250428131 120:35280.843019771266 121:35271.90935774736 122:35270.8401270566 123:35275.73458360963 124:35279.04461969307 125:35274.956098237766 126:35264.90555454669 127:35256.29890981909 
1.0 0:35255.71855982841 1:35262.863587632564 2:35270.75530973135 3:35272.00266445127 4:35265.418414773485 5:35256.999926628334 6:35254.3869737824 7:35259.79420698032 8:35267.839054179094 9:35270.29542627704 10:35263.53563945429 11:35251.97293843333 12:35244.3475548167 13:35246.056405161835 14:35254.32192656283 15:35260.56404733227 16:35257.95137714136 17:35247.498322047155 18:35237.33570848567 19:35235.7389167814 20:35243.96829562244 21:35255.18067444392 22:35260.34505590146 23:35255.961916038556 24:35246.89111024773 25:35241.926023087595 26:35246.049631883616 27:35256.13493482584 28:35263.747789367044 29:35262.43902789228 30:35253.09177099576 31:35242.79401318325 32:35238.46595619842 33:35240.99702935012 34:35245.015450687635 35:35244.24658862768 36:35237.432550991216 37:35229.45469866039 38:35226.76695735105 39:35231.41829354879 40:35239.18324413685 41:35243.50525752676 42:35241.58556556754 43:35236.966494547625 44:35236.14973085131 45:35242.2662776382 46:35251.64458811546 47:35256.64255643563 48:35252.440411629825 49:35241.76750719182 50:35233.154615690466 51:35233.906441355175 52:35243.739508004495 53:35254.68541246098 54:35257.52958740766 55:35249.389787328655 56:35236.034704147656 57:35227.01494012458 58:35227.769017217564 59:35235.40341369782 60:35241.61062572778 61:35239.99426164573 62:35231.393443341694 63:35222.75664128659 64:35220.81391939333 65:35226.24928308752 66:35233.45341272638 67:35235.84707837472 68:35231.81942775477 69:35225.93172430037 70:35224.40551045188 71:35229.08284327008 72:35235.42593658707 73:35236.46221745023 74:35229.176267274364 75:35217.596841665174 76:35209.71092370855 77:35210.78436418355 78:35218.901999114714 79:35226.653159846166 80:35227.489993761796 81:35221.20156218515 82:35213.78022510402 83:35211.8911951927 84:35216.86688083417 85:35223.531955845545 86:35224.86117611304 87:35218.31263519335 88:35208.25052898637 89:35202.341532103186 90:35205.07293531919 91:35214.02467527089 92:35222.06374096608 93:35223.41777958669 94:35218.29060522302 95:35212.14036870361 96:35210.50769788895 97:35214.12387395873 98:35218.61167114754 99:35218.85148938768 100:35213.89628023041 101:35207.93789157512 102:35206.48306904675 103:35211.24632900722 104:35218.4187674427 105:35221.89706758291 106:35218.56563713485 107:35210.9092478281 108:35204.676157451424 109:35203.756662245905 110:35206.90565358848 111:35209.2059005999 112:35206.81798635929 113:35200.59110162668 114:35195.2160591946 115:35194.737573709346 116:35198.63785803112 117:35202.22889378377 118:35201.10710413381 119:35195.57766102504 120:35190.82660445046 121:35192.40459745161 122:35200.940636517866 123:35210.95614955995 124:35215.14945964277 125:35210.59918359431 126:35201.4443835815 127:35195.51096275314 
1.0 0:35197.615887971966 1:35205.33417960433 2:35211.040202136086 3:35208.59557135209 4:35198.9296664724 5:35189.60627354533 6:35188.584635939675 7:35197.42094095023 8:35209.757182853115 9:35216.455720427184 10:35213.0332875468 11:35203.126988066055 12:35195.17025944342 13:35195.23710242459 14:35202.20882979372 15:35209.287714627164 16:35210.29149043204 17:35205.076131299764 18:35199.38967908162 19:35199.46281432863 20:35206.26398366269 21:35214.56227509126 22:35217.577797722515 23:35212.99637387516 24:35204.96857259558 25:35200.34443387135 26:35202.54066871486 27:35208.55247780571 28:35211.79690358841 29:35208.21811359387 30:35200.14582430367 31:35194.39050334447 32:35196.18809671402 33:35204.36011031588 34:35212.07133449988 35:35212.63682190762 36:35205.343038591796 37:35196.19628026519 38:35192.89816109303 39:35198.35360571533 40:35208.30176903545 41:35215.05603400286 42:35214.01920622027 43:35207.32666460795 44:35201.60531589251 45:35201.997623438874 46:35207.77964068391 47:35213.34916424017 48:35213.49747507216 49:35208.10943373851 50:35202.09813369464 51:35200.756763689875 52:35204.843975747695 53:35209.91678666831 54:35210.505336208356 55:35205.27067103695 56:35198.37491021544 57:35195.729906794746 58:35199.48005414189 59:35205.78942485451 60:35208.100350091954 61:35203.06221203347 62:35193.81285144389 63:35187.53621551261 64:35189.27758000095 65:35197.43155010466 66:35204.99013872704 67:35205.58670185242 68:35199.082113765675 69:35191.758302306436 70:35190.84817431742 71:35198.112278920074 72:35208.11027485216 73:35212.765334971715 74:35208.30057394299 75:35198.53582324612 76:35191.67453134986 77:35193.33314071224 78:35201.8315810154 79:35209.79627521619 80:35210.601519248135 81:35203.99462667812 82:35196.06826543559 83:35193.734352102896 84:35198.641183272855 85:35205.89801010248 86:35208.64346358086 87:35204.28759787038 88:35196.8299588398 89:35193.19894835003 90:35196.89091846566 91:35204.62128137015 92:35209.044294151565 93:35205.18841093615 94:35194.945786288066 95:35185.65786109909 96:35183.99511216014 97:35190.434607486815 98:35199.09362773801 99:35202.93507887242 100:35199.67293290119 101:35193.245391618126 102:35189.78049917056 103:35191.88576230461 104:35196.506399766266 105:35198.25093436181 106:35195.01221441605 107:35190.55378093651 108:35191.44536264041 109:35200.897187923394 110:35215.04696564564 111:35225.2926807915 112:35224.96317169061 113:35214.71326133276 114:35202.008290151236 115:35195.07121273546 116:35196.40329141681 117:35201.34485709664 118:35202.72832803613 119:35197.37885970925 120:35188.74189718791 121:35183.47007354198 122:35185.17711954285 123:35191.04286250055 124:35194.3338785783 125:35190.5346375311 126:35181.53071274568 127:35174.04655201176 
1.0 0:35173.69600985679 1:35179.97696215796 2:35186.75391679578 3:35187.84672698322 4:35182.71447085204 5:35177.08450383845 6:35177.851170560774 7:35186.71890193876 8:35198.31444369473 9:35204.60414697773 10:35201.82820071815 11:35193.85681563795 12:35188.934791805215 13:35192.54135297921 14:35202.55730100151 15:35210.99076756791 16:35210.77925349544 17:35201.754611787655 18:35190.63700530641 19:35185.153515881735 20:35187.491890784615 21:35192.839589565774 22:35194.19358595499 23:35189.02157271771 24:35181.744035290845 25:35179.77073814243 26:35186.606091343805 27:35198.24177747774 28:35206.207524059806 29:35204.72181468982 30:35195.69830827858 31:35187.18865325148 32:35186.54280946802 33:35194.19785479831 34:35203.491498243486 35:35206.60291895992 36:35201.35372846207 37:35192.93025035373 38:35189.112549502104 39:35193.30322646906 40:35201.55772086497 41:35206.21299255888 42:35202.80242748017 43:35194.057778456714 44:35187.45297635364 45:35188.5096080748 46:35195.868048810284 47:35202.54614205508 48:35202.22801023213 49:35194.904912997605 50:35186.80189366986 51:35184.667129711306 52:35189.595369811126 53:35196.036025860296 54:35196.96176556309 55:35190.53271274567 56:35182.13165938267 57:35179.713634941465 58:35186.448097896195 59:35197.28327156149 60:35202.78766435644 61:35197.18253874459 62:35183.63379247882 63:35172.06900596969 64:35171.157798838256 65:35181.20660814117 66:35194.06551983323 67:35200.11440561249 68:35196.27397203548 69:35188.1822592019 70:35184.792154217845 71:35190.21186862687 72:35199.9813388254 73:35205.03300080257 74:35199.77924975688 75:35187.17693863656 76:35176.337917049226 77:35174.79537478038 78:35182.21081493087 79:35191.011624884035 80:35193.277264555276 81:35187.68576440204 82:35180.39450551168 83:35179.17956871471 84:35186.15159346924 85:35195.632619777716 86:35199.13703204874 87:35193.00204992812 88:35181.838280028365 89:35174.67896383997 90:35177.175400066866 91:35186.73925359511 92:35194.95741518514 93:35195.12165333597 94:35188.17044764905 95:35181.78081938689 96:35183.420185028765 97:35193.53292792546 98:35204.9478412657 99:35209.04542195896 100:35203.19600213161 101:35192.89636097091 102:35186.770318407 103:35188.92723340781 104:35195.51884148184 105:35198.546882351955 106:35193.416196721366 107:35183.36317640531 108:35176.718204781515 109:35179.41292062536 110:35189.49305719979 111:35198.68250811513 112:35199.68737785548 113:35192.69749390574 114:35185.19805377714 115:35185.15523863737 116:35193.642300245796 117:35203.64260970042 118:35206.30409926722 119:35199.15775968998 120:35188.89001892118 121:35185.92880671824 122:35195.33106457765 123:35211.93846068018 124:35224.23192026434 125:35223.72012372521 126:35211.832075595004 127:35198.43878860602 
1.0 0:35193.34915438302 1:35198.19317889495 2:35205.7242583755 3:35206.951643654706 4:35199.56409521209 5:35190.075649073595 6:35187.823085846576 7:35196.28251580514 8:35209.65530480866 9:35217.9511106223 10:35216.04418615032 11:35208.47568277117 12:35205.47092061361 13:35213.4847216467 14:35228.701155003815 15:35239.57739657956 16:35236.55744530065 17:35220.61043554522 18:35203.0735711476 19:35196.673445978864 20:35205.254319058986 21:35221.00501364153 22:35231.49025670046 23:35230.22686915012 24:35221.59259752306 25:35216.00073880564 26:35219.88592128186 27:35229.627367462235 28:35234.95894615254 29:35228.765825214796 30:35214.30085870986 31:35203.061721276244 32:35204.87287974459 33:35218.86552953888 34:35233.593698472665 35:35236.54719475389 36:35224.91437424222 37:35208.19920390448 38:35200.26405232897 39:35207.55097636432 40:35223.71241984413 41:35235.351601854694 42:35233.763308542824 43:35222.32048598625 44:35213.06525950106 45:35215.581189929006 46:35228.107128502554 47:35238.96248970312 48:35237.12857216366 49:35222.55900657331 50:35206.923320605616 51:35203.82628008735 52:35216.881748602595 53:35236.18970995239 54:35246.52252628481 55:35240.18830349931 56:35223.433881241384 57:35210.88252303977 58:35212.86544678747 59:35226.72987840302 60:35239.722706974586 61:35240.7302866698 62:35230.31943742119 63:35220.1585391956 64:35222.354531379155 65:35238.24554521184 66:35256.79961892599 67:35264.18806143657 68:35256.02014760845 69:35241.31754857196 70:35234.59093962847 71:35242.92555034081 72:35259.59635617387 73:35270.056475282596 74:35265.037591516004 75:35249.08439086555 76:35236.83306552721 77:35240.1309299865 78:35257.34727609744 79:35274.5245933792 80:35277.511007847024 81:35264.36758916727 82:35247.073327321465 83:35240.94041589412 84:35251.02701921888 85:35267.69562443099 86:35275.401618811564 87:35266.8752377826 88:35249.974667216884 89:35240.93100002078 90:35249.763318896185 91:35270.869338393444 92:35287.49673416596 93:35286.41059766828 94:35269.84275381977 95:35254.04308396206 96:35255.36558902658 97:35275.87846005208 98:35301.259766910756 99:35313.00980282004 100:35304.29148276955 101:35285.560196703766 102:35275.11238844343 103:35282.86697255625 104:35301.77714831251 105:35314.562247634756 106:35309.6465138607 107:35291.93373470673 108:35278.68883587526 109:35284.035396853265 110:35305.926301911604 111:35327.551778290894 112:35332.18515590345 113:35318.21924897765 114:35300.83866680171 115:35298.519541559464 116:35316.15761457619 117:35340.12635448177 118:35350.15052778604 119:35337.63720580614 120:35314.076038870895 121:35301.62834305426 122:35313.66562357265 123:35342.417320407 124:35365.16385746446 125:35363.930861130575 126:35341.44250271159 127:35319.16761843823 
1.0 0:35318.72346023667 1:35342.66657047558 2:35371.84194726944 3:35381.99735573289 4:35365.11229737179 5:35336.666039607546 6:35322.2696785197 7:35335.11539420493 8:35364.24643569136 9:35384.43002650102 10:35378.98475403763 11:35355.19664309389 12:35338.38761576457 13:35349.35363748123 14:35384.99717976732 15:35419.918165913514 16:35428.16775506953 17:35406.13493729502 18:35376.32087543108 19:35368.15313871782 20:35392.10468656531 21:35430.074266860094 22:35451.07206548625 23:35438.56397359067 24:35405.40713756169 25:35383.06799917717 26:35394.065971826356 27:35431.80099143997 28:35466.11620582514 29:35469.94803314039 30:35443.41348572723 31:35413.97050508295 32:35412.097498845425 33:35443.68331137857 34:35484.161434907284 35:35500.29156404357 36:35480.316426732345 37:35445.53677224619 38:35432.404559161085 39:35460.05762276448 40:35512.17170074991 41:35550.27145796385 42:35547.28274427881 43:35511.726992331736 44:35480.94906686955 45:35488.39117812654 46:35533.29375184872 47:35580.50961367572 48:35591.4719063225 49:35559.00165167288 50:35515.03276827079 51:35503.540178460236 52:35541.43603317311 53:35602.47462431829 54:35639.7642163262 55:35627.37727710639 56:35584.184735838804 57:35558.27875619091 58:35584.25106221536 59:35650.780820060856 60:35708.88203914202 61:35714.71132883087 62:35669.2389672569 63:35619.48829174009 64:35618.55199896093 65:35677.98253337878 66:35755.694083966926 67:35792.021571212004 68:35762.57658226967 69:35701.37177157771 70:35672.86648663754 71:35715.15891302213 72:35804.32782836472 73:35873.94428471561 74:35873.69362715416 75:35815.31964720178 76:35764.89347504656 77:35785.49490747523 78:35878.987299088294 79:35980.93007833504 80:36016.042398318044 81:35965.74559484103 82:35888.304532079215 83:35871.33378076107 84:35954.027115721954 85:36088.370844120494 86:36178.16527411055 87:36163.14261218897 88:36074.63475333174 89:36013.160746780966 90:36062.046795358656 91:36209.977789584205 92:36355.857665536554 93:36395.91577952785 94:36316.81088114738 95:36213.656447956 96:36212.303307294016 97:36356.09812154923 98:36559.70584459882 99:36679.33436953916 100:36639.55521194867 101:36506.59883665437 102:36441.70072397252 103:36562.234666665274 104:36827.58303275591 105:37063.19256001763 106:37109.893461543696 107:36969.17934996011 108:36820.47362304791 109:36880.323761782056 110:37204.04248869914 111:37613.72314662527 112:37838.73222219036 113:37750.677701965906 114:37498.784147247876 115:37424.97140776774 116:37781.80023718726 117:38473.91907940209 118:39094.50359646732 119:39251.87076602048 120:38921.55922011266 121:38576.549246089846 122:38938.366084289846 123:40383.56645038005 124:42493.14105028771 125:44242.413058264174 126:44578.511008011585 127:42880.54285187825 
1.0 0:32774.022906192295 1:28627.75474141001 2:24432.53841405672 3:21414.139038352278 4:20213.273654764813 5:20270.383776350776 6:20458.839595561672 7:20084.86381203657 8:19157.186996647233 9:18159.84005932727 10:17607.034049042686 11:17594.919290282338 12:17764.164716746138 13:17696.50366028504 14:17261.460264992696 15:16666.03359299604 16:16254.095949570436 17:16196.757654741843 18:16343.88481234787 19:16395.082323166545 20:16176.615450443009 21:15766.243389226156 22:15410.680872168898 23:15305.047544306364 24:15414.346764837872 25:15521.106178080647 26:15435.86724438986 27:15153.120871139834 28:14843.565403225326 29:14701.602173355786 30:14766.782635759464 31:14892.62891146553 32:14892.650845701512 33:14704.518930752161 34:14435.308854575249 35:14265.765735217885 36:14286.43360389407 37:14414.71257269724 38:14479.687931122478 39:14379.16424569857 40:14163.133598048584 41:13987.16448491815 42:13972.492551106403 43:14092.335170519955 44:14200.559133140989 45:14169.053927223056 46:13997.589767949034 47:13811.353515647697 48:13750.886595417569 49:13842.277042236503 50:13973.992594728334 51:14004.200358054371 52:13886.790168132733 53:13708.8235940852 54:13614.680544350813 55:13674.443100497008 56:13817.34683449282 57:13900.507206857767 58:13839.194169159395 59:13679.04335943583 60:13557.092787460724 61:13579.818570825208 62:13722.473882269474 63:13853.010183373124 64:13854.486316986306 65:13726.355862643773 66:13584.575794721177 67:13560.681352101745 68:13679.815089219815 69:13836.81886081668 70:13896.451324246926 71:13814.850094380257 72:13677.834629217154 73:13627.70444004511 74:13732.55241262091 75:13918.87510098533 76:14040.186332825202 77:14009.52175141406 78:13874.92643028619 79:13780.952411946857 80:13841.04673562456 81:14029.002114168641 82:14202.637851554788 83:14235.402872264458 84:14127.749644410667 85:14009.460948676788 86:14028.130973352825 87:14209.764483321753 88:14429.935690482876 89:14529.484037588178 90:14456.733284242448 91:14315.499486165165 92:14281.376235331798 93:14441.842611479142 94:14707.718282049409 95:14895.821767500485 96:14896.094121004046 97:14770.473470775389 98:14708.268473752003 99:14859.282646097976 100:15183.810680784529 101:15483.132830330982 102:15581.129357721818 103:15480.098138960615 104:15370.373856193963 105:15474.07103815988 106:15830.986207413114 107:16246.660260960294 108:16470.813725926066 109:16421.44983351447 110:16271.040713020222 111:16323.348927846819 112:16734.021977322616 113:17333.852820572145 114:17774.996317107674 115:17844.06221112614 116:17667.7927120922 117:17667.58900054277 118:18212.55220454061 119:19214.17395711606 120:20155.969666160363 121:20544.831687703965 122:20363.184445435858 123:20302.33820578276 124:21498.547543500692 125:24527.710626847223 126:28753.69510367068 127:32941.35022792975 
1.0 0:36023.11348744792 1:37418.71474503195 2:37118.12650114188 3:35647.40424247264 4:33888.03492642544 5:32689.813262239313 6:32392.097340720033 7:32674.67881279354 8:32937.92108307645 9:32793.827295837385 10:32268.227806431387 11:31688.67799206089 12:31390.44433481005 13:31447.95123746589 14:31649.40198879721 15:31713.449563418373 16:31521.30299451633 17:31183.353984855476 18:30923.493775395873 19:30883.930699625955 20:31012.525100833605 21:31127.09243535833 22:31081.14066052881 23:30878.421752028553 24:30655.155648509717 25:30556.9821403019 26:30615.086347348297 27:30728.594666254714 28:30761.6526020712 29:30659.2198278737 30:30484.86258303586 31:30358.88838219567 32:30352.892611482526 33:30431.955043415124 34:30493.203643892448 35:30459.231538941007 36:30341.51194389733 37:30224.67516410472 38:30189.708629330646 39:30243.41497643685 40:30316.01863160504 41:30325.495451623614 42:30247.84198150612 43:30134.10419777903 44:30063.68650954236 45:30075.4668546131 46:30136.84085260325 47:30176.390938680106 48:30147.475065449304 49:30066.13056525497 50:29993.61832870957 51:29981.174390813558 52:30025.79393875449 53:30075.609698563632 54:30077.549305838576 55:30022.99394679121 56:29952.715879772197 57:29919.100384756242 58:29939.659763305197 59:29983.073334459725 60:29999.042382760057 61:29963.40266093257 62:29898.52904759241 63:29852.612430000016 64:29856.735880491102 65:29897.778701655232 66:29930.931994856495 67:29919.392826455452 68:29865.54117634033 69:29807.458752084363 70:29784.984055185014 71:29805.317951800294 72:29838.414027574938 73:29845.216639175625 74:29812.446321056745 75:29763.48090279369 76:29736.830730055204 77:29751.611836866436 78:29790.685995448228 79:29816.168990630835 80:29802.666534567627 81:29758.743426462 82:29718.679616787438 83:29712.300124965903 84:29739.372870049454 85:29770.919559304366 86:29775.41713510911 87:29746.026934489444 88:29705.425161430794 89:29684.95391385311 90:29696.832042276827 91:29724.003581358913 92:29736.150735419786 93:29716.840501581497 94:29677.71183240377 95:29647.844206868253 96:29648.056937121553 97:29672.88604003195 98:29696.02097826874 99:29693.750535700987 100:29665.311723028157 101:29632.702775422928 102:29620.76256108259 103:29635.326652551823 104:29658.770560416724 105:29666.431973765328 106:29648.70682097521 107:29619.246048913767 108:29602.43753197441 109:29611.476494149974 110:29636.562577879457 111:29653.64266426201 112:29645.584023731735 113:29616.938089267256 114:29589.628847786986 115:29583.607721214892 116:29599.54990180997 117:29618.83433116907 118:29620.509466073017 119:29599.926173593096 120:29572.758990466402 121:29561.16007939026 122:29574.26734353171 123:29600.216508401645 124:29616.549771421975 125:29609.54420660029 126:29585.532936823038 127:29564.751284729748 
1.0 0:29563.388568736034 1:29579.606290383585 2:29595.64713935872 3:29593.763889555623 4:29571.69822631085 5:29544.402101249136 6:29530.91563879644 7:29538.06763155261 8:29555.230836926778 9:29564.359249180205 10:29555.972458475913 11:29536.982038427413 12:29523.905868268415 13:29527.841794133634 14:29544.615396380374 15:29558.688322986087 16:29556.990891027228 17:29540.232200944112 18:29521.90754729166 19:29516.19187284192 20:29525.558054056666 21:29539.020511598446 22:29542.260519608117 23:29530.346147788103 24:29511.83158545358 25:29500.918754338025 26:29504.859405305513 27:29517.827334070793 28:29526.525432624047 29:29522.202521479012 30:29508.25185263424 31:29496.81264235461 32:29497.63741860795 33:29509.287532835693 34:29520.520834820538 35:29520.46678738284 36:29508.3539547772 37:29494.161250205718 38:29489.721870528203 39:29498.250782079518 40:29511.633840635877 41:29517.80497843462 42:29511.498133791305 43:29498.811597487263 44:29491.650146003612 45:29497.05206005225 46:29510.89356852047 47:29521.503351574833 48:29519.827207297138 49:29507.078047162282 50:29493.26357651639 51:29488.126600168252 52:29492.684211174066 53:29498.895208500828 54:29497.554115719155 55:29487.087566037473 56:29475.239483132325 57:29472.0957209183 58:29480.71153689844 59:29493.87076812659 60:29500.064899061283 61:29493.48185557585 62:29479.18631127095 63:29468.86366995252 64:29470.718315337806 65:29482.28937229037 66:29492.476189154157 67:29490.9944585224 68:29477.05635931609 69:29459.910355915556 70:29450.978200564692 71:29454.497452760974 72:29464.70471874395 73:29471.673324986896 74:29470.27403401608 75:29464.240858475372 76:29461.966895389058 77:29468.098818650542 78:29478.702600726127 79:29484.46973247819 80:29479.10042908658 81:29465.32423131528 82:29453.113194234895 83:29451.50945963127 84:29461.124422040986 85:29473.81675927751 86:29479.72195293844 87:29475.395847187072 88:29466.07180982654 89:29460.362135507534 90:29462.34772657095 91:29468.15116943899 92:29469.901236580423 93:29463.275618372525 94:29451.678425139078 95:29443.271171408793 96:29443.566473364022 97:29450.334437017525 98:29455.513091621884 99:29452.45366595654 100:29441.982897906375 101:29431.803810816567 102:29429.682212014704 103:29436.448535248735 104:29445.11325005403 105:29446.970870573925 106:29439.30421690894 107:29427.859969169043 108:29421.86339313629 109:29425.914566008647 110:29435.927362912647 111:29442.736525788154 112:29440.171308008365 113:29430.43773673288 114:29422.055436766565 115:29422.168882487455 116:29430.078205536814 117:29437.84186649988 118:29437.517155507998 119:29428.62746997033 120:29419.13120660517 121:29418.76053487616 122:29430.301773794752 123:29446.41533899046 124:29454.97896401461 125:29448.620368224754 126:29430.536939818674 127:29411.849928834203 
1.0 0:29402.786936226796 1:29405.059281003527 2:29411.642706155464 3:29413.73093134717 4:29408.580195796734 5:29401.534425887334 6:29400.79309660184 7:29409.751099975158 8:29423.680383581956 9:29433.54515978409 10:29433.453075880403 11:29425.252085739077 12:29416.51027620821 13:29413.920388210885 14:29417.987473206824 15:29423.46462042787 16:29424.74892886059 17:29421.133620114902 18:29417.226259907253 19:29418.38120135221 20:29425.48709716574 21:29433.917189309082 22:29437.544227956383 23:29434.082424957043 24:29426.8932639242 25:29421.69366574808 26:29421.265170530158 27:29423.069657402666 28:29421.969914220135 29:29415.498447091468 30:29406.711293716682 31:29401.81828576131 32:29404.564952826026 33:29412.459608648463 34:29418.475392844768 35:29416.987581711142 36:29408.810441903577 37:29400.810642426277 38:29400.203468915188 39:29408.314913613467 40:29419.215639553273 41:29424.504773414745 42:29420.215101114332 43:29410.00754116587 44:29402.020218417052 45:29402.12496576232 46:29409.342847424305 47:29417.202581399444 48:29419.61041890013 49:29415.97715168297 50:29411.21886736027 51:29410.872757502915 52:29415.841032385208 53:29421.48934189167 54:29421.832413927852 55:29414.965140660268 56:29404.848045986284 57:29397.86779403963 58:29397.263424838246 59:29400.412991771816 60:29401.40291598954 61:29396.55252192648 62:29387.934370858 63:29381.73393616643 64:29382.871501311656 65:29390.630104864096 66:29399.153057697516 67:29402.351952399804 68:29398.896683312913 69:29392.98438417144 70:29390.37619926925 71:29393.346017306558 72:29399.044459098222 73:29402.589141545952 74:29401.86291023198 75:29399.497965157756 76:29400.17734356898 77:29405.765644226554 78:29412.912124946644 79:29415.624053665317 80:29410.73746292702 81:29401.375471704927 82:29395.013233523987 83:29397.42448472732 84:29407.563423376163 85:29417.91817874535 86:29420.298788124703 87:29412.34469995796 88:29399.360390972048 89:29389.969961973842 90:29389.235562678914 91:29394.98205505416 92:29400.271962353458 93:29399.67332917927 94:29393.815972138975 95:29388.405493148915 96:29388.76764373666 97:29394.8679487951 98:29401.25916145736 99:29401.987419407462 100:29396.079524070836 101:29388.729696818846 102:29387.061623600934 103:29394.06646593984 104:29405.937319615867 105:29415.09600344587 106:29416.297997496153 107:29410.637212665224 108:29404.192747872974 109:29402.66747716053 110:29406.697002573408 111:29411.753261133665 112:29412.455933947916 113:29407.32129866211 114:29399.81494710936 115:29394.997198111505 116:29394.941073267208 117:29397.065748833727 118:29396.782132337787 119:29391.92495985921 120:29384.89630922887 121:29380.57935877199 122:29381.911740019572 123:29387.11723823599 124:29391.109301696473 125:29389.845306934007 126:29383.80526173666 127:29377.583952766792 
1.0 0:29376.014767397417 1:29380.23840925015 2:29387.077548595615 3:29392.069937554406 4:29393.295984877535 5:29392.59268450368 6:29393.251329969033 7:29396.508791121953 8:29400.16812630562 9:29400.635187259468 10:29396.45318007188 11:29390.019008443513 12:29385.825919535557 13:29386.75141966828 14:29391.704563829593 15:29396.71014056082 16:29398.364913259324 17:29396.46981735966 18:29393.490218313644 19:29391.52032211103 20:29389.82262722158 21:29385.509479862114 22:29376.909329061356 23:29366.404284052624 24:29359.687541368377 25:29361.50529049194 26:29371.33001249753 27:29382.924413509136 28:29388.660215000647 29:29385.33065133684 30:29376.69614740014 31:29370.53048966457 32:29372.45198791022 33:29381.566429279526 34:29391.48889414923 35:29395.777572634808 36:29393.120414196732 37:29387.94969939408 38:29386.151256924088 39:29389.738749089916 40:29395.18669388042 41:29396.828444614373 42:29392.221706403157 43:29384.65907892563 44:29380.528679066287 45:29383.769161953536 46:29392.27284136054 47:29399.446989277076 48:29399.64040208714 49:29392.771212263717 50:29384.20188725853 51:29380.018410758097 52:29381.82712760019 53:29385.575395606545 54:29385.359852127887 55:29378.828382079337 56:29369.45100954356 57:29363.714849983 58:29365.70620658503 59:29373.77164049362 60:29382.071912049505 61:29385.53492815005 62:29383.829334897862 63:29381.00996832965 64:29381.388938627595 65:29385.48248570493 66:29389.693243753063 67:29389.916804064203 68:29385.675529841796 69:29380.92054610794 70:29380.67135462212 71:29386.452921571246 72:29394.652429496862 73:29399.363146647393 74:29397.28381522504 75:29390.4083431895 76:29384.187903642574 77:29382.822817618428 78:29385.847641248292 79:29388.9782800361 80:29388.339181425217 81:29384.16257930398 82:29380.573810888065 83:29381.64681314702 84:29387.336904028776 85:29393.086463957516 86:29393.612486909387 87:29387.56662136179 88:29378.879321628432 89:29373.473988244194 90:29374.15639673291 91:29378.209205346953 92:29379.91435750766 93:29375.846774401747 94:29368.24559636102 95:29363.361227116897 96:29366.045531638112 97:29375.23473920639 98:29384.35588409058 99:29386.483313301367 100:29379.947806467608 101:29369.675192651936 102:29363.132715460055 103:29364.304570252 104:29370.75110689244 105:29376.10158978536 106:29375.643090834983 107:29370.130447507396 108:29364.684266320157 109:29364.00148155225 110:29368.249663387738 111:29373.24008615567 112:29374.520760703865 113:29371.507978431207 114:29367.850262103817 115:29367.74274307967 116:29371.671396650225 117:29375.651815852238 118:29374.83857809137 119:29368.28865253555 120:29360.42590978057 121:29357.562801387823 122:29362.28162324843 123:29370.633677704107 124:29374.901799064857 125:29369.876718130276 126:29357.434553290117 127:29345.468805073288 
1.0 0:29341.88411743973 1:29348.523368801885 2:29360.01988331286 3:29368.429351625055 4:29369.65330698185 5:29366.308281544512 6:29364.859190923115 7:29369.70842860899 8:29379.39119333113 9:29388.02686032538 10:29390.522278044104 11:29386.852047803342 12:29381.751786269568 13:29380.293494437756 14:29383.394739598818 15:29387.246715102257 16:29387.046341003857 17:29381.56022863807 18:29374.385334827068 19:29370.79868071479 20:29373.05331664206 21:29378.364080315318 22:29381.396884488408 23:29379.022170797183 24:29373.08285235922 25:29368.71841827556 26:29369.73556267988 27:29375.132191345954 28:29379.85047228398 29:29379.07366101477 30:29372.282037162353 31:29363.5851563693 32:29358.183086009747 33:29358.177353672876 34:29361.388102837973 35:29363.991380400053 36:29364.30352108522 37:29364.11344439616 38:29366.389440206676 39:29371.682240865008 40:29376.86404141208 41:29377.699961693423 42:29373.071603070435 43:29366.885109477684 44:29365.538047816193 45:29372.76133893677 46:29386.210816791252 47:29398.92697078509 48:29404.639682112975 49:29402.512285295223 50:29397.325082471238 51:29394.971736977215 52:29397.177533698316 53:29400.0475063635 54:29397.713856226226 55:29387.86806333366 56:29374.30270879222 57:29364.184234646782 58:29362.35512702694 59:29367.566086791274 60:29373.85609573983 61:29375.772999003777 62:29372.80301535214 63:29369.188171845646 64:29369.461845835733 65:29373.84694595252 66:29377.766318993836 67:29375.97779513602 68:29367.6185048031 69:29357.543845525426 70:29352.57769535127 71:29355.82085859907 72:29364.00405564565 73:29370.290082540654 74:29370.14175102437 75:29365.1583453053 76:29361.54326892395 77:29364.537468937287 78:29373.689950515036 79:29383.12399011871 80:29386.557928738064 81:29382.66018745291 82:29376.064381672553 83:29373.19674621799 84:29376.60669183205 85:29382.790858146513 86:29385.38670175563 87:29380.84718844226 88:29371.567322823674 89:29363.759818731804 90:29362.04287872816 91:29365.595333632256 92:29369.279620340083 93:29368.61463978951 94:29364.005392242223 95:29360.344135825075 96:29362.316801759258 97:29369.705001325423 98:29377.089176475303 99:29378.426093436155 100:29372.512827201663 101:29364.4161009712 102:29361.405549817202 103:29366.78157892145 104:29376.973046351184 105:29384.51855623392 106:29384.391781693506 107:29378.191891566403 108:29372.58893105406 109:29373.41912631662 110:29380.621638065382 111:29388.448314429654 112:29390.66901759227 113:29386.057227060097 114:29379.257806998212 115:29376.316726285775 116:29378.971946641657 117:29382.97579521035 118:29382.095418539957 119:29374.227471432252 120:29364.008042461395 121:29359.291715414118 122:29364.33783825131 123:29375.690794634596 124:29384.624107361717 125:29384.317277773484 126:29375.6985813632 127:29366.882501717635 
1.0 0:29366.51323228214 1:29376.555494665445 2:29390.649967167366 3:29399.421337715477 4:29398.178618931786 5:29390.5025237193 6:29384.835449100323 7:29387.157089893983 8:29396.076412163384 9:29404.428899537834 10:29405.721276611795 11:29399.651422627765 12:29391.99644500958 13:29389.251330399617 14:29392.971198743664 15:29398.845929586652 16:29401.109161968616 17:29398.031269878087 18:29393.3886848208 19:29392.60881017814 20:29397.244792449557 21:29403.0395668797 22:29403.569995715112 23:29396.273506166435 24:29385.337362359347 25:29378.61533326797 26:29381.06553731868 27:29390.452953160202 28:29399.20543018325 29:29400.875905592868 30:29395.55356142432 31:29389.493670259904 32:29389.344868130094 33:29396.14710842297 34:29404.486180688258 35:29407.529300802442 36:29403.324367892677 37:29396.601844438803 38:29394.387194024166 39:29399.378166178758 40:29407.202863760052 41:29410.253490664836 42:29404.77167689432 43:29394.753728517586 44:29388.921778584092 45:29393.16775457139 46:29405.117770896057 47:29415.84147907048 48:29417.444942107133 49:29409.960085160885 50:29401.410513942054 51:29400.820120053733 52:29410.180852686586 53:29422.503099750316 54:29427.80893750988 55:29421.874602625336 56:29410.041939679824 57:29402.685332245223 58:29406.219909385134 59:29417.556620929805 60:29426.958366882984 61:29426.770718579763 62:29418.238581326914 63:29410.30438492843 64:29411.382729955865 65:29421.442192304155 66:29431.637076923565 67:29432.042363326287 68:29420.705604547733 69:29405.90424919956 70:29399.360040705233 71:29406.154585738255 72:29420.2469844433 73:29429.734938689435 74:29427.35118953916 75:29416.969959394213 76:29410.311987752462 77:29416.573882933277 78:29434.04574877695 79:29451.230224506056 80:29456.604264235943 81:29448.464447151786 82:29436.201401319027 83:29431.838445544367 84:29439.261958797866 85:29450.781777583165 86:29454.226606938922 87:29444.2964933422 88:29427.980902109848 89:29418.96845208264 90:29425.66421654974 91:29443.357541574547 92:29457.756634402063 93:29457.10851516873 94:29442.44893009244 95:29427.023330822478 96:29425.165467008785 97:29440.085257905415 98:29461.176407417992 99:29473.195304711942 100:29469.234511099756 101:29456.233977007167 102:29448.41202267757 103:29454.522529326947 104:29470.249957481697 105:29482.4463610369 106:29481.221117188765 107:29468.8963989139 108:29457.783465701865 109:29458.789808182908 110:29471.21148297474 111:29483.18592752632 112:29482.614826742985 113:29468.70194453963 114:29453.492053549206 115:29451.581488654647 116:29466.868405454647 117:29488.351878854523 118:29499.20582183366 119:29491.388360486046 120:29472.90474061557 121:29461.088950326914 122:29467.46596371965 123:29487.494312750063 124:29504.555388187302 125:29504.87185119556 126:29490.130625485668 127:29476.44485561904 
1.0 0:29480.165325573256 1:29502.852569909628 2:29529.030870143295 3:29539.230974142483 4:29527.07918524554 5:29505.393186420566 6:29495.57669706557 7:29509.076078791866 8:29537.07127916388 9:29557.79052597669 10:29555.257932080964 11:29533.151929844378 12:29511.710657260483 13:29510.20436792887 14:29530.173782466383 15:29554.318020090926 16:29562.066938096756 17:29547.924288310605 18:29526.331179387005 19:29518.70646121916 20:29534.060009902998 21:29560.653652571928 22:29576.50801629566 23:29569.396375339802 24:29548.301613740907 25:29535.797638848428 26:29547.675742618867 27:29578.0047816292 28:29603.6388468637 29:29604.70209180451 30:29582.888747293793 31:29560.998765602533 32:29563.306990076675 33:29593.565826619106 34:29630.59116977148 35:29646.191268080824 36:29629.99644179273 37:29599.341149812753 38:29585.00009656178 39:29604.425292976306 40:29645.917606875228 41:29678.37250503887 42:29678.39950863352 43:29651.00648978891 44:29625.603891708164 45:29630.262478946188 46:29666.51133929041 47:29707.510766768944 48:29721.779261732838 49:29701.440189123805 50:29669.876595962967 51:29661.497454258177 52:29690.79278435831 53:29738.500924898435 54:29768.235300328648 55:29759.14574589179 56:29725.473214200327 57:29705.049037153305 58:29725.642656668395 59:29778.702406019598 60:29825.195828459226 61:29829.55044965014 62:29791.917594547805 63:29749.99214819079 64:29747.277291255097 65:29794.282524873357 66:29857.71568559339 67:29888.895645791024 68:29866.843481800344 69:29818.17110929332 70:29795.427895710545 71:29830.909153822897 72:29906.381173120833 73:29967.4648727321 74:29971.088955006275 75:29924.28912699147 76:29879.980977822273 77:29891.373335241562 78:29963.510150398488 79:30046.534233798764 80:30078.877592972098 81:30042.54373666918 82:29981.69323337943 83:29966.351154406784 84:30029.844672032108 85:30135.69845861867 86:30206.998160431485 87:30193.869267279202 88:30119.947987952433 89:30066.206433888176 90:30101.717874722737 91:30219.58337183989 92:30338.608134130245 93:30373.006040100387 94:30309.339250839075 95:30223.68235711356 96:30220.035465178444 97:30337.28480169243 98:30508.536310999047 99:30615.752452755674 100:30593.452630884884 101:30491.38400310069 102:30439.72681015047 103:30536.932916666447 104:30754.194861119664 105:30950.901995598597 106:30994.635728743007 107:30881.914011210592 108:30756.55826842431 109:30797.83130605145 110:31057.299666353716 111:31394.56968093645 112:31587.365476617328 113:31524.211768364188 114:31320.167647080238 115:31253.313792796507 116:31536.750557427356 117:32102.48497549732 118:32622.117573531355 119:32769.932938644466 120:32514.80508406657 121:32234.31254521321 122:32519.29757798841 123:33691.49829397983 124:35423.91495907318 125:36880.41157520762 126:37186.8222059666 127:35816.831961480115 
1.0 0:27694.331412739506 1:24197.440792310088 2:20658.913734034268 3:18112.863791156036 4:17099.652156825512 5:17147.125798227797 6:17304.399304934333 7:16985.5077276474 8:16198.185160834662 9:15352.95280328211 10:14886.516896983383 11:14880.641023389226 12:15029.305172251858 13:14975.541337803961 14:14606.511303359614 15:14096.839092537546 16:13739.969493679651 17:13685.36850033293 18:13809.421223837817 19:13857.991718086605 20:13681.943367694641 21:13344.529488691001 22:13052.416667973705 23:12969.523634865944 24:13066.194769100912 25:13159.043935035834 26:13088.316220299675 27:12849.650469956445 28:12587.766230549436 29:12467.513602795982 30:12522.510846839059 31:12628.459350983056 32:12626.894326108917 33:12464.750567502988 34:12233.237454594417 35:12086.766383550314 36:12103.19911331962 37:12212.385013193809 38:12268.017085429068 39:12181.834345338846 40:11995.563019642961 41:11842.008582035276 42:11825.901362802333 43:11925.856717214101 44:12017.578151636386 45:11990.987951619245 46:11844.85425410333 47:11685.723147076813 48:11634.382827697176 49:11714.226822653729 50:11830.165925284893 51:11859.911783310637 52:11762.313272339945 53:11610.521078351958 54:11528.246211534422 55:11577.19868455174 56:11698.576513121561 57:11770.256242977483 58:11718.160399335313 59:11579.313172813076 60:11470.348371859089 61:11484.231620959443 62:11603.016007795046 63:11715.950316172039 64:11723.061785248514 65:11622.319838734586 66:11510.887890147538 67:11499.817129906978 68:11610.038494290055 69:11751.315470630472 70:11807.033049910155 71:11737.839888917133 72:11615.51169834141 73:11562.387713802826 74:11640.464370690717 75:11791.579793831115 76:11892.846717637427 77:11868.81670073608 78:11757.11281787743 79:11677.706133045825 80:11726.13637285947 81:11881.440847380145 82:12024.678624249724 83:12049.192547668463 84:11955.12160459684 85:11852.335203149722 86:11866.672258896668 87:12021.53650770222 88:12212.483757511438 89:12304.772234281283 90:12254.071041253872 91:12147.33792042044 92:12131.874119295742 93:12280.103659645358 94:12515.16369702865 95:12681.056977462855 96:12683.763732593628 97:12574.895526473678 98:12514.72313452776 99:12631.96496326924 100:12896.363181607474 101:13142.451337628334 102:13222.11524149596 103:13136.870050561933 104:13046.5678999368 105:13137.453205494357 106:13441.636642103402 107:13793.99595318506 108:13983.339333191781 109:13941.655905042811 110:13816.388221149986 111:13865.087650454316 112:14218.216339684363 113:14730.675336969462 114:15107.565452328883 115:15170.061092513737 116:15028.815183488834 117:15042.787147703351 118:15521.916235116385 119:16384.80959452142 120:17189.26904305794 121:17517.44738469461 122:17359.062287803124 123:17308.614885121227 124:18336.992880794794 125:20930.76932892078 126:24541.39073647559 127:28113.425494602034 
1.0 0:30737.10589276253 1:31919.09954062808 2:31652.63580374838 3:30388.220973785203 4:28879.384325003 5:27851.93963482234 6:27594.876103756756 7:27833.46725551121 8:28055.083283376654 9:27929.009022739014 10:27478.58799381339 11:26984.60800360529 12:26733.32561193257 13:26786.887858957987 14:26962.611973291172 15:27019.21278988863 16:26855.290191752338 17:26565.77266764379 18:26342.6014451482 19:26307.777488029213 20:26417.221734503153 21:26515.92682485162 22:26479.45325982394 23:26311.21610437145 24:26126.604686377555 25:26047.812385403045 26:26099.139891136994 27:26193.615234291996 28:26216.668816095975 29:26124.28356376001 30:25973.52360846463 31:25867.855868860075 32:25866.32498138092 33:25935.37192635163 34:25984.169997323184 35:25946.1473937057 36:25833.198204054974 37:25720.903423215303 38:25681.072574521953 39:25720.305771343246 40:25778.312250845083 41:25784.277968292576 42:25717.878796225374 43:25623.459279019866 44:25568.799298741433 45:25585.28810887266 46:25642.075460901622 47:25675.893408042415 48:25647.0445709375 49:25571.885096426995 50:25506.27495440944 51:25495.96409968754 52:25537.383399226987 53:25583.058742583107 54:25584.78927080946 55:25534.828862328366 56:25470.470716555563 57:25440.094950852843 58:25460.85759704423 59:25505.187463448652 60:25526.91926319721 61:25501.99457429556 62:25447.915249177866 63:25406.67947497899 64:25407.148794888297 65:25440.162958057514 66:25468.0730070419 67:25458.809671647286 68:25413.53821988603 69:25364.546362897283 70:25346.274548735426 71:25365.24253899937 72:25395.440464824766 73:25402.47098126308 74:25373.963426594913 75:25329.657561675438 76:25303.268082529255 77:25312.497087470394 78:25343.782229841363 79:25365.02293059965 80:25354.11124809167 81:25317.788242134044 82:25284.96524790378 83:25280.88567361229 84:25304.942070918365 85:25331.68235216163 86:25333.5377578874 87:25304.693232191083 88:25265.587348755635 89:25244.807656994613 90:25254.40600989624 91:25280.217058349153 92:25295.19843604717 93:25283.190275681023 94:25252.122349929476 95:25225.899493348086 96:25222.785635637603 97:25239.586620057147 98:25255.457536730555 99:25251.241173288916 100:25226.627609190502 101:25200.15081264595 102:25192.439928324566 103:25207.759919965385 104:25230.32601740437 105:25238.449923725057 106:25223.57293910097 107:25197.418005251973 108:25181.319769170495 109:25187.301009197832 110:25207.652566799534 111:25222.13182835945 112:25216.028049080367 113:25192.984764406476 114:25171.56606113369 115:25168.796325074818 116:25185.172083734535 117:25204.306361723022 118:25207.245945992923 119:25188.62289966009 120:25160.748817387146 121:25142.568465292865 122:25143.381710915633 123:25155.573300141805 124:25162.35317062827 125:25153.05548521661 126:25132.27876689925 127:25115.17548440454 
1.0 0:25113.541145105286 1:25125.34286524445 2:25137.022333107972 3:25136.172391113367 4:25122.908053906845 5:25109.7345884079 6:25110.10608950833 7:25125.969330110893 8:25145.583355699524 9:25153.648378505717 10:25144.68526777076 11:25127.82677085751 12:25118.798902618004 13:25126.052590270945 14:25143.23781576364 15:25154.69708629873 16:25149.102791150657 17:25129.31227893041 18:25109.99875296253 19:25105.164495449128 20:25116.315680555905 21:25131.485540199123 22:25135.72307987668 23:25123.730385841303 24:25103.881658134873 25:25090.59342861356 26:25091.97023529305 27:25103.477988824085 28:25112.807014516355 29:25111.08749896504 30:25100.337625288346 31:25090.85753415673 32:25091.34948051449 33:25100.87531788482 34:25109.884252372838 35:25109.16645615666 36:25098.447586820042 37:25086.84244543774 38:25084.76273533335 39:25094.52271906909 40:25108.09233173354 41:25114.01878395066 42:25107.308468158597 43:25093.540169218835 44:25083.69138205841 45:25084.346235652247 46:25092.020583436668 47:25096.632680479248 48:25090.905297958438 49:25077.227371059747 50:25065.84890023994 51:25065.955776904815 52:25077.490663987814 53:25090.999987217274 54:25095.667002530896 55:25088.46126732294 56:25076.470722895 57:25070.496142109903 58:25075.554257058215 59:25086.58643734084 60:25093.023354520617 61:25088.02418712226 62:25074.264783859864 63:25061.395012559067 64:25057.609276011637 65:25062.824356563724 66:25069.371464361517 67:25069.29000526799 68:25061.485466785307 69:25052.38156412816 70:25049.676989734537 71:25055.017013573564 72:25062.33905355386 73:25063.445895664503 74:25055.732739620445 75:25045.005194523837 76:25040.675988461935 77:25047.433583883674 78:25060.77401749763 79:25070.508278288376 80:25069.298227543648 81:25058.813388494225 82:25048.15738550862 83:25045.88391839399 84:25052.503211437284 85:25060.026740271638 86:25058.964193803917 87:25046.692749749967 88:25030.000137386698 89:25019.642129879663 90:25021.549559636504 91:25032.147473291858 92:25041.63918334737 93:25042.21000133659 94:25034.07187500111 95:25024.456111205214 96:25020.849287044846 97:25024.579752433172 98:25030.25576900561 99:25031.167620334712 100:25025.511813040346 101:25017.841926972742 102:25014.646279989764 103:25018.25047769805 104:25024.664659776827 105:25027.306989791294 106:25023.137925435127 107:25015.581635143913 108:25011.550229850458 109:25015.207267196838 110:25024.081254454348 111:25031.07122597557 112:25030.592047055627 113:25023.406585705845 114:25015.881199245207 115:25014.333969625037 116:25019.47920256497 117:25025.88609951257 118:25026.881686323348 119:25020.47860538003 120:25011.062393946715 121:25005.38932455757 122:25006.506910316217 123:25011.070286734954 124:25012.484674589596 125:25007.051490706443 126:24997.589278996173 127:24991.22645806405 
1.0 0:24993.2142158626 1:25002.190433012263 2:25011.13674457741 3:25013.269588720083 4:25007.760715468332 5:25000.342124058563 6:24998.285221635884 7:25004.100163955034 8:25013.402085566217 9:25018.727579093476 10:25015.88884654455 11:25007.34644792719 12:24999.79990598903 13:24998.24526196538 14:25001.76244541585 15:25004.67022107644 16:25001.872947386873 17:24993.556544589555 18:24985.086726001657 19:24982.270281388246 20:24986.236568451182 21:24992.499316663725 22:24994.99333031466 23:24991.445364793653 24:24985.31497229185 25:24982.632473762074 26:24986.57414374922 27:24994.598101309377 28:25000.659523176437 29:25000.48920247889 30:24995.246410627296 31:24990.37040939376 32:24990.717307082792 33:24996.322271897356 34:25002.516657370164 35:25004.19700665766 36:25000.350607587083 37:24994.79656919856 38:24992.544191067896 39:24995.10578528877 40:24999.04236686146 41:24999.098505417143 42:24993.119975193335 43:24984.31384882788 44:24978.741738601548 45:24980.1549811717 46:24986.687126909936 47:24992.34294669837 48:24992.011550176998 49:24985.655361654804 50:24978.095785548852 51:24974.68025237613 52:24976.688788927342 53:24980.509287540874 54:24981.211075686027 55:24977.221430266876 56:24971.87612214837 57:24970.442138285875 58:24975.263202289487 59:24983.390206222164 60:24988.87974866863 61:24987.794575838787 62:24981.546207559048 63:24975.67594268069 64:24975.143610832212 65:24980.22347683242 66:24986.543023416125 67:24989.117767390926 68:24986.730913447067 69:24982.793818664773 70:24982.008991389936 71:24985.893177417318 72:24991.219626600694 73:24992.80199416584 74:24988.128813748943 75:24979.696561303186 76:24972.933327100196 77:24971.520402062437 78:24974.266175939345 79:24976.350632084006 80:24973.868247954077 81:24967.62882175288 82:24962.775265583925 83:24964.410498578072 84:24972.95364276023 85:24983.288355255838 86:24988.548600569597 87:24985.411575564318 88:24976.51429680528 89:24968.08375081827 90:24964.885975124358 91:24966.763180469232 92:24969.525559165453 93:24969.138556474467 94:24965.387819736028 95:24961.86507503075 96:24962.467618495077 97:24967.652438748282 98:24973.80277002564 99:24976.214149935633 100:24972.994220155077 101:24966.457912746908 102:24960.91134001289 103:24958.91656827682 104:24959.38666312529 105:24959.097997009983 106:24956.06227249923 107:24951.55404882591 108:24948.898880581288 109:24950.15523406912 110:24953.817863526758 111:24955.80026481911 112:24952.971801931155 113:24946.13774590551 114:24939.729325063672 115:24938.30277209452 116:24942.76919275459 117:24949.599076056114 118:24953.717777798698 119:24952.634792815134 120:24948.322716683164 121:24945.328789361367 122:24946.81606867794 123:24951.93779839267 124:24956.704855434873 125:24957.4408353815 126:24953.758830532584 127:24948.576660564835 
1.0 0:24945.371217516444 1:24945.24332881465 2:24946.373679137243 3:24946.170712599243 4:24943.963344102438 5:24941.69034456847 6:24941.97341374385 7:24945.41575678078 8:24949.70049275707 9:24951.408351145506 10:24948.959947016447 11:24944.0303829821 12:24940.138377034833 13:24939.645708491866 14:24941.83647688979 15:24943.77202909564 16:24943.103377052015 17:24940.260803759273 18:24938.027565217668 19:24938.89432543549 20:24942.625488144095 21:24946.299147790058 22:24946.83672329836 23:24943.75791181103 24:24939.666471088276 25:24938.003183559507 26:24940.072702732905 27:24944.02964483293 28:24946.739807125814 29:24946.795249571886 30:24945.873081249658 31:24947.104181536797 32:24951.86015894008 33:24957.912654591444 34:24960.8076341332 35:24957.445434286525 36:24948.814151136175 37:24939.44556967863 38:24933.94784375433 39:24933.52135559184 40:24935.426440206687 41:24935.81202323362 42:24933.36776604137 43:24930.553673593895 44:24931.313344292845 45:24937.303007584487 46:24946.027455087293 47:24952.6247812605 48:24953.809643506458 49:24950.549755544027 50:24947.12456549943 51:24947.35202684726 52:24951.251226568384 53:24955.054127396925 54:24954.555730039712 55:24948.874487864003 56:24941.355935526757 57:24936.849796087015 58:24937.732751700383 59:24942.113695469066 60:24945.709012717612 61:24945.643381960155 62:24942.802073933384 63:24940.733161423293 64:24942.193618459074 65:24946.50803616972 66:24950.132500875352 67:24949.89165820497 68:24945.936235673813 69:24941.724909645163 70:24941.00818388224 71:24944.494683478344 72:24949.197236146098 73:24951.07089783074 74:24948.604714166813 75:24944.175875788576 76:24941.963733058998 77:24944.272404820436 78:24949.523575049298 79:24953.679956279793 80:24953.781931605125 81:24950.41607026229 82:24946.949507320078 83:24946.3106615454 84:24948.31974363845 85:24950.049142250973 86:24948.86532463614 87:24945.261298933197 88:24942.69999616144 89:24944.409447636248 90:24949.98219174985 91:24955.04731562718 92:24954.668670886167 93:24947.733069442074 94:24938.488125857344 95:24933.640828554628 96:24937.192199392535 97:24947.248904240325 98:24957.515502012313 99:24962.24164830671 100:24960.499579958643 101:24956.31465658805 102:24954.750305882248 103:24957.477224137434 104:24961.695131266206 105:24963.213126043123 106:24960.74975824624 107:24957.440319625905 108:24958.069473794152 109:24964.436538337504 110:24973.067423847035 111:24977.525243475342 112:24973.511321225586 113:24962.416536310127 114:24950.234547589065 115:24942.70559338244 116:24940.834010764625 117:24940.636974019366 118:24937.28207462354 119:24929.896336219215 120:24922.726788740165 121:24921.527086607417 122:24928.27394800263 123:24938.90626744209 124:24946.239592619328 125:24945.697663901763 126:24939.00577717258 127:24932.675434794888 
1.0 0:24932.50955457307 1:24938.756689158916 2:24946.01557222898 3:24947.918512675536 4:24942.54839810691 5:24934.002821802187 6:24928.869397253966 7:24930.69822768755 8:24937.196417033574 9:24942.43288170782 10:24941.981167047375 11:24936.497945991432 12:24930.7652889606 13:24929.23434773165 14:24932.09054916647 15:24935.267583620218 16:24934.247762464627 17:24928.149210331118 18:24920.46597141389 19:24915.89586740936 20:24916.180083488176 21:24918.71052770657 22:24919.112547709698 23:24915.404464597133 24:24909.943059387322 25:24907.38788913575 26:24910.502123300415 27:24917.562719828275 28:24923.721057170325 29:24925.113863522707 30:24922.084804402413 31:24918.706111184067 32:24919.08588029503 33:24923.771026687577 34:24929.408035632234 35:24931.84370864916 36:24929.76265676536 37:24925.571712252262 38:24922.84196670065 39:24922.804030574895 40:24923.25263625341 41:24920.931355699893 42:24915.1301816433 43:24908.96625286846 44:24906.867991656647 45:24910.352249652784 46:24916.01658419765 47:24917.92433077993 48:24912.638407580267 49:24902.583321137496 50:24894.58776881164 51:24894.506559139176 52:24902.3331011847 53:24912.044328583896 54:24916.486230178834 55:24913.263791996415 56:24906.66677423326 57:24903.959153514734 58:24909.11886674859 59:24919.332499965316 60:24927.240773770933 61:24927.008030461904 62:24919.05437479692 63:24909.503147448606 64:24904.91728025234 65:24906.87552428646 66:24911.001314185323 67:24911.130418636792 68:24904.852720374794 69:24895.600671242293 70:24889.584885788187 71:24890.38087741097 72:24895.956146916134 73:24900.677739708026 74:24900.381659889685 75:24895.939379590232 76:24892.218725719566 77:24893.494352904996 78:24899.513500330442 79:24905.774667455793 80:24907.708217874675 81:24904.891570627748 82:24901.418690197104 83:24902.04671244892 84:24907.61774490934 85:24914.008924155263 86:24915.72319506735 87:24910.987734850107 88:24903.742672383716 89:24900.5449610293 90:24904.901516011374 91:24913.95997002075 92:24920.579120545546 93:24919.137612736402 94:24910.15924269131 95:24899.828176385912 96:24894.83498331046 97:24896.988643590947 98:24902.197758781553 99:24904.556184978504 100:24901.78757986937 101:24897.20741975229 102:24896.539862400183 103:24902.5233947426 104:24912.215036324887 105:24919.47064116846 106:24920.39125368667 107:24916.83197817724 108:24914.77246973656 109:24918.91117094271 110:24928.26308115393 111:24936.74130379672 112:24938.298913934046 113:24932.140104428785 114:24923.42698807668 115:24918.847410894214 116:24920.92489245412 117:24926.088092613576 118:24928.179643288655 119:24924.2104990637 120:24917.159670588735 121:24913.257794684443 122:24916.134740865145 123:24923.11885688577 124:24927.183352171964 125:24923.023115251548 126:24911.997848286515 127:24901.541893189686 
1.0 0:24899.359895132566 1:24907.26434903751 2:24919.909654734925 3:24929.45484064936 4:24932.04529062516 5:24930.52446240017 6:24931.179550278623 7:24937.55616188015 8:24946.91681566075 9:24952.517115690054 10:24949.638247202474 11:24939.9606942695 12:24930.346465892442 13:24927.03627968397 14:24930.345965499688 15:24934.554309075746 16:24933.07481538762 17:24924.318552668974 18:24913.091403985825 19:24906.34765708591 20:24907.110170522985 21:24911.990599151468 22:24914.498327927115 23:24911.09582916476 24:24904.49737464283 25:24901.19823496083 26:24905.409925884844 27:24914.88112231411 28:24922.490402746676 29:24922.33110745936 30:24914.938583690848 31:24906.999568535968 32:24905.691592809726 33:24912.539355054007 34:24922.167331109384 35:24927.01765204097 36:24923.82294380532 37:24916.1439731164 38:24910.84438671464 39:24911.77133249669 40:24916.388584730765 41:24918.40067961377 42:24913.90183937702 43:24905.328516228587 44:24899.457170622372 45:24901.109047466147 46:24908.28224494104 47:24913.36829548644 48:24909.682764139216 49:24897.635974085122 50:24884.974229188578 51:24880.59907942443 52:24887.170829548173 53:24898.99125519794 54:24907.136430556955 55:24907.377017236377 56:24903.89532707836 57:24905.433424365907 58:24917.13783638791 59:24935.291857148768 60:24949.753361725412 61:24952.15229004929 62:24942.801260090873 63:24930.355829295797 64:24924.496523477686 65:24927.95452663784 66:24934.81821901915 67:24936.505265291755 68:24929.95855576525 69:24920.68950732293 70:24917.890482253857 71:24925.901995974727 72:24939.70195512057 73:24948.641807952314 74:24945.323129662793 75:24931.924480351438 76:24918.49113035333 77:24914.649973951546 78:24921.927118135794 79:24933.304214325344 80:24940.159308794508 81:24940.15058651045 82:24938.911800139602 83:24944.12452583972 84:24957.495053256243 85:24972.187842118798 86:24978.356296774407 87:24971.940088308264 88:24958.752005016424 89:24949.908016302717 90:24952.339004657577 91:24962.750091387086 92:24970.58993555465 93:24967.557445625338 94:24955.20825438573 95:24943.772240157738 96:24942.997482562077 97:24953.06700140731 98:24963.912357281173 99:24963.900137551787 100:24950.38639256916 101:24932.753722385 102:24924.92251265411 103:24933.534848464107 104:24952.136458045366 105:24966.67917198247 106:24967.646979047935 107:24958.186510505067 108:24951.064421501484 109:24956.99157001934 110:24974.59622736854 111:24991.173681849476 112:24993.82633526899 113:24981.236306031624 114:24965.572378205165 115:24962.463220664842 116:24977.429834563292 117:25000.691157700356 118:25015.192274212306 119:25011.031461687417 120:24993.81628452109 121:24979.707940043867 122:24981.335574262135 123:24996.824822628336 124:25011.688211158144 125:25011.946089563975 126:24996.846442151764 127:24979.932060413194 
1.0 0:24977.337786661534 1:24993.430125899147 2:25016.568256249797 3:25028.962179080318 4:25022.02031166086 5:25003.754857953645 6:24991.760076939026 7:24997.78146075651 8:25017.417767762796 9:25034.158292638727 10:25034.13644935202 11:25018.436604477643 12:25002.08103139447 13:25000.555130534583 14:25015.823002884375 15:25034.511117873786 16:25040.046782059602 17:25027.832351068264 18:25009.772041999233 19:25003.856723212255 20:25017.825928767612 21:25041.672442763178 22:25056.172698092876 23:25050.08902862342 24:25030.71279649617 25:25018.092204379172 26:25027.499268975895 27:25055.465062505118 28:25082.17429188481 29:25088.492273173935 30:25072.680169612606 31:25052.047220354278 32:25047.80584311863 33:25066.199340550647 34:25092.84012164219 35:25105.671055022318 36:25095.05478927652 37:25073.00327629898 38:25063.0063262994 39:25078.95707663144 40:25111.962645393076 41:25137.468061100724 42:25136.798240398137 43:25114.02983782119 44:25092.99850675877 45:25096.385831673386 46:25124.996201432896 47:25156.20041401362 48:25163.67669071132 49:25141.167653562694 50:25109.141202347408 51:25097.79636691661 52:25120.502860846274 53:25161.307883884783 54:25188.485060582192 55:25182.53607978857 56:25153.909689027285 57:25134.47290612833 58:25149.287838867967 59:25193.294614313367 60:25234.553462765412 61:25242.04544757587 62:25213.60363833813 63:25179.18533912224 64:25175.56668400319 65:25213.602785543648 66:25267.52032800296 67:25296.995460990758 68:25282.85934694894 69:25244.929580935415 70:25225.66821402816 71:25252.55036289716 72:25312.18099234676 73:25360.71110976498 74:25362.316541162312 75:25321.81039761896 76:25282.34114385588 77:25288.43995425996 78:25345.54282556814 79:25413.205395597004 80:25439.97984561979 81:25409.507132433475 82:25357.17492407437 83:25341.250325828638 84:25391.152551086958 85:25478.80194709967 86:25541.389285953814 87:25536.721888698034 88:25482.473738290722 89:25444.104108668176 90:25478.412308463016 91:25580.301384726914 92:25683.09249323409 93:25715.31516199212 94:25664.49844056125 95:25592.34130292204 96:25584.779650767734 97:25675.265697158346 98:25810.29342879518 99:25893.461131138276 100:25870.960040456524 101:25783.99188730206 102:25740.521177693765 103:25822.3494863076 104:26005.4165112493 105:26172.139782560225 106:26211.162517611785 107:26118.44228519268 108:26013.380652822336 109:26046.133762404155 110:26261.32718882328 111:26543.281869458642 112:26706.757054463425 113:26657.79972951357 114:26491.224273604774 115:26438.389852530323 116:26677.18330366902 117:27151.222433546685 118:27586.20235629919 119:27709.351772757585 120:27494.278666343012 121:27257.48178055677 122:27495.118395434445 123:28478.427142789333 124:29933.87155655044 125:31158.489075182133 126:31415.51330125311 127:30260.183875056293 
1.0 0:50200.1524722821 1:43872.68410258846 2:37512.8462611787 3:32951.148332466095 4:31115.6682381756 5:31153.50310962248 6:31389.353432784857 7:30796.68752440989 8:29393.495474331285 9:27899.17942500146 10:27067.96676535674 11:27032.396962565843 12:27259.394640084432 13:27135.124423538553 14:26472.654502363646 15:25581.497336571796 16:24966.808365927933 17:24873.914728153915 18:25077.192060030888 19:25135.09509615053 20:24795.88487112009 21:24178.511455134318 22:23647.134742652284 23:23485.001958481334 24:23636.16141639414 25:23779.957280184448 26:23640.717363335403 27:23215.164837139735 28:22757.499795803 29:22551.71367691733 30:22650.466155047237 31:22834.322391329275 32:22829.137730697148 33:22546.781653638765 34:22148.774493856265 35:21901.596752104113 36:21934.6522421773 37:22121.649586818676 38:22208.881485253947 39:22047.298465929678 40:21714.45725980712 41:21443.39824671068 42:21414.10698018084 43:21585.728859314346 44:21740.364802672284 45:21687.545051251185 46:21427.47221086866 47:21146.81536081711 48:21054.523423920124 49:21189.15231764085 50:21384.750060746548 51:21430.071493145384 52:21255.809010520446 53:20990.409649731235 54:20847.682595376456 55:20932.181789969647 56:21140.65106856029 57:21262.720050607124 58:21173.057961919734 59:20938.23732935646 60:20759.022072986532 61:20790.779105622634 62:20996.50599672442 63:21182.853463640422 64:21180.243465422845 65:20991.53445918798 66:20790.284885106677 67:20769.224504376416 68:20960.093123529317 69:21201.45515542585 70:21289.839916697056 71:21160.43760396361 72:20943.281090267406 73:20853.340580772394 74:20995.041425559844 75:21260.830416639183 76:21432.790739855136 77:21380.993764690298 78:21177.2909589792 79:21037.859121431942 80:21131.866900739024 81:21418.97293173881 82:21684.946580163 83:21738.992105025016 84:21581.054367698296 85:21405.695242490183 86:21435.214684770286 87:21710.635359823158 88:22047.37066987515 89:22207.376341538573 90:22112.20707049376 91:21915.292357843668 92:21876.858050470568 93:22125.77890762425 94:22528.256686758243 95:22810.733030735995 96:22808.751014838093 97:22614.821714926664 98:22512.112487278442 99:22725.549113442925 100:23197.62324999562 101:23632.738258891433 102:23768.44135730728 103:23609.825868224758 104:23444.181692274527 105:23605.116810405798 106:24150.25917684446 107:24784.42685575542 108:25129.700947609515 109:25063.60171050098 110:24848.193496900578 111:24942.03296504914 112:25577.328182800688 113:26494.969855420903 114:27167.52680406819 115:27273.18086928171 116:27006.985585444552 117:27011.009074398313 118:27846.34845196137 119:29377.184973527106 120:30816.12894012513 121:31410.738659978077 122:31132.28715689707 123:31032.866274405755 124:32847.04398470207 125:37461.15374699297 126:43911.17006101754 127:50311.9964698245 
1.0 0:55030.26054198783 1:57175.294061185436 2:56727.19875472829 3:54485.974381982094 4:51797.317815821414 5:49962.66994870551 6:49506.33143498754 7:49942.80994195945 8:50355.03233508235 9:50146.71468940695 10:49354.3747986341 11:48477.70967774828 12:48030.1492959879 13:48126.636099732095 14:48442.87738716055 15:48546.33328139567 16:48252.633260191964 17:47729.52019357969 18:47321.21835749786 19:47249.198145831084 20:47437.18922398963 21:47607.336518327575 22:47534.00818451151 23:47220.97213001864 24:46875.87987307512 25:46722.3159789953 26:46809.2437824692 27:46982.899368770486 28:47035.23837388685 29:46881.91832811794 30:46620.63530992609 31:46435.89524543512 32:46436.432735738475 33:46566.26835891234 34:46664.80911783059 35:46611.72924386386 36:46425.35162861156 37:46238.391098496606 38:46178.60608580833 39:46258.53129715363 40:46370.91520317656 41:46388.3945765791 42:46272.998134063586 43:46103.030572956886 44:46000.645316750466 45:46024.66393494959 46:46122.5564145707 47:46181.865511941396 48:46129.958656407565 49:45993.47924380435 50:45870.757742500035 51:45844.32055363288 52:45910.31774871657 53:45986.440271284984 54:45987.522722348695 55:45898.81795044558 56:45784.98319431655 57:45730.57557814975 58:45765.28823976486 59:45839.9821398203 60:45873.026509264324 61:45822.61913834448 62:45721.30750585178 63:45645.26892607052 64:45646.71045239416 65:45709.106059853286 66:45764.30960180627 67:45753.909193887725 68:45679.17178158583 69:45597.45646593699 70:45570.19527956605 71:45608.727976646536 72:45665.893765432826 73:45679.47391157047 74:45627.11953310249 75:45544.76434414431 76:45494.04500342409 77:45507.98585376667 78:45562.93956576883 79:45601.0560172885 80:45581.71025369424 81:45515.98980401909 82:45455.36687425239 83:45445.63858168805 84:45486.929975800755 85:45534.93781437865 86:45541.067070611265 87:45494.75725150133 88:45431.329319583594 89:45399.74838663667 90:45419.224617667576 91:45463.15331982291 92:45484.07389004895 93:45456.30001180515 94:45398.32651232822 95:45356.10517772093 96:45362.33647228651 97:45407.753988574616 98:45449.68740149693 99:45449.53688968791 100:45405.63668901899 101:45353.431923009186 102:45333.70841855294 103:45356.99960379394 104:45395.43368234405 105:45408.50758397589 106:45379.052291199696 107:45327.79551144566 108:45294.574126779495 109:45303.169456832446 110:45340.84264589573 111:45370.35864845208 112:45363.03791044479 113:45323.34037436329 114:45284.02297765161 115:45276.794389139424 116:45304.49460669546 117:45339.245297312526 118:45347.56788053446 119:45319.64037528705 120:45277.19696802325 121:45253.85715376685 122:45265.54186508936 123:45297.06302183317 124:45316.312808562885 125:45302.76771317614 126:45265.02313694905 127:45232.57964089127 
1.0 0:45229.697890126554 1:45254.53408693648 2:45281.740983775795 3:45285.49033141639 4:45261.99228554463 5:45231.933970515835 6:45221.38366801059 7:45238.46626175872 8:45266.52168393025 9:45279.371848445015 10:45264.50186050172 11:45233.5435004142 12:45211.30685431189 13:45213.571378611196 14:45233.55746117044 15:45248.9103924912 16:45242.362704171734 17:45217.24963678237 18:45194.21171860503 19:45192.36181432595 20:45211.97167730692 21:45234.26479474718 22:45238.307735878065 23:45219.61469123362 24:45193.874982085625 25:45182.64161260636 26:45193.82728942807 27:45214.515418200455 28:45222.51563866535 29:45206.21045536308 30:45175.0190454412 31:45151.31376979814 32:45150.964104892526 33:45169.72565793024 34:45187.49610862233 35:45186.4224595398 36:45166.624306562226 37:45145.7423644025 38:45142.91323803344 39:45161.47427782399 40:45185.80920808224 41:45195.03579658249 42:45181.19996463457 43:45155.90907061806 44:45139.755104078264 45:45144.01915956858 46:45160.937559845 47:45171.11770314854 48:45161.27269645511 49:45136.36656208525 50:45115.426813318205 51:45114.73163857521 52:45133.25850565764 53:45153.362258000096 54:45156.083414585104 55:45137.55220334652 56:45112.21759254904 57:45100.26481431823 58:45110.31024045061 59:45132.497697887906 60:45147.77441509697 61:45144.73041686297 62:45129.01579295048 63:45117.328874522835 64:45121.71491434407 65:45138.43084717925 66:45151.40507834969 67:45147.04181322109 68:45126.916845796004 69:45106.893389335804 70:45103.28197652994 71:45118.251536524935 72:45137.57457847952 73:45142.88855059271 74:45127.73344437375 75:45103.33677630344 76:45089.08593740839 77:45095.908272216955 78:45116.99997624378 79:45133.91557269943 80:45132.49973784712 81:45114.70528658217 82:45096.25588760871 83:45092.5209080346 84:45105.12248114367 85:45120.96184615297 86:45124.200095939035 87:45110.32087423568 88:45089.91208068022 89:45079.11436742037 90:45085.40559102101 91:45101.36392840948 92:45111.75557934559 93:45107.30472799073 94:45092.73702013478 95:45082.07242646297 96:45085.59317901773 97:45100.3312609891 98:45112.70800519531 99:45110.913604233785 100:45095.81370318831 101:45080.51441969885 102:45078.81371481072 103:45092.720605786715 104:45110.24261055627 105:45115.58585296161 106:45102.85688145064 107:45081.261118661205 108:45067.22131311981 109:45070.22031940822 110:45084.713098577166 111:45095.17428889568 112:45089.782271130876 113:45070.759426239645 114:45052.472157814096 115:45049.05967364005 116:45062.38810957263 117:45080.74449391634 118:45089.157224092014 119:45082.09531509171 120:45067.552056180044 121:45059.32422059947 122:45064.60102226887 123:45077.880475645135 124:45086.36479061558 125:45081.66282013545 126:45067.20552297094 127:45054.89925211848 
1.0 0:45054.24300525044 1:45063.816837210885 2:45072.80814126093 3:45071.085638662706 4:45058.627444787926 5:45045.78440051435 6:45044.11595917428 7:45055.995054863 8:45072.3339286012 9:45080.49359496794 10:45075.284120438526 11:45063.25688985652 12:45056.526548138056 13:45061.69271567239 14:45073.83675031185 15:45081.03103125293 16:45075.301183175856 17:45060.15182679071 18:45047.81056126214 19:45048.484793433905 20:45061.139757391844 21:45074.12949041583 22:45075.28519540759 23:45062.603349831865 24:45046.086000852134 25:45039.009087901155 26:45046.19588287838 27:45059.64806558458 28:45065.492214433725 29:45056.197809394056 30:45037.37045521571 31:45023.146167545034 32:45024.10829080977 33:45038.215428458745 34:45052.6722574035 35:45055.078163606704 36:45044.089699796554 37:45030.3602097809 38:45027.01208565501 39:45037.97743546173 40:45054.40488260195 41:45062.24472306534 42:45054.329969047365 43:45036.46914368286 44:45022.39250870101 45:45022.04202399821 46:45033.394502290634 47:45044.82089348281 48:45045.6809273524 49:45035.73965454791 50:45025.25191521449 51:45025.80796809904 52:45040.03488988383 53:45059.12788304904 54:45070.19861805936 55:45066.85140993922 56:45053.85348203795 57:45042.20989071842 58:45039.365267321766 59:45043.30760233756 60:45045.57166308215 61:45039.998246843825 62:45029.0122938635 63:45021.62356296715 64:45024.96313398158 65:45037.12161235387 66:45048.003023559686 67:45047.72035991894 68:45035.23264603535 69:45019.59306673502 70:45012.56250999027 71:45018.857709420285 72:45032.414286228974 73:45041.81095882519 74:45040.025679348 75:45030.077643963676 76:45021.88705712364 77:45023.365801708904 78:45033.65268127105 79:45044.30437388892 80:45047.07006350122 81:45041.109990695746 82:45033.254170179 83:45031.27259619692 84:45036.40373049078 85:45042.0138446818 86:45039.67470472492 87:45027.2075741804 88:45011.427526602856 89:45002.97465910484 90:45007.58862781385 91:45021.3633882578 92:45034.06208765546 93:45037.529503503065 94:45031.923383327565 95:45024.618982290434 96:45023.14157661018 97:45028.595295573214 98:45035.34880379461 99:45036.925256961345 100:45032.44506116896 101:45027.6274541539 102:45029.44034574915 103:45039.34516238369 104:45051.4315331699 105:45057.3138806389 106:45053.47901303286 107:45044.47648551675 108:45038.98966589974 109:45042.16023805584 110:45050.95380265081 111:45056.73652429782 112:45052.84248607473 113:45040.48701713455 114:45027.84997118263 115:45023.14915167459 116:45027.77905207994 117:45035.486608222345 118:45038.160945761214 119:45032.98041657914 120:45024.61085905217 121:45020.692903965944 122:45024.855908335056 123:45033.61575018092 124:45039.864491359556 125:45039.58126355891 126:45035.4738773816 127:45034.13907886159 
1.0 0:45039.3599580213 1:45047.86187838164 2:45051.7480141875 3:45045.70234001396 4:45032.46813578171 5:45021.34066278626 6:45020.50746837028 7:45029.73717377391 8:45040.01577003204 9:45040.863936290734 10:45029.30294524479 11:45012.79244881715 12:45003.44009286931 13:45008.19144517187 14:45023.246710472704 15:45037.42103941406 16:45041.49927263816 17:45035.556886407416 18:45028.10750717367 19:45028.03383007394 20:45036.45896548853 21:45045.69691315162 22:45046.156294042485 23:45035.08095260362 24:45019.44493502771 25:45010.42239107187 26:45014.14283913586 27:45026.66276068631 28:45037.41787397559 29:45038.06997307252 30:45029.13234708595 31:45018.89524735332 32:45015.902038620305 33:45021.68225513496 34:45029.97688468846 35:45032.7970159796 36:45027.66085276703 37:45019.56136089269 38:45016.12246612734 39:45020.516817767486 40:45028.631678947255 41:45033.01436660708 42:45029.92125923085 43:45022.984957825254 44:45020.07993002399 45:45026.109589570915 46:45038.18736371761 47:45047.6474751133 48:45047.2575296495 49:45037.365176083586 50:45025.623109247936 51:45020.53386225098 52:45024.43059558336 53:45031.9617743316 54:45035.24815863127 55:45031.00514917731 56:45023.316119856536 57:45019.722368518036 58:45024.25220752942 59:45033.68843159304 60:45040.40244076167 61:45039.147123731964 62:45031.67794981948 63:45025.08010688323 64:45025.34357850691 65:45031.99321659467 66:45038.62546803587 67:45038.84683087447 68:45032.20523580074 69:45024.698646980316 70:45023.32201040045 71:45029.53165735967 72:45037.61011512806 73:45039.59968482382 74:45032.54771540637 75:45021.60975015289 76:45016.07258794496 77:45021.54217251186 78:45035.01242537694 79:45047.15319223776 80:45049.915819409725 81:45042.96629301918 82:45033.52731761301 83:45029.91836677373 84:45034.47160993344 85:45041.93002881613 86:45044.531947211646 87:45039.11801368444 88:45029.96044414925 89:45024.924499961286 90:45028.47935792863 91:45037.79471665499 92:45045.31903521504 93:45045.41399118404 94:45039.080776641 95:45032.658291219064 96:45031.831507478346 97:45036.46693616578 98:45040.967752737 99:45039.75818067949 100:45032.80208480061 101:45026.01216768597 102:45026.032668244756 103:45034.03263739551 104:45044.1855041481 105:45048.39828847751 106:45043.24296329508 107:45033.00211678004 108:45026.09661609473 109:45027.95760177847 110:45036.55437546611 111:45044.455254588654 112:45045.50133839119 113:45040.11836923063 114:45034.58998147221 115:45035.050681549474 116:45041.69511302421 117:45048.50595663826 118:45048.788132296715 119:45041.480270435415 120:45032.43126445419 121:45029.306431437006 122:45034.57324867269 123:45042.939086242746 124:45045.793339233 125:45038.93672249653 126:45026.78704105266 127:45019.14413240452 
1.0 0:45023.027985752226 1:45036.534123280166 2:45050.105992653946 3:45054.28246185987 4:45047.38258195402 5:45036.64253448863 6:45031.9140569437 7:45037.361515826444 8:45048.252445553546 9:45055.4526677734 10:45053.53399009816 11:45045.390908658286 12:45039.46705689193 13:45042.18422653161 14:45052.300673741396 15:45062.12113125127 16:45064.355314947206 17:45058.46605441111 18:45050.92092004129 19:45049.22127924733 20:45055.081493242855 21:45062.8508941555 22:45064.571231228605 23:45057.15417309326 24:45045.323248735614 25:45037.73086124813 26:45039.6470209181 27:45048.58995365017 28:45056.62809612151 29:45057.1979152096 30:45050.4337674173 31:45042.5253883462 32:45039.980213655275 33:45044.070576310645 34:45050.34160730671 35:45053.30146620444 36:45051.709063524206 37:45049.498525322124 38:45051.56561374185 39:45058.493342479735 40:45065.34758984992 41:45065.90782059936 42:45058.56083320269 43:45048.35170463411 44:45043.01710786996 45:45046.291943862576 46:45054.458386439415 47:45059.41871337487 48:45055.77929365962 49:45045.74737537402 50:45037.42940948182 51:45037.86685290141 52:45046.847541719944 53:45056.973831312425 54:45060.00048893501 55:45053.91166320187 56:45044.5476505818 57:45040.38101865669 58:45045.07053483804 59:45054.39220250378 60:45060.23739851144 61:45058.027077862505 62:45050.840257834 63:45046.5188067845 64:45050.33398387788 65:45059.873363336104 66:45066.91107534396 67:45064.73788494679 68:45054.41130329507 69:45044.20069833602 70:45042.47913185871 71:45050.23485031155 72:45059.940260289986 73:45062.00883495527 74:45053.30254213916 75:45040.19763366136 76:45033.34759073207 77:45038.521884913425 78:45051.47458181313 79:45061.42487342525 80:45060.22770401163 81:45049.321689997 82:45038.45251093373 83:45037.27119695604 84:45047.084640784014 85:45059.91483719505 86:45065.60719840532 87:45060.68326015189 88:45051.20655543376 89:45047.25944383396 90:45053.98275115488 91:45067.10911021056 92:45076.87292940211 93:45076.695956850555 94:45068.869891244816 95:45062.24934936552 96:45064.13720235632 97:45073.73413907357 98:45083.09049438851 99:45084.65647573363 100:45078.48573641767 101:45072.40827940746 102:45074.81769399388 103:45086.50226547746 104:45099.076412336784 105:45101.80460190117 106:45091.023887508 107:45073.82784378417 108:45062.50328805686 109:45064.275554700704 110:45075.22166938436 111:45083.77388225158 112:45080.871175810746 113:45067.94789525152 114:45055.780808312804 115:45055.12422727067 116:45067.24965057861 117:45082.69191866562 118:45089.344196221304 119:45082.83179615071 120:45070.13204336656 121:45063.319361585935 122:45068.91360028804 123:45082.17171392157 124:45091.32145313941 125:45087.95037249218 126:45074.39135537559 127:45061.6768147466 
1.0 0:45059.93182649316 1:45069.70378442261 2:45081.863006203384 3:45086.032972219946 4:45079.914015517046 5:45071.16636378828 6:45070.21558960221 7:45080.472561322706 8:45094.842465120884 9:45101.79271345366 10:45095.62734551236 11:45081.78497600841 12:45072.33231932638 13:45075.49219139873 14:45088.43694026383 15:45099.8084711743 16:45099.793030179346 17:45088.84042181708 18:45077.306376513305 19:45076.28932065373 20:45087.73726693341 21:45102.63255951455 22:45108.90521408368 23:45102.0490456588 24:45089.043860000194 25:45082.14344627284 26:45088.06642824586 27:45102.242309321795 28:45113.24458628389 29:45113.33810294632 30:45105.55182182017 31:45100.82746199291 32:45107.741097307604 33:45124.12643937821 34:45138.42047903893 35:45139.81119107213 36:45128.172858648955 37:45114.71983075657 38:45112.408457438476 39:45124.34325933769 40:45140.59583921775 41:45146.62430765055 42:45136.12949748027 43:45117.043690177314 44:45105.13845133448 45:45110.498602283755 46:45128.594030094464 47:45143.952322962716 48:45143.43393760652 49:45127.626456721446 50:45110.44110035696 51:45107.15765610646 52:45121.22515013339 53:45141.35157828939 54:45151.42904255614 55:45144.52794178661 56:45128.701260548834 57:45119.593463023244 58:45126.420453687475 59:45143.77799324886 60:45156.60411268639 61:45153.8425491453 62:45138.571387147924 63:45125.49983245631 64:45127.90278817883 65:45145.543161257316 66:45164.489399602244 67:45169.21008757288 68:45156.322479937764 69:45137.82580952743 70:45130.8187702868 71:45142.59114452769 72:45164.25262818599 73:45178.627743608165 74:45175.43210376558 75:45160.27190085276 76:45149.47750325 77:45155.2748731595 78:45174.48705424412 79:45191.02068739468 80:45190.10152814876 81:45171.65023789846 82:45150.86004344962 83:45145.23144721496 84:45159.32781435933 85:45180.800277249524 86:45191.34331054416 87:45182.88938450261 88:45164.6739765946 89:45154.85609730214 90:45164.03271090164 91:45185.38651113276 92:45200.50473481728 93:45195.84151951607 94:45175.144375750366 95:45156.61237311196 96:45156.97118756318 97:45176.44793979863 98:45198.259304058854 99:45203.43168556399 100:45187.947174560744 101:45166.92347093195 102:45161.73098413695 103:45180.985532563885 104:45212.22588308438 105:45232.036568538475 106:45226.05936880908 107:45201.531673359576 108:45181.394325724104 109:45184.87496274156 110:45211.319244595856 111:45241.39662829163 112:45254.430011891185 113:45246.33130351173 114:45232.349291673956 115:45232.4144900338 116:45252.35867380448 117:45278.15734298739 118:45288.6622956958 119:45275.39113581552 120:45251.35812627369 121:45240.487713341914 122:45256.437312189264 123:45289.67418712496 124:45314.91622033743 125:45312.90066246634 126:45287.442610848884 127:45262.60874539542 
1.0 0:45262.00518832665 1:45288.06693303628 2:45319.808173697464 3:45331.30364422032 4:45314.60797590162 5:45286.85442311556 6:45275.117134280015 7:45292.20347163848 8:45325.02269975928 9:45346.29867706348 10:45339.31661278268 11:45313.51863776724 12:45296.69606457683 13:45310.116811217646 14:45348.57270547678 15:45383.747423262736 16:45388.57901600145 17:45361.245729297254 18:45327.44296840915 19:45318.36772724796 20:45343.321764340064 21:45381.43569739676 22:45400.412513824056 23:45385.77514345397 24:45354.490529851704 25:45340.39289560927 26:45363.64886361538 27:45411.49903979815 28:45448.39555958778 29:45447.263200655456 30:45414.260974935365 31:45384.65939594255 32:45392.33877016155 33:45439.160265784296 34:45492.0129447347 35:45511.20936776846 36:45485.55607324974 37:45443.11876704386 38:45427.41104061566 39:45458.87081644834 40:45515.78218132984 41:45552.712053436124 42:45540.851959490974 43:45494.73358106506 44:45461.2169325201 45:45478.95986711064 46:45543.331395564426 47:45608.795909786466 48:45627.84179869167 49:45592.55745319176 50:45542.40164402953 51:45530.460635833115 52:45576.55222498748 53:45648.87265592317 54:45691.68911515686 55:45674.973504562084 56:45622.11573576 57:45590.70580221205 58:45621.73210677371 59:45701.69256975386 60:45772.84211933276 61:45783.695597246304 62:45735.24785352568 63:45681.84181515437 64:45684.22971296689 65:45754.674021783474 66:45843.93826059431 67:45883.82814349796 68:45848.18408840298 69:45778.36852285699 70:45749.35516445168 71:45803.56223250022 72:45910.869884380285 73:45993.10999339274 74:45992.86812186169 75:45925.889828909734 76:45870.122661562156 77:45897.824818563866 78:46008.6550987436 79:46125.94452513958 80:46162.87152059093 81:46100.84301461592 82:46010.8367190056 83:45995.59236457709 84:46098.3857776273 85:46259.77795248827 86:46365.859713767764 87:46347.67480486053 88:46245.04720288473 89:46177.595862042544 90:46241.82879746772 91:46421.50487802116 92:46596.178540821726 93:46645.299119517345 94:46556.87068141609 95:46445.555022118846 96:46458.14513549686 97:46640.49036211503 98:46886.93588506125 99:47027.07442806098 100:46976.40854719039 101:46820.2025693615 102:46753.301786198586 103:46912.51666416133 104:47243.223577356424 105:47532.91544711069 106:47592.271959073754 107:47427.82954582274 108:47258.52820262855 109:47343.1886873414 110:47743.51619011515 111:48242.366175910676 112:48515.89367984802 113:48416.033502374405 114:48129.600592356284 115:48069.43713117945 116:48531.78250802533 117:49390.69302527658 118:50150.36440203175 119:50343.43368090826 120:49956.299366509644 121:49579.15276691208 122:50089.58068957597 123:51926.87787639673 124:54555.96172105514 125:56705.99260154152 126:57074.69749243125 127:54894.92751909881 
1.0 0:52743.97682135267 1:46013.01747345217 2:39210.97145865781 3:34343.85940659161 4:32452.89691710196 5:32601.002133690665 6:32935.77642531569 7:32331.840962239185 8:30816.25532089457 9:29190.51527799948 10:28300.58961587757 11:28300.116989872844 12:28593.30766040355 13:28492.487365297 14:27785.84373241861 15:26815.187049983077 16:26145.67788692417 17:26057.53137231839 18:26303.196247632997 19:26390.191259962063 20:26035.36396936447 21:25367.445231374913 22:24790.36121347458 23:24621.633858876787 24:24801.215355946708 25:24972.246740104187 26:24826.80359092119 27:24359.646314295005 28:23853.498620176586 29:23627.430835626117 30:23743.510774350285 31:23958.06391418381 32:23964.280147658563 33:23661.54662781313 34:23227.747679826898 35:22960.326879703025 36:23006.190798335454 37:23226.429712342157 38:23337.95889789081 39:23172.23301849651 40:22811.820429593976 41:22513.93374926699 42:22480.62721413196 43:22670.648421764945 44:22845.15702839736 45:22793.31775611657 46:22513.295261487176 47:22209.12621859775 48:22110.915392048053 49:22261.649905705173 50:22478.373578501476 51:22527.754003152233 52:22332.780637010692 53:22035.112466610946 54:21872.418000552432 55:21962.971342270648 56:22194.442562824242 57:22334.171295656448 58:22241.883517991082 59:21988.65976127996 60:21795.006606898853 61:21833.5297119851 62:22065.124771750776 63:22276.743426037283 64:22279.369110332078 65:22072.429935914068 66:21844.395054423734 67:21809.015092068475 68:22006.592954242376 69:22264.49654313132 70:22360.064081028653 71:22218.775605127717 72:21978.415655672674 73:21872.73102940091 74:22019.274423345083 75:22305.73815900614 76:22496.928416212526 77:22449.28375120839 78:22235.640586459955 79:22085.95495548126 80:22183.061887322245 81:22486.922510193213 82:22770.429640526538 83:22829.832113715354 84:22664.18578457852 85:22480.267613710228 86:22514.62395038649 87:22810.0979325673 88:23168.643917325986 89:23335.814727384957 90:23228.521806888835 91:23012.222273372106 92:22967.047281816496 93:23231.991194544473 94:23663.25990875478 95:23966.254619403957 96:23962.860742310007 97:23750.462464055323 98:23632.388359834098 99:23852.351117949405 100:24352.662216939658 101:24818.928278993768 102:24968.985705939223 103:24803.68865468584 104:24624.506286454543 105:24785.43236881544 106:25351.24511060311 107:26013.104798329725 108:26372.082693199234 109:26297.010725405205 110:26062.531858918686 111:26152.492524234214 112:26814.14983958667 113:27776.687242081513 114:28484.690214685943 115:28597.637059308166 116:28318.161273316953 117:28319.356727027676 118:29190.807687248154 119:30791.327437674507 120:32295.23311719723 121:32912.320018380335 122:32610.507536281413 123:32490.951192799606 124:34372.82733237396 125:39189.23918948978 126:45932.3127704588 127:52626.971328782674 
1.0 0:57562.614869337325 1:59807.675730802606 2:59342.49588881793 3:57004.504367355235 4:54199.77460957839 5:52285.63127852785 6:51806.92368560197 7:52256.40797268467 8:52679.04424031769 9:52455.454553683376 10:51625.676490176484 11:50710.90972410496 12:50244.56371210071 13:50344.11087807575 14:50670.84220655657 15:50775.36618487951 16:50467.81741512612 17:49924.514177644 18:49503.876686731965 19:49434.94428917385 20:49636.59601382813 21:49818.90252214959 22:49747.22756064525 23:49425.64250095752 24:49069.586226419895 25:48910.50436510812 26:48998.66732966908 27:49174.66955433829 28:49223.42125443049 29:49058.27284516883 30:48781.08839320267 31:48583.44509918564 32:48578.41331555942 33:48708.69009531512 34:48808.759940011994 35:48754.52613807429 36:48564.75868694729 37:48375.81829938095 38:48318.46452345938 39:48404.50969045927 40:48522.67443922927 41:48541.63920874719 42:48422.843139896104 43:48247.86983698065 44:48143.40951864586 45:48170.526311166104 46:48275.06836125912 47:48340.681785601504 48:48291.746253506135 49:48154.884857194666 50:48030.81637295313 51:48004.41645482579 52:48071.96762534497 53:48148.97540383154 54:48147.74714568314 55:48053.00512324456 56:47931.66429764463 57:47871.96360043728 58:47906.227039724006 59:47985.186766457264 60:48024.61182194915 61:47979.47568032327 62:47880.32379611346 63:47803.21513597347 64:47801.54985340206 65:47860.240572320334 66:47912.13629660401 67:47899.454856188924 68:47824.13421245056 69:47744.20807578854 70:47721.147667736426 71:47765.1213975959 72:47826.82736151584 73:47842.06153072947 74:47787.929161194006 75:47701.709975262136 76:47647.42637467769 77:47659.875818045155 78:47715.34172345862 79:47754.27297643501 80:47734.25756465014 81:47666.15801234256 82:47603.16175578196 83:47593.40565258566 84:47637.898517426365 85:47690.617438183246 86:47699.53420514097 87:47651.36886532324 88:47581.659714787194 89:47542.83404166125 90:47558.716455507565 91:47605.27694239961 92:47633.64354757747 93:47613.51599700934 94:47558.51479108213 95:47512.54510054004 96:47510.26729601694 97:47546.835412066546 98:47583.35411346168 99:47582.0570193314 100:47539.23808398019 101:47487.47124291181 102:47466.14258510885 103:47486.693572001575 104:47523.31750366851 105:47536.72387516041 106:47509.00596816521 107:47458.85491869567 108:47424.528417253096 109:47430.05828169598 110:47464.593965065 111:47492.81787714176 112:47486.37552647724 113:47448.19701268477 114:47408.950823315114 115:47399.52440095355 116:47424.076153252645 117:47457.32353144581 118:47467.71783025443 119:47445.21026773291 120:47409.23099271705 121:47390.61438892373 122:47403.999123225636 123:47435.32361625965 124:47455.15054393292 125:47445.181764127294 126:47414.068768719 127:47388.85626747988 
1.0 0:47390.11417454074 1:47413.20199444007 2:47432.51665111175 3:47424.70300538877 4:47389.88455766135 5:47352.099792429886 6:47338.557402054794 7:47355.934933308556 8:47384.69291369487 9:47396.34310655862 10:47378.20724645321 11:47344.00823379352 12:47321.38676593535 13:47327.494840780055 14:47354.15324314683 15:47375.50166723989 16:47370.98148307614 17:47343.20616663543 18:47315.28485128257 19:47310.24234177829 20:47330.7098052604 21:47356.7323863192 22:47363.362409945395 23:47342.2978837308 24:47308.78623196115 25:47288.20562536409 26:47294.29452973348 27:47318.03770149227 28:47336.535404685244 29:47333.38183957036 30:47312.37235788901 31:47292.9201481577 32:47291.858327152004 33:47308.12595111409 34:47323.97683713988 35:47321.31198891544 36:47298.26509412816 37:47271.28415387036 38:47260.95216052091 39:47274.10669435147 40:47298.0565627612 41:47311.84539016473 42:47304.34974717804 43:47283.290502635835 44:47267.60885891763 45:47270.31161501803 46:47287.12614679238 47:47300.9093887634 48:47297.50404566782 49:47278.636875019474 50:47260.40230455389 51:47258.800582538846 52:47275.294308107936 53:47295.337996271584 54:47301.17815596268 55:47287.47438792727 56:47265.947363540654 57:47255.03487274772 58:47263.688579021175 59:47283.595330612814 60:47296.604551292985 61:47290.61983090275 62:47269.915361935695 63:47251.013855237376 64:47247.98994485965 65:47260.2730794619 66:47273.684151059984 67:47273.53659490669 68:47257.94503126421 69:47239.537674474 70:47234.15450391356 71:47246.61128035792 72:47266.21316265047 73:47275.99541473937 74:47267.44641854564 75:47247.75991227533 76:47233.38121908902 77:47235.61718943394 78:47250.97759787842 79:47264.638995307105 80:47263.70627073641 81:47248.39186852564 82:47231.35677880858 83:47226.042195964845 84:47234.52759208518 85:47245.80449172454 86:47245.954777602885 87:47231.03461816196 88:47211.10771736642 89:47201.728172544645 90:47210.25485202527 91:47229.06067565021 92:47241.72948475301 93:47236.912351194136 94:47217.88179064453 95:47199.66283542117 96:47196.320989359985 97:47209.3576263387 98:47227.04158472471 99:47234.84881160459 100:47227.63342677137 101:47213.10548009623 102:47204.130053064524 103:47207.094253070514 104:47216.719205312445 105:47221.60658218481 106:47215.08847022246 107:47201.4134694604 108:47191.789611536224 109:47194.03329907271 110:47205.30838153413 111:47214.58101994345 112:47212.5499972668 113:47200.05227577096 114:47187.35373121263 115:47184.902865509255 116:47193.78858650788 117:47204.4987336213 118:47205.19873955923 119:47192.25915566028 120:47173.781415615005 121:47163.017332294985 122:47167.377687795844 123:47182.53549351943 124:47196.57535673871 125:47200.27388432378 126:47194.406850489286 127:47187.937956748756 
1.0 0:47189.154741239545 1:47197.96898380184 2:47206.30051866377 3:47205.94451910783 4:47196.49262732212 5:47185.93609125776 6:47183.341709342254 7:47190.31957281657 8:47199.25683550348 9:47200.19086901456 10:47190.22742341694 11:47176.88040672314 12:47171.95900584284 13:47181.080579139976 14:47198.08815312616 15:47209.63063222445 16:47206.2597734094 17:47190.54492279275 18:47175.10400412034 19:47172.02457588979 20:47182.61269652911 21:47196.27937706649 22:47199.55522989844 23:47187.518824200735 24:47167.95633421649 25:47154.85824968957 26:47156.90350315431 27:47170.73080074815 28:47184.49848323516 29:47188.26415735902 30:47182.0322639304 31:47174.73520659076 32:47175.49219582311 33:47185.12545421215 34:47195.422677544375 35:47196.56207967429 36:47185.88001642183 37:47170.18791040862 38:47159.75109808936 39:47159.44845736918 40:47165.01956748057 41:47167.59380206507 42:47162.184382681895 43:47152.35471083002 44:47146.85259133012 45:47151.321563431135 46:47162.69478677135 47:47171.49632484182 48:47170.11377533697 49:47159.66863802671 50:47149.28857302777 51:47148.28213613052 52:47158.03294189402 53:47170.76807979723 54:47176.30816823497 55:47170.85681414655 56:47160.14348565442 57:47154.2449466733 58:47158.70719058904 59:47169.798061317095 60:47177.991653469275 61:47176.43712670006 62:47166.82104393099 63:47157.50333280357 64:47155.7645074172 65:47161.25746659488 66:47166.623644310836 67:47164.67948907192 68:47155.547653574366 69:47147.0780940427 70:47147.904140887375 71:47159.20626473263 72:47172.69505527688 73:47176.99771404862 74:47167.18328055566 75:47149.2470173326 76:47135.56464081156 77:47135.01263438064 78:47146.06328840309 79:47158.63633769379 80:47162.92745665264 81:47157.50717278942 82:47149.839578047206 83:47149.07521544542 84:47157.6479759869 85:47169.10297986945 86:47173.945078336306 87:47168.17730951327 88:47156.93450512428 89:47150.06133356894 90:47153.60032118973 91:47164.71088519628 92:47174.416112556275 93:47175.577608511165 94:47168.94514839078 95:47162.0118111035 96:47161.897561123486 97:47168.79204298028 98:47175.906149138915 99:47175.92336092213 100:47168.01543378255 101:47158.95835527219 102:47157.18429577857 103:47165.0092659923 104:47176.074380414924 105:47180.50806686397 106:47173.443963542646 107:47159.48431488334 108:47149.16333109504 109:47150.381412924515 110:47162.14697569063 111:47175.92141728147 112:47183.16706479959 113:47182.337391376124 114:47179.25940154999 115:47180.86645104227 116:47188.17547209423 117:47195.01349427467 118:47193.71380815924 119:47182.58965210324 120:47168.269804801355 121:47160.49256601705 122:47163.724712982344 123:47173.00904928778 124:47177.90392895362 125:47171.27963029804 126:47155.412961772476 127:47140.102721919655 
