svm_type c_svc
kernel_type rbf
gamma 0.14285714285714285
nr_class 2
total_sv 195
rho 0.25
label 1 -1
nr_sv 90 105
SV
1.0 5:1842.150903053117 6:966.8733812222205 7:689.3070710582309 
1.0 5:925.8243086856534 6:435.2996567976142 7:170.85480995092303 
1.0 5:502.83541573604407 6:207.206574818569 7:268.80482545967976 
1.0 5:1217.685599847075 6:758.7667953721191 7:626.7972706839274 
1.0 5:511.1492481833413 6:159.41398153743867 7:354.46063220696243 
1.0 5:28602.733678669098 6:28519.13100145685 7:28146.393336842437 
1.0 5:527.6147380432294 6:308.84843848650354 7:445.98620455854575 
1.0 5:693.3611492605347 6:680.411614679831 7:523.7710419314943 
1.0 5:1947.491975928955 6:763.6130410746449 7:590.6572269761934 
1.0 5:418.8164567854209 6:498.2518562515986 7:623.0683898131269 
1.0 5:78.48274962847735 6:569.2685727359511 7:405.2237066542109 
1.0 5:484.0902439346751 6:607.4883403144311 7:819.4742595519448 
1.0 5:282.4551534008241 6:611.7327565116403 7:526.4325182882998 
1.0 5:425.82181273645324 6:378.7475773999731 7:544.4372128872998 
1.0 5:472.79894469649105 6:769.7715895873467 7:352.61300824697 
1.0 5:410.9575749409359 6:319.42217979331616 7:596.0103012053452 
1.0 5:689.7832569520901 6:127.24467307792551 7:259.68896189736813 
1.0 5:337.4973528779965 6:774.567359629758 7:774.9251685943467 
1.0 5:864.4525406413361 6:698.3664659596742 7:626.963333618059 
1.0 5:463.37722260004017 6:471.92848658313966 7:182.4864387715958 
1.0 5:27030.053143095876 6:26518.47429878342 7:26482.411564073445 
1.0 5:534.2605777570619 6:464.57316066499374 7:287.7667004244229 
1.0 5:1054.5718304823947 6:748.8259635735834 7:274.6263532037685 
1.0 5:421.1756930789712 6:41.742388724411605 7:578.0419456202321 
1.0 5:127.64144037180604 6:545.2846782621094 7:50.307262112670585 
1.0 5:755.0698172424973 6:915.5807686712059 7:492.50516094991235 
1.0 5:1503.7839223428125 6:1173.7588051370428 7:922.0985738647947 
1.0 5:1132.4083810481977 6:710.9906714105123 7:242.82532915020892 
1.0 5:396.91334984673875 6:439.1921990054725 7:210.83686821951446 
1.0 5:980.0618487996998 6:959.1615494855798 7:358.44566565402874 
0.25 5:1216.3441661574036 6:862.2583203038561 7:379.94344629847717 
0.25 5:776.9651439450932 6:935.1005915392863 7:582.0815159295207 
0.25 5:1043.535481254815 6:887.3371640337972 7:287.2928197390737 
0.25 5:1601.6110992693236 6:1608.7848756361223 7:806.8499059420021 
0.25 5:325.7231009484237 6:878.4829755129889 7:530.7657282421915 
0.25 5:24314.337304388275 6:24952.433589303644 7:24374.081578019428 
0.25 5:726.78591157935 6:653.8896975347797 7:509.47042747589484 
0.25 5:355.28250561451665 6:427.5434756520519 7:364.67483303986296 
0.25 5:819.6631272384454 6:555.8275692455436 7:612.6912837757874 
0.25 5:382.87153332182953 6:807.2725398513462 7:903.7641493840024 
0.25 5:469.6616008146133 6:339.3796753239496 7:468.5053649903295 
0.25 5:740.468680870035 6:618.6582211110259 7:562.3242024153628 
0.25 5:832.988982695943 6:626.3547690402719 7:592.1778515662959 
0.25 5:369.6017455084767 6:630.3879531456923 7:629.1648244071387 
0.25 5:438.8058482658178 6:810.0966679035996 7:40.44277649377311 
1.0 5:1216.3441661574036 6:862.2583203038561 7:379.94344629847717 
1.0 5:776.9651439450932 6:935.1005915392863 7:582.0815159295207 
1.0 5:1043.535481254815 6:887.3371640337972 7:287.2928197390737 
1.0 5:1601.6110992693236 6:1608.7848756361223 7:806.8499059420021 
1.0 5:325.7231009484237 6:878.4829755129889 7:530.7657282421915 
1.0 5:24314.337304388275 6:24952.433589303644 7:24374.081578019428 
1.0 5:726.78591157935 6:653.8896975347797 7:509.47042747589484 
1.0 5:355.28250561451665 6:427.5434756520519 7:364.67483303986296 
1.0 5:819.6631272384454 6:555.8275692455436 7:612.6912837757874 
1.0 5:382.87153332182953 6:807.2725398513462 7:903.7641493840024 
1.0 5:469.6616008146133 6:339.3796753239496 7:468.5053649903295 
1.0 5:740.468680870035 6:618.6582211110259 7:562.3242024153628 
1.0 5:832.988982695943 6:626.3547690402719 7:592.1778515662959 
1.0 5:369.6017455084767 6:630.3879531456923 7:629.1648244071387 
1.0 5:438.8058482658178 6:810.0966679035996 7:40.44277649377311 
1.0 5:898.2669289547428 6:1161.2309305905626 7:882.7026155215019 
1.0 5:1228.6522574819694 6:933.0383092320218 7:454.88375288475197 
1.0 5:571.3340408343138 6:533.7972423955827 7:986.2797070118693 
1.0 5:304.01780942192477 6:552.0422936180023 7:363.37973755793706 
1.0 5:624.247296678231 6:138.43437358327859 7:936.4860850337172 
1.0 5:5138.023027432244 6:7192.606941111056 7:5371.6046647997555 
1.0 5:1028.099533036649 6:1150.1984225816245 7:530.890975357362 
1.0 5:380.8135424472552 6:743.7391215666009 7:723.1999672428954 
1.0 5:421.9063792253654 6:448.88089583060747 7:328.044992897009 
1.0 5:487.7265853806025 6:198.57513647568092 7:258.59296645146316 
1.0 5:649.4048268444511 6:681.5325018337242 7:309.4095696746069 
1.0 5:700.7781122172207 6:580.1072295992219 7:902.3256266995844 
1.0 5:1167.1835609935754 6:988.3026744107616 7:400.3438178893905 
1.0 5:713.4547835616364 6:847.1454167859788 7:499.30213901014974 
1.0 5:59.45046523074772 6:612.2348248069712 7:409.97167528715835 
1.0 5:744.088894694854 6:630.2628528736062 7:883.2824823863085 
1.0 5:892.3521922056611 6:1071.1759276037985 7:839.5609257313348 
1.0 5:352.6125231379952 6:641.6894370583102 7:414.6969304299339 
1.0 5:813.1228565945152 6:673.1425936286188 7:476.92931222323443 
1.0 5:1050.8896339735581 6:786.567409457382 7:992.877410295429 
1.0 5:2488.0671015539374 6:2460.4061052653396 7:2732.754644343522 
1.0 5:771.8044384942918 6:949.4657400481806 7:1001.2704770655395 
1.0 5:307.9361623931315 6:58.723681025614795 7:341.664160984002 
1.0 5:1092.933414041227 6:659.5451192593205 7:451.9440131278857 
1.0 5:1155.3967702795103 6:207.57995718186385 7:989.6735634802517 
1.0 5:363.3751025897203 6:741.819224845381 7:372.7345681520032 
1.0 5:1009.488535493026 6:674.1474669142326 7:174.67092236450114 
1.0 5:1344.985040522678 6:159.33171440193883 7:731.4618709082853 
1.0 5:774.3396519091001 6:162.6137642724277 7:288.2518597978051 
1.0 5:755.3161171500666 6:381.5901678868032 7:449.1651245999439 
-0.75 5:289.58413739156504 6:224.37973524875727 7:486.8302190802956 
-0.75 5:382.97001714325916 6:263.32650807562527 7:178.35471018127708 
-0.75 5:1286.6109569978914 6:514.311631558023 7:415.2807729693479 
-0.75 5:562.6937581339996 6:586.0909123844007 7:428.62949971721247 
-0.75 5:1632.9148555382583 6:550.4329017950172 7:392.8930872795856 
-0.75 5:15476.870562388147 6:16365.432876809742 7:15800.447153566687 
-0.75 5:617.7899520781887 6:1025.0897282059068 7:436.9331865214454 
-0.75 5:612.7071354894406 6:848.6366304761951 7:512.7002095391415 
-0.75 5:395.95641644807364 6:393.2499280401651 7:450.902130247642 
-0.75 5:546.449978032713 6:534.2765266439764 7:389.0925272532634 
-0.75 5:1243.0225160388457 6:367.52840577876657 7:172.73538034337608 
-0.75 5:1324.9501789694853 6:963.2276457446767 7:747.3937482411126 
-0.75 5:367.71310467361826 6:222.41578537096441 7:905.1182958370623 
-0.75 5:646.9575143014042 6:1201.175015115351 7:134.2119407543149 
-0.75 5:473.06829181189164 6:737.2221232755238 7:493.42178685929775 
-0.75 5:1115.647117288196 6:160.113881162337 7:594.7683087225366 
-0.75 5:459.01076506056773 6:203.71023062325398 7:226.57287942483802 
-0.75 5:3027.5161665995743 6:1726.850515489814 7:1998.1124514100459 
-0.75 5:1249.4195816476997 6:1009.336560480336 7:517.2567926821997 
-0.75 5:569.7627537324462 6:379.91992904387047 7:549.078942876469 
-0.75 5:20522.834146403653 6:19942.846561537295 7:19496.396495565918 
-0.75 5:2834.046697432198 6:2119.486552441687 7:1468.1827183781768 
-0.75 5:2228.579449129159 6:2010.3809545155948 7:1842.044598739339 
-0.75 5:945.4777917645466 6:1222.8280613789698 7:622.8071092949885 
-0.75 5:1557.9219276321674 6:1501.4836528520357 7:865.4499527902202 
-0.75 5:207.6160578212098 6:302.0843133411477 7:164.20574644863328 
-0.75 5:644.8579317007262 6:506.91562760346585 7:721.9254615793558 
-0.75 5:941.9467604567557 6:438.76379948794295 7:529.5656252950884 
-0.75 5:672.04431755605 6:402.0821290602586 7:638.7386921554852 
-0.75 5:325.34830429291304 6:738.8788164789653 7:649.7160281883355 
-0.75 5:400.82278759571267 6:1095.1209741299629 7:602.7415973829756 
-0.75 5:160.84070361509848 6:354.3192116950198 7:105.1173113292621 
-0.75 5:947.3731950604248 6:392.5512485685737 7:802.46259897299 
-0.75 5:1083.5221006583238 6:867.7623916581665 7:1261.2027944601841 
-0.75 5:237.67292402521724 6:351.17726141362164 7:760.6957659556879 
-0.75 5:23496.773457347375 6:23050.528979182527 7:23151.467466983857 
-0.75 5:327.087120875779 6:181.51775547365074 7:99.110815748563 
-0.75 5:362.6492812091019 6:1382.1504959155402 7:791.9455574389283 
-0.75 5:838.6531412717907 6:1003.2084763973013 7:1099.3619395936973 
-0.75 5:390.1005454921348 6:611.6389321129303 7:551.0567597493798 
-0.75 5:1252.5450152651729 6:1071.4086600884327 7:540.3969853675156 
-0.75 5:622.7965899784332 6:1235.505771754994 7:915.1608998762432 
-0.75 5:1558.7588634628685 6:576.4698605430117 7:781.485234954699 
-0.75 5:882.0972769177409 6:134.94279100572527 7:311.8116528104341 
-0.75 5:1369.305798171634 6:210.01907817122736 7:818.2043327604414 
-0.75 5:939.0626130079834 6:661.2138497000035 7:296.9301228344316 
-0.75 5:755.719191240216 6:415.69333715478933 7:652.9653561551198 
-0.75 5:106.15370479841343 6:575.3063500008627 7:293.44130288225847 
-0.75 5:845.7266427409712 6:304.34951053792713 7:60.05514266860856 
-0.75 5:425.59995033371246 6:327.27530050276675 7:514.8746192990969 
-0.75 5:18074.72299252104 6:18155.018325221146 7:17837.51280975731 
-0.75 5:698.0441645045782 6:102.23623028168693 7:169.5768357512618 
-0.75 5:53.757652534035735 6:416.3490946311293 7:298.74014410549705 
-0.75 5:349.9168505109668 6:349.1672136452416 7:550.4062942177662 
-0.75 5:56.96818228871834 6:574.7018964103223 7:351.8253705766236 
-0.75 5:253.03496703034622 6:654.5459052730977 7:128.17140847089283 
-0.75 5:534.5483798836973 6:159.31435228418442 7:493.9160587360045 
-0.75 5:335.9346141491625 6:585.979568021628 7:474.0290258060022 
-0.75 5:378.53813733107705 6:509.9991780240203 7:186.65963970448618 
-0.75 5:333.6658496720493 6:696.1842019736364 7:58.012225799815816 
-0.75 5:448.62591748026244 6:420.0610934636636 7:492.045620550141 
-0.75 5:241.12063435236772 6:197.9901656489231 7:379.61432308106276 
-0.75 5:787.5474032396041 6:462.8881267732433 7:237.27175501183032 
-0.75 5:1055.2319012255068 6:554.0175526705049 7:626.8777668263969 
-0.75 5:834.0871577724077 6:334.5723021664408 7:359.70313651470894 
-0.75 5:14479.395116581229 6:14448.616317243224 7:13948.590012911998 
-0.75 5:791.6187004276981 6:907.9629474301788 7:503.5692819818958 
-0.75 5:2767.134406193072 6:647.6793158541699 7:887.5714139528812 
-0.75 5:894.3414105234756 6:866.4235419685168 7:1552.495728383464 
-0.75 5:813.5141025735601 6:784.5603327225992 7:958.8278950705951 
-0.75 5:463.17629407459265 6:547.1825667656547 7:591.2627064850899 
-0.75 5:963.730905120518 6:888.1194525924287 7:1157.849780433715 
-0.75 5:913.5808757758311 6:1001.5273826514209 7:1364.0935135162965 
-0.75 5:278.72833903376824 6:225.77824318770467 7:225.64830694869283 
-0.75 5:780.1293578146672 6:266.11361065342373 7:1030.532433334687 
-0.75 5:1270.3094619475028 6:806.7879430731119 7:1072.4139618666393 
-0.75 5:514.6415235869605 6:727.0869899497917 7:482.7585649530607 
-0.75 5:1270.6879099147689 6:871.8216253141909 7:885.3520116074695 
-0.75 5:264.0877603022846 6:673.5928241611296 7:852.0807812313858 
-0.75 5:1088.106002972629 6:147.7237810019224 7:277.3180341557375 
-0.75 5:11632.411543955182 6:10363.478160801586 7:11000.455595559333 
-0.75 5:620.6641533358036 6:1584.1769720990603 7:760.5666429567925 
-0.75 5:658.0250929745728 6:441.4989112090048 7:648.2454616613986 
-0.75 5:588.3137823730264 6:557.7789765410467 7:704.6627599385545 
-0.75 5:602.3583439065129 6:452.86200203059184 7:350.33083474278095 
-0.75 5:930.428536391901 6:967.980937729409 7:428.9718176459804 
-0.75 5:774.7720296911893 6:494.5234867664053 7:498.7121681128383 
-0.75 5:255.95090528494228 6:406.88335552169696 7:278.28160635939213 
-0.75 5:726.8768270338518 6:450.30364350563354 7:449.5499019913976 
-0.75 5:909.343667598542 6:741.5442632031056 7:911.3503970104839 
-0.75 5:634.9528026230283 6:332.6389005952369 7:713.1572275729009 
-0.75 5:499.65169781092357 6:521.3034853278357 7:167.00728331340417 
-0.75 5:665.876132502505 6:285.96205781415233 7:318.1317784602108 
-0.75 5:734.7804483417406 6:686.7884307795089 7:618.1180819411305 
-0.75 5:303.0291594747382 6:598.5752364638035 7:383.04050955757083 
-0.75 5:12042.21134447806 6:11981.516208689492 7:12165.352031154587 
-0.75 5:212.27996207435456 6:211.94088245056142 7:245.8096270883597 
-0.75 5:607.3852158578419 6:277.10187726029733 7:277.29937373952055 
-0.75 5:748.8989428028382 6:681.6350863523588 7:187.3282921639735 
-0.75 5:369.168374903451 6:257.18712917544894 7:441.6290655523785 
-0.75 5:275.4774157406618 6:307.0198338867525 7:136.31930073502653 
-0.75 5:1093.925384669637 6:310.1607224877914 7:327.99074390437033 
-0.75 5:718.9699487822026 6:246.1780029955568 7:560.0270379176919 
-0.75 5:2212.654465164101 6:2147.543158777298 7:1825.6818438756832 
-0.75 5:693.9242413174736 6:571.1045867890953 7:460.0281560228241 
