svm_type c_svc
kernel_type rbf
gamma 0.007874015748031496
nr_class 2
total_sv 411
rho 0.538583707443668
label 1 -1
nr_sv 120 291
SV
1.0 0:1421.2977441981952 1:1431.042898835818 2:1439.7998823826442 3:1447.5490820379873 4:1454.2719006310163 5:1459.950787720292 6:1464.5692695001712 7:1468.1119774720185 8:1470.5646758411376 9:1471.9142876035187 10:1472.148919289977 11:1471.2578843390058 12:1469.2317250738108 13:1466.0622332634844 14:1461.742469253293 15:1456.2667796545784 16:1449.6308135909637 17:1441.8315375045313 18:1432.8672485335283 19:1422.737586482174 20:1411.4435444135277 21:1398.9874779084184 22:1385.3731130475269 23:1370.6055531903564 24:1354.691284644583 25:1337.638181343024 26:1319.45550867415 27:1300.1539266470486 28:1279.7454926147566 29:1258.2436638331624 30:1235.6633001992282 31:1212.02066759608 32:1187.3334423788551 33:1161.6207176712949 34:1134.9030123186324 35:1107.2022835708185 36:1078.54194487002 37:1048.9468905136243 38:1018.4435294952398 39:987.0598315437071 40:954.8253893593971 41:921.7715023983444 42:887.9312894413969 43:853.3398398525862 44:818.0344172517008 45:782.0547348779587 46:745.443330113082 47:708.2460779171388 48:670.5129016817795 49:632.2987691723113 50:593.6651075267985 51:554.6818463786823 52:515.4304228254122 53:476.0082939405127 54:436.53587199523366 55:397.16745715112864 56:358.1089443669794 57:319.6472962935062 58:282.2008059508052 59:246.40597615257727 60:213.26525111211652 61:184.37455683902178 62:162.16021843155892 63:149.7269643674439 64:149.5883183520689 65:161.7812130629412 66:183.83437293572197 67:212.6395765782441 68:245.75137121670997 69:281.5574201311314 70:319.0445694052209 71:357.56978852033603 72:396.71078780013255 73:436.1780673320868 74:475.76403444817663 75:515.3131804670876 76:554.7041739712437 77:593.8388117879198 78:632.6350144075609 79:671.0222711379948 80:708.9386087570931 81:746.328531678946 82:783.14159625207 83:819.3314079410609 84:854.854906090916 85:889.6718477702018 86:923.7444316571746 87:957.037021869452 88:989.5159440391138 89:1021.1493342007967 90:1051.9070266606084 91:1081.7604708664219 92:1110.6826699885985 93:1138.6481358214326 94:1165.6328559769838 95:1191.6142703292649 96:1216.5712543892732 97:1240.48410782619 98:1263.334546749939 99:1285.1056986720964 100:1305.7820992920272 101:1325.3496904317392 102:1343.795818579845 103:1361.1092336119716 104:1377.2800873392418 105:1392.299931603378 106:1406.161715690583 107:1418.8597828796146 108:1430.3898659746753 109:1440.7490817026326 110:1449.9359238779816 111:1457.9502552589056 112:1464.793298034566 113:1470.4676228979965 114:1474.9771366711625 115:1478.3270684592562 116:1480.5239543204777 117:1481.5756204455586 118:1481.4911648484176 119:1480.2809375756617 120:1477.9565194483282 121:1474.530699354418 122:1470.0174501154256 123:1464.4319029543576 124:1457.790320596656 125:1450.1100690390651 126:1441.4095880248537 127:1431.708360266936 
1.0 0:1421.0268794633444 1:1409.3866171522666 2:1396.80998845643 3:1383.3203167690297 4:1368.9417974357107 5:1353.6994604892764 6:1337.619132495868 7:1320.7273975733547 8:1303.0515576445646 9:1284.619591989842 10:1265.4601161652326 11:1245.6023403543609 12:1225.0760272238851 13:1203.9114493542086 14:1182.1393463190218 15:1159.790881489242 16:1136.8975986390526 17:1113.491378434095 18:1089.60439488452 19:1065.269071848617 20:1040.5180396762391 21:1015.3840920854159 22:989.9001433704668 23:964.0991860459569 24:938.0142490381453 25:911.6783565446079 26:885.1244876939098 27:858.3855371511878 28:831.4942768330765 29:804.483318917615 30:777.3850803630023 31:750.2317491851588 32:723.0552527904581 33:695.8872287200579 34:668.7589982404714 35:641.7015433176214 36:614.7454876471432 37:587.9210825942082 38:561.2581991384857 39:534.7863272482965 40:508.53458455729964 41:482.5317368381496 42:456.8062336356328 43:431.38626364949505 44:406.2998362156279 45:381.5748977872241 46:357.2394960779347 47:333.32201015419355 48:309.85147331769815 49:286.8580288546478 50:264.3735795860711 51:242.4327256523028 52:221.0741398094296 53:200.34262099624542 54:180.29222203851873 55:160.9911132110201 56:142.52929826913962 57:125.03105428310575 58:108.67508976071029 59:93.72650368379311 60:80.58305883267738 61:69.82407682891976 62:62.20099864297545 63:58.43248617685548 64:58.761517285259316 65:62.66996289598779 66:69.1578981272368 67:77.23585419249466 68:86.16226270547702 69:95.4437521639845 70:104.76429044349346 71:113.92141978563973 72:122.78348160045195 73:131.2632921582927 74:139.30224166562718 75:146.86060929607794 76:153.91154855825218 77:160.43726265958554 78:166.42651142770774 79:171.87294576152817 80:176.77396804781165 81:181.12993424937906 82:184.94358257860898 83:188.21961535955572 84:190.9643863230468 85:193.18566167315365 86:194.89243356364682 87:196.09477133793982 88:196.80370034046447 89:197.03110111122268 90:196.7896238324826 91:196.09261432648069 92:194.95404891109092 93:193.38847614123418 94:191.41096398668586 95:189.0370513822443 96:186.282703375369 97:183.1642693184244 98:179.6984437283905 99:175.9022295819204 100:171.79290394016138 101:167.3879859162814 102:162.7052071191184 103:157.76248483939196 104:152.57789840329005 105:147.16966931862643 106:141.55614610451875 107:135.75579506067737 108:129.7871987481583 109:123.66906469890243 110:117.42024797130883 111:111.05979282441584 112:104.60700132463472 113:98.08154068240584 114:91.50360749856975 115:84.89417756915593 116:78.27538750509868 117:71.67112483777318 118:65.10795730030294 119:58.616630652939904 120:52.23454945820086 121:46.010008905174146 122:40.00962184622834 123:34.331610213401255 124:29.12937178695627 125:24.64947880975559 126:21.272024940330077 127:19.47453788129247 
1.0 0:19.580123268849835 1:21.445656869892908 2:24.566392662667354 3:28.433456982729037 4:32.692610793360735 5:37.12624767250276 6:41.60261673108345 7:46.03949145175141 8:50.383189838910646 9:54.59698743054523 10:58.654659142570814 11:62.53677927547897 12:66.22853080231768 13:69.71836440165909 14:72.99715111263797 15:76.05763067874034 16:78.8940421789623 17:81.50187002711948 18:83.87766473543488 19:86.01891316262163 20:87.92394213103925 21:89.59184491599814 22:91.02242363534447 23:92.21614282699484 24:93.1740909796424 25:93.89794776631891 26:94.38995539818707 27:94.65289297666342 28:94.69005304544787 29:94.50521977533668 30:94.1026483835306 31:93.48704551550573 32:92.66355041518526 33:91.63771678792342 34:90.41549532805095 35:89.00321694427085 36:87.40757677720867 37:85.63561916900018 38:83.69472382057641 39:81.59259346522494 40:79.33724350614798 41:76.9369942237686 42:74.40046637352364 43:71.73658129342299 44:68.95456706254869 45:66.06397285755266 46:63.074694537988464 47:59.997015800700595 48:56.841671214625144 49:53.619940463796965 50:50.343787820860996 51:47.026068305161644 52:43.680833943121364 53:40.32379310619925 54:36.973008261860876 55:33.64997127888254 56:30.381283961223296 57:27.20131067670297 58:24.156359870259873 59:21.311092754567422 60:18.75746107562713 61:16.623926478880193 62:15.074796080963544 63:14.277556188784612 64:14.326933322923683 65:15.17878451659749 66:16.672625505485076 67:18.61613643580235 68:20.845972163931453 69:23.242934505794892 70:25.724744048038755 71:28.234932062591074 72:30.734025521145107 73:33.19363038032196 74:35.59266850764795 75:37.91501023355158 76:40.14797358074233 77:42.28135792302243 78:44.30680994534634 79:46.217399349917 80:48.00732930514564 81:49.67173504027992 82:51.20654112742929 83:52.6083584877501 84:53.874408694656886 85:55.002467289650056 86:55.99082049853241 87:56.83823148918175 88:57.543913481830536 89:58.10750781587371 90:58.52906562347325 91:58.8090321424685 92:58.94823297304562 93:58.94786177965043 94:58.809469085474916 95:58.53495191777908 96:58.126544149721376 97:57.5868074566057 98:56.91862286791492 99:56.12518295651752 100:55.209984767934195 101:54.17682366061797 102:53.02978830873908 103:51.773257219390295 104:50.41189724643015 105:48.95066475728015 106:47.39481034698988 107:45.74988832522727 108:44.02177267060409 109:42.21668181961265 110:40.34121563688667 111:38.402409358670624 112:36.40781146231304 113:34.36559568734031 114:32.28472244866008 115:30.17517264136561 116:28.048288907501675 117:25.917278173301856 118:23.797957851561385 119:21.70986958624147 120:19.677937047646726 121:17.734885076835663 122:15.924573324743896 123:14.305948168117153 124:12.955855869636414 125:11.965838414535096 126:11.425147271233968 127:11.388302281263256 
1.0 0:11.846237449794472 1:12.728906705492424 2:13.937122696456546 3:15.374433089967876 4:16.962217295214394 5:18.641406964366293 6:20.368866376115562 7:22.11306524493949 8:23.850579620564808 9:25.563599131881805 10:27.238234249045092 11:28.863383652034006 12:30.429975701423206 13:31.930456117582757 14:33.35843775180726 15:34.70845789534633 16:35.97580773441593 17:37.15641081809297 18:38.24673524973816 19:39.24372936631463 20:40.14477396034246 21:40.947646267915815 22:41.65049239432903 23:42.25180582874803 24:42.75041037122957 25:43.145446262070415 26:43.4363586318038 27:43.62288762407739 28:43.70505971242756 29:43.68317985534622 30:43.55782422551761 31:43.329833318025976 32:43.00030529531685 33:42.57058946846907 34:42.04227984846778 35:41.417208730405854 36:40.69744030022923 37:39.88526427994638 38:38.98318965544528 39:37.99393856392629 40:36.92044045908901 41:35.765826726696076 42:34.53342599862125 43:33.22676052175932 44:31.84954409803431 45:30.405682353936246 46:28.89927647412554 47:27.334632132560632 48:25.71627633392127 49:24.04898652605305 50:22.33783920633848 51:20.58829039415208 52:18.806309978990658 53:16.99861081506719 54:15.17305226038118 55:13.339382488986782 56:11.510680522495573 57:9.706347951625697 58:7.9587954571437844 59:6.329466021525269 60:4.947495463368729 61:4.076882966922152 62:4.055942344032288 63:4.884009715622054 64:6.2166051543963965 65:7.783143535955328 66:9.451506907939212 67:11.15930038605348 68:12.874009127618203 69:14.576512432192654 70:16.25422364941629 71:17.898028067735805 72:19.500808976985237 73:21.05668886167574 74:22.560615949621795 75:24.008128145463665 76:25.395213042542135 77:26.71822238855329 78:27.97381862445457 79:29.15894093492724 80:30.270783488237463 81:31.306781452406238 82:32.264602047746784 83:33.14213888899277 84:33.93750847678238 85:34.64904807839309 86:35.27531448159594 87:35.81508326560136 88:36.267348340399444 89:36.63132157926951 90:36.906432420653736 91:37.09232735243123 92:37.18886921879603 93:37.196136310670646 94:37.11442121716099 95:36.94422942954376 96:36.686277701998456 97:36.3414921857613 98:35.9110063666418 99:35.396158851020665 100:34.79849106388605 101:34.119744945957365 102:33.3618607680112 103:32.52697522273826 104:31.61742001324276 105:30.6357212407877 106:29.584600015285275 107:28.466974890381284 108:27.28596699316089 109:26.044909129895302 110:24.747360793996734 111:23.397132036435938 112:21.998320859713978 113:20.555371672390567 114:19.07316735397286 115:17.557176514985525 116:16.013694432065513 117:14.450249024242574 118:12.876310052347959 119:11.304581502781877 120:9.75346960657993 121:8.252018021889624 122:6.850064042347139 123:5.63827627705491 124:4.776643517486764 125:4.4792925390757725 126:4.851517842383989 127:5.760338991545885 
1.0 0:6.991791567535046 1:8.395249037365021 2:9.88657087485481 3:11.419404476510875 4:12.966560977139638 5:14.510708322433626 6:16.039844248402208 7:17.545020646488318 8:19.01914461494675 9:20.45631648745406 10:21.85144860037286 11:23.200037638702884 12:24.498024537239214 13:25.74170616233437 14:26.9276786178534 15:28.052800410137323 16:29.114168382371886 17:30.109102021740647 18:31.035133341210646 19:31.89000051294497 20:32.67164404035087 21:33.37820464629356 22:34.00802231049951 23:34.55963605978531 24:35.03178423103804 25:35.42340500778454 26:35.733637088773925 27:35.96182038908689 28:36.10749670603849 29:36.17041030713563 30:36.1505084180847 31:36.047941607226534 32:35.863064080331576 33:35.59643391784575 34:35.24881330682149 35:34.82116884355222 36:34.31467201235917 37:33.730699983756416 38:33.070836925034854 39:32.336876083478735 40:31.530822994648602 41:30.65490029683223 42:29.711554815098946 43:28.703467840637238 44:27.633569914069927 45:26.505061989726737 46:25.321445714983973 47:24.08656687407225 48:22.804678100776883 49:21.480530235906524 50:20.11950701363642 51:18.72782653780698 52:17.312847775778298 53:15.88354547735346 54:14.451260060274697 55:13.03090177113773 56:11.642903598289672 57:10.316364284393869 58:9.093856717357264 59:8.0376477130444 60:7.23370924963962 61:6.78202749066495 62:6.759202244768752 63:7.17071943132696 64:7.947183652537556 65:8.98954812269497 66:10.209671021642727 67:11.542809477230414 68:12.944517219049425 69:14.384437022045393 70:15.841310771587978 71:17.29967734809169 72:18.747813385842417 73:20.176463405835296 74:21.578050116156515 75:22.946175291692434 76:24.275298390853763 77:25.560525786421188 78:26.79747020459652 79:27.982155623309396 80:29.110952173082225 81:30.180531193199805 82:31.187834046194702 83:32.130050456770014 84:33.00460352319619 85:33.80913944829383 86:34.541520632400974 87:35.19982117158916 88:35.782324078841306 89:36.28751973691069 90:36.714105226797926 91:37.06098427329665 92:37.327267620884165 93:37.512273707543734 94:37.6155295465545 95:37.636771760935815 96:37.57594774510499 97:37.43321695583231 98:37.20895236183169 99:36.9037421103306 100:36.5183915018823 101:36.053925404048684 102:35.51159128361271 103:34.892863099939945 104:34.19944638487387 105:33.43328494536122 106:32.59656977566066 107:31.69175097365599 108:30.721553745579648 109:29.688999992818214 110:28.597437559477427 111:27.45058006511437 112:26.252561483332236 113:25.008011453180416 114:23.722160032946643 115:22.400984693031628 116:21.05141849673212 117:19.681647633467353 118:18.301540011983292 119:16.923265577485644 120:15.562192518436914 121:14.238163133463411 122:12.977237393800221 123:11.813851066652626 124:10.792863628943302 125:9.969868678201282 126:9.406522292961165 127:9.15756743823887 
1.0 0:9.251899954057658 1:9.679782189744397 2:10.397573040266666 3:11.345486325339946 4:12.464368313005945 5:13.704200949267731 6:15.025773474034633 7:16.3992218591821 8:17.801838934325517 9:19.21612432155524 10:20.62830056496899 11:22.02725379499393 12:23.403796598173155 13:24.750158891771488 14:26.059635701949446 15:27.326342013931786 16:28.545040796708662 17:29.711021365973984 18:30.820012691614433 19:31.868121209560403 20:32.851785992759496 21:33.767746338869614 22:34.61301831694192 23:35.384877825956245 24:36.080848413337385 25:36.69869258531561 26:37.236405681364005 27:37.692211627228886 28:38.06456005552396 29:38.35212441001367 30:38.55380074357318 31:38.66870699009863 32:38.696182544174754 33:38.635788023957474 34:38.48730512604239 35:38.25073650877196 36:37.9263056645989 37:37.51445676460966 38:37.015854480844695 39:36.431383816470316 40:35.762150002327935 41:35.00947855377607 42:34.17491562796961 43:33.26022888456983 44:32.2674091410261 45:31.198673240446304 46:30.056468737001953 47:28.843481285322945 48:27.562646053726187 49:26.217165163824074 50:24.810534261080768 51:23.346583147597315 52:21.829538525664024 53:20.264122393640687 54:18.655709665699302 55:17.010587638685855 56:15.336397732631907 57:13.642918603384675 58:11.943521882936864 59:10.258027054235457 60:8.618617831921567 61:7.082617322338245 62:5.75930861325254 63:4.850574440318849 64:4.626038636646403 65:5.184392990130601 66:6.323120910011795 67:7.788502120749839 68:9.422913194272184 69:11.1435397524503 70:12.905693747514292 71:14.683074656207157 72:16.458605101636422 73:18.220125006897213 74:19.958265465176044 75:21.665339866885038 76:23.334735835570722 77:24.960567187965527 78:26.53746764680348 79:28.06046525664488 80:29.52490453002971 81:30.926397775602894 82:32.26079478654658 83:33.52416436569752 84:34.712783637149755 85:35.82313256185015 86:36.851891970164836 87:37.79594398476615 88:38.65237406618063 89:39.41847414842582 90:40.09174648941231 91:40.66990796823278 92:41.15089463655587 93:41.532866385207775 94:41.814211626914016 95:41.99355192695631 96:42.069746538596384 97:42.04189682204185 98:41.90935054653444 99:41.67170609667293 100:41.32881662825144 101:40.880794247960594 102:40.32801432812071 103:39.67112011620779 104:38.91102786496883 105:38.04893280093563 106:37.08631637997206 107:36.024955468164706 108:34.866934366514194 109:33.61466101963925 110:32.27088939647296 111:30.83875104729287 112:29.32180047330438 113:27.72408163174937 114:26.050227446033368 115:24.305612118862584 116:22.496590335476068 117:20.630884137773517 118:18.718230079585105 119:16.771504036025462 120:14.80876114479791 121:12.857104223245875 122:10.960316786606466 123:9.19413136200463 124:7.69441512884104 125:6.689614518684952 126:6.456790293170934 127:7.102340817973017 
1.0 0:8.445730838824785 1:10.225709926157412 2:12.257676264409957 3:14.43524051407292 4:16.69776176157962 5:19.0085336036577 6:21.343450778269993 7:23.685316635348073 8:26.020909438791413 9:28.339407026984 10:30.63150456289229 11:32.88890133954652 12:35.10399257078264 13:37.26967959136697 14:39.37925092940493 15:41.426307168380006 16:43.40471364008528 17:45.308571251498 18:47.13219938657576 19:48.87012699930136 20:50.517089349836304 21:52.068028675603706 22:53.51809762937752 23:54.86266467124878 24:56.09732083907601 25:57.21788748446843 26:58.220424674646274 27:59.10124004133495 28:59.856897917021975 29:60.48422864373396 30:60.98033797489478 31:61.342616520455955 32:61.568749211980474 33:61.656724789997014 34:61.60484534274587 35:61.41173595552175 36:61.07635456561531 37:60.59800216239421 38:59.97633352936668 39:59.21136880072497 40:58.30350620676964 41:57.25353652227847 42:56.06265992629363 43:54.73250625646009 44:53.265160034907275 45:51.66319221607684 46:49.929701455111136 47:48.06836897128246 48:46.08353303450515 49:43.98029215122831 50:41.76465087871926 51:39.44373008734283 52:37.026076606967166 53:34.522129492935456 54:31.94493889488827 55:29.311302134734056 56:26.643604559251333 57:23.972871742456427 58:21.343910604966187 59:18.823938160313666 60:16.516310455736747 61:14.578446335949428 62:13.230440887146866 63:12.713726055023702 64:13.169706658958038 65:14.53895000609587 66:16.618554639867206 67:19.19169051210969 68:22.092405268682075 69:25.20818594430765 70:28.46439475272003 71:31.8102627431308 72:35.209647660487505 73:38.63543411302213 74:42.066196003975456 75:45.48418850183648 76:48.874116866310764 77:52.22236535588437 78:55.516504419368985 79:58.74497023279958 80:61.89685354562951 81:64.96175946503348 82:67.92971428083199 83:70.79110411428313 84:73.536635494913 85:76.15731130048484 86:78.64441762265577 87:80.98951850572678 88:83.1844564236928 89:85.22135697955133 90:87.09263673489545 91:88.79101337320999 92:90.309517609513 93:91.64150640986533 94:92.78067719539207 95:93.72108278944282 96:94.45714693222094 97:94.98368024099406 98:95.29589654074987 99:95.38942953387206 100:95.26034982171154 101:94.90518233955287 102:94.32092432368364 103:93.5050640004667 104:92.4556002797488 105:91.17106385889521 106:89.6505403142287 107:87.8936959960724 108:85.90080788631091 109:83.672799076751 110:81.21128226759365 111:78.51861480573872 112:75.59797051089015 113:72.4534362611016 114:69.09014570323046 115:65.51446972484833 116:61.73429569772252 117:57.759449216108735 118:53.60235146079633 119:49.27907952063039 120:44.811142355841554 121:40.228581795547704 122:35.575637976688064 123:30.9215947499227 124:26.382395825551534 125:22.164157197980977 126:18.642441593447586 127:16.442432082976087 
1.0 0:16.27241048569473 1:18.31800993268504 2:22.064865356424395 3:26.877986939505533 4:32.33242067432944 5:38.18691352524798 6:44.303713224980214 7:50.5986991917281 8:57.01591080704998 9:63.514761727371294 10:70.06341889681919 11:76.6352231280242 12:83.206669278344 13:89.75622175386611 14:96.26359684157627 15:102.70931642061433 16:109.07442520314831 17:115.34030978138755 18:121.4885829626908 19:127.50101112729706 20:133.35947065847455 21:139.04592448673543 22:144.542412865897 23:149.8310544406294 24:154.89405491889897 25:159.71372148984324 26:164.27248168507901 27:168.55290576569524 28:172.53773198887293 29:176.2098943062166 30:179.55255219636766 31:182.54912245496968 32:185.18331286842212 33:187.4391577939818 34:189.30105576618203 35:190.75380935649662 36:191.7826676386534 37:192.3733717668908 38:192.51220437282038 39:192.18604374764442 40:191.38242412728508 41:190.0896038775242 42:188.29664404172252 43:185.9935006505987 44:183.1711355316229 45:179.8216522949086 46:175.93846702704653 47:171.51652749538053 48:166.55260116849306 49:161.04566244802052 50:154.99742547707882 51:148.41309471734172 52:141.30244821598092 53:133.68144088773266 54:125.5746408703763 55:117.01903565286942 56:108.07015091869559 57:98.81217252018149 58:89.37512697919873 59:79.96452113643569 60:70.9120091613776 61:62.755597826165285 62:56.33457070592816 63:52.787632597961576 64:53.20778554897436 65:57.989954447934494 66:66.62557202180287 67:78.21672455484897 68:91.97231793093006 69:107.34187793800118 70:123.97018261917401 71:141.62878631270323 72:160.16650183772327 73:179.47888771398962 74:199.4901664355093 75:220.14247833143187 76:241.38937423795738 77:263.1917786199867 78:285.515421722148 79:308.329166677519 80:331.60389570435433 81:355.3117542568525 82:379.42562978670463 83:403.9187877085845 84:428.7646149126278 85:453.93643830459735 86:479.40739666288204 87:505.1503510543016 88:531.1378236067857 89:557.3419574744921 90:583.7344928887677 91:610.2867556035001 92:636.9696550301696 93:663.7536900549452 94:690.6089610284705 95:717.5051867792421 96:744.4117257646343 97:771.2976006677392 98:798.1315258926516 99:824.8819375192437 100:851.5170253604815 101:878.0047668278032 102:904.3129623579862 103:930.4092721919196 104:956.2612543243994 105:981.8364034664809 106:1007.1021908795232 107:1032.026104953944 108:1056.5756924167274 109:1080.7186000605197 110:1104.4226168942266 111:1127.6557166207233 112:1150.3861003519746 113:1172.5822394756885 114:1194.2129185908477 115:1215.2472784321699 116:1235.6548587058817 117:1255.4056407612527 118:1274.470090024152 119:1292.8191981206023 120:1310.4245246198593 121:1327.258238328082 122:1343.2931580651368 123:1358.5027928585646 124:1372.8613814902324 125:1386.3439313327558 126:1398.9262564143464 127:1410.5850146524401 
1.0 0:1108.239316630284 1:1115.9267822612417 2:1122.8465094795583 3:1128.98315268458 4:1134.3221494224315 5:1138.8497445759167 6:1142.5530136426107 7:1145.419885068315 8:1147.4391616052685 9:1148.6005406668917 10:1148.8946336534102 11:1148.3129842255303 12:1146.848085506389 13:1144.4933961953786 14:1141.2433555811372 15:1137.0933974451277 16:1132.0399628518035 17:1126.0805118265307 18:1119.2135339282672 19:1111.4385577306616 20:1102.7561592328918 21:1093.1679692304333 22:1082.676679686304 23:1071.2860491555487 24:1059.0009073302208 25:1045.8271587894951 26:1031.7717860605135 27:1016.8428521211165 28:1001.0495025069675 29:984.401967224369 30:966.9115627184888 31:948.5906942075721 32:929.4528587708841 33:909.5126496767559 34:888.7857625642054 35:867.2890042568044 36:845.0403052040765 37:822.0587368322822 38:798.3645354692441 39:773.9791350242048 40:748.9252113074995 41:723.2267418447382 42:696.9090863925 43:669.9990952715624 44:642.5252553645568 45:614.517887587159 46:586.0094154788248 47:557.0347332991215 48:527.6317153347627 49:497.8419288069883 50:467.7116455519367 51:437.2933007514792 52:406.64763504446796 53:375.8469059891456 54:344.9798157323016 55:314.15926829048357 56:283.53492377661354 57:253.31410540519144 58:223.79756466855318 59:195.44182172072803 60:168.96728576033684 61:145.5329555798299 62:126.94862516345445 63:115.6654214278196 64:113.92552261726541 65:122.14927696469825 66:138.55301107123884 67:160.60509747767063 68:186.24848612314474 69:214.12327170664702 70:243.38190919800977 71:273.49243503808333 72:304.1093201338166 73:334.99800131809604 74:365.99167699092914 75:396.96624778436416 76:427.82541284304835 77:458.4915506787468 78:488.8999802725805 79:518.995253028119 80:548.7286987274579 81:578.0567661441306 82:606.9398794898418 83:635.3416371794284 84:663.2282423848577 85:690.5680934293836 86:717.3314862379984 87:743.4903965150279 88:769.0183193972085 89:793.8901510212571 90:818.0821009619283 91:841.571627593989 92:864.3373905865124 93:886.3592162576736 94:907.6180726036977 95:928.0960516001742 96:947.7763569474313 97:966.6432958553061 98:984.6822737787714 99:1001.8797912540667 100:1018.2234421660618 101:1033.7019129165392 102:1048.3049820705733 103:1062.023520142073 104:1074.849489245578 105:1086.7759423937373 106:1097.7970222617937 107:1107.9079592741577 108:1117.1050688956122 109:1125.3857480321856 110:1132.7484704653546 111:1139.1927812587362 112:1144.7192900894836 113:1149.3296634676735 114:1153.0266158164393 115:1155.8138993937903 116:1157.6962930441712 117:1158.6795897740747 118:1158.7705831515507 119:1157.977052534399 120:1156.3077471362665 121:1153.7723689438837 122:1150.3815545023479 123:1146.1468555886897 124:1141.0807187970752 125:1135.1964640618305 126:1128.5082621471454 127:1121.0311111347928 
1.0 0:1112.7808119435201 1:1103.7739429159546 2:1094.0278335109274 3:1083.56053714106 4:1072.3908031973153 5:1060.538048303965 6:1048.0223268491166 7:1034.864300837551 8:1021.0852091141951 9:1006.7068360080634 10:991.7514794480059 11:976.241918603075 12:960.201381101827 13:943.6535098863834 14:926.6223297586662 15:909.1322136778942 16:891.2078488702259 17:872.874202813416 18:854.1564891615847 19:835.0801336777317 20:815.6707402445779 21:795.9540570278036 22:775.9559428699021 23:755.702333997898 24:735.2192111343132 25:714.5325671083107 26:693.6683750733257 27:672.6525574491898 28:651.5109557214811 29:630.2693012494468 30:608.95318725755 31:587.5880422160377 32:566.1991048550341 33:544.8114011073791 34:523.4497233416542 35:502.1386123339379 36:480.9023425422684 37:459.76491140202245 38:438.75003356833105 39:417.8811413145013 40:397.1813926841156 41:376.6736895343678 42:356.3807083667349 43:336.32494791994833 44:316.52879905505307 45:297.0146447348009 46:277.80500127143443 47:258.9227171011025 48:240.39125314211964 49:222.23508097776136 50:204.48025450623382 51:187.15524222086182 52:170.29215954030687 53:153.92862896327952 54:138.1106478034365 55:122.89710758718891 56:108.36706742870217 57:94.63164891213455 58:81.85353762327948 59:70.27796464020896 60:60.27624305024204 61:52.38402941711745 62:47.25910143645061 63:45.42811792981531 64:46.88532837895948 65:51.001967690143786 66:56.9026753899913 67:63.834833044863245 68:71.2737762693223 69:78.88203363391258 70:86.44618425238778 71:93.82982965699537 72:100.94407116725375 73:107.72982365728001 74:114.14723831070388 75:120.1692724365096 76:125.77768770031219 77:130.9604948886319 78:135.7102796618353 79:140.02307766213627 80:143.89760023727234 81:147.33468894324326 82:150.33692244412816 83:152.90832688795393 84:155.05415778892163 85:156.7807321287585 86:158.09529625515023 87:159.00591964937374 88:159.52140762872088 89:159.65122807592576 90:159.4054486810818 91:158.7946821534626 92:157.83003754824324 93:156.5230763463289 94:154.88577228431583 95:152.93047419669503 96:150.6698713317283 97:148.11696075566908 98:145.28501658130835 99:142.18756085679985 100:138.83833603770202 101:135.25127904629323 102:131.4404970042601 103:127.4202448150481 104:123.20490487922052 105:118.8089693614885 106:114.24702560766222 107:109.53374555705781 108:104.68388034637357 109:99.71226180981482 110:94.63381333492305 111:89.4635736764195 112:84.21673909789646 113:78.90873200568102 114:73.55530876267287 115:68.1727268810424 116:62.77800461454424 117:57.389328527277094 118:52.02670560776754 119:46.71303362120957 120:41.47591377915286 121:36.35083321552258 122:31.386972602805244 123:26.658190081271734 124:22.284169010846423 125:18.46936397689032 126:15.557711004705371 127:14.02718064250551 
1.0 0:14.224443834429627 1:15.98485670826353 2:18.782797114977328 3:22.14571603616756 4:25.77816892525541 5:29.512278153386163 6:33.25129990466184 7:36.93654719384025 8:40.53023892708149 9:44.006639009806236 10:47.34733053206887 11:50.538589487142744 12:53.56986336030846 13:56.43285471431256 14:59.12094907326661 15:61.6288458372316 16:63.952312823405265 17:66.08801826376236 18:68.03341256970158 19:69.78664278535985 20:71.34648892585356 21:72.71231520845824 22:73.88403155829609 23:74.86206228209586 24:75.64731978721842 25:76.24118187571632 26:76.64547158426763 27:76.86243884438949 28:76.8947434500798 29:76.7454389720876 30:76.41795736909687 31:75.91609412951881 32:75.2439938424737 33:74.4061361494469 34:73.4073220739576 35:72.25266076940943 36:70.94755676871051 37:69.49769786695337 38:67.90904382464181 39:66.18781614892279 40:64.34048930113694 41:62.37378380069779 42:60.29466186230208 43:58.1103264372039 44:55.82822486216476 45:53.45605880164284 46:51.0018028779676 47:48.47373544519145 48:45.88048657699905 49:43.2311108410644 50:40.53519638278232 51:37.8030282020236 52:35.04583395384436 53:32.27615810236243 54:29.50844008992465 55:26.75992371137373 56:24.05211406712631 57:21.4131492913096 58:18.881687679769907 59:16.51317093398186 60:14.389159380467651 61:12.628003171903945 62:11.38593282391957 63:10.821870168710701 64:11.013076780992433 65:11.892440069522655 66:13.29211107019867 67:15.035445539502375 68:16.98551475507952 69:19.048469788470552 70:21.16204494827809 71:23.28446430914488 72:25.386838639437425 73:27.44844156154502 74:29.453843008709857 75:31.391160101416954 76:33.25097116130616 77:35.02562660582468 78:36.70880157346304 79:38.2951988835536 80:39.78034751622087 81:41.16046305197245 82:42.43234908207942 83:43.59332618734504 84:44.64117975564101 85:45.5741208451767 86:46.39075618197381 87:47.090064607892764 88:47.671378110944424 89:48.13436612006292 90:48.47902212395516 91:48.705651936328266 92:48.81486311527964 93:48.80755517747397 94:48.68491034427136 95:48.44838462822539 96:48.09969912192183 97:47.64083139225759 98:47.07400691577082 99:46.40169051735015 100:45.62657779777625 101:44.751586556973685 102:43.77984824134502 103:42.71469946703285 104:41.5596736987159 105:40.318493198647474 106:38.99506140744966 107:37.593455983185436 108:36.1179228184534 109:34.57287149261711 110:32.96287282366731 111:31.292659504831835 112:29.567131318863417 113:27.79136724820607 114:25.970648178408684 115:24.1104962691216 116:22.21674130690011 117:20.29563221467998 118:18.354027117070906 119:16.399726347208823 120:14.442079514129576 121:12.493150951411462 122:10.570105299743515 123:8.7004741026945 124:6.934746702646449 125:5.377958020905756 126:4.258170864675664 127:3.94724808749516 
1.0 0:4.588610122722945 1:5.854152918806871 2:7.407836678324938 3:9.080487531707146 4:10.79518115357547 5:12.513706105346328 6:14.214573631576497 7:15.88418783320944 8:17.513038136042987 9:19.093918324514092 10:20.62103032301591 11:22.08950437989082 12:23.49512860159027 13:24.834189866964504 14:26.103376919529648 15:27.299719612004527 16:28.420549900143172 17:29.463476293426265 18:30.426366819261105 19:31.307337461831306 20:32.10474415594182 21:32.81717709359688 22:33.44345652215144 23:33.982629481121954 24:34.43396709952981 25:34.79696219202016 26:35.07132697108921 27:35.25699074766892 28:35.354097531313 29:35.36300346964426 30:35.28427408810315 31:35.118681307788115 32:34.867200233018764 33:34.53100571248823 34:34.11146868958149 35:33.61015236963234 36:33.028808245670376 37:32.369372040867255 38:31.633959647181783 39:30.82486316806226 40:29.94454721208145 41:28.995645639498445 42:27.98095904337527 43:26.903453364391712 44:25.766260215546335 45:24.57267976539782 46:23.326187457376104 47:22.03044653439558 48:20.689329483650415 49:19.306953470549367 50:17.88773827437224 51:16.436501532680293 52:14.958618088965313 53:13.46029414752336 54:11.949057171202739 55:10.434674264537467 56:8.930976575614196 57:7.459732993342118 58:6.059448109505294 59:4.806082739862434 60:3.856057793285104 61:3.471990237087976 62:3.824835123190471 63:4.745200768459601 64:5.965891760064006 65:7.326723018203823 66:8.750139934917538 67:10.197148978195361 68:11.645981473375517 69:13.083047383818323 70:14.498961764720073 71:15.886677009510718 72:17.240543612243478 73:18.555808950948187 74:19.82833608916592 75:21.054439381001664 76:22.230785127804054 77:23.354329985237968 78:24.42228205892112 79:25.432076044864914 80:26.3813572782457 81:27.267971542432445 82:28.08995865523134 83:28.845548552502155 84:29.53315902540332 85:30.151394544850152 86:30.699045787375777 87:31.175089596971144 88:31.578689199684327 89:31.90919454537103 90:32.16614269264893 91:32.34925818438829 92:32.458453385741834 93:32.49382877738488 94:32.455673215246584 95:32.34446418613088 96:32.160868107629476 97:31.90574074204099 98:31.580127819156303 99:31.185265993685828 100:30.722584302192214 101:30.193706334935378 102:29.600453404507963 103:28.94484908176562 104:28.229125589196176 105:27.455732705133574 106:26.62735005736408 107:25.74690399825214 108:24.817590694488533 109:23.842907690408495 110:22.826697099581608 111:21.773204870759802 112:20.687162445717078 113:19.57389984335153 114:18.439503131858636 115:17.291034844677533 116:16.136843587678392 117:14.986998852213468 118:13.853897138348957 119:12.753089063981779 120:11.704354395595443 121:10.732954860414281 122:9.870729056360567 123:9.156145035012974 124:8.631678606259042 125:8.336784685134717 126:8.297022463207831 127:8.514590464684362 
1.0 0:8.967232463831996 1:9.61646350989621 2:10.418829127739277 3:11.33400663538491 4:12.32826133579055 5:13.374776039503598 6:14.452638965833385 7:15.545545513097045 8:16.640645055741718 9:17.727640960717583 10:18.798127048301428 11:19.845110504025428 12:20.862671979313465 13:21.845723615059164 14:22.78983614621749 15:23.691114646964404 16:24.54610864168057 17:25.351746650470524 18:26.105288244358213 19:26.8042887547705 20:27.44657320807886 21:28.03021704392898 22:28.553531865768402 23:29.015054958058634 24:29.41354165109893 25:29.74795986446495 26:30.017486343452962 27:30.221504239929168 28:30.35960179392584 29:30.431571955311117 30:30.437412853337072 31:30.377329081443374 32:30.251733819922507 33:30.061251873810996 34:29.80672376136575 35:29.489211053480776 36:29.110003240649863 37:28.670626496551133 38:28.172854822167434 39:27.61872419923394 40:27.010550566404845 41:26.350952667955045 42:25.642881127887744 43:24.889655489255436 44:24.095011447622138 45:23.263161114215833 46:22.398869871383233 47:21.507554201080172 48:20.595405674453097 49:19.66954683590105 50:18.738224457745286 51:17.811043513426306 52:16.8992392592133 53:16.015971742521558 54:15.176602072162213 55:14.398867634243437 56:13.702812871101726 57:13.110266934838803 58:12.643634919795026 59:12.323869421003895 60:12.167791656288749 61:12.185383559360602 62:12.377987254264074 63:12.738163356421373 64:13.251258069200707 65:13.897994660368271 66:14.657153385593055 67:15.507673763558818 68:16.429960508495313 69:17.40649502542906 70:18.421973786835085 71:19.463181942480837 72:20.51874970709077 73:21.578879079586113 74:22.63508541081218 75:23.679972232357706 76:24.707043761687874 77:25.71055288526511 78:26.68537986154408 79:27.626936454917537 80:28.531090586830476 81:29.394107292433265 82:30.21260252418289 83:30.9835070302861 84:31.704038116799655 85:32.37167757466953 86:32.98415442870195 87:33.5394314604885 88:34.035694687493695 89:34.47134515970015 90:34.84499257482441 91:35.155450322293326 92:35.40173165206394 93:35.58304673257306 94:35.698800416944515 95:35.74859058146268 96:35.73220693791341 97:35.64963025388355 98:35.5010319443128 99:35.28677402509074 100:35.00740944680808 101:34.66368285538611 102:34.25653185785788 103:33.78708890794538 104:33.25668396953519 105:32.66684816963532 106:32.0193187196021 107:31.316045469404603 108:30.559199571030298 109:29.751184872865778 110:28.89465285908077 111:27.992522203116483 112:27.04800434426198 113:26.064636950084843 114:25.04632773272348 115:23.997411889972422 116:22.922727494483436 117:21.82771450192382 118:20.718544699859255 119:19.602291770691767 120:18.48715231859936 121:17.382729230146367 122:16.300385870678447 123:15.253668775130468 124:14.25876917818899 125:13.334936551377476 126:12.50465543165648 127:11.793251447547098 
1.0 0:11.227464925044297 1:10.83259890424824 2:10.628367626769053 3:10.624554189150794 4:10.818364656180131 5:11.194917509036419 6:11.730622087753776 7:12.397726834656142 8:13.168248182685229 9:14.01643920890775 10:14.919871042444782 11:15.859590165143729 12:16.819804534465987 13:17.787400610497716 14:18.75145138490635 15:19.702783328123274 16:20.633621128388942 17:21.537306975308358 18:22.40808320814623 19:23.24092578883371 20:24.03141731313618 21:24.77565028478211 22:25.47015336756403 23:26.111835028106825 24:26.697940335785557 25:27.226017728975194 26:27.693893345201875 27:28.099651103383348 28:28.441617167120345 29:28.71834774689383 30:28.928619444926145 31:29.071421530995902 32:29.145949676611068 33:29.15160078041052 34:29.087968598096317 35:28.95483995195262 36:28.75219134276564 37:28.48018582419509 38:28.139170028947454 39:27.729671259430148 40:27.252394574401535 41:26.708219818664535 42:26.098198556020066 43:25.423550877351957 44:24.685662066658846 45:23.88607911896521 46:23.026507116484563 47:22.108805484765405 48:21.13498417136965 49:20.107199820120602 50:19.027752061496383 51:17.899080117834636 52:16.723760056367436 53:15.50450326496988 54:14.244157182056345 55:12.945710220538823 56:11.612304746728444 57:10.247266340595258 58:8.854168395648644 59:7.436981123441137 60:6.000449965963493 61:4.551221644709322 62:3.102176530982849 63:1.6988360429327858 64:0.7818783079237135 65:1.6932620279714061 66:3.1109329068013705 67:4.585212349615477 68:6.069792218213972 69:7.55149545367213 70:9.023393700964288 71:10.480420728162045 72:11.918236149338103 73:13.332845004616464 74:14.7204489631578 75:16.07738273531687 76:17.400086212276687 77:18.685093127071944 78:19.929027947967988 79:21.128607110859917 80:22.280642629686575 81:23.38204703652599 82:24.429839060766046 83:25.421149698349584 84:26.353228455397137 85:27.223449627017185 86:28.029318517613785 87:28.768477536991096 88:29.438712124350577 89:30.037956464001514 90:30.564298964622825 91:31.015987479668627 92:31.391434250867068 93:31.6892205602839 94:31.90810107950606 95:32.04700790740363 96:32.10505429090031 97:32.08153802642551 98:31.97594454346524 99:31.787949676167646 100:31.517422134641645 101:31.16442569494157 102:30.729221136470176 103:30.212267968733677 104:29.61422600764163 105:28.935956887293454 106:28.178525630214786 107:27.343202453266738 108:26.431465067603558 109:25.44500185500333 110:24.38571649653914 111:23.255734939572562 112:22.057416098873897 113:20.793368551329944 114:19.46647699619646 115:18.079945002762766 116:16.63736578504501 117:15.14284314154817 118:13.601206637550264 119:12.018414603230042 120:10.402359417507784 121:8.764614239416765 122:7.124636478412586 123:5.521275182319353 124:4.049004559175517 125:2.9738739150749693 126:2.8516638516962214 127:3.807785701245074 
1.0 0:5.303249115591682 1:7.008689890234668 2:8.805574545157828 3:10.646688181781874 4:12.508860643588115 5:14.378281747060086 6:16.245301932799723 7:18.10233008618459 8:19.942886946452926 9:21.761141702624922 10:23.55167036359568 11:25.309323994750756 12:27.029154932672974 13:28.706375257565742 14:30.336334032938787 15:31.914505885524314 16:33.436486660923926 17:34.897993614252705 18:36.29486857163154 19:37.62308307100916 20:38.87874483717157 21:40.05810516142397 22:41.157566894431646 23:42.17369285153117 24:43.103214491450636 25:43.943040772720444 26:44.69026712392327 27:45.34218448876741 28:45.8962884277249 29:46.35028827683694 30:46.70211638293584 31:46.949937454455856 32:47.092158089708725 33:47.12743657161576 34:47.054693051455246 35:46.87312028675988 36:46.58219515355758 37:46.18169122539688 38:45.67169280761758 39:45.05261094441849 40:44.32520209171612 41:43.490590389799216 42:42.55029480446269 43:41.50626287515374 44:40.36091347569627 45:39.11719195092016 46:37.778642383539704 47:36.34950378886337 48:34.83484006881645 49:33.24071810563049 50:31.57445524771955 51:29.84496785997891 52:28.063268352066522 53:26.243181469496538 54:24.402383785531097 55:22.56391229222277 56:20.758324967502034 57:19.026674466575862 58:17.424218517777074 59:16.02397668787397 60:14.917333322857338 61:14.206153951691132 62:13.981077261349363 63:14.290793634948061 64:15.122857853975448 65:16.412966230051225 66:18.0732136784858 67:20.017206311169087 68:22.17213335069158 69:24.480834071966687 70:26.899503480935625 71:29.39447270020583 72:31.93939088398392 73:34.51309570459522 74:37.0980974627468 75:39.67952541642842 76:42.244400401208175 77:44.78113201693587 78:47.2791693125458 79:49.728756663705234 80:52.12076228702528 81:54.44655742151166 82:56.697931256165624 83:58.867031375411194 84:60.946322635464945 85:62.92855950538867 86:64.8067683525146 87:66.57423714871418 88:68.22451076910536 89:69.75139054540261 90:71.14893708681153 91:72.41147563552718 92:73.5336034110148 93:74.51019853765469 94:75.33643025828432 95:76.00777022188014 96:76.5200047046769 97:76.86924768629407 98:77.05195476084918 99:77.06493792204381 100:76.90538132536248 101:76.57085820495973 102:76.05934921382521 103:75.36926257168173 104:74.499456557163 105:73.44926508518077 106:72.2185273903278 107:70.8076232269942 108:69.21751554810822 109:67.44980341547519 110:65.50678904692354 111:63.3915646095131 112:61.10812692830896 113:58.661532190614935 114:56.05810880068017 115:53.30575614426154 116:50.414372473649955 117:47.39648039865185 118:44.26816040981399 119:41.050473087834916 120:37.77166797673079 121:34.47066782968191 122:31.20260045882505 123:28.047460683994387 124:25.12286804930397 125:22.599623351923135 126:20.710131389383918 127:19.722281270359392 
1.0 0:19.849617688961935 1:21.138965015063327 2:23.45313957861539 3:26.566840700419533 4:30.264582150729705 5:34.37948508720694 6:38.79231765420433 7:43.41908427902954 8:48.199415248198456 9:53.08829827971663 10:58.05067892373434 11:63.05802234156723 12:68.08612407485457 13:73.11370111577374 14:78.12147173998373 15:83.09154529936626 16:88.00701189291274 17:92.85166332144134 18:97.60980190466093 19:102.26610919698662 20:106.80555627607849 21:111.21334338689462 22:115.47486066200312 23:119.57566422020267 24:123.50146366543713 25:127.23811817256278 26:130.77163914773274 27:134.08819801151023 28:137.1741380516928 29:140.01598958257483 30:142.60048786319612 31:144.91459339321685 32:146.94551433858982 33:148.68073095295114 34:150.1080219646909 35:151.21549300282425 36:151.9916072455955 37:152.42521860356138 38:152.50560790501785 39:152.22252275073888 40:151.5662219672236 41:150.52752594159972 42:149.09787460857825 43:147.26939554224592 44:145.03498557648766 45:142.388410781345 46:139.3244316839444 47:135.8389637009833 48:131.9292874288376 49:127.59433068485038 50:122.8350556478933 51:117.65500294530324 52:112.06107510517334 53:106.06469356140715 54:99.6835533015526 55:92.944359366447 56:85.88722130023058 57:78.57292287706737 58:71.09528891649117 59:63.60266099983777 60:56.3351869754924 61:49.68606239014214 62:44.28201202661433 63:41.0112324480353 64:40.79968599584423 65:44.077641600101714 66:50.51093774068305 67:59.37748421728469 68:70.01404046988053 69:81.9559968723422 70:94.90533288367014 71:108.67229029655519 72:123.13260562352237 73:138.20128985269992 74:153.81723367400653 75:169.93414623593932 76:186.5151169684703 77:203.52926863371832 78:220.94964303459278 79:238.75183184322216 80:256.9130697129428 81:275.4116215644014 82:294.22636163609843 83:313.33648040670363 84:332.72127861551746 85:352.3600218039077 86:372.23183770845077 87:392.3156445405873 88:412.590101910014 89:433.0335786214977 90:453.62413324416354 91:474.3395044967857 92:495.15710928839474 93:516.054046814191 94:537.0071075066464 95:557.992785930137 96:578.9872969177618 97:599.9665944038348 98:620.9063925205761 99:641.7821886137334 100:662.5692878969651 101:683.2428295143515 102:703.7778138183328 103:724.1491306996305 104:744.3315888283832 105:764.2999456834262 106:784.0289382605101 107:803.4933143611973 108:822.6678643728463 109:841.5274534569998 110:860.0470540690502 111:878.2017787365252 112:895.966913026991 113:913.3179486395718 114:930.2306165565795 115:946.6809201938605 116:962.6451684902584 117:978.1000088781997 118:993.0224600787875 119:1007.3899446661021 120:1021.1803213465992 121:1034.3719169006486 122:1046.9435577343845 123:1058.8746009911524 124:1070.1449651729652 125:1080.7351602235483 126:1090.6263170257403 127:1099.800216267275 
1.0 0:856.7885614648324 1:862.6730880863288 2:867.961410930916 3:872.6418751845805 4:876.7034448256458 5:880.1357209511445 6:882.9289593795521 7:885.0740875069812 8:886.5627203959065 9:887.3871760776167 10:887.5404900519079 11:887.0164289700551 12:885.8095034898863 13:883.9149802948255 14:881.328893272182 15:878.0480538497512 16:874.0700604940434 17:869.3933073782927 18:864.0169922338844 19:857.9411234051561 20:851.1665261348278 21:843.6948481158363 22:835.5285643553576 23:826.6709814086588 24:817.1262410545656 25:806.8993235013617 26:795.9960502325602 27:784.4230866271829 28:772.1879445201823 29:759.2989849070684 30:745.7654210447974 31:731.5973222613678 32:716.8056188631442 33:701.4021086267542 34:685.3994654884011 35:668.8112512069773 36:651.6519309914778 37:633.9368943659238 38:615.6824829217109 39:596.9060271139994 40:577.6258949471382 41:557.8615563391859 42:537.633668267515 43:516.9641876402764 44:495.87652145947897 45:474.39572761911876 46:452.5487852042696 47:430.36496135263167 48:407.8763140989039 49:385.1183895784123 50:362.1312015661113 51:338.9606284186063 52:315.6604388585438 53:292.2952842874043 54:268.94520777033273 55:245.7125825678958 56:222.7330163694431 57:200.19281606758764 58:178.3573103398718 59:157.6166041416929 60:138.55637210629956 61:122.05234905235437 62:109.34149571434817 63:101.90697663318083 64:100.9499857338627 65:106.64788419464841 66:118.02177259077705 67:133.59416272830103 68:152.03256018606248 69:172.3629492267427 70:193.92807878204815 71:216.2911666759515 72:239.1573424955654 73:262.3215412014236 74:285.63603625732316 75:308.99044366491074 76:332.2992928709398 77:355.4941628098964 78:378.5186020245387 79:401.3247770905931 80:423.8712159848448 81:446.12125973004225 82:468.0419815746974 83:489.6034207808221 84:510.77803194708434 85:531.5402844640518 86:551.8663681487419 87:571.7339750218744 88:591.1221363764099 89:610.0111004480106 90:628.3822401958159 91:646.2179836030413 92:663.5017609391839 93:680.2179648675047 94:696.3519203167596 95:711.8898617879597 96:726.818916318731 97:741.1270907369466 98:754.803262141522 99:767.837170779606 100:780.2194146656767 101:791.9414454235459 102:802.9955649372378 103:813.3749224786864 104:823.0735120447175 105:832.086169686936 106:840.4085706590315 107:848.0372262389122 108:854.9694801097713 109:861.2035042060024 110:866.7382939478272 111:871.5736628034027 112:875.7102361296229 113:879.149444253319 114:881.8935147634757 115:883.9454639926938 116:885.3090876727066 117:885.988950754463 118:885.9903763882961 119:885.319434064096 120:883.982926915322 121:881.9883781941976 122:879.3440169285653 123:876.0587627737417 124:872.1422100752959 125:867.6046111610528 126:862.4568588827924 127:856.7104684301373 
1.0 0:850.377558440967 1:843.4708314344387 2:836.0035535942984 3:827.9895339316766 4:819.4431028579755 5:810.3790901997827 6:800.8128026890073 7:790.7600009626245 8:780.2368761075504 9:769.2600257872593 10:757.8464299878176 11:746.0134264220271 12:733.7786856314067 13:721.1601858267475 14:708.1761875090328 15:694.8452079135961 16:681.1859953215386 17:667.2175032836851 18:652.9588648037362 19:638.429366528846 20:623.6484229976589 21:608.63555099796 22:593.4103440886128 23:577.9924473435088 24:562.4015323789447 25:546.6572727304216 26:530.7793196505058 27:514.7872784064597 28:498.7006851652321 29:482.53898456463827 30:466.3215080838469 31:450.0674533445948 32:433.7958644981106 33:417.52561388325523 34:401.27538518121116 35:385.0636583443593 36:368.9086966461962 37:352.828536291486 38:336.8409791500623 39:320.9635893463792 40:305.21369466820306 41:289.60839407838733 42:274.16457306295985 43:258.8989291862499 44:243.82801114026452 45:228.9682759117847 46:214.33617066876823 47:199.94824894403072 48:185.82133525173623 49:171.97275938326618 50:158.42069294906824 51:145.1846391415451 52:132.28615730659192 53:119.74995600182052 54:107.6055788845263 55:95.89006880788848 56:84.65228546144145 57:73.96007264131421 58:63.912366477623145 59:54.65963393495645 60:46.43669910368862 61:39.60608096027556 62:34.67761354793611 63:32.193927886991226 64:32.391749324494434 65:34.9320906925532 66:39.10917404296953 67:44.246436820240106 68:49.863400678132734 69:55.65632849422528 70:61.43846378680513 71:67.09381039841593 72:72.54866965770957 73:77.75511048041388 74:82.68139044139218 75:87.30629763815604 76:91.6157175422995 77:95.60048875226039 78:99.25502481791246 79:102.57640372257757 80:105.56375036219752 81:108.21780713482303 82:110.54062806593339 83:112.53535576739272 84:114.2060550063483 85:115.5575856430081 86:116.59550338927816 87:117.32598052112763 88:117.75574110231946 89:117.89200690270746 90:117.7424513022901 91:117.3151592395761 92:116.61859180266669 93:115.66155444744577 94:114.4531681081184 95:113.00284267395439 96:111.32025246512049 97:109.41531346600073 98:107.29816217822274 99:104.97913604701542 100:102.46875550138259 101:99.77770773840989 102:96.9168324828952 103:93.89711007512363 104:90.72965239473763 105:87.42569733503508 106:83.99660782543624 107:80.45387679881446 108:76.80914007378867 109:73.0741999618428 110:69.26106366138642 111:65.38200240234784 112:61.44964024650974 113:57.47708608882556 114:53.478129873745225 115:49.46753631694388 116:45.461490031865445 117:41.4782812654899 118:37.53938297836686 119:33.67117828494418 120:29.907786318458918 121:26.295748081363687 122:22.901765806414403 123:19.824873342068535 124:17.212456493146153 125:15.269494702599182 126:14.226307809190041 127:14.227939519740536 
1.0 0:15.217468832546903 1:16.967499638884338 2:19.218492040315635 3:21.76568693364447 4:24.470036848630073 5:27.241168827871192 6:30.019957923431846 7:32.76662070802854 8:35.45342477631461 9:38.06033597458547 10:40.57240194669511 11:42.978148418983935 12:45.26857221712446 13:47.436492815338795 14:49.47612426037593 15:51.38278573341503 16:53.152701302628 17:54.78285826786274 18:56.27090474217419 19:57.615073969590405 20:58.81412714742638 21:59.86730923467481 22:60.77431398605832 23:61.535255611446196 24:62.15064523927893 25:62.62137089438497 26:62.94868006949413 27:63.134164229885954 28:63.17974477717858 29:63.08766013460364 30:62.86045371797905 31:62.50096263482839 32:62.012307016380404 33:61.39787993910871 34:60.66133793836665 35:59.806592160071766 36:58.83780024050334 37:57.759359052282846 38:56.57589851001831 39:55.292276696118556 40:53.91357665124637 41:52.44510528184389 42:50.89239497871098 43:49.26120872901922 44:47.55754975799482 45:45.78767708208907 46:43.958128830187725 47:42.07575584668043 48:40.14776900623703 49:38.18180495311409 50:36.186016779199306 51:34.169198680719965 52:32.140957147183975 53:30.11194603182785 54:28.09418913984912 55:26.101521528175148 56:24.150187987230208 57:22.259639140553826 58:20.453549070974525 59:18.761013277444434 60:17.21771357338251 61:15.866472984171725 62:14.756038376769586 63:13.93641698393399 64:13.449662969908168 65:13.317910131108459 66:13.534545989946915 67:14.064676959382455 68:14.854864431234253 69:15.84581765623109 70:16.981921526267225 71:18.215786877076642 72:19.509108436951554 73:20.831695869822703 74:22.15994655803465 75:23.47536848396748 76:24.763360537945466 77:26.01227396728275 78:27.212713829556243 79:28.357026526301834 80:29.438925346738923 81:30.453216295708796 82:31.3955962171026 83:32.262502987283554 84:33.05100332722578 85:33.75870793946456 86:34.38370662546383 87:34.92451812108452 88:35.380050858582095 89:35.74957190691126 90:36.03268208728391 91:36.22929579777897 92:36.33962447176174 93:36.36416288335495 94:36.303677729694904 95:36.15919808580822 96:35.93200745928077 97:35.62363728006103 98:35.23586175472642 99:34.77069410176411 100:34.230384271515476 101:33.61741834796601 102:32.93451993671314 103:32.18465397266949 104:31.371033543052313 105:30.49713052988433 106:29.566691150203038 107:28.583757836502784 108:27.552699388364275 109:26.478251983582776 110:25.365574521333073 111:24.220322951612836 112:23.04874980037946 113:21.85783708465381 114:20.65547319667205 115:19.45068684828669 116:18.253952944930028 117:17.077584140021088 118:15.936212999512787 119:14.84734357406899 120:13.831891026663989 121:12.914511512041928 122:12.123341207559031 123:11.488568713525394 124:11.039270496680368 125:10.798510164367713 126:10.777968705341246 127:10.974527985096104 
1.0 0:11.370785639551805 1:11.939247638771226 2:12.647935495361022 3:13.465090207937008 4:14.361975023056594 5:15.313970498783657 6:16.30059953436752 7:17.30505165725555 8:18.313559946252628 9:19.3148034577709 10:20.299399778370123 11:21.25949905065221 12:22.188469121984067 13:23.080655199233075 14:23.93119766349627 15:24.735894208827354 16:25.491095359601772 17:26.193624999130257 18:26.840719624164436 19:27.429981642868693 20:27.959343237918006 21:28.427038209918923 22:28.83157987619402 23:29.17174358718376 24:29.44655278358268 25:29.65526778620327 26:29.797376712595405 27:29.8725880680598 28:29.880824677353925 29:29.82221871710699 30:29.697107685263298 31:29.506031208643524 32:29.24972864774421 33:28.92913751339599 34:28.545392766911785 35:28.09982713813643 36:27.593972669331762 37:27.029563783269534 38:26.408542289435424 39:25.733064893981375 40:25.005513982571756 41:24.228512722600417 42:23.4049459140308 43:22.537988551870935 44:21.631144813722933 45:20.68830124718782 46:19.713799437446692 47:18.712535567711114 48:17.69009727860005 49:16.65295234326679 50:15.608709059705477 51:14.566474609249513 52:13.537343197618226 53:12.535045103040694 54:11.576766678027804 55:10.68407855485427 56:9.88372823866201 57:9.207701024113902 58:8.691481925369047 59:8.369322065801141 60:8.266519372354669 61:8.391594304823009 62:8.733209150061855 63:9.264130125184932 64:9.949333417651438 65:10.753447314079999 66:11.645055976472998 67:12.598123382301567 68:13.591775317649175 69:14.609453444523519 70:15.637983241746708 71:16.666767696487 72:17.68715497807942 73:18.691964781175894 74:19.675140977488734 75:20.63149899552214 76:21.55654230872604 77:22.44632875854813 78:23.297372707774233 79:24.10657300381225 80:24.871159619003016 81:25.588653886862623 82:26.256838699955118 83:26.873736054274374 84:27.43759004517626 85:27.946853931630944 86:28.400180251850152 87:28.796413237757378 88:29.134582968493728 89:29.413900845143512 90:29.633756074799845 91:29.79371293230301 92:29.893508629853265 93:29.93305167356845 94:29.912420625862513 95:29.831863226265448 96:29.691795853377265 97:29.49280333903922 98:29.235639174343945 99:28.921226177591546 100:28.550657728670945 101:28.1251997148729 102:27.6462933825923 103:27.115559351310182 104:26.53480312531088 105:25.906022540989216 106:25.231417721678813 107:24.513404288926385 108:23.75463081423295 109:22.95800180879346 110:22.126707967517945 111:21.264265942011956 112:20.374570657139333 113:19.46196415294271 114:18.531326165077672 115:17.58819314855864 116:16.638914081240106 117:15.690852755249994 118:14.752646363975972 119:13.834526763077609 120:12.948699267516684 121:12.109746009215923 122:11.33496432166102 123:10.644453373110373 124:10.060631973407082 125:9.606777621972409 126:9.304298380191012 127:9.168995394271565 
1.0 0:9.207458741762165 1:9.415260042018993 2:9.777949067217296 3:10.274316026065106 4:10.88031339367506 5:11.572218445826381 6:12.328498525566122 7:13.130548920903655 8:13.962720869400714 9:14.812007327830365 10:15.667619093052101 11:16.520569514818504 12:17.363315263622113 13:18.189464194002934 14:18.993545494175418 15:19.770832016686597 16:20.51720415176674 17:21.229045891274442 18:21.90316548338411 19:22.536734743393012 20:23.12724248267106 21:23.672458622238437 22:24.17040640447163 23:24.619340755536818 24:25.017731329549033 25:25.364249122521976 26:25.6577558107648 27:25.897295167931336 28:26.08208606488697 29:26.21151666982253 30:26.285139552118252 31:26.302667459305386 32:26.263969587242883 33:26.169068203130173 34:26.018135512047337 35:25.81149068249422 36:25.549596966532008 37:25.233058866887273 38:24.862619317825583 39:24.439156859636604 40:23.963682799059765 41:23.4373383608237 42:22.86139184972017 43:22.23723585965523 44:21.56638458779094 45:20.850471340999608 46:20.091246362618417 47:19.290575166600448 48:18.45043765440031 49:17.572928425281777 50:16.660258903825284 51:15.714762253074813 52:14.738902615410012 53:13.735291208348123 54:12.706713553990006 55:11.656175358978254 56:10.586980819974006 57:9.502869854686741 58:8.408268195175186 59:7.308767595650724 60:6.212111459086602 61:5.130392349528159 62:4.085456413743536 63:3.1235704712336725 64:2.3556705798883564 65:2.018424187240544 66:2.3046600152207333 67:3.035873473366503 68:3.964807458028471 69:4.972677680707544 70:6.010291886041891 71:7.054769334536298 72:8.09366394859391 73:9.119155175160904 74:10.125704833086788 75:11.109013238525257 76:12.065513197829262 77:12.992107335149031 78:13.886024114546188 79:14.744735532626828 80:15.565908593884895 81:16.34737612925034 82:17.087119104721857 83:17.783255962581027 84:18.434036368401173 85:19.03783776362497 86:19.59316371948682 87:20.098643444981757 88:20.553032021374438 89:20.955211074555606 90:21.304189686280925 91:21.59910540457529 92:21.83922525351816 93:22.02394667003651 94:22.152798314531445 95:22.225440715827716 96:22.241666720865613 97:22.201401726894673 98:22.10470367946698 99:21.9517628237916 100:21.742901200378725 101:21.47857187860406 102:21.159357924084354 103:20.785971097672174 104:20.35925028557883 105:19.880159661711435 106:19.34978658482799 107:18.769339234684324 108:18.140143993069817 109:17.463642577686436 110:16.74138893945183 111:15.975045937467206 112:15.166381811285381 113:14.31726647861839 114:13.429667700726995 115:12.505647182341715 116:11.547356718107558 117:10.557034584808589 118:9.537002557528142 119:8.489664320290869 120:7.417506975081917 121:6.323109807006763 122:5.209171798556926 123:4.0785954428050655 124:2.9347831618371436 125:1.7831169983418298 126:0.6485459839860911 127:0.6303471903894238 
1.0 0:1.7734407884763597 1:2.945020208970808 2:4.118784063342007 3:5.289170533171901 4:6.452625469423389 5:7.606071500246613 6:8.74660456129355 7:9.871408935032077 8:10.97772992648989 9:12.062865737074281 10:13.1241668122966 11:14.159038431666717 12:15.164944808733553 13:16.13941391800835 14:17.080042663704262 15:17.98450218647438 16:18.850543192656826 17:19.67600123618901 18:20.458801908260078 19:21.196965904116972 20:21.88861394517142 21:22.53197154024685 22:23.12537357381719 23:23.667268712187777 24:24.156223621229554 25:24.590926991768384 26:24.97019337127706 27:25.29296680328251 28:25.55832427902961 29:25.765479009616588 30:25.913783531219753 31:26.00273266140426 32:26.031966331186627 33:26.001272325882884 34:25.91058897841601 35:25.760007872407588 36:25.549776630105512 37:25.280301883441798 38:24.952152557310313 39:24.56606363538807 40:24.122940634624847 41:23.623865090856903 42:23.070101463606125 43:22.463106015929313 44:21.804538434550956 45:21.09627725582977 46:20.340440599506532 47:19.539414354873358 48:18.695890923618425 49:17.81292307641704 50:16.89399971001799 51:15.943153757380776 52:14.965117948511775 53:13.965552730511655 54:12.951384251101912 55:11.931311395549729 56:10.916571859646554 57:9.922096469785663 58:8.96820807946936 59:8.08295339269213 60:7.3047453321253775 61:6.683727037751868 62:6.277875983150014 63:6.138900427051742 64:6.290595377775686 65:6.716507194001784 66:7.369888769362134 67:8.1950177885543 68:9.142302422268752 69:10.173118960280505 70:11.258936831623226 71:12.378862856054868 72:13.517364061059324 73:14.662577705846315 74:15.805153435990247 75:16.937482131945348 76:18.05318515831668 77:19.14677443337907 78:20.213424069791174 79:21.24881533391615 80:22.24903032601466 81:23.210478472913092 82:24.12984543470879 83:25.004057540155504 84:25.83025712804359 85:26.605785647602396 86:27.328172346740644 87:27.995127031551696 88:28.604535826262246 89:29.15445917111645 90:29.643131512556163 91:30.068962295541155 92:30.430537981901228 93:30.726624904706814 94:30.95617283613127 95:31.118319201810746 96:31.212393923268007 97:31.237924915512906 98:31.194644312882012 99:31.082495545814975 100:30.901641448015116 101:30.652473641285916 102:30.335623529083602 103:29.95197533565101 104:29.502681763511273 105:28.98918301873677 106:28.41323018490898 107:27.77691423184633 108:27.082702348812127 109:26.333483826158666 110:25.53262841451454 111:24.68406101407599 112:23.79235773700725 113:22.862869876378227 114:21.901884081606152 115:20.91682891108994 116:19.91653939776915 117:18.911591102945394 118:17.91471074401491 119:16.941256801059648 120:16.009731738406135 121:15.14222490291297 122:14.36458015963115 123:13.705943145581648 124:13.197238098747336 125:12.868222703667943 126:12.743282624680841 127:12.837024705622902 
1.0 0:13.151410526494363 1:13.675793018423603 2:14.3897685703352 3:15.267404350687706 4:16.281184133656573 5:17.40474480746558 6:18.614306270636135 7:19.889134855458977 8:21.211447575763316 9:22.566063363614997 10:23.939983456245702 11:25.321991275782402 12:26.702307521927466 13:28.07230818690385 14:29.424300822549547 15:30.75135011954877 16:32.047143358629384 17:33.30588730716498 18:34.52222958529712 19:35.691198948334474 20:36.80816015791878 21:37.86878010779965 22:38.86900264942662 23:39.80503016342291 24:40.67331038217781 25:41.47052731856235 26:42.193595422434335 27:42.83965629072536 28:43.4060774143357 29:43.89045256781797 30:44.2906035450906 31:44.60458302320088 32:44.83067840194223 33:44.967416524323035 34:45.013569235184 35:44.968159785984604 36:44.83047014613095 37:44.60004933858739 38:44.27672298375368 39:43.86060431541263 40:43.35210703196044 41:42.751960473070305 42:42.061227777155274 43:41.28132789323474 44:40.4140626125791 45:39.46165017947046 46:38.42676757689641 47:37.31260431872179 48:36.122931594522726 49:34.8621920176344 50:33.53561717230919 51:32.149382840896514 52:30.7108154580593 53:29.228668229457046 54:27.71349157568173 55:26.178129725754843 56:24.638381606055646 57:23.11386449951899 58:21.629100768727163 59:20.214784532054622 60:18.90902812558075 61:17.758073618420305 62:16.815468526779032 63:16.13827776551963 64:15.77926594598458 65:15.77606639148653 66:16.141619291289196 67:16.861289052611095 68:17.898379849395525 69:19.204362745462042 70:20.728477050175997 71:22.423808403192012 72:24.249847428958347 73:26.172786318554788 74:28.16475624806169 75:30.202749923824072 76:32.267583433553156 77:34.34302393644033 78:36.41510250422797 79:38.47159036496934 80:40.501606373564975 81:42.49532522868199 82:44.44376134787405 83:46.33860900548053 84:48.17212419284572 85:49.937037459737326 86:51.62648984879794 87:53.233986133548036 88:54.75336109980022 89:56.178755721533115 90:57.50460089052976 91:58.72560694925721 92:59.83675770986503 93:60.83330796283874 94:61.71078371826642 95:62.464984603492056 96:63.09198797948938 97:63.58815444654891 98:63.95013449671186 99:64.17487614262647 100:64.25963341557167 101:64.20197568394093 102:63.99979780182844 103:63.65133115995884 104:63.15515578316582 105:62.51021370630463 106:61.71582397234837 107:60.77169974427861 108:59.67796822325242 109:58.435194344520085 110:57.044409617540204 111:55.50714804575806 112:53.825491895295656 113:52.00213132453645 114:50.04044377173335 115:47.944601910507075 116:45.71972357145852 117:43.372084404301084 118:40.909426165882394 119:38.3414138370103 120:35.68032958039381 121:32.9421523160593 122:30.14827910954704 123:27.328334146096154 124:24.524833757142783 125:21.800956490553727 126:19.25305610292071 127:17.028327511843518 
1.0 0:15.33986371065492 1:14.448336072949031 2:14.565526220195807 3:15.721968570448109 4:17.756259280487953 5:20.437330170192787 6:23.56564313577207 7:26.998796975618134 8:30.640890809182185 9:34.426927673353354 10:38.31121331410722 11:42.25999736610161 12:46.24700569170622 13:50.25073454698653 14:54.25278906818395 15:58.23684294278368 16:62.1879736191123 17:66.09222942959727 18:69.9363432406031 19:73.70754081407308 20:77.39341175192165 21:80.9818226696824 22:84.46085943778252 23:87.81878981276878 24:91.04404063293892 25:94.12518560229705 26:97.05094090851391 27:99.81016674256321 28:102.39187335102869 29:104.78523064583496 30:106.97958067765136 31:108.96445248614228 32:110.72957899798502 33:112.26491576987297 34:113.56066148155438 35:114.60728018357894 36:115.39552540476839 37:115.9164663343188 38:116.16151642269418 39:116.12246490619678 40:115.79151196834333 41:115.16130852930976 42:114.22500203488744 43:112.97629014612613 44:111.40948498152667 45:109.51959164475285 46:107.30240635299901 47:104.75464183526923 48:101.87409123399333 49:98.65984724015661 50:95.11260183779542 51:91.23506592061882 52:87.03257085154948 53:82.5139523837032 54:77.69288341024613 55:72.58993851659933 56:67.23588328910233 57:61.67706543395391 58:55.984486058139076 59:50.26935447508457 60:44.70972675273992 61:39.59372846181889 62:35.376490977296434 63:32.70487169986242 64:32.27785775705306 65:34.47820367713134 66:39.13211268428142 67:45.728710089972786 68:53.75904036014378 69:62.85121795696186 70:72.76136095360313 71:83.33250350073742 72:94.46142238677531 73:106.07750031440838 74:118.13007694185266 75:130.58092768662303 76:143.39972465502777 77:156.56123466205707 78:170.0435465103319 79:183.82692226685268 80:197.89303628016185 81:212.22446110409246 82:226.8043143898003 83:241.6160130817192 84:256.64310065803147 85:271.8691250837165 86:287.27755263205074 87:302.8517075259146 88:318.5747304794991 89:334.4295512989854 90:350.39887210334433 91:366.4651586875727 92:382.6106382187351 93:398.8173019256516 94:415.0669117784809 95:431.3410103963049 96:447.6209335970797 97:463.88782513405897 98:480.12265325915837 99:496.30622882594344 100:512.4192246994521 101:528.4421962815718 102:544.3556029924828 103:560.1398305732218 104:575.7752140934606 105:591.2420615634651 106:606.5206780608914 107:621.5913902923015 108:636.4345715166281 109:651.0306667636854 110:665.3602182855582 111:679.4038911825425 112:693.1424991484585 113:706.5570302827604 114:719.6286729190606 115:732.3388414215332 116:744.6692019022735 117:756.6016978141109 118:768.1185753746292 119:779.2024087783373 120:789.8361251550041 121:800.0030292332469 122:809.6868276694643 123:818.871653003238 124:827.5420872013453 125:835.6831847535769 126:843.2804952846321 127:850.3200856474904 
1.0 0:1336.4097653799242 1:1345.5319731742875 2:1353.7301741494693 3:1360.9861042960738 4:1367.2824447549638 5:1372.6028506374475 6:1376.9319787451043 7:1380.2555141508926 8:1382.5601956059697 9:1383.833839739616 10:1384.0653640229302 11:1383.2448084704774 12:1381.363356057939 13:1378.4133518380672 14:1374.3883207419208 15:1369.282984057594 16:1363.093274584465 17:1355.816350467573 18:1347.4506077241736 19:1337.9956914830593 20:1327.4525059670273 21:1315.8232232602857 22:1303.1112909159242 23:1289.321438474325 24:1274.4596829821135 25:1258.5333336237325 26:1241.5509956048722 27:1223.5225734601295 28:1204.459273997933 29:1184.3736091461622 30:1163.2793990247565 31:1141.191775650687 32:1118.1271877809363 33:1094.103407527261 34:1069.1395395416066 35:1043.2560337855712 36:1016.4747031784191 37:988.8187477898838 38:960.3127877401225 39:930.9829076378549 40:900.8567162981894 41:869.9634267349521 42:838.3339631674169 43:806.0011042411214 44:772.9996751750415 45:739.3668066336568 46:705.142285597965 47:670.3690346733117 48:635.0937732315906 49:599.3679400271872 50:563.2489983354275 51:526.8023113890454 52:490.1038858196087 53:453.2444661543479 54:416.3357833166471 55:379.52032476062874 56:342.9870095433739 57:306.99699536822766 58:271.9271439648006 59:238.34413818465964 60:207.12892270554394 61:179.66755061312898 62:158.0588313884134 63:145.04188319726643 64:143.03824184026348 65:152.49371455124566 66:171.4969300286955 67:197.25346636436512 68:227.4061340940852 69:260.3436764380067 70:295.0364156320793 71:330.82686856397197 72:367.28324929183935 73:404.1105744072816 74:441.09848822804963 75:478.09046855612587 76:514.9652787623646 77:551.6255103869139 78:587.9903194268361 79:623.990705414134 80:659.5663718754084 81:694.6635946259321 82:729.2337473028133 83:763.2322647204422 84:796.6179036331409 85:829.3522091520113 86:861.3991256844819 87:892.724710925217 88:923.2969242890123 89:953.0854697396098 90:982.0616787636226 91:1010.1984232210258 92:1037.470050579323 93:1063.8523359990897 94:1089.322447140891 95:1113.8589185783312 96:1137.4416334445327 97:1160.051810488388 98:1181.6719951269156 99:1202.2860533891944 100:1221.879167882464 101:1240.4378350914797 102:1257.9498634618685 103:1274.4043718272324 104:1289.7917878254946 105:1304.1038460179918 106:1317.3335854791635 107:1329.475346668483 108:1340.5247674318637 109:1350.4787780088552 110:1359.3355949460201 111:1367.0947138368535 112:1373.7569008253938 113:1379.3241828248863 114:1383.7998364149553 115:1387.1883753911861 116:1389.4955369500399 117:1390.7282664999489 118:1390.8947010964096 119:1390.004151505078 120:1388.0670829024177 121:1385.0950942284458 122:1381.100896210638 123:1376.0982880821944 124:1370.1021330216347 125:1363.1283323441853 126:1355.193798478643 127:1346.3164267663897 
1.0 0:1336.5150661220164 1:1325.809488597635 2:1314.2203578953797 3:1301.7691968749082 4:1288.4783541048726 5:1274.3709695093648 6:1259.4709391622903 7:1243.802879284456 8:1227.3920894999233 9:1210.2645154098693 10:1192.4467105438378 11:1173.9657977498637 12:1154.849430086535 13:1135.125751281644 14:1114.8233558236952 15:1093.9712487542083 16:1072.5988052305229 17:1050.7357299307416 18:1028.4120163745401 19:1005.6579062359833 20:982.5038487272014 21:958.9804601350147 22:935.1184835963874 23:910.9487492031895 24:886.5021345323312 25:861.8095257042015 26:836.9017790808582 27:811.8096837260457 28:786.5639247624769 29:761.1950477787146 30:735.7334244594792 31:710.2092196407214 32:684.6523600262125 33:659.0925048482885 34:633.5590188152169 35:608.0809477662243 36:582.6869975591759 37:557.4055168544952 38:532.2644846453353 39:507.2915036370169 40:482.51380092551244 41:457.95823790509235 42:433.6513320081353 43:409.6192938343468 44:385.8880845976653 45:362.4835008170151 46:339.43129613287635 47:316.75735457666536 48:294.4879364228964 49:272.6500283641165 50:251.27184663393217 51:230.38356916050176 52:210.01841850632286 53:190.21429513484216 54:171.01629617069133 55:152.48069651063696 56:134.68140695307451 57:117.72071921891575 58:101.74754680660354 59:86.98852483374235 60:73.79904178294657 61:62.73438707641497 62:54.595547554308766 63:50.28032560336435 64:50.25525561575175 65:54.05623442518577 66:60.564176166364874 67:68.66978878563523 68:77.5795915171645 69:86.79353293019707 70:96.0060731282401 71:105.02866687932962 72:113.74220167142732 73:122.06956933476523 74:129.95988658727165 75:137.37923596476287 76:144.30508037797534 77:150.72279216672786 78:156.62343193121197 79:162.0022866129323 80:166.85788125649628 81:171.19129376148072 82:175.00566796501226 83:178.3058593223037 84:181.09817096746085 85:183.39015247430225 86:185.1904428212339 87:186.5086449851859 88:187.35522347947992 89:187.74141875139645 90:187.67917412322453 91:187.1810721813326 92:186.26027837341772 93:184.9304901826629 94:183.20589068696367 95:181.10110563385365 96:178.63116340288084 97:175.81145741174356 98:172.65771066816976 99:169.18594228941748 100:165.41243591561462 101:161.35371004055446 102:157.02649038212363 103:152.44768452271683 104:147.6343591778463 105:142.60372061155573 106:137.37309892798746 107:131.9599372550973 108:126.38178723701353 109:120.65631282372928 110:114.8013051805632 111:108.83471277768027 112:102.77469259260785 113:96.63969124711016 114:90.44856944687506 115:84.22079040801465 116:77.976704999459 117:71.73798665576487 118:65.52830430601547 119:59.374384108336116 120:53.30772475096133 121:47.367443035593084 122:41.60512365561385 123:36.09327261996598 124:30.940143960109907 125:26.314714815344455 126:22.48171577725656 127:19.820029461210634 
1.0 0:18.73091436157541 1:19.370075343097838 2:21.476595180611657 3:24.57659840545727 4:28.253433791303642 5:32.226328313082156 6:36.32138005269669 7:40.431041545409286 8:44.48664573344938 9:48.4424484094458 10:52.2666402215088 11:55.936226498554916 12:59.434032794633545 13:62.746898909274115 14:65.86455528855524 15:68.77890278365355 16:71.48353775101525 17:73.97343044410863 18:76.24470157293764 19:78.2944631474116 20:80.1207022652293 21:81.72219410231882 22:83.0984350748262 23:84.24959012789252 24:85.17645003882927 25:85.88039589724367 26:86.363368781598 27:86.6278432381782 28:86.67680357733855 29:86.51372229267616 30:86.14254012040803 31:85.56764741470916 32:84.79386663806481 33:83.82643586657701 34:82.67099329837139 35:81.33356283672497 36:79.82054090561242 37:78.13868475162984 38:76.29510260156755 39:74.29724619055106 40:72.15290636704135 41:69.87021273981236 42:67.45763869009394 43:64.92401357663553 44:62.27854468424202 45:59.53085251773028 46:56.69102459581868 47:53.769695226665554 48:50.77816228785252 49:47.72855750245375 50:44.63409526998962 51:41.509438702769245 52:38.37124328224684 53:35.23897348672716 54:32.13614319114648 55:29.09221508212915 56:26.14550860108648 57:23.347567196930566 58:20.769318588214553 59:18.508349867800217 60:16.693143390818946 61:15.472887359877356 62:14.977481599180768 63:15.25490270044336 64:16.23818012804271 65:17.78044697924131 66:19.719456269660544 67:21.918189675989748 68:24.274365292414362 69:26.715122066752688 70:29.188846061806583 71:31.658407754628882 72:34.09642316114785 73:36.48212134517878 74:38.79930740315784 75:41.03503458174873 76:43.178728945901355 77:45.22160361425124 78:47.15626022954785 79:48.97641319976667 80:50.67669567311765 81:52.25252075935713 82:53.6999806378281 83:55.01577199622029 84:56.19713998858969 85:57.24183535413204 86:58.14808096953422 87:58.91454520880362 88:59.540320238404526 89:60.0249038990187 90:60.368184193708544 91:60.5704256651502 92:60.63225713478186 93:60.5546604163357 94:60.33895972045853 95:59.98681154653409 96:59.50019491990041 97:58.881401882915135 98:58.13302819095583 99:57.25796420288587 100:56.25938599284138 101:55.14074674946243 102:53.905768573382204 103:52.5584348382159 104:51.10298335030091 105:49.54390063635772 106:47.88591781836508 107:46.13400872001106 108:44.293391118267834 109:42.36953245339342 110:40.36816191657294 111:38.295291772140615 112:36.15725225492804 113:33.96074678650391 114:31.712938247527642 115:29.42158386577946 116:27.095248290580273 117:24.743646268662047 118:22.378207460198677 119:20.013036147238434 120:17.666600373399536 121:15.36481931439934 122:13.146904471915128 123:11.076584883126984 124:9.262639858546233 125:7.887137965991174 126:7.200746828087659 127:7.385070087223085 
1.0 0:8.364806767815724 1:9.885908040659817 2:11.717812974255757 3:13.71439189265049 4:15.791117927937682 5:17.89817863226185 6:20.004479147801973 7:22.08925698714363 8:24.13771563557732 9:26.138683410189714 10:28.08330865997055 11:29.964303655250728 12:31.775490366998692 13:33.511518698829846 14:35.16768670750067 15:36.73982305003645 16:38.22420845839696 17:39.61752228520406 18:40.91680548686779 19:42.119434566145095 20:43.22310291759112 21:44.225807218252456 22:45.12583727102288 23:45.92176820656531 24:46.6124542808325 25:47.19702372918255 26:47.67487429220889 27:48.045669136227474 28:48.3093329680687 29:48.46604819931177 30:48.51625105599279 31:48.460627560604614 32:48.30010933696644 33:48.03586920749183 34:47.66931656812778 35:47.202092540025816 36:46.63606490985641 37:45.973322883541464 38:45.216171691994894 39:44.36712710331545 40:43.42890991510797 41:42.40444052499399 42:41.29683370940661 43:40.10939378398927 44:38.84561037862687 45:37.50915514422016 46:36.10387982894958 47:34.63381633793459 48:33.103179652163426 49:31.51637487952819 50:29.87801032452143 51:28.192919432641318 52:26.466196033294786 53:24.70324990558942 54:22.909894127237134 55:21.092483467133704 56:19.25813726233358 57:17.415106939683493 58:15.573400633333458 59:13.745883641412876 60:11.950296742436382 61:10.213109975110875 62:8.577095311578079 63:7.115954491745616 64:5.957900031169574 65:5.296531514677619 66:5.305216294645382 67:5.961956902350769 68:7.068307383178984 69:8.428685287673668 70:9.918874827811182 71:11.468565338584375 72:13.037316339819233 73:14.60039728948546 74:16.141553262864917 75:17.64933127974159 76:19.115152561170895 77:20.532257258065332 78:21.8951020516439 79:23.199002855581558 80:24.439915613998743 81:25.614297820862873 82:26.71901879753866 83:27.75130028162954 84:28.708676332699373 85:29.588965808044435 86:30.39025315732746 87:31.11087479244288 88:31.74940922307664 89:32.304669740789194 90:32.775698818230936 91:33.161763643693746 92:33.46235238186905 93:33.67717086853191 94:33.806139528181106 95:33.849390361104184 96:33.807263887546824 97:33.680305966636084 98:33.46926442984 99:33.17508548531753 100:32.79890986211994 101:32.34206867295403 102:31.806078981897752 103:31.19263906965358 104:30.503623394063066 105:29.741077248037826 106:28.90721112107743 107:28.00439477445566 108:27.03515104425574 109:26.00214939121482 110:24.908199222357727 111:23.756243017737653 112:22.54934930789463 113:21.290705566882032 114:19.98361111730297 115:18.631470198036745 116:17.23778544265185 117:15.806152199423162 118:14.340254486094771 119:12.843864133992275 120:11.320846394934717 121:9.775179515184906 122:8.211007389676876 123:6.632781102906219 124:5.045685970518028 125:3.4572721171380776 126:1.8873173674893309 127:0.5685118084295959 
1.0 0:1.4908686114120064 1:3.0326236463211607 2:4.597066296215211 3:6.153962087940562 4:7.6945250732552415 5:9.213424378675358 6:10.706336917136861 7:12.169360293958208 8:13.598826509364365 9:14.991233244719831 10:16.343217105461775 11:17.65154399713615 12:18.913107194783937 13:20.124929092137805 14:21.28416476622471 15:22.388106425916323 16:23.43418824949594 17:24.41999133383728 18:25.343248592315565 19:26.20184950192213 20:26.993844636811524 21:27.717449947924518 22:28.371050762754226 23:28.95320548926472 24:29.462649015348624 25:29.898295801257806 26:30.259242667845847 27:30.544771288801773 28:30.754350400715495 29:30.88763775118432 30:30.944481812677683 31:30.92492329897423 32:30.829196532313507 33:30.6577307237434 34:30.411151247605154 35:30.090281015183635 36:29.696142084377023 37:29.22995768479565 38:28.6931548953036 39:28.087368289883816 40:27.41444497701444 41:26.676451611116278 42:25.875684172580726 43:25.014681626776305 44:24.096245030745514 45:23.123464335298358 46:22.099756151289924 47:21.028917308409913 48:19.9152014544985 49:18.76342975655875 50:17.579152862095377 51:16.3688911494184 52:15.140496385991684 53:13.90370405593882 54:12.67098700934613 55:11.458881626001833 56:10.290026582982167 57:9.196156642657304 58:8.221945532058394 59:7.428131915842592 60:6.888799256303995 61:6.674339406073109 62:6.820272495711632 63:7.30629975827655 64:8.069452187783979 65:9.035650471103008 66:10.141069557949242 67:11.337738751320412 68:12.59133272603028 69:13.877357548244582 70:15.177966141389751 71:16.47973584887005 72:17.772210134690628 73:19.046958129336733 74:20.29696697499966 75:21.516245118545893 76:22.699559777237074 77:23.842260718669692 78:24.940160393666435 79:25.989451450208808 80:26.98664943705969 81:27.928552735956856 82:28.812214437760602 83:29.634922597554215 84:30.394186426034295 85:31.087726718598155 86:31.71346932441077 87:32.26954079999692 88:32.75426562922565 89:33.16616455851926 90:33.50395371535644 91:33.766544264655224 92:33.953042421513196 93:34.0627496870111 94:34.09516321116077 95:34.049976217125526 96:33.92707844613347 97:33.72655660512322 98:33.44869482088738 99:33.09397512700543 100:32.66307803502134 101:32.15688327131932 102:31.576470798819365 103:30.923122291862107 104:30.198323299095396 105:29.403766421053845 106:28.541355958873737 107:27.61321467736087 108:26.621693599357663 109:25.569386156919986 110:24.459148646107067 111:23.294129895768787 112:22.077814586668385 113:20.814087128390298 114:19.50732709960316 115:18.162554227736543 116:16.785653058249213 117:15.383729305647893 118:13.965690080996211 119:12.543215713163006 120:11.132433645038347 121:9.756866486097133 122:8.452640462106022 123:7.277226376795636 124:6.32118008703306 125:5.711754178899472 126:5.57553415411684 127:5.951490932830174 
1.0 0:6.756269951143763 1:7.857187060137558 2:9.143234373106123 3:10.540276807441954 4:12.001624166914844 5:13.497391683783754 6:15.00753346103637 7:16.51781578601888 8:18.0175400021328 9:19.498237645776573 10:20.952903752177686 11:22.375533725350603 12:23.76083609357391 13:25.104050140630395 14:26.400827846240215 15:27.647156304627252 16:28.83930623487222 17:29.973797671053326 18:31.047377176507297 19:32.05700291167695 20:32.99983512347999 21:33.87323041361317 22:34.67473865679684 23:35.4021017804929 24:36.053253847618706 25:36.62632204188747 26:37.11962826612497 27:37.53169114294162 28:37.8612282648314 29:38.10715858400594 30:38.26860486580099 31:38.34489615667107 32:38.33557024107631 33:38.24037608294772 34:38.05927626855197 35:37.79244949011954 36:37.44029313528001 37:37.0034260782806 38:36.48269180780778 39:35.87916207663728 40:35.19414132537238 41:34.429172223490966 42:33.586042796483355 43:32.666795783902145 44:31.673741123677633 45:30.60947281991316 46:29.476891981999806 47:28.27923861322738 48:27.020135923521714 49:25.703652783059123 50:24.33439281976713 51:22.91762326715798 52:21.459464141509127 53:19.967170657293618 54:18.44956240349167 55:16.917687474890062 56:15.385867524750141 57:13.87336175396941 58:12.407015033001514 59:11.025350062850665 60:9.784283662946077 61:8.762866663541773 62:8.062071649418291 63:7.782542764224904 64:7.977654746004279 65:8.619527328580373 66:9.619392677142313 67:10.875993391986139 68:12.30546726066041 69:13.847011280593517 70:15.458316475223574 71:17.109767772249374 72:18.78003092524789 73:20.453135245339183 74:22.116628584586902 75:23.760418846513108 76:25.376040470972264 77:26.95618319538334 78:28.49438435866818 79:29.984824833464877 80:31.42219182763786 81:32.80158564033078 82:34.11845582911611 83:35.36855738550184 84:36.54792072753148 85:37.652831360170545 86:38.679816375377705 87:39.62563583324251 88:40.48727764721497 89:41.2619549917214 90:41.947105523215775 91:42.54039189679455 92:43.03970319642736 93:43.4431569951353 94:43.7491018338178 95:43.95611996189514 96:44.06303022508904 97:44.06889101951247 98:43.973003259769825 99:43.77491333436417 100:43.47441604643194 101:43.07155756365818 102:42.56663843035443 103:41.96021672972446 104:41.25311152877675 105:40.44640679697708 106:39.541456069555416 107:38.53988823780504 108:37.44361500760853 109:36.25484079854546 110:34.976076198557195 111:33.610156607055494 112:32.16026849821212 113:30.629986995254654 114:29.023330477659783 115:27.344841303122347 116:25.599707439029338 117:23.79394980576688 118:21.93471824150388 119:20.030772915753413 120:18.093293889494362 121:16.137294049723582 122:14.184185097314488 123:12.266618635068967 124:10.437846518963983 125:8.789392241805006 126:7.478621191546493 127:6.740639922693781 
1.0 0:6.792542922463444 1:7.635794626613868 2:9.06107847593478 3:10.844074420178712 4:12.834821568863815 5:14.94542198869235 6:17.123974463746816 7:19.3379565917322 8:21.565401122330695 9:23.790314225649144 10:26.000238217469775 11:28.184906370158604 12:30.3354719074528 13:32.44405069605868 14:34.50344201754814 15:36.5069541308328 16:38.44829355091668 17:40.32149422648208 18:42.12087236502221 19:43.84099812956998 20:45.476678658877724 21:47.02294881813177 22:48.47506730157718 23:49.82851648016474 24:51.07900488846235 25:52.22247157716405 26:53.255091782017345 27:54.173283514791365 28:54.973714790978626 29:55.65331128769342 30:56.209264283863284 31:56.63903878021247 32:56.940381733542345 33:57.11133037202309 34:57.150220588481766 35:57.05569543953767 36:56.82671381245 37:56.46255936150324 38:55.962849865212085 39:55.32754721915146 40:54.55696836324211 41:53.651797555928525 42:52.6131005642052 43:51.44234155764663 44:50.141403806444416 45:48.712615733996934 46:47.15878453590895 47:45.483240564069554 48:43.68989717274412 49:41.783333040711526 50:39.76890763744858 51:37.652926383743065 52:35.442881733966935 53:33.147812684957486 54:30.7788532113152 55:28.350089268339428 56:25.879931609235186 57:23.393368357194003 58:20.92573433013399 59:18.52906181764161 60:16.28250677157901 61:14.307624219790318 62:12.782932772558354 63:11.932155171019675 64:11.943222461502641 65:12.846762304089738 66:14.499420647359388 67:16.693995211285582 68:19.252857786332576 69:22.050763333548144 70:25.004349302290333 71:28.057666938839077 72:31.17169581388183 73:34.317816519105236 74:37.47390539679406 75:40.62199719014627 76:43.74686413099079 77:46.835134215791214 78:49.87473258459529 79:52.8545209673113 80:55.764061474009594 81:58.59346029099779 82:61.33326387789262 83:63.9743903820691 84:66.50808513354504 85:68.92589289708573 86:71.21964197375382 87:73.38143680424704 88:75.40365675305834 89:77.27895944040714 90:79.00028745802818 91:80.56087763065169 92:81.95427221560134 93:83.17433159983709 94:84.21524817794621 95:85.07156119034008 96:85.73817237839569 97:86.21036238000458 98:86.48380785097719 99:86.554599360337 100:86.41926017599708 101:86.07476613759856 102:85.51856691271622 103:84.74860906090184 104:83.76336150064327 105:82.56184420659929 106:81.14366128692888 107:79.50904004582078 108:77.65887828965674 109:75.59480308775844 110:73.31924561031916 111:70.83553879419937 112:68.14804785369816 113:65.26234876387728 114:62.18547800325606 115:58.92629015096206 116:55.49598212899634 117:51.90888074572687 118:48.18365622519826 119:44.34524173744256 120:40.427949738152044 121:36.480651631019796 122:32.575520487147166 123:28.822702624449466 124:25.393499195919823 125:22.549739651792805 126:20.65432421978557 127:20.09396716587289 
1.0 0:21.077982893595095 1:23.496115970577755 2:27.03023968853424 3:31.35319906323036 4:36.21830393167888 5:41.45883691685531 6:46.963903037026185 7:52.6576229676721 8:58.48553102184619 9:64.40633532569443 10:70.38699135527058 11:76.39972456731175 12:82.42019542653892 13:88.42634363066352 14:94.39764486238715 15:100.31462412071306 16:106.15853251242615 17:111.9111306337757 18:117.55454301914743 19:123.071160979941 20:128.44357905667601 21:133.65455526802867 22:138.68698851853975 23:143.52390860196897 24:148.14847561744483 25:152.54398655005608 26:156.693887411752 27:160.58178979114518 28:164.19149098588417 29:167.50699713094178 30:170.51254891899322 31:173.19264965499394 32:175.5320955106639 33:177.51600795718866 34:179.12986846571366 35:180.35955568436472 36:181.19138543744393 37:181.61215405887435 38:181.60918578296096 39:181.170385191497 40:180.28429608576178 41:178.94016865622217 42:177.12803752215177 43:174.83881419823007 44:172.06439895251017 45:168.7978190615178 46:165.03340347575326 47:160.76700841303457 48:155.99631526140215 49:150.72123283063516 50:144.944452868843 51:138.6722350567161 52:131.91554282702566 53:124.69172771930933 54:117.0270921735232 55:108.96089446949615 56:100.55177999287767 57:91.88838294916644 58:83.10718410590741 59:74.42284962646606 60:66.17852035108871 61:58.920269076762665 62:53.4692723795601 63:50.86907526952838 64:52.01237754678356 65:57.1040736826017 66:65.6104160248316 67:76.73462779083884 68:89.79705410872707 69:104.3238815151179 70:120.00534257646314 71:136.63913946641443 72:154.08943781665783 73:172.26121459922487 74:191.0848038958715 75:210.5065719092102 76:230.48319485311984 77:250.97806849760275 78:271.95900186920943 79:293.3967020915342 80:315.2637582612802 81:337.5339475228291 82:360.18175387038247 83:383.1820304086141 84:406.50976031247995 85:430.13988698593715 86:454.0471936117971 87:478.2062185595286 88:502.5911972528278 89:527.1760238696417 90:551.9342281331781 91:576.8389637547633 92:601.8630060009646 93:626.9787565035684 94:652.1582538944431 95:677.3731891833584 96:702.5949250429944 97:727.7945183474181 98:752.9427454461166 99:778.0101297578473 100:802.9669713460067 101:827.7833781963492 102:852.4292989633229 103:876.8745569864408 104:901.0888854054399 105:925.0419632243761 106:948.7034521916246 107:972.0430343760657 108:995.0304503303179 109:1017.6355377403396 110:1039.8282704675491 111:1061.5787978951162 112:1082.8574844946088 113:1103.63494953291 114:1123.8821068424134 115:1143.5702045801738 116:1162.6708649039288 117:1181.15612349493 118:1198.998468859279 119:1216.1708813411133 120:1232.6468717825032 121:1248.400519766393 122:1263.4065113803285 123:1277.6401764401473 124:1291.0775251142245 125:1303.6952838903344 126:1315.4709308287065 127:1326.3827300464172 
1.0 0:1209.0149388312059 1:1217.310335066918 2:1224.7663001141013 3:1231.3662835818131 4:1237.0945961320267 5:1241.936435503987 6:1245.8779115154787 7:1248.9060700054472 8:1251.0089156848073 9:1252.175433864792 10:1252.395611034965 11:1251.6604542659773 12:1249.9620094153895 13:1247.2933781184176 14:1243.6487335493223 15:1239.023334943454 16:1233.4135408747145 17:1226.8168212885057 18:1219.2317682962437 19:1210.6581057443004 20:1201.0966975780343 21:1190.5495550305552 22:1179.0198426763309 23:1166.511883402038 24:1153.0311623616028 25:1138.5843299997866 26:1123.1792042496072 27:1106.824772034388 28:1089.5311902364392 29:1071.3097863329851 30:1052.1730589480617 31:1032.1346786295821 32:1011.2094892373914 33:989.4135104260446 34:966.7639418322369 35:943.2791697408421 36:918.9787772186535 37:893.883558989677 38:868.0155427063811 39:841.3980187849854 40:814.0555816735923 41:786.0141863885715 42:757.3012255037738 43:727.94563368419 44:697.978029587703 45:667.4309089292747 46:636.338908362893 47:604.7391686330841 48:572.6718388894902 49:540.1807850007302 50:507.3145980251317 51:474.1280532276383 52:440.68426047525963 53:407.05790166233913 54:373.3402232263332 55:339.6469448620079 56:306.13116267898283 57:273.0050703394369 58:240.57767478068482 59:209.3219581849311 60:179.99518030962258 61:153.84377544643496 62:132.88043914111586 63:119.9529171921689 64:117.79106749632919 65:126.95448594534588 66:145.28839106060317 67:169.7947448784104 68:198.12527690830524 69:228.78020788052467 70:260.84906543790567 71:293.77071300458147 72:327.18498219081573 73:360.8491092790112 74:394.59107311796794 75:428.2830036288299 76:461.8255705319749 77:495.13852460557735 78:528.1547904355826 79:560.8166728955853 80:593.0733591602678 81:624.879236812607 82:656.1927391188425 83:686.9755387204141 84:717.1919764285988 85:746.8086516575884 86:775.7941258719303 87:804.1187062462081 88:831.754287016081 89:858.6742328053572 90:884.8532927965128 91:910.267537747463 92:934.894314034518 93:958.7122104341661 94:981.7010344493789 95:1003.8417957751071 96:1025.1166950736538 97:1045.5091166557077 98:1065.0036239797269 99:1083.5859571209617 100:1101.2430315427143 101:1117.9629376414446 102:1133.7349406448805 103:1148.5494805261799 104:1162.3981716631968 105:1175.2738020242784 106:1187.1703317038998 107:1198.0828906652548 108:1208.0077755743905 109:1216.9424456330473 110:1224.885517336026 111:1231.8367580944732 112:1237.797078679615 113:1242.7685244526033 114:1246.7542653556975 115:1249.7585846482668 116:1251.7868663783038 117:1252.8455815864686 118:1252.9422732453156 119:1252.0855399413574 120:1250.2850183121457 121:1247.5513642546393 122:1243.896232924857 123:1239.3322575522348 124:1233.8730270952449 125:1227.5330627677688 126:1220.3277934683974 127:1212.27353014738 
1.0 0:1203.3874391482789 1:1193.687514563624 2:1183.1925496459119 3:1171.9221073172823 4:1159.8964898230274 5:1147.1367075758642 6:1133.664447239538 7:1119.502039101938 8:1104.672423789396 9:1089.1991183753157 10:1073.1061819376976 11:1056.4181806214951 12:1039.1601522631343 13:1021.3575706358855 14:1003.0363093762046 15:984.2226056526066 16:964.9430236402029 17:945.2244178657171 18:925.0938964896563 19:904.5787845944419 20:883.7065875497249 21:862.5049545289897 22:841.0016422549375 23:819.2244790552598 24:797.2013293154143 25:774.9600584211739 26:752.5284982913693 27:729.9344136107812 28:707.2054688851485 29:684.3691964554265 30:661.4529656277355 31:638.4839531001392 32:615.489114899167 33:592.495160080156 34:569.5285264991134 35:546.615359034189 36:523.7814907278779 37:501.0524274450278 38:478.4533368082691 39:456.0090423982891 40:433.74402451548445 41:411.6824292271772 42:389.84808802283646 43:368.2645512468534 44:346.9551396935223 45:325.9430205162724 46:305.2513162126985 47:284.9032593623417 48:264.92241177144956 49:245.3329759748294 50:226.16024179150412 51:207.43123452285496 52:189.17567095907458 53:171.42739643641013 54:154.2265924831363 55:137.62325045229392 56:121.68277646704396 57:106.49525836918667 58:92.19108165368931 59:78.96733178008145 60:67.13075133779364 61:57.15736448292995 62:49.73236356685518 63:45.63407193654519 64:45.3016632396951 65:48.388905551599784 66:53.94712802108928 67:60.99278143287039 68:68.8035592297976 69:76.91754856475514 70:85.05039685711893 71:93.0260220283443 72:100.73302968825789 73:108.09927907101152 74:115.07716202705407 75:121.63493833069818 76:127.75150112829257 77:133.4131223084331 78:138.61136981583954 79:143.3417374049901 80:147.60271895802933 81:151.39516714460086 82:154.7218381600075 83:157.58706082830813 84:159.99649044241448 85:161.95692136694487 86:163.4761410541189 87:164.56281368148018 88:165.22638527064444 89:165.4770045860485 90:165.32545577040818 91:164.78309981766472 92:163.86182278566383 93:162.57398922060258 94:160.93239967650902 95:158.95025151469616 96:156.64110239368384 97:154.01883603281058 98:151.0976299693027 99:147.89192514135314 100:144.41639722855595 101:140.6859297742291 102:136.71558920984373 103:132.52060200865716 104:128.1163343244566 105:123.5182746361874 106:118.74202014026257 107:113.803267939167 108:108.71781251272829 109:103.50155159768123 110:98.17050355464049 111:92.74084075345327 112:87.22894576585247 113:81.65150074490606 114:76.0256262181916 115:70.3690952928684 116:64.70066606092229 117:59.040604727001046 118:53.41152636619376 119:47.83978310865953 120:42.3578308442209 121:37.00841096624819 122:31.852211447987045 123:26.982307142948454 124:22.551330686749306 125:18.81768527103855 126:16.192381408249492 127:15.163019084762599 
1.0 0:15.936766889285957 1:18.186339686335792 2:21.360353427997676 3:25.027031167361304 4:28.924112049672946 5:32.90071434017945 6:36.86774006883951 7:40.76974148100258 8:44.570183310966556 9:48.24367424635092 10:51.771736034152966 11:55.1404065224771 12:58.338827240387545 13:61.358379856478656 14:64.19213998439525 15:66.83452073502997 16:69.28103321104395 17:71.52812104607023 18:73.57304295759614 19:75.41378708931146 20:77.04900678310021 21:78.47797101937616 22:79.70052502554574 23:80.71705800445521 24:81.52847588620916 25:82.13617764213556 26:82.54203413154976 27:82.74836875058936 28:82.75793936239657 29:82.57392113825556 30:82.19989004901052 31:81.63980682807164 32:80.89800129039098 33:79.97915694228062 34:78.88829585950806 35:77.63076384947739 36:76.21221595070216 37:74.6386023623777 38:72.91615494214071 39:71.05137446533381 40:69.05101890992927 41:66.9220931256232 42:64.67184037497687 43:62.30773641600801 44:59.83748705548777 45:57.26903048110147 46:54.61054624324065 47:51.87047360817073 48:49.05754331671863 49:46.18082884893595 50:43.24982662152872 51:40.274580029182054 52:37.26587151881167 53:34.235523018534494 54:31.196873918118587 55:28.165559023066148 56:25.160809785892372 57:22.20769744831314 58:19.341115987042198 59:16.61300349218287 60:14.105323905273323 61:11.951221852854387 62:10.35713060532403 63:9.579279829983154 64:9.779000409709823 65:10.864250490174758 66:12.569399885693192 67:14.641993437957069 68:16.911327251264684 69:19.2734730458952 70:21.66521028170687 71:24.046499931088135 72:26.39059752732042 73:28.678647752737856 74:30.89668557837751 75:33.03392226821579 76:35.08173238831253 77:37.033035131599604 78:38.88190471497369 79:40.623318050353646 80:42.2529870727796 81:43.76724464593111 82:45.16296516326677 83:46.4375080719207 84:47.588676802443786 85:48.61468819994621 86:49.51414919344519 87:50.28603849376605 88:50.92969180033188 89:51.444789457682084 90:51.831345815493115 91:52.08969976231175 92:52.22050605562048 93:52.22472718026588 94:52.10362554759039 95:51.858755908203804 96:51.49195789872097 97:51.00534868168667 98:50.40131567189036 99:49.68250937432508 100:48.85183639193669 101:47.91245269794761 102:46.86775731136515 103:45.72138656977165 104:44.47720926682443 105:43.13932302198374 106:41.71205239019053 107:40.1999494198143 108:38.607797659917644 109:36.94062105312881 110:35.203699810016495 111:33.402596380490664 112:31.543196247418795 113:29.63177086665379 114:27.675074376917994 115:25.68049300201819 116:23.65627880785966 117:21.61192236898183 118:19.55876126020906 119:17.511001848052413 120:15.487488120390866 121:13.514853986215048 122:11.633246630495819 123:9.906560076705299 124:8.438678780637948 125:7.38834289812913 126:6.943678214362671 127:7.207286241047423 
1.0 0:8.095711647691921 1:9.41681897739063 2:10.997511516072821 3:12.722490005844831 4:14.521322677276444 5:16.350641032548978 6:18.182507108206632 7:19.997873183541195 8:21.78299319235512 9:23.52742121485564 10:25.222861638004535 11:26.862486783035198 12:28.4405190552698 13:29.951967617008922 14:31.3924581221499 15:32.75812009394063 16:34.0455109203918 17:35.2515636345445 18:36.37355044348667 19:37.40905685371596 20:38.355963017314764 21:39.212430043542135 22:39.976889741696915 23:40.648036734741055 24:41.224822199983585 25:41.706448708732644 26:42.092365786017126 27:42.38226591638708 28:42.57608079677222 29:42.67397769186616 30:42.67635578784475 31:42.583842470751016 32:42.39728947959738 33:42.11776890331105 34:41.74656900669827 35:41.28518988487859 36:40.73533895924532 37:40.09892634195614 38:39.37806011135103 39:38.575041558830655 40:37.69236049027668 41:36.73269069435353 42:35.69888572927261 43:34.59397523363505 44:33.42116204307566 45:32.18382050374793 46:30.885496533762996 47:29.529910222544334 48:28.120962121517437 49:26.66274494421252 50:25.159563290863524 51:23.615965472418146 52:22.036793948295955 53:20.427265088471405 54:18.793096422280595 55:17.140713239982816 56:15.47759259040323 57:13.812854797866953 58:12.158320632965822 59:10.530484883771576 60:8.954368330319538 61:7.471290850989463 62:6.1543240191388495 63:5.13353210026673 64:4.604222903534572 65:4.722384199605022 66:5.4305481339106185 67:6.522734199861504 68:7.822561972911583 69:9.225389350221153 70:10.673573149614823 71:12.134126461652466 72:13.586742666170283 73:15.017899671413552 74:16.417913440960145 75:17.779402514278473 76:19.096449866372666 77:20.364125013281814 78:21.57820077494853 79:22.734979715631933 80:23.83118475131068 81:24.8638885676011 82:25.830467202796754 83:26.728569057749628 84:27.556093964304626 85:28.311178926847575 86:28.99218835166694 87:29.597707324342682 88:30.126536969881315 89:30.577691239420723 90:30.950394673364404 91:31.24408083151249 92:31.45839117948821 93:31.5931742923829 94:31.648485290779284 95:31.62458546775486 96:31.521942102872405 97:31.341228494202948 98:31.08332427528384 99:30.74931612374081 100:30.340499015587458 101:29.858378238276416 102:29.304672452124844 103:28.681318191642497 104:27.99047633680422 105:27.234541275729097 106:26.41615374871342 107:25.5382187452044 108:24.60393037489571 109:23.616806435614155 110:22.58073658400989 111:21.500049782929462 112:20.379609369093377 113:19.224948152088192 114:18.042462184228487 115:16.839691362756955 116:15.625729369903606 117:14.411826186181473 118:13.21227335815115 119:12.045687336702931 120:10.936795660877705 121:9.918680682915403 122:9.03489788580424 123:8.33959075381311 124:7.891877131088574 125:7.7411736260201005 126:7.907706065897655 127:8.372796795114526 
