svm_type c_svc
kernel_type rbf
gamma 0.14285714285714285
nr_class 2
total_sv 195
rho 0.25
label 1 -1
nr_sv 90 105
SV
1.0 3:1075.3280138080836 4:1360.7187620565164 5:608.0607248521319 6:229.88940930904266 7:512.7018268944113 
1.0 3:1475.3808495994872 4:673.0734141301069 5:1344.3193682714282 6:601.8435994313623 7:413.03464478088364 
1.0 3:2320.170634417349 4:1637.8712803259757 5:1413.187688890505 6:1096.9898567712332 7:1345.3625399666291 
1.0 3:1606.7602607277222 4:1431.4943625547835 5:1456.8220539328254 6:595.9994283288103 7:1060.6676833892327 
1.0 3:303.5971399713157 4:339.2411669522114 5:379.5140609517881 6:663.1564124277498 7:503.2661434570604 
1.0 3:110635.8319838744 4:110989.87864332028 5:110081.37771303879 6:110192.4091881146 7:110950.32626861977 
1.0 3:796.4267488410991 4:1045.2847135999305 5:341.74631198362636 6:1225.1677771276256 7:773.3149837986089 
1.0 3:1616.1624588377279 4:1388.5411110873765 5:1964.3773432885168 6:1228.8367143650353 7:1779.6202016337536 
1.0 3:875.4386604603967 4:452.1704207039689 5:1168.386943148531 6:1235.761710822917 7:896.2174465963013 
1.0 3:864.5767685831232 4:824.5491726843799 5:452.25249354632945 6:566.2417277476696 7:723.7532716144206 
1.0 3:1192.8076793577127 4:1152.4923954995606 5:1625.86330527095 6:1218.588619530607 7:1108.793361050289 
1.0 3:1524.0654567339332 4:1302.048124857997 5:1398.9155832919773 6:1227.153339456618 7:485.3628242928427 
1.0 3:481.61686989648604 4:571.0131950954907 5:318.76979291099315 6:453.122681268851 7:788.3532413762518 
1.0 3:887.4336251365428 4:1230.9658628438926 5:1214.6452615547953 6:1462.1185575889474 7:1298.6740619878146 
1.0 3:624.3847769729041 4:1292.7383807094104 5:1591.3007826976298 6:661.293326665577 7:1629.2736644251402 
1.0 3:864.9800378092038 4:113.15424671839747 5:671.6050718918249 6:335.84611220928014 7:90.45966582696269 
1.0 3:1421.6833282853163 4:1502.231283907733 5:861.6375599570252 6:1685.208728576711 7:1600.0840735032148 
1.0 3:1502.372798988352 4:1984.8892836625841 5:2096.2781662793236 6:1024.870118527877 7:1023.5516802851688 
1.0 3:571.5960852890279 4:557.2191328548919 5:540.5135013080064 6:135.1146275806536 7:420.92031573123273 
1.0 3:779.8854747609157 4:648.7849674333403 5:488.70005087725065 6:545.850081912674 7:1189.6315401549068 
1.0 3:110402.01547266475 4:109720.18905014438 5:109777.99676007048 6:110272.60025934386 7:110123.76050801878 
1.0 3:1884.9232576082952 4:1226.4579993494929 5:1220.8088304944185 6:1519.4079359532557 7:1647.2036480092918 
1.0 3:1187.0314974922842 4:1524.1444912290333 5:847.5519858660394 6:1167.7823948505513 7:1904.80327393094 
1.0 3:276.23717360792256 4:177.45938054253895 5:237.8357506505944 6:895.3964533148194 7:424.0609366803053 
1.0 3:688.147121870145 4:712.4492755567885 5:929.6519398758152 6:730.1535316535328 7:980.7832317596684 
1.0 3:1211.4291789858287 4:1845.6534562047746 5:1954.9495514256296 6:1062.0447133055252 7:1449.0427456076688 
1.0 3:1356.0913703838403 4:780.9491243012214 5:1881.4443824931777 6:374.2205311072792 7:526.4292313467499 
1.0 3:556.9216851584039 4:947.6451947942743 5:947.1476449328788 6:675.3616584904099 7:900.4940915786069 
1.0 3:544.7451084209305 4:1895.3344347091252 5:2195.506505562245 6:1947.2746674489224 7:1732.589661611343 
1.0 3:1033.1402894074618 4:852.4914549121125 5:940.1945600173199 6:545.5364412908943 7:1067.6835482607717 
0.25 3:1373.4397740099344 4:1706.0115038131037 5:741.1741622002528 6:1482.344178018493 7:1398.005164093622 
0.25 3:151.81828315280347 4:785.1894348387593 5:959.4755156787468 6:750.6216931608645 7:428.295128119974 
0.25 3:274.5164070149062 4:318.4855379449013 5:1451.2989588500943 6:1111.6764614391604 7:589.528390069339 
0.25 3:1868.224388385243 4:922.3419201963756 5:2010.4402971027253 6:522.7834790333136 7:796.3019805013821 
0.25 3:1854.8181727925949 4:1355.0778519119294 5:1983.058662564846 6:1379.8174102883593 7:919.2269627140234 
0.25 3:112623.41261620012 4:111660.99570171209 5:112305.42367453803 6:112331.1282402868 7:112503.76013293442 
0.25 3:1324.9011239650983 4:802.3274318795917 5:774.9101023675255 6:666.4021061109725 7:538.7974570253851 
0.25 3:1502.4445146928797 4:1176.7377513431682 5:1044.3260132008952 6:1097.1854164384195 7:1124.4786439298596 
0.25 3:1755.2015197271091 4:1026.016459563984 5:1079.2510540334945 6:1379.2656033158416 7:775.0572252470748 
0.25 3:1254.424087242358 4:1401.90588392225 5:958.5324400478781 6:932.9751626047552 7:479.1131567039749 
0.25 3:540.2841862436904 4:916.3774467868175 5:659.0686889970508 6:208.56314711112194 7:601.6305652855181 
0.25 3:644.7137474347999 4:1612.2114319576556 5:1524.2794737703064 6:1384.1554931937915 7:630.3319659932506 
0.25 3:1442.9858862930778 4:1068.5969436261 5:1169.9655591495107 6:795.62955843157 7:1127.55265404002 
0.25 3:1231.1066732726938 4:269.92256280237405 5:2451.5544412592826 6:437.79434972062097 7:34.41247061820411 
0.25 3:1600.3861177774186 4:571.8407812306057 5:1642.7290302677043 6:837.6033017600996 7:1166.553562469641 
1.0 3:1373.4397740099344 4:1706.0115038131037 5:741.1741622002528 6:1482.344178018493 7:1398.005164093622 
1.0 3:151.81828315280347 4:785.1894348387593 5:959.4755156787468 6:750.6216931608645 7:428.295128119974 
1.0 3:274.5164070149062 4:318.4855379449013 5:1451.2989588500943 6:1111.6764614391604 7:589.528390069339 
1.0 3:1868.224388385243 4:922.3419201963756 5:2010.4402971027253 6:522.7834790333136 7:796.3019805013821 
1.0 3:1854.8181727925949 4:1355.0778519119294 5:1983.058662564846 6:1379.8174102883593 7:919.2269627140234 
1.0 3:112623.41261620012 4:111660.99570171209 5:112305.42367453803 6:112331.1282402868 7:112503.76013293442 
1.0 3:1324.9011239650983 4:802.3274318795917 5:774.9101023675255 6:666.4021061109725 7:538.7974570253851 
1.0 3:1502.4445146928797 4:1176.7377513431682 5:1044.3260132008952 6:1097.1854164384195 7:1124.4786439298596 
1.0 3:1755.2015197271091 4:1026.016459563984 5:1079.2510540334945 6:1379.2656033158416 7:775.0572252470748 
1.0 3:1254.424087242358 4:1401.90588392225 5:958.5324400478781 6:932.9751626047552 7:479.1131567039749 
1.0 3:540.2841862436904 4:916.3774467868175 5:659.0686889970508 6:208.56314711112194 7:601.6305652855181 
1.0 3:644.7137474347999 4:1612.2114319576556 5:1524.2794737703064 6:1384.1554931937915 7:630.3319659932506 
1.0 3:1442.9858862930778 4:1068.5969436261 5:1169.9655591495107 6:795.62955843157 7:1127.55265404002 
1.0 3:1231.1066732726938 4:269.92256280237405 5:2451.5544412592826 6:437.79434972062097 7:34.41247061820411 
1.0 3:1600.3861177774186 4:571.8407812306057 5:1642.7290302677043 6:837.6033017600996 7:1166.553562469641 
1.0 3:4036.7176277420585 4:3627.322401540817 5:4394.118386208788 6:3284.3083934567353 7:3056.5563487645545 
1.0 3:3445.528591159598 4:2578.911537441202 5:1769.6062579068541 6:2288.589917660051 7:2560.4381483917077 
1.0 3:555.8254546624387 4:481.7392487043013 5:1317.9554239825484 6:1280.5996642653042 7:1405.055604384364 
1.0 3:3183.1460471011846 4:3446.988667383567 5:3322.507153762368 6:3708.51815710171 7:3364.6370480359506 
1.0 3:2990.4357649021367 4:3217.844000773362 5:3439.838065504411 6:3612.428075761069 7:3393.0117758660913 
1.0 3:134775.45572016932 4:133649.11511796992 5:133581.61728239057 6:133145.20029989188 7:134348.2457875345 
1.0 3:3194.0736137364515 4:2964.764064694503 5:4533.885633488832 6:2792.539599890325 7:2984.7661566999777 
1.0 3:517.0488182450808 4:401.43039036116 5:496.9207196191064 6:678.2326783024741 7:985.8739404859843 
1.0 3:2697.332945288622 4:3244.9257205755016 5:3000.2723882575415 6:2894.0562073519204 7:2857.691871017904 
1.0 3:974.3275062924595 4:1045.362302870738 5:2168.810500799188 6:1181.7375305688702 7:1424.5589581126935 
1.0 3:2409.9208949656445 4:1720.1883543215433 5:2753.8193058456686 6:2919.7583244369025 7:2832.166152897506 
1.0 3:2877.0493003342804 4:2073.9499728895694 5:2442.71324079966 6:3111.8747113779727 7:2824.5643393091964 
1.0 3:1431.025848439478 4:1041.2300169936498 5:954.3159290822878 6:933.7935393551103 7:1493.0404911054932 
1.0 3:1527.8465794210902 4:1584.1910307347298 5:1253.3948434392605 6:2431.9602504318323 7:1820.5239256560922 
1.0 3:3127.591194884866 4:3180.0552622993146 5:3403.7118151563177 6:3180.5643811506143 7:3469.518864378765 
1.0 3:2235.664494772271 4:2346.6096184745393 5:1694.4762860446351 6:2171.4217608789672 7:1928.7404672800994 
1.0 3:241.35995346845493 4:477.5828313727022 5:743.8746947420842 6:727.0684019835818 7:1093.9612048121992 
1.0 3:2567.6925855555864 4:2444.111063152485 5:2152.7058146188456 6:2447.7258024406806 7:2849.929967874995 
1.0 3:3408.4720046610687 4:1675.8274098097743 5:2737.428172028989 6:2948.173508692072 7:3172.723512105092 
1.0 3:937.6152100956789 4:1102.5374286289073 5:1056.7057388854496 6:1304.4053811192614 7:1268.072936108472 
1.0 3:134107.34361597325 4:133918.51671347072 5:134404.02714203147 6:134361.51256598905 7:133961.7153090016 
1.0 3:1049.172235897909 4:1271.8651147401247 5:460.02520480520343 6:1236.4470351441428 7:1058.7753712910473 
1.0 3:2908.333743276086 4:2846.8898166247473 5:2410.23888990202 6:2154.7962785698032 7:2509.1992895970147 
1.0 3:2812.644222983423 4:2845.624019566377 5:2905.5232719777487 6:3379.862479135684 7:3132.7185984318967 
1.0 3:2059.2601398815273 4:2144.6861031045137 5:1643.1317468628833 6:1509.5646011961014 7:1636.4361078116272 
1.0 3:1931.7956711866984 4:1655.8623520111385 5:1424.341473564037 6:1775.4094566781866 7:1431.02786809137 
1.0 3:3336.517729188733 4:3636.525007808839 5:3422.7170417580187 6:3306.744236453684 7:3634.768346963722 
1.0 3:2140.167051599045 4:2556.9604989237196 5:1995.0868744209024 6:3415.143650008992 7:2990.9245136287395 
1.0 3:777.7922094687646 4:1370.612401397176 5:1015.560639688923 6:460.61428568623 7:454.3373029975174 
1.0 3:3314.5528172513327 4:3471.6522086230852 5:3590.7887818020645 6:3387.4055851892126 7:3199.5423382373565 
-0.75 3:438.5591766566019 4:332.04817670367305 5:432.661262627726 6:689.0736201897017 7:286.32826976594134 
-0.75 3:893.2456069381543 4:1600.7525449532138 5:94.50542946276533 6:803.1881978665659 7:1029.8696532234242 
-0.75 3:788.5330594601525 4:1389.1436747911855 5:712.5523962516564 6:705.7748522572145 7:930.7387490895508 
-0.75 3:171.4046200732583 4:403.97443581096866 5:322.12395711200895 6:638.5253927626496 7:226.78042476872915 
-0.75 3:213.61301481123417 4:642.054319173575 5:846.9282218276901 6:419.6778572685252 7:584.9884803069829 
-0.75 3:119239.18896789143 4:119062.6958918852 5:119416.85220654626 6:118326.38094991581 7:119014.89516261182 
-0.75 3:715.2048560843342 4:977.8187293965581 5:1149.522164175897 6:1216.591348600032 7:560.5256953697321 
-0.75 3:441.65471497043023 4:1012.5018036137205 5:757.488214035685 6:1022.1377955104864 7:654.2172275380636 
-0.75 3:359.96876585108816 4:275.7099863358159 5:851.6467239386803 6:608.326102753561 7:207.03602791720277 
-0.75 3:770.041844003571 4:1232.1335570591066 5:349.6209073882927 6:425.2609994156492 7:224.67013819943912 
-0.75 3:1040.638433492431 4:819.2415810598538 5:206.37885481154572 6:431.47663838087436 7:432.9038803356159 
-0.75 3:384.75039194575805 4:431.07139870703566 5:2416.87364486879 6:628.8113477990047 7:609.2933681378956 
-0.75 3:652.7689282736869 4:929.1678816708354 5:962.0144943684026 6:808.0055589228244 7:103.6331576042693 
-0.75 3:320.712587798267 4:319.2549206713467 5:1094.5506989498135 6:1022.9431685263033 7:498.5151466580829 
-0.75 3:1035.5453348091476 4:241.05322950404286 5:521.8078956089455 6:1115.750593451797 7:988.6577432484872 
-0.75 3:2855.583746645815 4:4109.700413505489 5:3906.5864709025655 6:2779.348567604395 7:3329.0678587045304 
-0.75 3:5920.433040943337 4:2731.5922823004275 5:3783.822782694447 6:3068.024944601929 7:3150.2230928348845 
-0.75 3:2993.365252740879 4:2289.762473179106 5:1764.6817917395804 6:789.8747929384592 7:497.01454258834684 
-0.75 3:1629.5135777121345 4:2493.453700601213 5:2705.730581571733 6:2634.7859835300947 7:2025.9411801129797 
-0.75 3:3937.459387781434 4:6995.32470015809 5:3710.8079199132735 6:4300.559543648012 7:3971.1321595389645 
-0.75 3:136009.2437713399 4:135158.91616840957 5:135696.88410797997 6:136139.86482356113 7:136235.79972458983 
-0.75 3:3639.206527789308 4:2747.2246050153135 5:2735.7547178963137 6:2938.4333352827753 7:3123.099561892785 
-0.75 3:3077.1901367690953 4:2449.510909418832 5:978.3927034157769 6:921.8730027273143 7:840.673699834869 
-0.75 3:4660.1033465561295 4:4756.79007228562 5:3170.746396283863 6:4098.714009388176 7:4174.513271336356 
-0.75 3:3620.8380577432936 4:3271.2670497244603 5:3445.0968311114434 6:3133.3336693243814 7:2908.061559897065 
-0.75 3:2109.7897757134774 4:2020.710619394413 5:1596.0405220996965 6:498.88423279914275 7:460.8001257250838 
-0.75 3:4123.443191707112 4:4428.379193778676 5:3859.874810817293 6:3760.075355762296 7:3745.5405467245273 
-0.75 3:3496.095990233827 4:4285.509008801491 5:3903.6421953595154 6:3306.6697244817215 7:3931.415458343056 
-0.75 3:1564.863851754872 4:861.8410816043863 5:557.7938567041981 6:290.03716652882713 7:273.9668552568805 
-0.75 3:3989.535688821066 4:3887.560314029616 5:3856.9786254633573 6:3948.511598728692 7:3818.638267293017 
-0.75 3:1980.144719054008 4:1648.0745633106858 5:1724.477474652996 6:1991.188370371407 7:1926.9231210470093 
-0.75 3:2006.5016496567396 4:1923.0414772339373 5:2407.904724806455 6:1947.2619047799706 7:2237.2734755406304 
-0.75 3:3506.811966847564 4:4308.131676078724 5:3111.5792824180817 6:4114.009361071124 7:3463.6548420294725 
-0.75 3:2663.222087484432 4:2247.4475738191345 5:2777.1746410580654 6:2246.008116175188 7:2275.246462769877 
-0.75 3:622.9781379409947 4:1094.331062905228 5:496.245588313014 6:744.9783735295393 7:1428.3058799624241 
-0.75 3:110215.81236923776 4:109996.35239092667 5:110178.33831995164 6:110210.79996028327 7:110409.96198538755 
-0.75 3:2355.6720167788662 4:2524.7415142803893 5:1379.864108296172 6:1891.066858990732 7:2064.6337065788016 
-0.75 3:3189.4439943818234 4:3695.0267232673673 5:3739.361722943128 6:3287.699305126581 7:3840.400875860285 
-0.75 3:2493.8599227591685 4:2279.0899083758613 5:2121.8337207177833 6:3248.6968366532515 7:2460.321022509339 
-0.75 3:619.3256916874456 4:33.51850840324474 5:541.7003542002469 6:1432.4530924207547 7:1106.3249469775828 
-0.75 3:2868.9441280920564 4:2353.2207361088026 5:2705.7027262368483 6:2690.2927945177134 7:3151.9090744723217 
-0.75 3:2834.7625732486003 4:3084.1498895697355 5:4200.588422345575 6:3098.934725548524 7:3572.2177378686824 
-0.75 3:1772.7413408937132 4:1715.0271900921841 5:1257.3757677503313 6:1328.6608709937748 7:1773.0817947943187 
-0.75 3:1900.6123710429215 4:1936.6123017011382 5:1988.5892396373874 6:1741.2045688942171 7:1628.8850820021567 
-0.75 3:3748.618785128957 4:3480.0400444057855 5:3295.2211260880313 6:3455.637823959277 7:4119.64193770059 
-0.75 3:1606.0058669287514 4:1135.3108044719115 5:1144.8147410084564 6:1240.5311023479144 7:1132.6414903236205 
-0.75 3:2647.769089842835 4:1539.427674311547 5:1516.0342630840994 6:2429.6104581486866 7:1463.508845349987 
-0.75 3:1600.6846198259036 4:2400.544695369474 5:2986.710331596073 6:2212.5060939659484 7:2215.0382496081306 
-0.75 3:1220.2832458227442 4:1507.2642291883042 5:1667.7154362244291 6:2025.8161811143354 7:1971.0351147013082 
-0.75 3:663.7448643365252 4:865.3305825662969 5:355.01706326562396 6:438.9076455925981 7:291.47608838566117 
-0.75 3:119246.27248010591 4:120121.49401320257 5:119272.21075944741 6:118981.29111771757 7:119517.48343347937 
-0.75 3:267.80530413407837 4:574.8338083109933 5:612.560947417431 6:242.11224722439786 7:270.9938479710409 
-0.75 3:748.7507128856048 4:924.3191875348336 5:543.8130273446319 6:652.0649274129316 7:810.2329321754996 
-0.75 3:74.47407001433336 4:693.4871892826868 5:691.4507864151739 6:304.766914314977 7:612.7784083928949 
-0.75 3:272.94233536944535 4:384.9681695841892 5:112.10784484782799 6:178.32552819710926 7:225.2968780121459 
-0.75 3:448.02292450426245 4:655.9454843395594 5:500.9131672969509 6:884.6006448993325 7:412.7037180269322 
-0.75 3:576.9089803937907 4:1104.8094658299494 5:661.2023496340817 6:400.6120478112313 7:534.3505430297956 
-0.75 3:224.1364323880881 4:572.6665787243295 5:170.5768378153242 6:584.4464956275516 7:399.97389143559377 
-0.75 3:759.7597482955725 4:413.4685352588513 5:457.7648521200346 6:165.78764005421178 7:128.07170270139463 
-0.75 3:800.516200328028 4:238.0394501498071 5:1133.428808915769 6:238.99969149419044 7:202.94356111101013 
-0.75 3:987.4750683629851 4:484.5603087327889 5:667.95595055978 6:923.5823898596532 7:852.020375196278 
-0.75 3:2425.835045073666 4:1981.4296426732521 5:2544.9131538185234 6:2265.7248104641744 7:2373.2930278696776 
-0.75 3:3007.60874623338 4:2734.653088880334 5:2454.986584115378 6:2770.4768394934076 7:3043.62051500091 
-0.75 3:1217.55504630759 4:1405.6525217810777 5:970.8936305446553 6:1592.5667899716516 7:1628.3830138844644 
-0.75 3:916.6111641512309 4:723.52799622691 5:839.0542796529718 6:849.1285180727469 7:1002.8132170474464 
-0.75 3:123029.62316892006 4:122976.74565939637 5:122686.03175372456 6:122917.78076733678 7:122982.16144853634 
-0.75 3:1983.872072201421 4:1540.5654741549713 5:1514.442483580324 6:1396.0006328253248 7:1865.193649080187 
-0.75 3:2633.3288399481376 4:3252.461337291132 5:3451.299686911199 6:3244.121654698108 7:2804.620039968439 
-0.75 3:2226.6568567236773 4:2477.8396462387636 5:2071.2075254451643 6:2196.6855034956993 7:1992.2076713397248 
-0.75 3:234.6984635452759 4:518.7960488718984 5:389.650664929395 6:453.4570463865801 7:692.6665082050572 
-0.75 3:1834.4442287719776 4:2282.723719486792 5:1694.3289887460978 6:2386.278072180613 7:2519.220017807839 
-0.75 3:4030.087604120291 4:3526.463812220905 5:2721.097860249491 6:3331.5286455618602 7:3192.7157761382496 
-0.75 3:1807.9518906780115 4:1536.6346923668948 5:1708.6056313618067 6:1998.7607857826983 7:1840.517271887149 
-0.75 3:1439.438111341781 4:1195.7383721442 5:820.8576924434498 6:1313.7776049785018 7:1159.7287850375726 
-0.75 3:3601.0536689022347 4:3796.8872809567956 5:3011.961171893671 6:4403.19745998956 7:3575.9603924947673 
-0.75 3:997.2162968510485 4:862.7990422434863 5:790.9035791932569 6:1070.3819545969336 7:729.6148980648774 
-0.75 3:2561.2112141433367 4:2928.932180403689 5:2155.857172229812 6:2606.5776867573663 7:2828.232630693066 
-0.75 3:2704.581491833354 4:2717.827226357942 5:3725.5306119880006 6:3113.5164920841335 7:3015.853655484305 
-0.75 3:1068.255944562232 4:1309.4727484961097 5:1223.7322995730567 6:1397.291438364878 7:1205.4870294275077 
-0.75 3:1708.7589628712587 4:1587.8660058667538 5:1991.894411316487 6:1429.4475605483183 7:2000.585724221681 
-0.75 3:123146.91630736468 4:123649.9186483033 5:123259.97598561498 6:123195.75406680278 7:122924.33322605415 
-0.75 3:2523.895912041321 4:2445.24022719054 5:2223.280639389434 6:2640.7636337654344 7:2427.8068363549455 
-0.75 3:3561.8924177247013 4:3601.144728816175 5:3461.289296800351 6:3214.756211593169 7:3383.8829204926146 
-0.75 3:725.6929152221896 4:976.2729564506175 5:864.5823032614505 6:1577.5347774822092 7:985.1995657817449 
-0.75 3:2064.975507045447 4:1803.26115167916 5:2020.3765495943203 6:1802.5252911671962 7:2364.0161843647816 
-0.75 3:3154.6908150713152 4:3746.7348212728557 5:2935.8471447405677 6:2930.3558288576464 7:2823.034385996759 
-0.75 3:1906.8864918163843 4:2244.784725875062 5:1456.443151925138 6:1690.6105677921971 7:1747.0872282821551 
-0.75 3:915.101147077799 4:1337.9832359300278 5:931.6021265957687 6:1125.3229761902371 7:1209.0214495270573 
-0.75 3:3477.9837140074533 4:2943.861483070888 5:2845.566969825787 6:2420.533622583326 7:2627.0398236229594 
-0.75 3:2309.1024467832353 4:1121.3901124198483 5:2277.036338066921 6:1943.2991766676735 7:1862.0911638938248 
-0.75 3:589.2856218705746 4:904.5048782636019 5:654.2220998909837 6:561.0598344817972 7:1072.6456672793274 
-0.75 3:3664.4648592228186 4:4437.7254109191545 5:4079.542462034109 6:4251.749621891791 7:3834.5929331860284 
-0.75 3:3590.6612341770096 4:3865.225551402209 5:4270.128043516172 6:3945.0352976934405 7:4326.019928100457 
-0.75 3:1576.0070382923366 4:1592.017654599358 5:198.4804216022093 6:176.61198269053332 7:562.6281264056256 
-0.75 3:3387.076081044508 4:3606.692053140088 5:3602.988290796641 6:3888.1564199641125 7:3931.036253245721 
-0.75 3:113466.64367901956 4:113561.88232673486 5:113024.19410240407 6:113497.34853556885 7:113473.48049176708 
-0.75 3:3790.101138398823 4:3907.9111942359536 5:3952.708965105533 6:4271.449714077888 7:4264.402466506529 
-0.75 3:3429.5060235405954 4:3620.231420917062 5:3763.256496546661 6:4225.7022417962235 7:3800.9421678669537 
-0.75 3:923.9386391090776 4:557.0240447231423 5:321.64157919434666 6:854.87184917636 7:467.8117913297514 
-0.75 3:3924.9115722603606 4:3901.3628742703577 5:3851.9879537675292 6:3497.5760464277746 7:3898.7697311248608 
-0.75 3:3946.6113713949235 4:4487.243380720902 5:3965.591527251941 6:4634.67838447886 7:4191.181578874031 
-0.75 3:225.04674976218493 4:1061.9352466755913 5:1018.2699548768112 6:732.8851557074605 7:647.2651947089457 
-0.75 3:6070.630076221722 4:6743.967387735187 5:3146.7275766605144 6:3333.3144247608802 7:3893.769703263209 
-0.75 3:11355.927916433186 4:9973.76150545405 5:9333.108644574882 6:9074.658779285633 7:8649.332778387237 
-0.75 3:10961.33530615619 4:9005.670575256318 5:4253.487382672952 6:2153.4860980787666 7:1945.5604575533384 
