svm_type c_svc
kernel_type rbf
gamma 0.14285714285714285
nr_class 2
total_sv 195
rho 0.25
label 1 -1
nr_sv 90 105
SV
1.0 3:2168.3460541562636 4:1641.4162392925778 5:1716.6958619798743 6:917.1785361589402 7:694.1160745506055 
1.0 3:1193.2596023586627 4:1270.0934948138263 5:2035.2634680990402 6:1388.6449403182144 7:941.1454714286215 
1.0 3:2562.9679267778606 4:1825.1191011034805 5:1061.2443760607641 6:1133.021971555024 7:855.9561026252994 
1.0 3:1083.7180480485272 4:421.46981804680973 5:975.4530587205044 6:667.4304635708139 7:518.3787928112631 
1.0 3:1606.7107476421336 4:1249.1220547693013 5:1035.4689151783807 6:826.5270679850862 7:513.3883803189004 
1.0 3:198154.6449582435 4:198237.94000231 5:197878.8144859375 6:198086.730362878 7:198378.50565654744 
1.0 3:1436.5956938488375 4:496.65067594617994 5:829.23607988447 6:584.5657147240715 7:438.2909786531489 
1.0 3:1398.1267720785588 4:536.2760619327161 5:1429.3690059042597 6:1159.072316917662 7:1041.8585495701086 
1.0 3:1138.1249819732234 4:1027.910519887344 5:1809.0408863040718 6:307.1348309222891 7:225.12300591731739 
1.0 3:1412.5859252088915 4:793.480426275175 5:752.6559355643059 6:1320.1674143078524 7:776.8662651668006 
1.0 3:1331.3788637785642 4:955.0673282050285 5:931.7275730671997 6:622.4181265499055 7:537.8526408227316 
1.0 3:1102.7542264891624 4:1235.2860432127916 5:927.0777919385042 6:862.4008280852793 7:804.539053463436 
1.0 3:1541.70969307572 4:1596.1917486771495 5:638.7054294949147 6:492.4623234938394 7:1056.5743733298336 
1.0 3:1033.9492875425187 4:999.7018300168095 5:400.58678433924405 6:576.1079377655891 7:239.9111963618418 
1.0 3:1420.434679596487 4:704.6645759056894 5:680.4829088830487 6:767.4997913379332 7:324.32066627111027 
1.0 3:1739.528461108394 4:1115.747745106144 5:911.7928453102254 6:591.5212759688587 7:754.1631064541745 
1.0 3:1441.9246318179744 4:1464.778726780533 5:850.8565905459312 6:1112.88970997594 7:908.7795767984231 
1.0 3:761.3460775357003 4:993.8303950702428 5:1265.1638814055375 6:633.3479407026248 7:693.9952358476656 
1.0 3:1380.6200622531283 4:1020.8778104305097 5:1080.5710088855317 6:628.1036883100243 7:631.2549261271645 
1.0 3:1067.2480126441446 4:970.9886575908888 5:267.5446320180761 6:309.0403229229743 7:663.0385572596196 
1.0 3:229120.73124136156 4:229148.89545798805 5:228711.59217039862 6:229182.31887170384 7:229135.2789861366 
1.0 3:1923.3807377158216 4:1132.012632080368 5:837.4485390926468 6:467.3722899257471 7:582.5834397291402 
1.0 3:1259.8983472610748 4:887.787100352263 5:1465.745323458997 6:317.6782201213614 7:607.173647518798 
1.0 3:1180.7148352925956 4:833.0961440660795 5:902.4055154446473 6:526.3468382397294 7:719.0410285533253 
1.0 3:1238.3530160435255 4:912.0056999117294 5:894.5897967239487 6:512.9167330203584 7:689.2506171574944 
1.0 3:1594.9519113660406 4:1429.9839443362685 5:1846.336390605911 6:1161.3365459933802 7:675.1798474007643 
1.0 3:1225.744916474831 4:874.9033203995525 5:948.4888686193711 6:1688.896602336336 7:856.8462084077169 
1.0 3:999.3586724640477 4:588.7347566615927 5:507.55461127618537 6:966.0488461665094 7:602.8442046156802 
1.0 3:1222.6499023104732 4:852.3488567390708 5:2074.00259553999 6:1810.4730848581332 7:1263.2016478629082 
1.0 3:1442.0024961585027 4:1030.7630992469356 5:1035.492970420575 6:571.4739810279863 7:235.78402553954768 
0.25 3:1056.6077465461472 4:508.9295758326918 5:1530.234959044819 6:1688.2608553031625 7:621.445002280011 
0.25 3:843.9229021411098 4:811.0022646738582 5:417.1021616277942 6:621.9175598252183 7:363.5674721194191 
0.25 3:995.7609975932994 4:599.9676070566082 5:854.1564022493359 6:2020.9876886837853 7:1114.1741676743727 
0.25 3:1096.753782317427 4:1342.9670195755757 5:3267.4936987470205 6:1320.890114341289 7:351.7563419074038 
0.25 3:1930.616357259038 4:528.7382187707603 5:770.0693026022285 6:1379.3819018457048 7:726.0144227355321 
0.25 3:261878.95422764463 4:261383.27313613656 5:262138.54601751998 6:260743.07835406266 7:261466.12194858218 
0.25 3:1580.2034412281214 4:999.3395765985998 5:741.9512661056833 6:733.3949553157444 7:477.83591873570253 
0.25 3:1269.2071322042234 4:816.021246413406 5:855.7582689611271 6:1311.1829518480192 7:874.5421734715322 
0.25 3:1116.119686569909 4:465.0343999850413 5:1178.6850364906043 6:1197.9886011662004 7:257.01202900439205 
0.25 3:1014.2537611256986 4:1141.979387197673 5:620.8759355480148 6:618.5700087643481 7:778.514655657119 
0.25 3:1374.7107957806752 4:856.6340341131747 5:1227.6393318950982 6:809.193916097889 7:956.8491032932504 
0.25 3:797.284644982835 4:1936.2541749158154 5:789.2503628718954 6:1043.0029350135997 7:220.35789834643157 
0.25 3:930.023193013559 4:500.6421556294251 5:689.3668978982349 6:855.2375948834339 7:603.308843578424 
0.25 3:526.8286661577716 4:832.6886774140598 5:385.4871150169568 6:1373.1811328070557 7:816.1070921565757 
0.25 3:1008.8768693079032 4:663.5989206120628 5:1081.9750784128305 6:1166.6529210710057 7:638.9624491903545 
1.0 3:1056.6077465461472 4:508.9295758326918 5:1530.234959044819 6:1688.2608553031625 7:621.445002280011 
1.0 3:843.9229021411098 4:811.0022646738582 5:417.1021616277942 6:621.9175598252183 7:363.5674721194191 
1.0 3:995.7609975932994 4:599.9676070566082 5:854.1564022493359 6:2020.9876886837853 7:1114.1741676743727 
1.0 3:1096.753782317427 4:1342.9670195755757 5:3267.4936987470205 6:1320.890114341289 7:351.7563419074038 
1.0 3:1930.616357259038 4:528.7382187707603 5:770.0693026022285 6:1379.3819018457048 7:726.0144227355321 
1.0 3:261878.95422764463 4:261383.27313613656 5:262138.54601751998 6:260743.07835406266 7:261466.12194858218 
1.0 3:1580.2034412281214 4:999.3395765985998 5:741.9512661056833 6:733.3949553157444 7:477.83591873570253 
1.0 3:1269.2071322042234 4:816.021246413406 5:855.7582689611271 6:1311.1829518480192 7:874.5421734715322 
1.0 3:1116.119686569909 4:465.0343999850413 5:1178.6850364906043 6:1197.9886011662004 7:257.01202900439205 
1.0 3:1014.2537611256986 4:1141.979387197673 5:620.8759355480148 6:618.5700087643481 7:778.514655657119 
1.0 3:1374.7107957806752 4:856.6340341131747 5:1227.6393318950982 6:809.193916097889 7:956.8491032932504 
1.0 3:797.284644982835 4:1936.2541749158154 5:789.2503628718954 6:1043.0029350135997 7:220.35789834643157 
1.0 3:930.023193013559 4:500.6421556294251 5:689.3668978982349 6:855.2375948834339 7:603.308843578424 
1.0 3:526.8286661577716 4:832.6886774140598 5:385.4871150169568 6:1373.1811328070557 7:816.1070921565757 
1.0 3:1008.8768693079032 4:663.5989206120628 5:1081.9750784128305 6:1166.6529210710057 7:638.9624491903545 
1.0 3:2865.254334466768 4:1800.7465166043364 5:2091.1520253309727 6:1132.8783614196586 7:1042.2056612388628 
1.0 3:1753.1398990702014 4:417.38879086707703 5:621.4638934513976 6:457.9826495266566 7:536.957142024137 
1.0 3:998.9524566761627 4:1168.2497517262434 5:1161.6943314229377 6:1092.5487156679847 7:1877.143229549053 
1.0 3:1666.804684041896 4:1672.8345099437106 5:1600.9557603244007 6:1942.2177235567729 7:1547.9563982468003 
1.0 3:821.820078786771 4:1068.8136565032448 5:1534.3912556767225 6:1846.882506951056 7:986.5704553226808 
1.0 3:230450.64378138736 4:228942.85191077186 5:228275.2410538694 6:225475.70362299873 7:228144.34741301357 
1.0 3:1212.5112465297218 4:1005.7806893031122 5:2342.5311227773373 6:323.49516371169 7:551.3755829837658 
1.0 3:2644.674768376374 4:661.3731197418076 5:749.9972262997858 6:1873.0634588813853 7:1645.042249956308 
1.0 3:1353.7532495425714 4:2199.5244268315937 5:1731.6489785548565 6:2020.80661725444 7:1694.3628408515965 
1.0 3:1996.0544684615243 4:1990.987223107509 5:1948.5769777384955 6:1430.0251726991028 7:1387.3791523389214 
1.0 3:1917.3481119399655 4:1183.1831424764518 5:1728.8990678942514 6:2249.4439724174017 7:1949.088939186348 
1.0 3:1044.0146235400018 4:893.0544431738193 5:979.2080050545724 6:799.8972499768925 7:139.78850887389484 
1.0 3:1469.871004937156 4:1616.1883052913038 5:849.4505324367624 6:1690.227012763605 7:1088.587015589441 
1.0 3:1977.2043284244653 4:1703.6965650010145 5:1018.0754695682441 6:1995.0317598659597 7:1692.846572729177 
1.0 3:1176.8088602112352 4:993.7609597539022 5:1689.2490711494252 6:1292.8282623084174 7:1282.1576603087308 
1.0 3:732.5656154058956 4:681.0910060823871 5:148.22518578364063 6:303.6863076238642 7:361.2373904768154 
1.0 3:1650.6658877728748 4:1709.597239160403 5:1918.0065728437967 6:2194.06731989416 7:2137.3218721196167 
1.0 3:1814.9888902355137 4:1572.0968159612341 5:1391.8705069744533 6:1853.2763365321607 7:2029.5224695072334 
1.0 3:1445.798327747765 4:323.861748930808 5:809.572961455296 6:654.7151123506388 7:856.4468078727451 
1.0 3:1059.9278211853841 4:1256.726238952857 5:1119.2740099580217 6:881.4770945271757 7:1181.8306071256832 
1.0 3:240305.67263518742 4:240214.11418015888 5:240456.37116320286 6:240441.94154168497 7:240143.8764134352 
1.0 3:1487.1117988796423 4:1926.5140563961277 5:1524.8220351679818 6:2025.0959573658565 7:2021.1200262814311 
1.0 3:2146.0853707608658 4:1693.4298578489995 5:1488.6280912204174 6:1738.6671490178592 7:1951.9172214295504 
1.0 3:565.0907069376995 4:956.5238515564624 5:221.18958002703909 6:1475.240956298929 7:1013.2004129552367 
1.0 3:1081.2659659634744 4:526.6971026780784 5:1379.3486399603837 6:307.2538092595573 7:914.6450764011153 
1.0 3:1849.460955570832 4:1768.1494994825664 5:1446.5525135933513 6:1739.1555129355859 7:1348.0421926183972 
1.0 3:1229.1975605682949 4:1557.0498173098324 5:644.3807948616637 6:1537.8465752756206 7:1658.5344687478046 
1.0 3:1015.4283070892061 4:1231.0899337829183 5:465.94984259531435 6:1391.1600769408433 7:648.4686795512604 
1.0 3:1600.0088372017585 4:1298.3080238330056 5:1043.9019216750996 6:839.5515336993604 7:1011.7180184310434 
1.0 3:2003.712151406221 4:1945.742491711284 5:2847.9446573810087 6:2260.6255823780557 7:1995.371628571819 
-0.75 3:382.5273955952127 4:252.86320029858123 5:369.716113695935 6:43.12408290636566 7:475.96059363444516 
-0.75 3:795.8052798653697 4:1360.0234948252512 5:445.169390960907 6:929.207045501563 7:1020.1144544970178 
-0.75 3:864.5525693811364 4:914.5911794045434 5:800.8663338316119 6:783.6089800241572 7:852.0591820014475 
-0.75 3:562.6252490451146 4:209.64886934005233 5:355.8290433877916 6:1133.0993682837507 7:383.45289286949213 
-0.75 3:611.1535274147517 4:798.3580571566018 5:2322.431353847019 6:678.7166636537063 7:783.8028769230008 
-0.75 3:361571.20583863504 4:361440.65892299474 5:361080.0078917697 6:360815.12756611395 7:361139.03629137046 
-0.75 3:943.110884055818 4:862.1820799594287 5:1063.3708605633722 6:1553.4276317042386 7:741.3249273001915 
-0.75 3:560.6206479178301 4:1193.6944420536743 5:207.35224436122775 6:499.89520743654367 7:571.3373761721739 
-0.75 3:138.49891018772038 4:230.94203693857133 5:733.3747623101499 6:707.7700278678119 7:175.87521844724807 
-0.75 3:815.808030522181 4:926.2868028332553 5:539.3907934472985 6:747.7137824210728 7:566.0268523423114 
-0.75 3:790.8562667161953 4:889.3643005193387 5:661.8484737158084 6:651.5042506999746 7:489.2967354718101 
-0.75 3:341.0479504918433 4:594.4116868442424 5:2136.0939293942806 6:490.19337505614783 7:427.88312168331635 
-0.75 3:530.6330342657561 4:226.26999496245318 5:1024.9442520228015 6:480.4774695078746 7:461.02737658132395 
-0.75 3:399.32887203882257 4:627.4150687807 5:934.4568533547348 6:1705.8841204756766 7:562.2269224438168 
-0.75 3:897.8253850195149 4:425.55344524569506 5:554.1685392378641 6:1138.9208741743753 7:959.2586196775283 
-0.75 3:1053.7432008628964 4:1590.2306868117403 5:1989.2353900521323 6:1338.036143242709 7:1569.5227964018593 
-0.75 3:1558.6108328121084 4:1092.364024366991 5:836.0721492556885 6:1123.1176482314083 7:1161.5353848713482 
-0.75 3:467.92946458492673 4:927.4928836857647 5:1257.8022739610765 6:300.99670914605383 7:269.62828253349807 
-0.75 3:980.3618476314242 4:1469.1402597744143 5:917.0086288450506 6:712.3837345174283 7:793.0570758095447 
-0.75 3:326.4683468695897 4:2163.5799304136704 5:1278.7630901094967 6:1645.371870218324 7:1420.0233788922333 
-0.75 3:111412.72773221876 4:111570.3081894919 5:111735.37695066906 6:111969.9106882732 7:111260.864165646 
-0.75 3:908.0468337802561 4:700.1569497023693 5:914.5547492377887 6:704.8806711689607 7:308.7773411326859 
-0.75 3:1710.5553429192535 4:1394.0287608679473 5:988.0107397197321 6:1103.7625004709964 7:1095.6949930865808 
-0.75 3:1120.5219703105417 4:1724.3601049634171 5:1403.1324338697805 6:1543.062336018907 7:1402.2674275695385 
-0.75 3:983.5467105161255 4:851.9611254938882 5:796.3555958084146 6:944.7852561281476 7:577.0538879231428 
-0.75 3:838.6180115836169 4:1248.5343966588132 5:848.406924708037 6:400.1509000529236 7:782.8861580802102 
-0.75 3:1646.2624254940583 4:2209.2470129864655 5:1883.6173801766531 6:1463.275121195711 7:1746.727176931504 
-0.75 3:979.3587475073581 4:1224.0816147984199 5:1188.2837148529773 6:447.3764399910925 7:1472.274910814656 
-0.75 3:722.181343656633 4:703.2274604302132 5:1198.207991449628 6:538.3538142993904 7:752.6897834527525 
-0.75 3:2153.7255106656767 4:1439.4854356914964 5:1487.2415452327407 6:1937.7012663017526 7:1878.8975900112657 
-0.75 3:931.4371358461902 4:1432.0604129297108 5:441.5282697384254 6:1115.3669328655146 7:668.0237245077265 
-0.75 3:1142.1650941677574 4:576.4746531734312 5:1069.0041729492564 6:1063.1256033415543 7:825.3383175184653 
-0.75 3:225.31736104211265 4:504.42464141742107 5:772.5501835156081 6:821.8864694422796 7:274.5810940342853 
-0.75 3:694.9893203550822 4:944.5034768577763 5:625.4217086057574 6:818.4177870318864 7:1017.868183745119 
-0.75 3:1174.4987322911747 4:1178.2289447064697 5:1002.6083431450951 6:769.0430762443159 7:1483.5466250996185 
-0.75 3:134145.52651241104 4:133466.97431067377 5:133773.50531098028 6:133840.96242436214 7:133798.42150213692 
-0.75 3:1142.736759791206 4:879.5812306152332 5:747.7588984254289 6:1038.072086152955 7:912.5345464574009 
-0.75 3:811.5208984222577 4:260.62690930737296 5:599.0783403862536 6:562.462029054773 7:327.9956531021082 
-0.75 3:1080.5043082089426 4:1042.1422791474556 5:1143.9887019528724 6:558.144516625932 7:864.8018849095855 
-0.75 3:1005.5630333591557 4:725.9158816630797 5:628.1009262718006 6:1075.612096588797 7:1109.4357799020515 
-0.75 3:993.5043966170947 4:710.631041618428 5:1324.6072648579152 6:98.94651977808756 7:787.4481510267636 
-0.75 3:1043.9351497096277 4:853.2538314240442 5:419.85589475057566 6:811.2266911162949 7:412.1980943465424 
-0.75 3:1205.96220501628 4:1202.4105982486972 5:1845.469084387541 6:966.7510705858062 7:1161.391826840047 
-0.75 3:1272.2705400560642 4:978.2377517081333 5:1316.4036866514346 6:804.8223452290182 7:661.3850087342604 
-0.75 3:736.3152682381357 4:865.4366299941936 5:897.3912661364941 6:621.7891651987057 7:190.44218160887206 
-0.75 3:416.9780959706077 4:823.1587987886729 5:834.3624552792767 6:590.6974719427385 7:384.67249587226735 
-0.75 3:617.5748905347307 4:2226.4359485489194 5:1148.4395430332177 6:1358.3853668198662 7:958.3700924506147 
-0.75 3:1442.6713542316588 4:685.0421139033622 5:975.7648690208175 6:847.8010654056018 7:696.3724472898718 
-0.75 3:940.9476633465074 4:834.6890725471258 5:1164.2654585698258 6:516.6889585932628 7:374.55822628151157 
-0.75 3:1047.6097419257937 4:1595.956445968131 5:656.5404081044071 6:228.16461789782053 7:666.599349850963 
-0.75 3:158097.10803629478 4:157721.10028907532 5:157447.2309228458 6:157315.37078357057 7:157650.02715044538 
-0.75 3:977.6358257755161 4:880.944343673515 5:986.3686454283759 6:698.8657325485593 7:465.1838434969033 
-0.75 3:957.1801236205155 4:659.9916975767401 5:739.8329582451385 6:815.3477944479242 7:569.2405032016968 
-0.75 3:751.6631386851077 4:673.0382878510545 5:646.4908604850918 6:415.5169915481056 7:568.7406447818565 
-0.75 3:2137.8703485252654 4:828.9952673806725 5:328.6677688546478 6:707.3683596077381 7:170.86297880653706 
-0.75 3:1321.1079330725104 4:913.1610741132533 5:318.29010771787597 6:1077.8172168838576 7:372.4862922772893 
-0.75 3:756.4412545207326 4:1452.944251651528 5:646.9801368369759 6:242.54337999059373 7:232.5484144634447 
-0.75 3:464.8095231995224 4:843.2997361255005 5:288.91446982498735 6:508.1757827379935 7:217.15617551996445 
-0.75 3:510.36429744538145 4:295.20477081533676 5:153.56010869063647 6:705.3019362306084 7:353.0075900123893 
-0.75 3:990.7435101350909 4:558.5696673150638 5:1047.1291875947754 6:1064.7158205704977 7:136.6882675716376 
-0.75 3:1175.8278656266878 4:1555.2069840287052 5:739.990357564227 6:770.8810501266081 7:612.6333273537067 
-0.75 3:1928.9233118786137 4:1577.3759509695456 5:1720.87364484662 6:1474.9947241363955 7:1737.8310315745077 
-0.75 3:1200.4351240704034 4:654.0893046172754 5:566.2212360704414 6:1004.2329638499886 7:1192.5484487633228 
-0.75 3:1176.1546523231107 4:707.4074104462087 5:689.943034964063 6:374.5202372631965 7:403.2759821001868 
-0.75 3:1746.6109216173963 4:1329.51122100058 5:1405.5282202438982 6:1235.2753735386175 7:1312.2774456209318 
-0.75 3:184224.35298131636 4:184283.3122167677 5:184221.35935911213 6:184380.51640108888 7:184780.62281397427 
-0.75 3:615.3971177875071 4:929.4760403883074 5:2095.9245551825115 6:1100.725299764875 7:1446.0991599487668 
-0.75 3:2000.0177852026638 4:1447.857659103264 5:587.5908116506578 6:2108.6220700318013 7:878.8590748453566 
-0.75 3:1958.9416474756144 4:1069.9335023213168 5:370.71002133061535 6:970.4030710125644 7:808.526427144619 
-0.75 3:1447.6767038969804 4:2174.0266960486138 5:1858.7788041903118 6:1415.3370277397878 7:1856.460502268088 
-0.75 3:1265.267059060281 4:1450.723224008854 5:1167.624211428945 6:981.8045405164136 7:1498.6961940477745 
-0.75 3:846.3298228106423 4:375.8099270166126 5:417.7875458234093 6:247.51124635412467 7:155.26744034193646 
-0.75 3:1515.0231385627444 4:965.7602454435655 5:963.544718002154 6:777.108342586104 7:1433.3440768729492 
-0.75 3:1468.3635665569711 4:1172.606010099503 5:969.4693331776697 6:1041.131599573993 7:1231.13399967907 
-0.75 3:1150.6445119719867 4:790.9580557373981 5:978.9285308278495 6:1564.202428664628 7:641.3595459887357 
-0.75 3:823.79277450575 4:912.3272491274412 5:876.2280470577656 6:464.5329097812299 7:1227.143398571133 
-0.75 3:2772.971387773203 4:2437.854169330044 5:1126.290505000237 6:1488.7863292448314 7:2030.5098999966744 
-0.75 3:1162.439044874041 4:1660.2633539049193 5:2019.6625426186654 6:1231.4854889677267 7:1114.9361644331907 
-0.75 3:487.09964726653607 4:730.7727379519578 5:316.5172321811245 6:469.5263616458811 7:658.0859678035542 
-0.75 3:2128.440668420178 4:2307.335272808492 5:2426.711436933021 6:1473.6551469916083 7:1926.7336037982677 
-0.75 3:203240.53130851107 4:203887.78899609565 5:203432.35541959485 6:204376.3602684064 7:203871.42185638775 
-0.75 3:2011.7982055047416 4:2122.1010623034126 5:1811.4838211736105 6:636.517943583499 7:1143.1319437256575 
-0.75 3:1024.6529626200415 4:1473.6251499815992 5:1411.5348577415452 6:1396.7253222555623 7:1080.325926445112 
-0.75 3:973.4752568372983 4:437.4799857596349 5:455.28230795842114 6:677.2951257850631 7:662.2565521483194 
-0.75 3:1795.7373533106975 4:1712.7278314434973 5:2560.132169602267 6:1923.561822029498 7:2018.807175951695 
-0.75 3:1948.3271109299412 4:2049.715631202709 5:858.0497377757009 6:1075.9046997725495 7:1391.8199481555964 
-0.75 3:706.3067050334979 4:274.4502487148551 5:669.8564668537591 6:342.1231488522015 7:188.17359915277132 
-0.75 3:1370.9432194616868 4:1966.5238875231944 5:1665.0821741302593 6:1637.8101974048893 7:1509.4219127583142 
-0.75 3:2081.9347290301707 4:1215.9696603236857 5:886.9869832257766 6:1316.4478210866114 7:1502.0304919278765 
-0.75 3:460.2941502136971 4:548.2927969443324 5:279.1271084387412 6:474.1868658319562 7:367.0908942406638 
-0.75 3:821.2967650382191 4:1116.8270220251181 5:772.4475977213164 6:799.9897434157588 7:948.549393200272 
-0.75 3:858.7450250379593 4:1664.309503095052 5:963.479560151541 6:1616.3651926738928 7:1358.8578005669294 
-0.75 3:393.09533404073574 4:826.1080839950108 5:912.7826046548299 6:1066.9409446799682 7:1394.3045576249317 
-0.75 3:996.7493733231781 4:216.84783990323314 5:932.3242747837792 6:794.0798738525659 7:882.4883320857084 
-0.75 3:1804.3982264255806 4:1596.7594874958572 5:1453.998770259434 6:1527.759878984683 7:1504.0821821932018 
-0.75 3:90091.64116037442 4:90038.88088134021 5:89853.42745968877 6:89672.48650129605 7:89856.5164376935 
-0.75 3:1083.1392550138107 4:924.9850002316962 5:1096.5763028761864 6:1444.0210834779245 7:1447.0130394952382 
-0.75 3:442.76102632277633 4:843.1547512204735 5:700.2680432832573 6:886.4694596081447 7:906.6046579985338 
-0.75 3:1624.3224397716929 4:1170.6189111169513 5:976.4544856905587 6:1045.6247810041136 7:490.9611035138325 
-0.75 3:1660.2700596015823 4:1431.739271152942 5:1248.4435794370424 6:1343.9925256173956 7:1573.0762626365124 
-0.75 3:1142.5013507255048 4:890.9603295816682 5:1044.4287041131408 6:1337.5189146440064 7:947.6674814108401 
-0.75 3:965.6162680436365 4:304.38598375523395 5:1290.0991914457816 6:396.9651303666823 7:433.91706053579384 
-0.75 3:2192.118550228784 4:1823.384728078386 5:1875.3349700351648 6:1671.0718627808867 7:1758.0084054093825 
-0.75 3:1458.2271578422133 4:1300.6036169884467 5:847.9402182564131 6:1838.62371874221 7:1440.960929005372 
-0.75 3:341.3289699381199 4:526.025077720171 5:428.5142325918945 6:407.87569958274355 7:306.8647057923282 
