svm_type c_svc
kernel_type rbf
gamma 0.14285714285714285
nr_class 2
total_sv 195
rho 0.25
label 1 -1
nr_sv 90 105
SV
1.0 5:895.6742024384417 6:886.933865548714 7:670.8066995405778 
1.0 5:2034.4767842894541 6:812.7376917884714 7:174.14825947419683 
1.0 5:225.22373697986745 6:361.1932148577135 7:150.88482311847193 
1.0 5:1113.781598726721 6:609.5670483855027 7:639.3100011517881 
1.0 5:676.0220133087834 6:34.264394701052325 7:469.3209488496409 
1.0 5:18900.44661516175 6:18963.79562773955 7:18594.54766389436 
1.0 5:638.6064760992092 6:657.6900099446922 7:659.8288479396658 
1.0 5:1292.4598466185448 6:933.251268243528 7:14.652630085601933 
1.0 5:1566.6474227231527 6:97.58163942120515 7:544.4677564102619 
1.0 5:856.0740242191843 6:619.1518915063211 7:433.925072730591 
1.0 5:579.5398650508744 6:639.2639321415295 7:119.39838725937399 
1.0 5:681.054962249536 6:587.6014791458127 7:732.8524894361647 
1.0 5:483.23267642331524 6:539.1421192381224 7:747.1170743652721 
1.0 5:93.32627831066 6:688.1105610096437 7:121.84857249166929 
1.0 5:379.6839416049697 6:1211.223703482727 7:312.70277623941047 
1.0 5:307.68518978284754 6:479.061724934333 7:539.6098933730699 
1.0 5:1266.5898766602456 6:751.3980613400637 7:240.4987929171784 
1.0 5:949.0499377445183 6:253.8852155479987 7:630.2707088710283 
1.0 5:1448.4205571646357 6:397.8516483585025 7:280.8193083715333 
1.0 5:567.2395363121403 6:342.5220241007738 7:471.5929479961261 
1.0 5:16152.693064914702 6:15277.840801112354 7:15710.547714630258 
1.0 5:448.37144670081 6:509.8433973875709 7:627.0692478738923 
1.0 5:900.6844658369614 6:555.1264207985254 7:224.33006330994792 
1.0 5:1193.7981467806294 6:910.319828017482 7:569.1697249473665 
1.0 5:607.5899405071738 6:1415.0206343376744 7:403.7399098643421 
1.0 5:583.0836926970935 6:1475.0384886129777 7:516.1146906897015 
1.0 5:1435.6820709245576 6:1941.2598385994747 7:658.6772803931108 
1.0 5:973.6931983731278 6:850.0859663974946 7:362.8937175388508 
1.0 5:1073.588001555072 6:744.6703688190486 7:524.0945900927185 
1.0 5:1685.7602063177817 6:1204.8431876324455 7:184.2366593644598 
0.25 5:1125.6015469220729 6:1272.4636888542618 7:393.7065492997775 
0.25 5:163.53905556621467 6:538.0367552034572 7:926.3086664767943 
0.25 5:957.3534816660969 6:626.7982013804781 7:273.9855370172393 
0.25 5:1331.0084700305463 6:1373.8495152659564 7:501.69813024525433 
0.25 5:848.4250859499839 6:1113.9340473132554 7:645.9778134242941 
0.25 5:13049.939382684044 6:13975.324422526191 7:13298.058843482408 
0.25 5:1449.373551439193 6:517.5714574934415 7:403.8475835785027 
0.25 5:537.9061238179723 6:737.5719875819716 7:279.4538836779853 
0.25 5:642.22806716084 6:320.7659095539331 7:625.9525863678008 
0.25 5:486.46875287150823 6:395.67784671949136 7:876.3418776195864 
0.25 5:1221.222916493342 6:428.8275660883994 7:847.3272545862721 
0.25 5:69.9992099046032 6:592.6749475123099 7:137.0236049531514 
0.25 5:389.4795003775893 6:159.5310147145746 7:314.66498367569113 
0.25 5:1014.2252170768882 6:624.6033969054139 7:844.0469386620847 
0.25 5:335.9255687385048 6:383.4157516244553 7:626.0683069851198 
1.0 5:1125.6015469220729 6:1272.4636888542618 7:393.7065492997775 
1.0 5:163.53905556621467 6:538.0367552034572 7:926.3086664767943 
1.0 5:957.3534816660969 6:626.7982013804781 7:273.9855370172393 
1.0 5:1331.0084700305463 6:1373.8495152659564 7:501.69813024525433 
1.0 5:848.4250859499839 6:1113.9340473132554 7:645.9778134242941 
1.0 5:13049.939382684044 6:13975.324422526191 7:13298.058843482408 
1.0 5:1449.373551439193 6:517.5714574934415 7:403.8475835785027 
1.0 5:537.9061238179723 6:737.5719875819716 7:279.4538836779853 
1.0 5:642.22806716084 6:320.7659095539331 7:625.9525863678008 
1.0 5:486.46875287150823 6:395.67784671949136 7:876.3418776195864 
1.0 5:1221.222916493342 6:428.8275660883994 7:847.3272545862721 
1.0 5:69.9992099046032 6:592.6749475123099 7:137.0236049531514 
1.0 5:389.4795003775893 6:159.5310147145746 7:314.66498367569113 
1.0 5:1014.2252170768882 6:624.6033969054139 7:844.0469386620847 
1.0 5:335.9255687385048 6:383.4157516244553 7:626.0683069851198 
1.0 5:777.4695532386078 6:1267.2428216447854 7:1266.7726050938677 
1.0 5:1316.4104676362292 6:1016.3025366365016 7:538.144702949075 
1.0 5:456.6883446943325 6:879.3993641357032 7:463.2740860512553 
1.0 5:527.9474579764616 6:749.8171963061927 7:682.0883725532367 
1.0 5:1047.9417791555638 6:265.224042687726 7:890.2042876251629 
1.0 5:23618.42892663961 6:23675.941054917257 7:22396.891703887628 
1.0 5:1171.2506100730404 6:871.9484637124988 7:826.9613117636436 
1.0 5:321.42137492256234 6:1395.1584674319379 7:824.4970428602157 
1.0 5:748.2741801152865 6:1259.4228043050205 7:641.312031405599 
1.0 5:655.5612729097088 6:295.25690512425734 7:156.74412932826127 
1.0 5:930.7354642282107 6:257.06342602460734 7:478.22834544685526 
1.0 5:691.2895949765543 6:364.6644098242144 7:1020.5078051064528 
1.0 5:1096.923930745782 6:1208.7493479633172 7:498.24686224164526 
1.0 5:783.3510850515335 6:502.5545919852953 7:442.5888186757557 
1.0 5:339.1686109184858 6:926.7535750013025 7:502.3531530800486 
1.0 5:1028.1188080419442 6:551.9034626227419 7:1156.0473580078553 
1.0 5:332.7088767647865 6:1092.5652408625035 7:696.131728153921 
1.0 5:517.7236017192294 6:1279.132195593465 7:503.5876678701591 
1.0 5:1195.5048371097025 6:1343.1391637889037 7:662.7209923874453 
1.0 5:713.1596169050155 6:715.3080425630144 7:709.8867377516252 
1.0 5:20256.953552700495 6:19791.465723714602 7:20226.085391304277 
1.0 5:480.44779344964195 6:572.3074245242221 7:773.2939266519363 
1.0 5:278.2904036913403 6:409.66234822405085 7:212.15612041788668 
1.0 5:885.9241509287954 6:480.46222405187785 7:816.7391699873501 
1.0 5:1238.3316305118574 6:973.7129586087295 7:926.6558634990116 
1.0 5:146.2577482727843 6:729.344973096731 7:88.66157293012652 
1.0 5:1601.7243954453454 6:808.5863938038829 7:643.1065245535426 
1.0 5:1976.7406381577607 6:845.0292158363505 7:1004.4280761737817 
1.0 5:1074.0240000331873 6:340.5480874413152 7:580.38582949724 
1.0 5:402.2225152789037 6:786.0625315728507 7:744.4648055952857 
-0.75 5:547.9245005052318 6:242.82816670436418 7:740.2761286715833 
-0.75 5:747.7735810275121 6:172.72448979349826 7:237.74345087204622 
-0.75 5:915.2381855836205 6:655.7169419161104 7:345.05559281885246 
-0.75 5:1114.7632067082775 6:964.0629599732126 7:391.23927873206867 
-0.75 5:731.6762650029629 6:864.4199425464057 7:332.19647429356024 
-0.75 5:5941.732941453169 6:6053.891745648117 7:5821.559614609038 
-0.75 5:1165.5670867355827 6:359.5193298576454 7:318.80434546153185 
-0.75 5:691.7221237996948 6:987.4807735216392 7:435.2596091598584 
-0.75 5:306.04944104862693 6:713.3055324327854 7:499.2308790693068 
-0.75 5:418.891186297373 6:696.6845706096718 7:538.7593762760943 
-0.75 5:804.8911879723545 6:148.1853689702655 7:101.19463709156582 
-0.75 5:1350.7289525005217 6:847.5822503964886 7:635.0773066411825 
-0.75 5:454.56139734861 6:562.6837080861164 7:945.9628777325635 
-0.75 5:827.7836096295754 6:514.5992094343139 7:227.08846898995483 
-0.75 5:481.3940972747476 6:351.9063629515444 7:376.4209638929109 
-0.75 5:608.0986700067285 6:325.44541065719216 7:98.27745505992004 
-0.75 5:1044.8694164165097 6:1410.960583304415 7:1229.4775632772132 
-0.75 5:2242.1325292196902 6:781.2938238133197 7:712.6518854943553 
-0.75 5:532.9162426169136 6:745.5506402614701 7:179.95681967460308 
-0.75 5:144.22206921934438 6:928.0940929542849 7:354.71450798851293 
-0.75 5:41315.70457019966 6:41516.848054972084 7:41245.09773011647 
-0.75 5:1281.227727401803 6:247.0610175102582 7:243.62437295501869 
-0.75 5:675.8262386389065 6:317.56273527348776 7:281.2467079034028 
-0.75 5:1217.2586325420061 6:224.732128563815 7:121.76649806148959 
-0.75 5:523.3999958543674 6:246.2788054896688 7:274.2371663771649 
-0.75 5:615.5450656690186 6:124.18299016302619 7:422.4612441887027 
-0.75 5:310.6489932413723 6:200.73652114466447 7:387.08486854745684 
-0.75 5:456.5185500895177 6:758.5837504326865 7:595.6487176398829 
-0.75 5:1055.5302964770017 6:311.17222758918126 7:427.58052723163155 
-0.75 5:892.6996753520216 6:528.9582031781396 7:484.65687466067703 
-0.75 5:1570.6018478688318 6:387.4733744403749 7:618.2358415908064 
-0.75 5:435.376633661356 6:660.6666568958833 7:320.5718976585357 
-0.75 5:1392.9032259775922 6:524.2113450590855 7:1167.6032927557635 
-0.75 5:749.3056898468137 6:1396.7155230402068 7:1313.6023743928617 
-0.75 5:162.44967308335137 6:441.52304145962364 7:718.0201971630853 
-0.75 5:40667.77184391713 6:41409.5926011785 7:41120.747154472214 
-0.75 5:701.2968402584216 6:157.67046066257765 7:144.48654999462016 
-0.75 5:1477.7091817453488 6:929.8347594917647 7:833.4361272783386 
-0.75 5:1982.305505648584 6:149.23038056334886 7:1125.9874175869095 
-0.75 5:299.162519458952 6:357.8208791199115 7:539.5797058108474 
-0.75 5:1149.3894949935645 6:571.0463711323501 7:696.0842221490591 
-0.75 5:108.2303046218246 6:1301.4742666899253 7:930.2080341018714 
-0.75 5:1277.3131290839729 6:1268.3412752860522 7:713.0209353903605 
-0.75 5:802.3990448040474 6:521.4057576637986 7:625.9967528572898 
-0.75 5:2498.69140822095 6:829.3317514655026 7:1242.1220736295063 
-0.75 5:649.0914732095589 6:1650.9464670171303 7:604.0074324072552 
-0.75 5:385.30160960212896 6:647.947015837556 7:331.6140787222758 
-0.75 5:633.6226151809472 6:467.22317638029165 7:537.2506421292088 
-0.75 5:688.4536470523369 6:606.6850459014472 7:206.24144272637022 
-0.75 5:515.9821966694775 6:667.467001066084 7:662.4686209777152 
-0.75 5:35505.8239240857 6:36159.28589811403 7:35299.65518004334 
-0.75 5:593.8357223659224 6:565.939359274812 7:248.94350377770755 
-0.75 5:526.2115020445821 6:310.3599934346194 7:267.94584430862665 
-0.75 5:303.58314480291057 6:116.49703459596077 7:722.3727015053345 
-0.75 5:406.3615661813973 6:566.5953525302386 7:20.90377196951193 
-0.75 5:244.6969660324569 6:583.3193747218077 7:75.86477085737054 
-0.75 5:523.7269447554677 6:197.9879267289451 7:505.6630776837395 
-0.75 5:296.96611253257095 6:728.8171731961755 7:549.2831749273789 
-0.75 5:406.4592440984052 6:54.65467750386066 7:222.71918895851147 
-0.75 5:1156.1218838211428 6:191.68759545509144 7:431.8148792633223 
-0.75 5:317.3539695705918 6:688.7347121544111 7:486.7863270336332 
-0.75 5:102.4983438882572 6:113.91668667161021 7:35.52038254656477 
-0.75 5:893.9258128997684 6:545.6298339747398 7:483.85091935272595 
-0.75 5:553.8034374513646 6:492.35162330704173 7:755.0239072808777 
-0.75 5:700.3264574344836 6:596.2159045749099 7:572.5249026056498 
-0.75 5:30334.094154327253 6:31446.780574566114 7:30614.85407295129 
-0.75 5:1585.9385335757795 6:246.7942782943889 7:124.52112826381973 
-0.75 5:1367.6074791398457 6:655.9870942995555 7:1263.1484006483458 
-0.75 5:243.25156638233594 6:1161.5472529529711 7:1403.538860341064 
-0.75 5:354.2895429553917 6:562.0941221222264 7:805.8439486769066 
-0.75 5:635.5645508878223 6:992.7069428488817 7:606.6090941873192 
-0.75 5:852.4670849972428 6:1352.562360513415 7:1142.175745053717 
-0.75 5:1103.3058472153489 6:1023.2239702003199 7:1500.081631209379 
-0.75 5:81.96256779676393 6:457.57827771845547 7:391.8211024013175 
-0.75 5:1300.2525828252826 6:548.2262268495917 7:1200.5151322800446 
-0.75 5:932.0966624260171 6:80.4824369334782 7:782.2769564968656 
-0.75 5:1949.0126575532136 6:1049.604551708833 7:285.0201140326806 
-0.75 5:651.7071577271673 6:1332.862267892398 7:1118.8972417637904 
-0.75 5:420.5845332809586 6:399.60544836321003 7:829.4544312146477 
-0.75 5:358.62305714644754 6:193.23683013970657 7:190.41961773831025 
-0.75 5:27228.039841059526 6:27172.33171119087 7:27319.42738165636 
-0.75 5:1395.3065229423592 6:703.5904603147923 7:570.1003524025126 
-0.75 5:298.98119522313453 6:944.0232863111145 7:662.4790231347808 
-0.75 5:468.0967526522897 6:447.9054283280669 7:730.633396043945 
-0.75 5:659.3603844497285 6:231.08342746649126 7:351.8498338938038 
-0.75 5:837.4071816498906 6:1032.8679780536077 7:657.3431503745255 
-0.75 5:747.6329941510268 6:712.6258352146796 7:711.8789242745243 
-0.75 5:652.3362762144941 6:183.64964939980086 7:207.0163263731616 
-0.75 5:905.993923690726 6:908.0372607626517 7:621.0302492658465 
-0.75 5:137.14663455692985 6:741.7554233068432 7:1151.9169543771582 
-0.75 5:217.5218496132956 6:132.25586248218536 7:465.49586616437233 
-0.75 5:363.0899673626154 6:260.5040622811081 7:379.68433852164634 
-0.75 5:968.2229208248357 6:282.7027993038501 7:201.22093543177314 
-0.75 5:474.79507037513287 6:416.7583016954695 7:726.3581674164899 
-0.75 5:536.5242849155294 6:583.5518931485292 7:83.39629387064362 
-0.75 5:31796.208745121294 6:32482.432667458514 7:32264.181608515715 
-0.75 5:945.7627236520199 6:480.15660275151726 7:125.96293086584812 
-0.75 5:552.4674777281084 6:221.82566388854715 7:346.09005377338514 
-0.75 5:660.2854293630318 6:664.2152901836265 7:155.2939115794784 
-0.75 5:426.75526347812087 6:582.3730211174707 7:116.73302962819791 
-0.75 5:314.6902794931563 6:145.1802065323662 7:490.05511071967805 
-0.75 5:403.5782916993891 6:778.7496052920532 7:585.6447005128924 
-0.75 5:2363.7716633419386 6:1555.3059917639832 7:1174.6368805088907 
-0.75 5:399.9777427371321 6:712.0197448750417 7:647.4893943288371 
-0.75 5:637.6581484685622 6:986.2724299065904 7:324.30373956202357 
